-0.058607
0.027072
0.062418
-0.149656
0.179008
0.001506
0.303644
0.004628
0.109405
0.166051
0.160176
0.018190
0.038941
0.114144
-0.015651
-0.062557
0.014669
0.053350
-0.018206
0.143783
0.083260
0.140993
0.038052
-0.017376
-0.077609
-0.024005
-0.085732
-0.136839
0.044143
-0.063372
0.166166
-0.071654
-0.005032
-0.052574
-0.194485
-0.010728
0.175094
-0.016482
0.160597
-0.008495
-0.022135
0.175926
-0.055914
0.032194
-0.057875
0.121878
0.173670
0.112814
-0.049915
0.042943
-0.033853
0.091144
-0.094542
0.011212
-0.051827
-0.050510
0.074049
0.128183
-0.028855
-0.115661
0.132532
0.044529
-0.072482
0.090935
-0.025152
-0.148359
-0.084668
0.012318
0.037421
-0.070871
0.235777
-0.107220
-0.053785
-0.137123
-0.008394
-0.002588
-0.043892
-0.039454
-0.024947
0.070118
-0.109113
0.015682
-0.064315
-0.250141
-0.062962
0.106492
0.186630
-0.024363
0.093859
-0.004664
0.087617
0.027282
-0.033930
-0.009991
-0.050263
-0.046414
0.095221
0.001983
-0.040983
-0.132199
0.128758
-0.124362
0.069581
0.127124
0.034289
0.010454
-0.012406
-0.082368
0.003540
-0.073309
-0.075400
0.191377
0.003440
-0.039353
0.201303
0.210919
-0.037848
0.066197
-0.063329
-0.016413
