-0.100172
-0.006413
-0.003579
0.229853
0.049881
-0.256369
-0.326872
-0.405581
0.139165
0.007729
-0.102376
0.110299
-0.403345
-0.595740
-0.711241
0.110468
0.160932
0.059615
0.174164
0.197173
0.047855
0.063980
0.188204
0.016623
-0.067625
-0.198073
0.019800
0.025504
0.060462
-0.045712
-0.105586
-0.014280
-0.066274
0.280957
0.379579
0.202102
-0.211266
-0.526387
-0.477169
-0.305803
-0.020061
0.160861
0.097188
-0.089391
-0.134947
0.070613
-0.038109
-0.073747
0.107318
0.118960
-0.022726
-0.445769
-0.518044
0.076469
0.234783
0.017000
-0.164834
-0.400495
-0.653320
-0.544303
0.060121
0.326877
0.279417
0.179457
0.191660
0.192048
0.211184
0.206346
0.245173
0.147225
-0.015146
-0.035216
-0.051631
-0.102336
-0.129620
0.280995
0.085899
-0.014901
0.362251
0.315934
0.120194
-0.465692
-0.491584
-0.340781
-0.355722
0.139070
0.222595
-0.111552
-0.054413
0.015078
-0.074024
-0.072557
0.043759
0.205465
0.092501
-0.061063
-0.073401
-0.112574
-0.150315
-0.066021
-0.135750
-0.170683
0.093986
0.208515
0.162775
0.053892
-0.242615
-0.435132
0.077150
0.068099
0.005144
0.174884
0.234797
-0.212798
-0.307200
0.053525
0.136183
0.203671
0.056897
0.084679
0.159209
0.095860
0.057170
0.099430
-0.018266
0.067788
0.080320
-0.073983
-0.000163
0.094256
-0.026591
-0.164662
-0.429467
-0.082154
0.223822
-0.176869
-0.393839
-0.569804
-0.949766
-0.479470
-0.028773
0.049516
0.136714
0.039396
0.261011
-0.136210
-0.179649
-0.025110
0.028116
-0.075815
-0.037087
-0.028634
-0.283139
-0.084866
-0.108546
0.028871
-0.194934
-0.285746
-0.014733
0.091106
-0.091788
-0.097128
-0.144085
-0.049120
0.136190
-0.022223
0.200459
-0.051221
-0.005055
0.207704
-0.024007
0.030345
-0.029008
0.124541
0.215436
-0.017824
-0.037114
-0.020862
-0.207365
-0.496402
-0.263989
-0.220055
-0.392366
-0.644087
-0.340248
0.021562
-0.467798
-0.689188
-0.466201
0.010913
0.102985
-0.158798
-0.131891
-0.247989
0.130958
0.080414
0.306261
-0.114450
-0.081100
0.196437
0.086039
-0.064893
-0.132153
0.022109
-0.074354
0.013917
0.164367
0.331941
0.135456
-0.162978
0.007278
0.362508
0.339217
-0.032595
-0.137442
0.043473
0.112763
0.005776
-0.103013
-0.028180
-0.233649
-0.020307
0.068245
-0.293503
-0.366121
0.263203
0.142368
-0.120671
0.193945
0.109672
-0.154902
-0.063937
0.018005
0.161697
-0.180715
-0.022649
0.047969
0.120957
-0.131646
-0.421805
0.181904
-0.130822
-0.076257
-0.537976
-0.491012
-0.081976
-0.216954
-0.111406
-0.356375
-0.460526
-0.074115
0.060044
-0.284939
-0.274194
-0.255969
-0.007419
0.098224
-0.142651
-0.185727
-0.082006
0.013847
0.024152
-0.064321
-0.214804
-0.073339
0.078375
0.174405
0.074873
0.022735
-0.125780
-0.042858
-0.026957
-0.046654
-0.001707
-0.037532
0.273252
0.083439
-0.140394
-0.274278
0.016174
-0.088056
-0.309027
-0.298767
0.006873
0.035105
-0.150718
-0.311915
0.130922
0.049505
0.015587
-0.176953
-0.027487
0.190170
0.054813
0.020946
-0.198000
-0.068438
0.250970
0.219605
-0.068649
-0.101251
-0.630019
-0.610248
-0.101098
0.399658
-0.267407
-0.286170
-0.482044
-0.538615
-0.339422
0.075193
-0.054660
0.085742
0.087875
-0.125074
0.164533
-0.005357
-0.013286
0.219088
0.237353
0.179252
-0.018406
-0.022640
-0.013497
-0.262232
-0.176023
-0.209688
-0.367401
-0.028486
0.147204
-0.145330
-0.606279
-0.534575
-0.178610
0.178448
0.049812
-0.067531
-0.215740
-0.175125
-0.524175
-0.039765
-0.229428
0.052618
0.275805
0.291458
0.014362
0.046302
0.135126
0.148730
0.121001
0.162479
-0.102277
-0.227386
-0.543135
-0.165955
0.328561
0.358636
0.120620
-0.186327
-0.447317
0.156546
0.160536
0.108917
0.230183
0.316077
-0.031853
-0.034486
-0.120349
-0.048323
0.083726
-0.281770
-0.508642
-0.623018
-0.290737
-0.223690
-0.203017
-0.101743
-0.212786
0.018379
0.261162
0.137753
0.081712
-0.589340
-0.570158
-0.296377
-0.083335
-0.088136
-0.063753
0.175808
0.072478
-0.048316
-0.128177
-0.418424
0.245036
0.142028
-0.125477
-0.275744
-0.186573
-0.185555
-0.139584
-0.122408
-0.535549
-0.757303
-0.348511
0.327332
0.079650
0.093639
-0.243630
-0.457257
-0.231362
0.148196
0.123409
0.219452
0.076240
0.075785
-0.016605
0.226795
0.210999
-0.038580
0.067027
0.001082
-0.030354
0.031129
-0.081488
-0.345930
-0.128473
-0.152932
-0.383953
-0.185068
0.102555
0.009565
-0.299020
-0.322938
-0.467092
0.118412
0.133387
0.110432
0.118155
-0.164287
-0.433910
0.198900
0.102738
0.284680
0.173555
0.165462
0.203068
0.117060
-0.097833
-0.186059
-0.077223
-0.268805
-0.013255
0.002539
-0.231024
-0.171432
-0.489485
-0.227307
-0.033639
-0.610158
-0.175356
0.157149
0.010203
-0.063731
-0.329978
0.136002
0.102367
-0.007053
-0.017505
-0.157776
-0.244287
-0.122674
-0.030016
0.214748
0.292014
0.216299
-0.346106
-0.177305
0.179612
-0.174863
0.095881
-0.452696
-0.220872
0.159855
-0.112737
-0.271619
-0.123865
-0.466281
-0.188411
-0.350130
-0.769366
0.343812
0.266520
-0.138367
-0.347811
-0.322654
-0.097616
0.070143
-0.106808
0.106489
-0.196482
0.088122
-0.487125
-0.159441
-0.143756
-0.323856
-0.029443
-0.294026
-0.174707
-0.048428
0.065844
0.117917
0.163926
0.018130
0.261640
0.226776
-0.158337
0.006175
0.151083
0.146824
-0.376573
-0.514423
-0.200791
-0.399455
-0.185384
-0.078368
0.352562
-0.088897
0.175531
-0.069590
-0.014782
-0.219942
-0.324417
0.239183
-0.074401
0.175716
-0.198888
-0.258072
0.159998
0.311385
0.031501
-0.094108
0.045302
0.156709
0.030699
-0.577205
-0.235663
0.195061
-0.090067
0.010356
-0.385143
-0.177470
0.055802
0.221975
-0.226095
-0.140732
-0.314470
-0.357145
0.064518
-0.207924
-0.329965
0.271253
0.008550
-0.003841
-0.120795
0.129420
0.104519
0.069074
0.076041
0.074550
-0.137087
-0.177236
0.032863
-0.109118
0.266466
-0.068834
0.082944
0.139923
0.044869
-0.186731
-0.219537
-0.114748
-0.147481
-0.260872
0.119211
-0.334212
0.150852
-0.088479
-0.381318
-0.005081
0.139485
0.170767
-0.086106
-0.247164
0.045460
0.126252
-0.255115
-0.132351
0.080105
0.170273
0.101453
0.075948
0.023847
-0.072776
-0.144908
-0.376652
-0.076275
0.181724
-0.138993
-0.389819
-0.378737
0.271809
-0.166934
-0.252740
-0.065146
-0.026073
-0.173370
0.101590
0.182050
0.026803
-0.178358
-0.284436
-0.174386
0.040025
-0.001044
-0.067332
0.006970
0.221084
-0.046883
0.017284
-0.440381
-0.133512
0.180962
-0.077700
-0.054572
-0.815606
0.063905
-0.024972
-0.100450
-0.267980
-0.313143
0.157154
-0.176758
-0.234587
-0.035792
-0.115907
-0.266053
-0.284472
0.218649
0.107628
-0.253443
-0.147833
-0.029068
0.243958
0.309374
0.148583
-0.158778
-0.048424
0.097871
0.268611
0.321856
0.017695
0.114993
0.060420
0.094066
-0.104165
-0.116098
0.134355
0.026595
-0.112454
-0.203020
0.101279
-0.159990
-0.276666
-0.115076
-0.230548
0.095915
0.001187
0.003577
-0.003675
-0.393550
-0.134902
0.093912
-0.063509
-0.071696
-0.182331
-0.167291
0.060181
0.035168
-0.068779
-0.548306
0.018265
0.179941
-0.163689
-0.251599
-0.332386
0.024427
-0.227489
-0.244924
0.277699
0.061830
-0.019598
0.075384
0.077620
0.199091
-0.063365
-0.152764
0.124221
0.217095
0.283374
0.091696
0.108832
-0.099824
-0.063776
0.195717
0.144746
-0.080565
-0.016284
0.177077
0.122779
-0.043456
-0.236133
-0.198017
-0.141334
-0.048977
-0.052847
0.122503
-0.005169
-0.492136
-0.464007
-0.254802
-0.185909
-0.195676
-0.376440
-0.132980
-0.012946
-0.149697
-0.279833
-0.154872
0.171592
0.285350
-0.213048
0.132686
0.195746
0.164639
0.220241
-0.390238
0.025345
0.087483
0.159371
0.044476
0.123722
-0.063092
-0.149426
-0.162950
-0.133838
-0.440153
-0.089468
-0.230504
-0.282432
0.062330
-0.086766
-0.293280
-0.258584
-0.991006
-0.254275
0.027010
0.040907
0.488664
0.315625
0.143740
-0.202392
-0.220255
-0.128520
0.101018
0.076120
0.068518
0.171896
-0.060938
-0.604735
-0.342675
-0.091361
0.028147
0.045182
-0.596698
-0.270079
-0.118450
-0.493857
-0.152877
-0.914742
-0.184633
0.105309
-0.152843
0.018924
-0.206176
-0.514148
-0.188740
-0.023074
0.234600
0.499663
0.386337
-0.163651
-0.064707
0.273302
0.134171
-0.126355
-0.110807
0.007388
0.070578
-0.328437
-0.244732
0.067502
0.003316
0.017900
-0.109288
-0.059724
0.175689
0.091666
0.113980
0.242441
0.321094
-0.183835
-0.273083
-0.370792
-0.448967
-0.252014
-0.352193
-0.269838
0.373094
0.229443
-0.373654
-0.263479
0.135475
0.218083
0.135190
-0.183402
-0.084538
-0.128139
0.144753
-0.578544
-0.165573
0.214832
0.052165
0.035543
-0.102836
0.029885
-0.077879
-0.480412
-0.309904
-0.028284
0.103397
0.249550
0.107077
-0.026589
-0.077990
-0.103552
0.025066
-0.171039
-0.008407
-0.300838
0.231777
0.062677
-0.109876
0.027775
-0.440881
-0.292361
0.028758
0.075038
0.326540
0.424630
0.029757
-0.050772
-0.203254
-0.282363
-0.140818
-0.102614
0.428814
0.096632
-0.124654
0.075136
0.008899
-0.081155
-0.253529
0.097099
0.202581
0.047742
0.114902
-0.223055
-0.389433
-0.665526
-0.278880
0.011773
0.168801
0.271308
0.085336
-0.174253
-0.065914
-0.043773
-0.041706
0.198430
0.241095
0.150383
0.121979
-0.093851
-0.189454
-0.296671
0.179803
0.096690
0.205007
0.168262
0.029854
-0.179873
-0.234453
-0.082368
0.375176
0.260960
-0.121964
-0.459404
-0.566333
-0.184569
0.075379
0.218905
0.188642
0.123674
-0.089076
-0.138537
0.186421
-0.047637
0.105216
-0.020448
-0.299243
0.201049
0.135488
0.245403
0.069904
-0.205369
0.168629
0.124375
0.182613
0.393144
0.297858
-0.343950
-0.443975
-0.413057
0.079331
0.242971
0.422806
0.123654
-0.112164
-0.435423
-0.462077
0.020495
0.107270
-0.015755
0.174239
0.014466
-0.258191
-0.060235
-0.052151
0.237199
0.117968
-0.621792
-0.775498
-0.816023
-0.485739
-0.293811
0.245699
0.027121
-0.185394
-0.244657
-0.302195
0.419656
0.252416
0.190182
0.198941
-0.008311
0.126051
-0.014761
-0.063637
0.220440
0.070778
0.042443
-0.018927
-0.038832
0.269514
0.157115
-0.899790
-0.951757
-0.145879
0.099564
0.051072
-0.069765
-0.665368
-0.604169
-0.306275
-0.003129
0.240404
0.039833
-0.005040
0.008857
0.036921
0.083980
0.007392
0.020017
-0.046073
-0.180435
0.147754
0.145914
0.174997
0.168872
0.104186
-0.489731
-0.483200
-0.154893
0.229397
0.184719
-0.209151
-0.036190
-0.709874
-0.457373
-0.136209
0.267286
0.290940
0.100958
0.027742
-0.223238
0.142935
0.128700
-0.000706
-0.128373
-0.022517
0.138131
0.072678
-0.000324
0.025694
0.080286
-0.220056
-0.138471
-0.069646
0.206522
0.183548
-0.582929
-1.109262
-0.998646
-0.239884
0.166375
0.252350
0.053359
-0.110298
-0.273560
0.052626
0.009837
0.030226
0.128627
-0.025339
0.134450
-0.123628
0.150662
-0.379054
-0.457545
0.472542
-0.137371
0.290665
0.180164
-0.737757
-0.343428
-0.186110
-0.106706
0.317467
0.204262
-0.135909
-0.088208
-0.459732
-0.308659
-0.141597
-0.179437
-0.092626
-0.054424
-0.277639
-0.240444
0.126990
-0.084009
0.321333
-0.238393
-0.604131
0.487300
-0.252871
0.298967
0.238363
-1.051022
-0.273136
-0.199704
0.099341
0.521507
0.417268
-0.524639
0.030384
-0.335533
-0.099137
0.348726
0.053599
0.099349
0.106342
-0.137832
-0.165281
0.200282
-0.119540
0.105441
0.110848
-0.568074
-0.377874
-0.110556
0.113362
0.399373
0.418962
-0.146779
-0.260767
-0.311094
-0.118190
0.208255
-0.029873
-0.084319
0.029517
-0.067762
-0.028923
0.142468
0.023732
0.054590
0.220951
0.192349
0.023019
0.016623
-0.009411
-0.169914
-0.256491
0.303427
0.043280
0.148057
-0.036349
-0.494151
-0.215029
-0.133839
-0.041161
0.173605
0.179928
-0.474037
0.161406
-0.092541
-0.005512
0.220576
-0.021910
0.010497
0.120773
-0.115262
-0.021029
0.197830
-0.047532
0.312799
-0.135348
-0.643664
0.266890
-0.304716
0.302693
0.429960
-0.154082
-0.656185
-0.216625
-0.142748
0.187336
0.355471
-0.171171
-0.246233
-0.390291
-0.260121
0.034901
-0.014207
-0.133763
0.025416
0.312214
0.352114
0.032561
0.075362
-0.121666
-0.305115
-0.067144
0.303785
0.002379
0.063239
0.034040
-0.581589
-0.709245
-0.051946
-0.034587
0.272909
0.309232
-0.251702
-0.152177
-0.338515
-0.222724
0.169479
-0.123365
0.096391
0.116412
0.244909
0.142473
0.003709
-0.313170
-0.476190
-0.480653
-0.438366
-0.229318
-0.120801
-0.025181
0.188203
0.210978
0.301488
0.298263
0.204318
0.062598
-0.064618
-0.314758
-0.247451
-0.301689
-0.397816
-0.219166
0.168985
-0.002427
0.062010
0.096004
0.187331
0.199318
-0.244244
0.014997
-0.044009
-0.209964
-0.585699
-0.342428
-0.646474
-0.331379
-0.231319
0.085882
0.272068
0.088436
0.219535
0.465351
0.308177
0.215722
-0.084129
-0.084246
-0.327930
-0.383047
0.047661
-0.028341
-0.359006
-0.278218
-0.217738
-0.247012
-0.070807
0.119900
0.199975
0.294574
0.212370
0.246899
0.249886
0.257710
0.050588
-0.324156
-0.530716
-0.711277
-0.610097
-0.300162
-0.074846
0.078275
0.093161
0.196349
0.158032
0.262443
0.469902
0.015626
-0.116709
-0.107502
-0.216219
-0.159455
-0.108054
0.048356
0.029781
0.013048
0.110445
0.314449
0.179713
0.074974
0.019468
-0.123132
-0.332219
-0.375677
-0.318582
0.069188
-0.065554
-0.047173
0.155374
0.165429
0.150971
-0.013534
0.125929
-0.152921
-0.359272
-0.062879
-0.176485
-0.240619
-0.055421
-0.006585
0.004075
0.030763
0.146760
0.236288
0.150286
0.205609
0.074695
-0.131265
-0.007877
0.018123
-0.192991
-0.264172
-0.199509
-0.135436
0.023399
-0.088873
0.107426
0.344156
0.077733
-0.011437
-0.041593
-0.255709
-0.525927
-0.388133
-0.160517
-0.231931
-0.168323
0.052025
0.083407
0.083217
0.247720
0.293662
0.137607
-0.058646
-0.331591
-0.172372
-0.064584
-0.436572
-0.583843
-0.122487
-0.140174
0.048925
-0.166051
-0.121144
0.071469
0.129425
0.141538
-0.088826
-0.189297
0.104541
0.173690
0.201355
0.207168
0.252900
0.145192
0.201168
0.033932
-0.292057
-0.495193
-0.858943
-0.212058
-0.299624
-0.173060
0.287870
0.455152
-0.129698
0.182553
0.019280
-0.096694
-0.091504
0.075853
0.186476
-0.075625
-0.062776
-0.052088
0.066988
0.010051
0.032721
-0.113223
-0.066493
0.266530
0.250668
0.368629
0.221823
-0.052952
0.187447
-0.416859
-0.314884
-0.142461
-0.044890
0.012374
0.098352
0.094876
0.005122
-0.058623
0.080922
0.153893
-0.022822
0.084597
0.110363
0.074290
-0.018949
-0.000106
-0.208633
-0.579718
-0.406351
-0.942939
-0.633496
-0.515400
-0.320932
0.153093
0.242186
0.029191
0.133084
0.242815
-0.153031
-0.003837
0.098504
0.086547
0.086235
0.020331
0.120635
0.063629
0.080811
0.280159
0.119977
0.068355
0.292931
0.174373
-0.116411
-0.326173
-0.736182
-0.707352
-1.027332
-0.527553
0.144808
-0.033028
-0.271533
-0.127082
0.295682
-0.107572
0.001282
-0.059464
-0.004742
0.155184
0.099278
0.072937
0.086674
0.004880
-0.026449
-0.012998
0.155556
0.099680
0.069448
-0.066151
-0.043790
-0.308623
-0.438573
-0.457529
-0.562482
-0.113774
-0.222589
-0.151521
0.126855
0.164154
-0.366412
-0.397660
-0.135666
-0.009684
0.185189
0.065225
0.008882
0.038829
-0.085445
0.174766
0.164736
0.237097
0.301157
0.163323
0.213997
0.165361
0.071872
0.117681
-0.058837
-0.559403
-0.330572
-0.577031
-0.639583
-0.392342
-0.300518
-0.092428
-0.459556
-0.139719
-0.021203
-0.258016
0.071124
0.143029
-0.030677
-0.429567
-0.575131
-0.214606
0.099452
0.315166
0.029216
-0.178195
-0.329554
-0.226088
0.036575
0.188586
-0.069474
0.075138
-0.292019
-0.340813
0.114275
-0.020978
0.044991
-0.048895
-0.082156
-0.113937
-0.453401
0.086076
-0.099050
-0.117984
-0.407186
-0.408799
-0.194342
0.219059
0.413907
0.077839
-0.546831
-0.388721
-0.291607
0.090001
0.386502
-0.204704
0.169760
-0.163014
-0.145538
0.128798
0.049121
-0.087329
-0.163517
-0.086598
0.029675
0.022902
0.132551
0.267171
0.276719
0.116460
0.245237
-0.118023
-0.092983
-0.035866
0.109104
0.058233
0.009660
-0.094392
-0.693415
-0.261991
-0.087083
0.134768
0.058692
-0.141055
-0.204937
-0.224660
0.013538
-0.307128
0.010119
0.297304
-0.002385
-0.007148
0.002257
-0.035307
-0.078908
0.048372
0.010658
0.187541
0.070119
-0.036873
-0.069495
-0.132271
0.054128
-0.275781
0.029666
-0.243070
0.072950
-0.217471
-0.090220
0.153480
-0.020557
0.064531
-0.186256
-0.182679
0.125855
0.030760
0.013392
0.285802
0.075623
-0.116078
-0.120488
-0.299286
-0.024128
0.199469
0.273805
-0.053644
-0.209937
-0.366725
-0.102142
0.101581
0.060180
0.209424
-0.197779
-0.287547
-0.238623
0.228888
0.172880
0.070594
-0.011698
0.029981
-0.167203
0.186524
0.006210
-0.100354
-0.169374
-0.360059
0.120692
0.256334
0.243476
-0.011904
-0.098506
-0.171434
-0.217894
-0.009580
0.027839
0.112731
0.067579
-0.196643
-0.353863
-0.142689
0.240535
0.091778
0.117383
-0.441459
-0.388583
-0.079652
0.045759
0.231809
0.047625
-0.759044
-0.025270
-0.387861
0.058820
0.102278
-0.380328
-0.578547
-0.233559
-0.400751
0.316507
0.190967
-0.556887
0.136860
-0.221646
0.296558
0.467932
0.013725
0.019933
-0.090290
-0.587714
-0.732916
-0.104981
-0.145730
0.185808
0.242936
-0.436349
-0.325452
-0.148312
0.076699
0.470660
-0.047932
-1.284021
-0.024989
-0.413646
0.254329
0.380515
-0.781180
0.366021
-0.458450
-0.010422
0.546540
0.018761
-0.009045
0.365379
0.201044
-0.387046
-0.466636
-0.007876
-0.037461
-0.016964
-0.026203
-0.500627
-0.416263
-0.750124
-0.021795
0.256534
-0.137438
-0.059514
-0.385327
-0.117439
0.333281
0.042216
0.045187
-0.204019
-0.314283
-0.053967
0.196707
0.151138
0.094041
-0.213951
-0.669539
-0.131650
0.081527
-0.067073
-0.184093
-0.220527
-0.210151
-0.330107
-0.190673
0.069675
0.314523
-0.338912
0.062391
-0.438249
0.175071
0.328070
-0.547972
0.132663
-0.418307
0.006323
0.285554
-0.056247
0.061958
0.279914
0.038120
-0.536289
-0.419682
-0.053185
0.267153
0.133914
-0.482725
-0.647130
-0.354444
-0.042375
0.125297
-0.043077
-0.622698
0.022670
-0.492891
0.075798
0.268904
-0.230102
0.134768
-0.171924
-0.079085
0.497923
0.307199
-0.022580
0.235127
-0.174858
-0.359059
-0.402423
0.001817
0.198832
0.230549
-0.370219
-0.326742
0.060089
0.071410
0.177440
-0.097395
-0.454371
-0.003783
-0.499838
0.032274
0.121627
-0.225198
0.305597
-0.224733
-0.145090
0.268234
0.106510
0.092508
0.155448
-0.050840
0.061791
0.256127
0.077792
0.079734
-0.187736
-0.226938
-0.066042
-0.001579
-0.110912
-0.208544
-0.596781
-0.414549
-0.290567
-0.140140
-0.433370
-0.535500
-0.171951
0.180218
0.048045
0.153273
0.196729
0.017245
0.359057
0.164704
-0.159884
-0.174677
0.071113
0.227334
0.202237
-0.103144
-0.168568
0.188897
0.273958
-0.188270
-0.266482
-0.115479
0.193459
-0.075153
-0.279263
-0.021029
0.050185
-0.288303
0.050886
-0.419063
-0.065783
-0.114013
-0.319269
0.018318
-0.123587
-0.234122
-0.349064
-0.134509
-0.057040
-0.591424
-0.576604
-0.632773
-0.275733
-0.266547
-0.616874
-0.609315
-0.545597
-0.067645
0.026210
-0.099122
-0.249319
0.040146
0.405310
0.146377
-0.045729
0.006709
0.301956
0.135688
0.397050
0.308858
-0.076420
0.033562
0.114517
0.434562
-0.090272
-0.338825
-0.526502
-0.389263
0.092647
-0.397957
-0.506638
-0.974821
0.065475
-0.059346
-0.440333
-0.560483
-0.021299
0.497955
0.284315
-0.157894
-0.057770
0.382680
0.017112
-0.116694
0.095147
0.109824
-0.124846
0.000400
-0.167461
-0.004628
-0.271132
-0.503286
-0.175242
-0.214068
-0.259462
-0.382668
-0.915852
-0.195425
-0.102193
-0.520525
-0.648513
-0.195183
-0.169597
0.143468
-0.125433
-0.029969
0.198021
0.117059
0.086710
0.254737
0.075382
-0.050235
0.130640
0.117222
0.061964
-0.118260
-0.316804
-0.170438
-0.061249
-0.260822
-0.595033
-0.553638
-1.051188
-0.348633
-0.178017
-0.464073
-0.181444
-0.245080
0.018533
0.116999
0.004915
-0.123714
0.138904
-0.076753
0.018072
-0.038343
0.042178
0.377527
-0.032755
0.077242
0.152290
-0.262354
0.043400
-0.293461
0.017508
0.339624
-0.240220
-0.013501
-0.121687
0.051336
0.207363
-0.244007
-0.020327
-0.155555
-0.099477
0.096939
-0.063007
-0.042779
-0.073410
0.165718
0.075490
-0.146056
-0.401522
-0.046393
0.195490
0.289884
-0.208390
-0.435783
-0.116543
0.173270
0.409965
-0.193204
-0.563566
-0.062128
0.127644
0.479333
0.027747
-0.461176
-0.088873
-0.032649
0.246153
-0.012599
-0.231027
-0.322839
-0.235266
0.215627
0.200123
-0.178308
-0.311228
-0.105595
0.278896
0.152168
-0.538993
-0.298881
0.128348
0.334806
-0.033612
-0.479187
-0.210872
0.036377
0.113693
-0.157171
-0.160470
-0.052934
0.040673
0.068320
-0.000541
-0.015069
-0.306260
-0.197161
0.041053
0.396995
-0.182344
-0.292728
-0.084306
0.311290
0.236029
-0.749896
-0.335256
-0.011644
0.331920
0.092908
-1.113069
-0.347481
-0.073285
0.288533
0.035430
-0.432472
-0.089835
0.153083
0.223730
-0.005291
-0.073990
-0.334041
-0.149103
0.112701
0.082091
-0.051615
-0.334474
-0.098671
0.193020
-0.067682
-0.224596
-0.304258
0.061799
0.278156
0.000068
-0.321921
-0.127069
0.038696
0.272566
-0.094061
-0.187767
-0.240680
0.043188
0.157087
0.118253
-0.158034
-0.106409
-0.238593
-0.047456
-0.008212
0.333979
-0.211984
-0.141114
-0.011015
-0.008545
0.153779
-0.154704
-0.348860
0.036877
0.144440
-0.192726
-0.228270
-0.228956
0.106990
0.088661
-0.356407
-0.217408
-0.226997
0.095432
0.172326
-0.189241
-0.098597
-0.028286
0.054669
0.166068
0.038205
0.259756
0.266130
0.029612
-0.274677
-0.226521
-0.658974
-0.806730
-0.278804
0.168484
0.248143
-0.416841
-0.341269
0.203727
0.203983
-0.094578
0.105381
0.109150
0.016385
-0.273784
-0.378165
0.254631
-0.039856
-0.098579
0.135613
0.209771
0.127139
0.149459
0.127815
0.319691
-0.036883
-0.017614
0.142382
0.141443
-0.513642
-0.444873
-0.458575
-0.861530
-0.578139
-0.120973
0.173512
-0.096114
0.054540
0.167443
0.302659
-0.064229
0.150123
0.233905
-0.088557
-0.309630
-0.026036
-0.164288
-0.520272
-0.654711
-0.194480
0.219759
-0.556980
-0.698820
-0.045531
0.339328
0.144413
0.207526
0.304160
0.193519
-0.100304
-0.559144
0.005070
0.003973
-0.317835
-0.300649
-0.006242
0.090744
0.281373
0.138071
-0.398530
-0.161599
0.339728
-0.032481
-0.733527
-0.317235
0.290202
-0.846440
-0.832515
-0.035064
0.489708
0.077570
-0.066646
0.245901
0.216648
0.122561
-0.812585
0.046235
-0.057222
-0.251984
-0.504224
0.112727
-0.039965
-0.078729
0.055830
0.044965
0.058369
0.043646
0.157916
-0.129855
-0.063143
-0.004081
-0.725406
-0.661713
-0.313906
-0.105915
0.234280
-0.042219
-0.195900
-0.025528
0.218266
0.102696
0.127589
0.100329
0.024466
-0.108928
-0.378297
-0.081910
-0.051934
0.087702
0.087924
-0.065075
0.014288
0.119502
-0.000123
-0.257899
-0.376204
-0.329182
-0.227244
-0.375292
-0.166742
0.342765
-0.474264
-0.448160
-0.161262
0.141277
0.147775
0.098327
0.021758
-0.085672
-0.116625
-0.443710
0.000667
-0.070424
-0.203141
-0.025564
0.243095
-0.106056
0.140179
0.179938
-0.058553
0.067736
-0.033134
0.032900
-0.199480
-0.310521
0.187635
0.085653
0.011340
0.114368
-0.283253
0.181386
-0.038720
-0.399988
-0.565430
-0.196617
0.022288
0.202521
0.168274
-0.057905
-0.234799
0.211016
-0.048456
0.107001
-0.038137
-0.173139
0.379595
-0.142704
0.170700
0.057039
-0.216050
0.166195
-0.178224
-0.103608
-0.133322
-0.227906
0.255013
0.249753
-0.024021
-0.175226
-0.097313
0.027668
-0.284304
0.020349
0.161438
-0.076354
-0.021773
0.147225
0.291194
0.032298
-0.683803
-0.282511
0.174311
0.104806
-0.632134
-0.798806
0.156403
0.003023
-0.385433
-1.184807
-0.194174
0.102197
-0.044185
-0.195621
-0.076788
-0.083372
0.090172
-0.270083
-0.157963
-0.038000
-0.062988
-0.140833
0.205098
0.208272
0.177128
-0.567957
-0.050151
0.258044
0.407055
0.257925
-0.811838
0.258775
0.185158
0.269304
-0.295587
-0.212996
0.238260
-0.062959
-0.118201
-0.070149
0.087959
0.239815
-0.058606
0.161057
0.017101
0.086191
0.203625
-0.187933
0.169752
0.056181
-0.123643
0.210311
-0.103348
0.099429
-0.091860
-0.370873
0.098909
0.127080
-0.083963
0.035618
-0.181243
0.157307
0.033784
-0.315078
-0.744188
-0.258558
0.080807
-0.164266
-0.229874
-0.063756
0.096365
0.048856
-0.312878
0.088907
0.126192
0.030368
-0.133732
-0.066485
0.228670
0.187254
-0.375196
-0.544110
0.207941
0.167591
-0.093537
-0.727243
-0.075468
0.007466
-0.123356
-0.666349
-0.406264
0.121549
