0.122605
-0.402062
0.044645
-0.438841
-0.303962
-0.203256
0.325573
-0.190443
-0.247750
0.101524
-0.074472
-0.694650
-0.449622
0.231134
-0.096466
0.085336
-0.317846
-0.193007
-0.151543
-0.278940
0.205371
-0.158508
-0.004397
-0.211724
-0.276272
0.079293
-0.102627
-0.083977
-0.246690
0.307830
0.146184
-0.046722
0.257606
0.119211
0.110525
-0.264885
-0.302459
0.209148
0.179765
-0.191545
-0.057042
-0.460380
-0.568199
-0.467505
-0.156894
-0.256835
0.011558
-0.243546
-0.079900
-0.056551
0.009967
-0.066437
-0.522067
-0.114177
0.061579
0.160809
-0.042774
-0.375032
0.205469
-0.113118
-0.113918
-0.026554
-0.158730
-0.476808
-0.079664
-0.310623
-0.430820
-0.010635
0.010965
-0.154098
-0.508606
-0.450173
-0.112939
-0.053819
0.436272
-0.010966
0.160755
0.022435
-0.425716
-0.518699
-0.510627
0.050928
-0.164741
-0.002868
-0.251965
-0.580423
-0.013370
0.384183
-0.230576
0.032795
-0.556047
-0.538830
0.220758
-0.393175
-0.389743
0.240859
-0.257309
-0.452416
-0.124961
-0.142213
-0.334386
0.248886
0.332620
0.151516
0.002115
0.125166
0.223339
0.140761
0.117351
-0.371264
-0.000770
-0.131717
-0.321277
-0.163073
0.057026
-0.334681
-0.013526
0.103472
0.000908
-0.357013
-0.305149
-0.520269
-0.114027
-0.387380
-0.386773
-0.263875
-0.252971
-0.156116
0.181981
-0.025908
-0.030297
0.114024
-0.445535
-0.191877
0.130096
0.090168
-0.260380
0.067323
0.032177
-0.061190
-0.027601
0.262436
-0.279613
-0.112563
0.093483
-0.142212
-0.069778
-0.224235
-0.387490
0.057538
0.004018
0.153058
0.231392
0.336166
0.004689
0.063109
-0.159479
0.196003
0.026175
-0.238069
-0.167467
-0.265592
-0.171727
0.122961
-0.370128
-0.216695
0.059341
-0.275269
0.067401
-0.181978
-0.048534
0.192138
-0.427179
-0.028543
0.101436
-0.032528
-0.214534
-0.133159
0.118562
-0.563813
0.319523
-0.405611
0.015658
0.056938
0.206873
-0.347066
-0.050636
0.247888
0.210798
-0.236774
0.362311
-0.244291
-0.400789
0.129895
-0.069869
-0.184526
0.017655
-0.277835
0.166211
0.276135
0.235390
-0.470770
-0.461995
-0.163481
0.132102
-0.345589
-0.260818
-0.019299
-0.193879
-0.135040
-0.086330
-0.532408
0.105496
-0.194014
0.032687
0.097733
-0.279938
-0.370479
0.215142
0.131082
-0.268751
0.074219
-0.099903
0.083639
0.060098
0.082596
0.074760
-0.263052
-0.042659
-0.026397
-0.061565
0.352933
0.399731
-0.040370
0.121357
-0.313678
0.032444
-0.592501
-0.334023
0.090387
-0.491293
-0.621895
-0.232519
-0.415352
0.171820
0.053775
0.141341
0.190315
0.042304
0.209264
-0.229044
0.020854
0.024857
-0.463766
0.072528
-0.432339
-0.293855
-0.521074
-0.407782
-0.002039
0.259956
0.001581
-0.077755
0.200314
-0.349035
-0.557453
-0.070422
-0.190726
-0.325727
-0.615788
-0.604128
-0.212171
-0.208667
0.077597
-0.333294
-0.712794
-0.639954
0.160111
0.035806
0.053983
-0.273858
-0.017463
-0.376073
0.011938
-0.008426
-0.212039
0.179011
0.176540
0.222526
0.076613
-0.415102
-0.070561
-0.165627
-0.071925
-0.740017
-0.283391
-0.003509
0.088684
0.174106
-0.339240
-0.394387
0.148154
-0.122307
0.038286
0.082075
0.168750
-0.097073
-0.155936
-0.141622
-0.685359
0.162101
-0.054494
0.009190
0.186051
-0.033407
-0.090863
-0.349208
-0.093448
0.035647
-0.017042
-0.006235
-0.585491
0.086579
0.109499
0.246377
-0.005877
-0.725775
-0.245905
-0.199672
-0.296846
0.041354
0.263730
0.140449
-0.254548
-0.570962
-0.288202
-0.407527
0.152268
-0.025556
0.108384
0.049716
-0.216831
-0.109492
0.383485
-0.170723
0.173371
0.167791
0.004101
-0.600757
-0.072873
0.150519
0.071448
0.210022
0.114879
0.114885
-0.279728
-0.335598
0.028809
0.193525
-0.591962
-0.170610
0.010640
-0.055532
-0.086553
0.111696
0.331156
-0.070077
0.005707
-0.254816
0.059801
0.043622
-0.021927
-0.564530
-0.236390
0.071170
-0.374965
-0.003310
-0.513044
0.135206
0.001853
-0.103199
0.122365
-0.752455
0.035453
0.136304
-0.357925
-0.314507
-0.328725
0.162737
-0.519205
0.001646
0.021824
0.068271
0.208032
-0.466397
-0.481098
-0.164367
-0.535518
-0.059060
0.100472
-0.020594
0.076374
-0.185142
-0.517698
-0.351022
0.156215
0.059264
0.108347
0.086209
-0.099115
-0.712977
-0.137291
0.035219
-0.271732
-0.058669
0.107117
-0.035350
0.187974
0.240149
-0.315452
0.046668
0.288302
-0.019969
-0.561451
0.164949
0.203667
-0.434862
0.364482
-0.271779
-0.192253
-0.308450
0.027860
-0.539465
0.209466
-0.325011
0.189640
-0.384281
-0.136154
-0.814478
0.142568
-0.120877
0.119449
0.399941
0.182716
0.041659
0.161056
0.059723
-0.150042
0.004903
-0.107341
-0.015738
0.129486
-0.309871
0.106509
-0.388379
0.025482
-0.395255
0.066898
0.012663
0.043346
-0.325388
-0.348821
-0.255301
-0.428611
0.139744
-0.067190
-0.336232
0.051723
-0.248491
0.168188
0.103714
-0.298989
-0.129582
0.161762
-0.030823
-0.196827
-0.653488
-0.887294
0.071580
-0.166689
-0.005356
0.159180
-0.068257
0.109203
0.054136
0.091881
-0.055108
0.066815
0.117210
-0.107639
0.230392
-0.416087
0.026137
-0.027641
-0.138961
-0.099266
-0.299734
0.166017
-0.172797
-0.481460
0.166614
-0.011380
-0.286197
-0.050219
0.016427
0.130349
0.036265
0.168997
0.105923
0.042982
-0.159321
0.090642
-0.315277
-0.279763
0.059295
-0.571965
-0.199199
0.136263
-0.495818
0.063594
-0.281700
-0.152356
-0.118970
0.027618
-0.067093
0.036545
-0.164005
-0.187517
0.258936
0.207761
0.089512
-0.566144
0.180022
-0.303615
0.201441
-0.005417
-0.248288
0.241984
0.022214
-0.534398
0.069772
0.076885
0.170864
-0.509604
-0.106895
0.109210
-0.180130
0.181531
-0.420486
0.104577
-0.697818
0.067838
0.178572
0.153425
-0.364948
-0.141664
-0.335416
-0.250340
0.064008
0.130253
-0.757184
-0.085769
0.114328
0.116376
-0.018672
-0.516212
-0.308894
-0.505095
-0.270806
0.030413
-0.159306
-0.265778
-0.106850
-0.508300
-0.186211
0.145579
-0.286274
-0.300043
-0.319962
-0.364538
0.233227
-0.075817
0.025636
-0.247062
-0.050496
0.068841
-0.224775
-0.042420
0.074965
-0.052919
-0.069071
-0.146070
-0.339240
0.181018
-0.324837
-0.000040
0.001902
0.222981
-0.367512
-0.314530
-0.182466
0.203679
-0.417603
-0.120972
-0.076524
-0.276234
-0.467299
0.313662
0.175880
-0.063859
-0.458861
-0.267444
-0.029006
0.141944
0.057552
0.039641
-0.075103
-0.176348
-0.547139
-0.045686
-0.226084
0.025536
-0.405109
0.125552
0.212047
-0.034990
-0.228947
0.012195
0.201784
0.215437
0.129862
0.312401
0.032000
-0.103388
0.079499
0.020693
0.184397
-0.545909
0.070441
-0.229518
-0.248964
-0.560286
-0.008774
-0.355962
0.079031
0.325300
-0.329800
-0.217995
-0.100658
-0.066448
-0.142631
0.032932
0.178553
-0.533435
0.149848
0.161607
0.096552
-0.281447
-0.583688
-0.030726
0.126622
0.053060
-0.699001
0.236884
-0.159390
-0.224978
0.119763
0.178844
-0.057759
-0.785574
0.097638
-0.084779
0.132265
-0.406889
-0.073667
-0.449161
0.285125
-0.043114
-0.148599
-0.130323
-0.319126
-0.257579
-0.518683
-0.533683
0.035457
-0.014445
0.217784
-0.171106
0.237136
0.352782
-0.310779
-0.311494
0.078496
0.055721
-0.481263
0.129175
0.250982
-0.416113
-0.005066
-0.658411
-0.120415
-0.601501
0.247426
-0.514925
-0.107651
-0.292132
-0.404263
0.049630
0.159244
0.103614
-0.090308
-0.600536
-0.421481
0.139495
-0.386453
-0.435195
-0.458721
0.164744
0.100855
0.058911
-0.306616
0.050724
-0.232463
-0.103480
0.057754
0.181444
0.032795
0.104440
0.220866
-0.498322
0.075676
-0.340825
-0.001074
0.126672
-0.022333
-0.158931
-0.556824
0.143573
-0.454704
0.031564
-0.346046
-0.166697
-0.038669
0.072116
0.050499
0.046883
-0.478421
0.009511
-0.446079
-0.407992
0.114981
-0.362589
0.152544
-0.310578
-0.355889
-0.006931
-0.274657
0.153585
-0.019595
-0.447171
0.104400
-0.478003
0.173834
-0.572476
-0.197440
0.067015
0.316206
0.136961
-0.607083
-0.269491
0.118042
0.035534
0.119109
0.006905
0.078240
-0.738766
-0.280303
-0.583744
-0.498707
-0.135483
-0.615487
-0.244338
-0.105063
0.371897
-0.608399
-0.277956
-0.368574
-0.209912
0.149865
-0.057379
0.134106
0.063980
-0.272285
-0.033667
0.306523
-0.206446
-0.003656
-0.252359
0.207474
0.200965
-0.049179
0.087109
-0.040670
0.116355
-0.320915
0.024648
0.019677
-0.362596
-0.022363
-0.105921
0.035513
-0.238203
0.075080
-0.050154
-0.103376
0.004137
0.014478
-0.067559
-0.017542
0.030675
0.212194
-0.206687
-0.480595
-0.012608
-0.529054
0.272619
-0.193816
0.052950
-0.079673
0.023290
0.091512
-0.087712
0.211047
0.235974
-0.211986
-0.247765
0.145509
0.239810
0.124614
-0.072043
