-0.097277
-0.402403
-0.541564
-0.372260
-0.364895
0.151815
-0.180724
-0.415488
-0.391469
-0.191341
0.369933
0.323230
0.143636
-0.256818
-0.093791
0.721322
0.617143
0.456683
0.126086
0.069116
0.453761
0.571332
0.231464
0.324759
0.102078
-0.023575
-0.139482
-0.089305
0.074536
0.176961
0.131402
0.274054
0.250910
0.358055
0.000712
0.065745
0.539898
0.615833
0.318153
-0.397083
0.108162
0.554107
0.357906
-0.513263
-0.707325
0.023958
0.101032
-0.156913
-0.521817
-0.520603
0.383876
0.304132
0.421089
0.457742
0.249619
0.239570
0.371687
0.378972
0.231236
0.365942
-0.062098
-0.303039
-0.291157
-0.141818
0.131233
-0.251651
-0.552667
-0.948900
-0.529005
-0.126083
-0.226260
-0.158186
-0.139940
-0.030813
0.055206
-0.308917
-0.090427
-0.190118
-0.218661
-0.213366
-0.460045
-0.585921
-0.113960
0.189512
-0.163177
-0.683794
-0.361710
0.204590
0.423384
0.312701
-0.259905
0.027511
0.497659
0.595765
0.313207
-0.014931
0.411808
0.455392
0.365961
-0.064911
-0.150811
0.213712
0.110692
-0.092530
0.020024
-0.054806
0.253229
0.277436
0.098606
0.067047
-0.394228
-0.030938
0.176887
0.326977
0.144734
-0.219398
-0.008118
0.163060
0.130312
0.073513
-0.079535
0.069937
-0.290495
-0.032506
0.065408
-0.195962
-0.296090
-0.000572
0.111503
-0.228890
-0.069058
-0.105189
-0.059920
0.101117
0.012921
0.113721
0.453094
0.191411
0.279627
-0.093892
0.210645
0.168901
0.145547
0.038575
-0.084470
-0.141776
-0.062744
0.182726
0.030509
-0.222758
