-0.096944
-0.001134
-0.176138
-0.080253
-0.032558
-0.144220
-0.558504
0.125692
0.186440
-0.054879
-0.041628
-0.157066
0.197928
0.009118
-0.178111
-0.248932
0.154139
-0.049683
0.131255
0.029514
0.286745
0.231968
-0.088971
-0.177438
0.120170
0.081063
0.021839
-0.296635
0.039295
-0.211785
0.014312
-0.081560
-0.413985
-0.290379
0.098607
-0.012825
-0.298978
-0.287685
-0.497124
-0.089557
0.078916
0.153937
-0.260595
-0.099916
0.218885
0.295343
-0.106472
-0.010176
-0.119058
0.076378
0.323588
-0.255627
0.033495
-0.114490
0.131620
-0.102774
-0.044485
0.046866
0.014591
-0.269282
-0.169580
0.044345
-0.194266
-0.044026
0.048812
-0.023562
-0.315082
-0.559763
-0.116728
-0.155406
0.134155
-0.034962
-0.266961
-0.162887
0.144833
0.090312
-0.013040
-0.548127
0.019139
0.011380
-0.036793
0.108300
-0.129495
-0.019978
-0.044292
-0.119837
-0.240833
-0.333659
0.116239
-0.306140
0.055806
-0.185845
0.070126
-0.150462
-0.112083
-0.374803
0.000696
0.107552
0.233669
0.042114
-0.083859
-0.088551
0.015517
0.309471
-0.167747
0.078093
0.093580
-0.034338
0.030511
-0.133522
0.037982
0.088452
-0.047383
0.160082
-0.232294
-0.094951
0.098089
-0.081220
-0.108961
0.006058
-0.286028
0.072349
-0.029120
-0.210522
0.116058
0.397248
-0.115564
-0.093431
0.062102
0.089580
0.195555
-0.460193
-0.023263
-0.582796
-0.297815
0.136003
-0.045424
-0.678835
-0.226270
-0.054787
-0.108782
-0.304634
-0.364469
-0.175380
-0.146134
0.125788
0.137875
0.216334
-0.021498
-0.143494
0.214253
-0.246707
0.058939
-0.582618
-0.084874
0.059368
-0.088468
0.025915
-0.150686
0.286106
-0.161472
0.006711
0.016866
-0.178125
0.144422
-0.235361
-0.013642
-0.266142
-0.027487
-0.137805
-0.420303
-0.013183
-0.117023
-0.072188
-0.396136
-0.236230
-0.053463
-0.044021
-0.127391
0.207909
0.020489
-0.009721
-0.125197
0.185107
-0.041889
0.042302
0.092895
-0.334734
-0.159156
0.007098
-0.472504
0.088923
0.255300
0.019722
0.008404
0.094654
0.133538
0.137849
-0.074454
-0.083802
-0.198319
0.117618
-0.330122
-0.099855
-0.333860
0.115308
-0.330478
-0.180764
0.029611
-0.111479
-0.280787
-0.028732
-0.059884
-0.393693
-0.183941
-0.269428
-0.036121
-0.332131
-0.359504
0.018311
0.043496
0.079213
0.112227
0.055448
-0.280990
0.064500
0.123176
0.089944
0.099944
0.114542
0.142167
-0.051016
-0.077777
0.024299
-0.232797
-0.084558
0.223005
0.011835
0.151023
-0.057122
-0.293248
-0.085996
0.169080
-0.492624
0.070093
0.079562
-0.093816
-0.080710
0.114692
0.294159
-0.027799
0.006379
-0.206669
-0.042226
-0.215656
0.041668
-0.144583
0.214501
0.207950
0.065340
-0.082179
-0.243121
-0.130756
-0.072180
-0.094322
-0.115786
-0.698566
-0.093950
0.015586
-0.066226
0.177924
-0.337769
-0.189465
-0.342739
0.165247
-0.078565
-0.364938
-0.143647
0.065235
-0.375462
0.223509
-0.105797
-0.074881
0.032897
0.013103
-0.230979
-0.441855
0.125858
0.114020
0.125624
-0.130765
0.206851
0.095817
-0.131651
-0.362210
0.009737
-0.320623
-0.228064
-0.231402
-0.097959
-0.180511
0.123604
-0.282798
0.173232
0.200991
-0.166044
-0.032961
-0.082394
0.188954
0.144957
-0.054854
0.082723
0.095503
0.199404
0.059992
-0.042202
0.082928
-0.402714
-0.468949
-0.218107
-0.056064
-0.341448
-0.106491
0.020502
-0.004407
-0.011726
-0.214136
-0.502922
-0.115944
0.110918
0.109593
0.121466
-0.388903
-0.018164
-0.033520
-0.115995
-0.105831
-0.009958
0.024640
-0.528189
0.158879
0.096904
0.165850
-0.015255
-0.300635
-0.174666
-0.368338
-0.004236
0.245497
-0.043541
0.070677
0.083826
-0.369440
0.032992
-0.341003
0.117838
0.017738
0.099302
0.021288
0.180580
0.158061
-0.052441
-0.017871
0.197073
0.125389
-0.300262
0.036299
-0.044320
0.144074
0.024519
0.121079
0.136594
-0.175461
0.081860
0.081797
-0.584794
-0.403519
-0.224350
0.039652
-0.119570
0.050849
-0.389120
0.088268
0.033434
0.126932
-0.186831
-0.186292
-0.130261
-0.453025
0.066570
0.017981
0.060493
-0.327536
-0.291614
-0.396618
-0.028415
-0.058387
-0.188693
-0.090257
-0.401625
0.010142
0.122992
0.161015
0.211373
0.016144
0.229070
-0.060849
-0.252744
0.153333
0.119488
-0.164434
-0.243969
-0.081304
0.002523
0.177253
-0.097947
0.100363
-0.174187
0.058035
-0.017027
-0.185708
-0.114544
0.001178
0.181028
0.269755
-0.038704
-0.202171
0.077973
0.014352
-0.229549
-0.153520
-0.373803
-0.104018
-0.394815
-0.115389
0.032664
-0.088348
-0.028711
-0.054431
-0.090925
-0.227198
-0.250109
0.039219
-0.259451
-0.070031
-0.035949
-0.040459
-0.155067
-0.175704
-0.053450
-0.154452
-0.150066
-0.230570
-0.381620
0.001306
0.042793
0.218130
0.062693
-0.182494
-0.171026
0.058322
0.219210
-0.015008
0.031567
-0.086661
0.158017
-0.080803
-0.027680
-0.103398
0.128951
-0.494914
-0.220358
0.048622
-0.145106
-0.034774
-0.020722
0.146256
-0.215669
-0.022944
-0.000918
-0.128391
-0.186147
-0.204328
0.204767
-0.069832
0.118698
-0.003603
-0.328281
-0.078499
-0.023635
0.041772
-0.062980
0.043831
0.213586
0.169817
-0.027278
-0.114537
-0.032169
0.207297
-0.205550
-0.524396
-0.045653
0.038661
0.348881
0.094163
-0.132256
0.177569
0.090750
0.025713
0.137565
-0.624436
-0.227312
-0.030386
-0.044347
-0.201348
-0.477648
-0.184971
-0.273153
0.153970
-0.325443
0.129545
-0.311501
-0.375423
-0.038415
-0.107844
0.159968
-0.180708
0.212403
0.107058
-0.039374
-0.030133
-0.057715
-0.193455
0.053980
-0.119390
-0.054109
-0.122765
-0.078163
0.128848
-0.092827
-0.237925
0.015005
-0.393305
-0.082043
0.053306
-0.168476
0.136271
0.026371
-0.414371
0.150998
0.090826
0.026089
-0.033005
0.162042
-0.051698
-0.307385
-0.003527
-0.070127
0.169435
-0.052390
-0.197076
0.040179
-0.190937
-0.154782
-0.468008
0.219074
0.004913
0.188951
-0.074315
0.180691
-0.230249
-0.099137
-0.138391
-0.172053
0.173082
0.110266
-0.352726
0.138879
0.047911
0.042881
-0.076023
-0.382200
0.025442
0.103389
-0.192188
0.004486
0.076826
-0.055964
-0.312523
0.100872
0.163426
-0.276276
0.137215
0.025181
0.126868
-0.051037
-0.167510
0.393112
0.067704
0.199534
-0.185845
-0.030851
0.200589
-0.168279
-0.273883
0.143341
0.115863
-0.443992
0.290109
-0.064229
-0.216300
-0.075737
0.064194
-0.054896
0.039729
0.119767
0.038637
0.024933
0.081042
-0.114353
0.228402
-0.082454
-0.053495
-0.199718
-0.142769
-0.285761
0.092348
-0.033339
0.005838
0.078443
-0.349127
-0.057670
0.141528
0.164328
-0.235131
-0.129227
-0.137130
-0.147216
-0.158301
0.133478
-0.033280
0.002727
-0.248660
0.056204
-0.162428
-0.089004
-0.281062
-0.140025
0.175218
0.013938
0.081560
-0.223047
-0.091557
0.124050
-0.003558
0.022431
0.144263
-0.277808
-0.302773
-0.119349
0.074918
0.009655
-0.008806
0.147269
0.000644
0.012388
-0.352754
-0.149710
-0.009310
-0.340859
0.069799
0.149812
0.076584
-0.047300
-0.249271
0.141795
-0.095682
-0.324775
-0.366227
0.257220
0.209156
-0.229848
-0.031296
0.136129
0.034376
0.240065
-0.393991
0.066613
0.002713
-0.355815
-0.246181
0.020483
-0.048294
-0.174771
0.161422
-0.273451
-0.039869
0.002857
0.005251
0.061213
-0.134821
0.069936
-0.067795
0.000423
-0.028586
-0.169079
0.062696
-0.357414
0.155063
0.032916
0.243656
-0.073689
0.182026
-0.554833
0.216223
-0.025772
0.100126
-0.049482
0.035311
-0.001504
-0.061957
-0.007085
-0.093359
0.072490
-0.036033
-0.079114
0.113087
0.080242
-0.211868
0.247986
-0.189509
-0.404412
-0.054793
-0.240406
0.160345
-0.077672
-0.047568
0.045608
-0.138025
0.139938
-0.669056
-0.281332
0.091446
0.126085
-0.033520
0.183031
0.101049
-0.171191
-0.031047
0.028255
-0.085380
-0.406811
-0.341290
-0.091561
-0.020495
-0.659628
-0.078648
0.120003
0.113995
0.079819
-0.187470
-0.302636
0.205180
-0.041228
0.141603
-0.052808
0.270218
-0.011104
0.187008
-0.091116
-0.102303
0.171205
0.124939
-0.075590
0.081598
-0.022911
-0.220828
-0.112329
-0.045879
-0.299511
-0.090225
-0.030003
0.013026
-0.123545
-0.223560
-0.278323
0.003129
-0.112295
-0.086974
-0.006919
0.083389
0.142526
0.050227
-0.133704
-0.037274
-0.340189
-0.359218
-0.324863
0.147525
0.000437
0.034125
-0.295850
0.073773
0.144719
0.024185
-0.220660
0.067948
-0.056275
-0.158449
0.058929
0.065636
-0.063701
0.165748
-0.156266
-0.156644
0.040568
0.118537
-0.288106
-0.475626
-0.189187
-0.047866
0.030691
0.233569
0.113349
-0.144924
0.171958
-0.360902
0.116710
0.085148
-0.209086
-0.305357
0.298729
-0.058587
-0.014784
-0.232856
-0.036466
0.190015
-0.142528
-0.075618
0.281799
