-0.008000
-0.015797
-0.138891
-0.033698
0.121456
0.127636
0.003242
0.223054
0.128039
0.016249
0.248795
-0.400100
0.000499
0.168077
0.111745
0.169907
-0.290851
0.016425
0.102009
-0.152040
-0.277479
-0.324052
-0.305180
0.102719
0.287057
-0.186691
0.183772
-0.020703
-0.067628
0.195389
-0.312369
0.159300
0.015830
-0.163395
-0.080643
0.068613
0.080052
0.353816
0.028195
0.043505
-0.345221
-0.010290
0.128850
0.034286
-0.143315
-0.138942
-0.119735
-0.224627
-0.353221
-0.155804
-0.002154
0.090779
-0.089750
0.180516
0.162699
-0.068945
-0.323102
-0.088116
-0.137756
0.057513
0.003134
-0.150863
-0.338550
0.227614
-0.039396
0.184769
-0.317333
-0.077153
-0.267343
0.034711
-0.152994
-0.172495
-0.037216
0.231438
-0.118232
0.297032
0.055899
0.064035
0.039103
-0.073720
0.082297
-0.021223
0.243299
0.107413
0.394527
0.223059
-0.122760
-0.009636
-0.007665
-0.008328
0.010067
-0.223461
0.121584
-0.161057
-0.300090
-0.197703
-0.321223
0.095609
0.288484
0.384434
0.287305
-0.119094
0.235404
0.043157
0.287842
-0.212965
-0.096912
-0.081545
0.029294
-0.071456
-0.013825
-0.191733
0.060558
-0.015482
-0.095426
-0.259330
-0.003970
0.165902
0.124150
-0.430362
-0.084635
-0.104648
-0.116628
-0.091511
-0.210990
0.001595
-0.210161
0.028346
0.435424
0.070441
0.550820
0.181145
0.036195
0.148780
-0.076984
-0.044255
-0.150548
0.262622
0.064596
-0.031009
-0.158659
0.121097
-0.087135
-0.248053
-0.007636
-0.268838
-0.009311
0.153893
-0.160371
0.196094
0.094138
-0.222350
0.229625
0.221049
0.326147
0.096973
-0.622642
-0.500469
0.167467
0.501406
0.022099
0.079820
-0.105175
-0.298980
0.344020
0.235931
-0.108624
-0.298063
0.081552
0.151493
0.067716
0.267058
0.047287
-0.422203
-0.163506
0.186644
-0.478217
-0.197837
0.042284
0.087581
0.322359
0.323801
0.218098
-0.219087
-0.001120
0.195986
-0.024389
0.107067
0.084155
-0.014515
-0.026144
0.229849
0.118899
-0.177758
0.280227
-0.127772
-0.170386
0.191230
0.273500
-0.256503
-0.222566
-0.054080
0.230380
0.036749
0.198855
0.280221
-0.154398
-0.127845
0.266759
0.396781
0.227270
0.103344
0.111130
0.124985
0.150708
-0.129007
-0.301056
-0.137008
0.019622
-0.008487
-0.126897
-0.227017
0.013281
0.042864
-0.239267
-0.016398
0.371300
0.320690
0.429602
0.210203
0.019689
-0.477456
-0.132594
0.008357
0.387175
0.170401
0.071647
-0.055370
0.074461
0.081837
-0.019716
-0.222826
-0.654362
-0.089880
0.002047
-0.172669
-0.119841
-0.046784
-0.165981
-0.227870
0.112393
-0.201463
-0.035014
0.105679
0.085084
0.362714
-0.073065
-0.544762
0.157142
0.428966
0.174722
-0.045108
0.146798
0.153308
0.005784
0.237975
0.035643
-0.138058
-0.180575
-0.004438
-0.076578
-0.079039
0.110844
-0.092183
-0.383440
0.124432
-0.540816
-0.105512
0.192598
0.142073
0.043775
0.157032
-0.053966
0.032156
0.001722
-0.170742
-0.331328
0.241842
-0.010100
-0.274461
0.099104
-0.093535
0.258507
-0.015003
0.179596
-0.378417
-0.014836
0.097087
0.005588
0.170147
0.133360
0.214496
0.053238
0.070373
0.399446
0.070626
-0.274112
-0.366071
-0.358281
-0.191872
-0.007353
-0.261934
-0.038215
-0.206598
0.206780
0.128204
-0.066417
-0.227698
-0.092791
0.021641
-0.437749
-0.248657
-0.503003
0.092726
0.081439
0.475995
-0.115533
-0.179903
0.161267
-0.098769
0.117217
-0.059153
-0.096809
-0.125366
-0.290913
-0.238414
-0.133273
0.203748
-0.250526
-0.151523
-0.255839
-0.139660
0.240397
-0.055587
-0.047508
-0.132890
-0.043933
0.195437
-0.004815
0.254315
0.035596
0.151809
0.197026
0.309024
0.006937
-0.015924
0.016214
-0.226708
-0.016172
0.262354
0.270334
0.121277
-0.170945
-0.078000
0.099843
0.057208
0.120191
-0.075666
-0.064791
-0.172019
0.078728
-0.248512
-0.356779
-0.460569
-0.298984
0.082215
0.148121
-0.221153
0.156293
0.238945
0.019464
-0.335528
-0.121690
-0.169418
0.158361
-0.046464
-0.433750
-0.290822
0.358176
0.185447
-0.246952
-0.001592
-0.002727
-0.056694
0.100801
-0.272107
-0.003326
-0.129991
0.003881
-0.086438
-0.256911
-0.033790
-0.085604
0.021815
0.056838
0.163377
0.291346
0.100691
-0.134361
0.146267
-0.024338
0.142860
-0.032872
0.081564
-0.122132
-0.796139
0.024616
0.194674
0.169284
0.046683
-0.283014
-0.015367
0.236559
-0.102188
0.072735
0.042821
-0.264975
0.058032
-0.029666
-0.030215
-0.088969
-0.058265
-0.127512
-0.020621
0.227883
-0.040487
-0.105969
-0.105845
0.056428
0.041352
0.182378
0.015541
0.048766
-0.101412
0.164086
-0.017839
0.077977
0.202397
-0.103228
0.127209
-0.534941
-0.239247
-0.121915
-0.064860
-0.025684
-0.423678
0.161073
0.122264
0.013866
0.067960
-0.456146
0.374902
0.220640
-0.065837
-0.173480
-0.304704
0.256166
-0.091058
0.003818
0.003702
-0.224496
0.102559
0.109188
0.100089
0.182757
-0.245304
0.112807
-0.012186
-0.038874
0.099551
-0.040756
-0.055312
-0.227742
0.081914
-0.048684
0.159248
-0.057149
-0.146309
0.102158
-0.231332
-0.224701
0.418925
0.056599
0.175940
-0.115448
-0.122826
-0.000469
-0.126521
0.047086
0.000438
-0.147194
-0.172462
0.411607
0.114876
0.024099
-0.298787
0.089221
-0.110412
-0.038336
0.061318
-0.007845
-0.019830
-0.330905
0.086624
-0.293306
-0.065480
-0.050424
-0.396235
-0.057157
0.115561
-0.120920
0.098203
-0.113931
-0.068484
-0.043426
-0.312939
-0.150434
-0.014885
-0.211921
-0.133470
-0.006506
0.122873
0.017760
-0.107346
-0.133436
0.136934
0.069653
-0.048164
0.040024
-0.270348
0.414177
0.025707
0.112832
-0.133945
0.091627
0.121069
-0.279013
-0.142197
0.232679
0.026526
-0.115105
-0.065752
0.111519
0.192444
-0.120254
-0.600477
-0.336142
-0.011440
-0.147695
-0.231217
-1.027709
-0.851600
-0.076734
0.200258
-0.057407
-0.012640
-0.362752
0.275046
0.047514
0.140067
0.131260
0.280806
0.127468
0.342788
0.026773
-0.341599
-0.235351
0.174645
0.267083
0.405715
0.026866
-0.324574
0.089346
0.126040
0.356019
-0.397152
-0.006658
-0.072687
-0.090700
-0.062861
0.020457
0.087798
0.172532
0.038766
-0.005810
0.315667
0.110381
-0.169758
-0.025025
0.205544
-0.199083
-0.097253
-0.074571
-0.320615
-0.200038
0.026151
-0.028078
-0.286951
-0.182218
-0.357147
-0.494944
0.025260
0.037805
-0.202437
-0.112239
0.229250
0.211407
0.050734
0.007733
0.276893
0.186604
0.235893
0.023786
0.135542
0.194953
0.153460
-0.038733
-0.202676
-0.025820
-0.215224
-0.341503
-0.308677
-0.139405
0.020453
-0.165112
-1.196803
-0.083541
-0.079929
0.180738
0.274647
-0.458284
-0.000235
0.426882
0.066243
-0.023015
0.087037
0.115279
-0.011533
0.056370
0.193280
-0.359542
-0.263957
0.058275
0.223206
0.135363
-0.500434
-0.048128
0.326866
-0.124959
-0.331203
-0.357420
-0.207481
-0.072039
0.051112
-0.222972
0.258153
0.088838
0.164852
0.101353
-0.025281
-0.046307
-0.025026
0.039211
0.075264
0.203608
-0.352528
-0.552696
0.000254
0.089194
0.360670
-0.439852
-0.655158
0.201091
0.364510
0.431415
-0.114602
-0.593304
0.177018
-0.037367
0.237548
0.035615
0.067658
0.084242
0.153483
-0.009833
0.083325
-0.119333
0.019585
0.079517
0.109411
0.323329
0.147778
0.186405
0.000637
-0.173479
0.275935
-0.239754
-0.261088
-0.064921
-0.063325
0.015087
-0.117922
0.084395
-0.009023
-0.039604
-0.250400
-0.156552
0.032714
0.093396
0.383668
-0.752584
-0.631714
-0.200681
0.058386
-0.081259
0.149478
-0.365965
-0.334622
-0.045835
0.250120
0.031591
0.099960
-0.193464
0.232222
0.077357
0.184438
0.129509
-0.269393
0.091728
-0.053437
0.404409
0.025591
-0.215773
-0.060121
0.257028
0.086116
0.048794
-0.438455
-0.343428
0.077479
-0.075297
0.315565
0.463738
-0.235486
0.014032
0.072451
0.364026
0.185844
-0.070235
-0.444446
0.267991
0.041168
0.293760
-0.057960
0.360288
0.098698
-0.158516
0.201439
-0.008514
0.194112
-0.052468
-0.193384
0.024837
-0.036075
-0.025058
0.379317
-0.061372
-0.181170
-0.011893
-0.082811
0.039757
-0.237803
0.292548
0.093526
-0.132378
0.009997
-0.390776
-0.016429
0.236403
0.211229
-0.082288
-0.660968
-0.233523
0.105875
-0.151696
0.002754
-0.152553
0.224725
-0.052766
-0.029418
-0.171634
0.049405
0.052660
0.038279
0.158166
-0.272586
0.341173
0.067152
0.314957
-0.016014
-0.028948
-0.131484
-0.810045
-0.326612
-0.067046
0.118672
-0.051525
-0.122731
-0.329858
-0.911741
-0.058295
-0.156164
0.108870
-0.228010
-0.229895
-0.187566
0.057473
-0.041383
0.156599
0.199341
-0.093708
-0.067885
0.047660
-0.092702
0.009925
0.069196
0.104112
-0.473744
-0.834878
0.002047
0.417403
0.106392
0.034640
0.076861
-0.286745
0.412199
0.305901
0.212665
0.282508
-0.176854
-0.406714
-0.118083
0.150575
0.140957
0.170645
-0.341041
0.076548
0.251274
-0.255513
0.029974
-0.127401
0.053473
-0.211768
0.034646
0.094086
-0.172956
0.056119
-0.250400
-0.545358
-0.113009
0.136215
0.020927
-0.056280
0.022304
-0.451704
-0.525296
-0.091154
0.035648
0.334848
0.086992
-0.353148
0.320531
-0.184835
0.187521
-0.051260
-0.039710
-0.025185
-0.170366
-0.091610
-0.013940
0.696698
0.012773
0.144603
-0.017723
-0.410498
0.373922
0.061431
0.264148
0.027006
-0.567663
-0.096855
-0.006601
0.189153
-0.053153
0.078325
-0.027923
0.177625
0.245976
-0.008833
0.214633
0.213252
0.165009
-0.390463
0.301591
0.164816
-0.003837
-0.169350
-0.028601
0.315290
0.076873
0.286081
0.051609
0.218869
-0.054065
-0.011446
-0.153890
-0.095421
0.073384
0.063115
0.327278
-0.191935
0.062968
0.267518
-0.191283
0.140807
-0.111217
-0.575017
0.060527
0.043622
-0.054748
0.043120
-0.093955
-0.136085
0.084111
0.012926
-0.062579
0.366151
-0.226355
0.024288
-0.209100
-0.088674
0.471561
0.155931
0.397973
0.004716
-0.081456
-0.043531
0.025204
-0.226630
0.223849
0.104617
0.028552
0.149663
-0.034626
-0.100888
-0.229744
-0.301403
-0.111924
-0.274102
-0.066062
-0.060762
-0.170394
-0.127497
-0.260525
-0.246948
0.338137
0.240260
0.186266
-0.085559
0.249379
-0.615357
-0.103895
-0.035257
0.167701
0.157319
-0.168829
-0.321389
-0.209668
0.216992
-0.169642
0.226904
-0.096167
-0.271982
-0.774818
-0.093430
0.059268
0.279098
-0.113020
-0.497140
-0.245983
-0.552964
-0.218881
0.122006
0.096529
0.383247
-0.216881
-0.182924
0.016922
0.024810
-0.060819
-0.250889
-0.099042
-0.099339
-0.351051
-0.410692
-0.285987
-0.845578
-0.247070
-0.115434
-0.404036
0.014359
0.102938
-0.019583
-0.114506
-0.129128
-0.301933
-0.301833
-0.064863
-0.055223
0.054191
-0.225302
0.038142
-0.244756
-0.122863
0.078113
0.154448
0.005105
-0.002018
-0.300017
0.097678
0.148091
-0.053207
-0.055791
0.073068
0.160323
0.189302
0.093178
0.099355
0.047309
0.014061
0.235458
-0.190289
0.328121
-0.348836
0.283089
-0.234816
0.227961
0.435911
0.111796
0.291422
-0.128317
-0.224266
-0.200671
0.085471
-0.432828
-0.200333
-0.311362
-0.940036
-0.544273
-0.252085
0.022613
0.200588
-0.084891
-0.392071
-0.649615
0.303652
0.327582
0.197299
-0.076326
0.241906
-0.487752
0.070502
0.449636
-0.174848
0.006358
-0.222359
-0.362223
-0.233754
0.260985
-0.008621
-0.141384
0.132352
-0.537771
-0.361428
0.054835
0.153897
-0.062263
-0.054059
-0.358605
-0.030749
0.063720
-0.014252
0.013587
0.257786
-0.040464
0.012118
0.371252
-0.104791
-0.218248
-0.226287
-0.149962
-0.292874
0.027954
0.036282
0.291025
0.035565
-0.146545
0.234944
-0.017270
-0.089458
0.181127
0.306886
-0.445390
0.204899
0.071892
-0.164783
-0.256756
0.031100
-0.431857
0.135056
-0.324520
0.218033
-0.399542
-0.152038
0.181946
0.124297
0.202687
-0.498301
-0.053847
0.348658
0.226891
-0.200958
-0.105657
-0.006744
0.355749
0.326647
-0.107985
0.053438
-0.204164
-0.241006
-0.659336
-0.184557
-0.340574
-0.031806
0.061921
-0.065005
0.164721
-0.056934
-0.674747
-0.085559
0.232252
0.209422
0.049697
0.090237
0.071952
0.190942
0.170378
0.071287
-0.020573
-0.137313
-0.035987
-0.420491
-0.285342
0.086626
0.179497
0.239881
0.059970
-0.532384
-0.580692
-0.187196
0.270380
-0.079269
0.044633
-0.022773
-0.096194
-0.058944
0.156166
0.460884
0.056996
-0.035567
0.237926
-0.125969
-0.196666
0.200277
0.315325
0.103512
-0.192840
0.115958
0.166226
-0.150604
-0.134102
-0.093049
-0.092353
-0.109267
-0.024962
-0.039022
0.084468
0.111105
0.378088
0.088885
0.065013
0.214109
0.145119
-0.172244
-0.107567
-0.352644
-0.254011
-0.097767
-0.066293
0.088147
-0.178872
-0.042295
0.356274
0.246190
0.289215
-0.107311
-0.165680
0.252837
-0.038951
-0.181892
-0.302619
-0.206087
-0.080029
-0.113551
0.101009
0.163582
-0.110515
0.133798
0.096617
0.079021
-0.285305
0.012825
-0.075043
-0.126165
0.078102
-0.142238
-0.312547
-0.278474
-0.126371
0.133141
-0.475564
-0.102464
0.150655
0.076328
-0.243410
-0.277860
0.254255
0.078047
-0.114298
0.010762
-0.066909
-0.113767
-0.093138
-0.082752
-0.084657
0.120641
-0.304226
-0.008905
-0.225402
-0.097785
-0.369131
0.003713
0.027648
0.147524
0.273663
0.117926
-0.007789
0.080691
-0.454003
0.014708
-0.115813
-0.156880
0.291998
0.041561
-0.037579
0.166429
0.023899
-0.118851
-0.093644
-0.210564
0.009547
-0.321879
-0.051825
-0.087559
-0.097331
0.082152
0.014431
0.107253
0.178045
0.103859
0.113957
0.250784
0.244873
-0.097833
-0.359047
-0.246349
-0.224298
-0.141116
-0.111697
-0.095504
0.003460
0.105500
0.312723
0.024783
-0.059079
0.144142
0.075288
-0.149650
-0.067030
-0.001197
0.020710
-0.230993
-0.161915
-0.010504
0.105153
-0.496303
-0.171360
0.104655
0.119179
-0.190830
0.362672
-0.054097
-0.246131
-0.127020
0.003735
0.256021
-0.025813
0.088484
0.035043
0.046989
-0.016851
-0.033060
0.053557
-0.159999
-0.101085
0.161079
-0.047279
-0.008684
-0.155258
0.074710
-0.469026
-0.409565
-0.172343
0.152726
0.203801
-0.157945
-0.499281
0.027224
-0.042997
-0.141910
-0.186160
-0.256174
-0.367966
-0.424297
-0.225633
-0.006299
-0.139064
0.025489
0.333635
0.044189
0.026569
0.138323
0.231151
0.028445
-0.129232
-0.568609
-0.668876
-0.090724
0.179607
0.215090
-0.005634
0.029096
0.120622
-0.078245
0.290586
0.243084
0.049197
0.000358
-0.087691
0.253674
-0.086359
-0.028491
0.270651
0.004541
-0.073884
0.285576
0.403534
-0.080516
0.179557
-0.384318
-0.377919
0.149730
0.039453
0.152846
-0.054049
-0.200957
-0.061840
0.060028
0.232402
0.303304
-0.041109
0.171416
0.118891
0.215480
-0.061414
-0.065002
-0.216978
-0.439824
-0.082662
0.188232
-0.299978
-0.093653
0.102549
0.008246
0.101385
0.005239
0.111007
0.258868
0.214235
-0.070688
-0.349159
-0.151794
0.314911
-0.037941
-0.168460
-0.381620
-0.236442
0.049815
0.344029
0.002804
-0.210052
-0.116054
0.349310
-0.091618
-0.116739
-0.043249
-0.230026
-0.132064
0.045746
0.097324
-0.559716
-0.128554
0.007837
0.103125
0.084667
-0.239608
-0.331867
-0.133990
-0.227917
-0.112927
-0.010872
0.133048
0.181811
0.109096
0.209368
0.177423
0.120246
0.184624
-0.148362
0.114035
-0.017435
-0.166836
0.006656
0.113218
-0.062268
-0.420811
-0.519003
-0.131746
0.201123
0.255485
-0.186887
0.015203
-0.078496
0.179840
0.164730
0.050906
-0.159867
-0.040119
-0.013058
0.216742
-0.330634
0.219120
0.041808
0.035538
0.212089
-0.206243
0.152095
0.002623
0.067203
-0.162658
0.263395
0.062063
0.064409
0.302076
-0.054575
-0.192641
-0.365018
0.217565
0.028491
-0.190984
-0.154330
0.120463
-0.037139
-0.108143
-0.128326
-0.186257
-0.205338
-0.279218
0.060951
0.097884
-0.218828
-0.181452
0.233357
-0.167890
-0.316813
0.150021
-0.174456
0.214972
-0.095492
0.241750
0.137963
-0.049897
-0.006369
-0.356770
0.061852
-0.048984
-0.100510
-0.076315
-0.315625
-0.179579
0.257944
0.142531
-0.370342
-0.360727
-0.138914
0.284305
-0.023053
-0.442186
-0.185966
0.256966
0.113237
0.386558
0.365829
-0.013743
-0.099075
-0.001098
0.057183
0.080250
0.293356
0.033172
-0.162068
0.011470
0.019905
-0.112169
-0.059973
0.129082
-0.121058
-0.365319
-0.106457
0.044060
-0.125191
-0.081526
-0.155546
0.080963
0.091979
0.119314
-0.003665
0.140797
0.115011
-0.188187
-0.255785
0.052732
-0.071989
-0.014087
-0.363744
-0.302585
-0.329526
-0.132800
0.094616
0.119230
-0.359694
-0.095423
-0.002212
-0.324240
-0.405297
0.054654
-0.198232
-0.302222
-0.088559
0.137438
-0.082045
0.026802
0.118932
0.064543
0.176692
-0.377652
0.014045
0.022188
0.094979
0.024841
0.145287
0.061996
-0.379525
-0.227109
-0.054680
-0.374212
-0.658279
-0.382919
-0.042056
0.084785
-0.323828
-0.392662
0.164780
0.059664
0.198157
-0.338365
-0.288350
0.286485
-0.117856
-0.042274
0.003866
-0.050048
0.148338
-0.142643
0.275977
-0.065598
-0.126476
-0.109546
-0.100189
0.051551
0.003736
0.129222
-0.212776
-0.098478
-0.032407
-0.125892
-0.234143
-0.092206
-0.015822
0.119129
-0.174608
-0.127052
0.009428
0.214361
-0.005292
-0.283083
-0.206078
-0.204101
-0.013295
0.035161
-0.493413
-0.114587
-0.165991
0.019786
-0.082005
-0.143926
-0.264266
-0.329899
-0.243999
-0.024996
-0.569680
-0.273712
-0.325865
-0.057681
0.233992
0.122052
0.004191
0.300147
-0.383012
0.023918
0.089122
0.111155
0.129695
0.074468
0.091969
0.165761
0.047738
-0.044471
0.062918
0.325805
0.170921
0.113078
0.098223
-0.046920
0.000969
-0.161695
-0.131306
-0.082815
0.124711
-0.023810
-0.023654
-0.105651
0.152374
0.036323
-0.028537
-0.095013
0.216613
0.193518
-0.088880
0.249967
0.030948
0.155608
0.291310
-0.188535
0.094643
-0.034882
-0.237931
-0.448826
-0.078946
-0.370841
-0.161100
-0.122576
-0.023129
0.258190
0.008467
-0.346756
0.072747
0.199160
0.182718
-0.000189
0.328457
-0.018943
-0.113626
-0.127546
0.119896
0.269261
-0.012770
0.231266
0.013144
-0.143472
0.074408
0.009627
-0.274183
0.122616
-0.300020
0.149002
0.133854
-0.363400
0.316519
0.565852
-0.002831
-0.487498
-0.255027
0.076791
0.067898
0.043505
0.018348
-0.436625
-0.446511
-0.016549
0.191235
-0.201299
-0.222405
-0.114887
0.252582
0.186707
-0.026893
-0.283510
0.001256
0.079896
-0.080156
0.084280
-0.112222
-0.220832
-0.258819
-0.482312
0.119075
-0.022108
0.121878
0.270524
0.202525
0.142516
0.233939
-0.375083
0.109073
0.100453
0.172624
-0.055849
0.165688
-0.139626
-0.258845
-0.072297
0.257667
0.314442
0.123256
0.161460
0.055351
0.049460
-0.029294
-0.070590
-0.008940
-0.022839
-0.020516
0.193143
0.164689
-0.296852
-0.308811
-0.194103
0.065355
0.258041
-0.615504
-0.252888
0.037045
0.298799
0.253076
0.065085
-0.437826
0.075838
0.174377
0.181291
-0.198619
-0.117210
-0.055434
-0.044283
-0.023606
-0.146023
-0.110080
-0.029314
0.036616
0.135199
-0.229030
-0.800492
-0.218434
-0.087784
0.095675
-0.183092
-0.637585
-0.370267
0.161431
0.186855
-0.529968
-0.523958
-0.135976
0.026810
-0.202170
0.127033
-0.094367
-0.149752
0.066208
0.036717
0.046893
0.334946
-0.307621
0.265054
0.407187
0.193758
0.099710
0.110548
-0.095214
0.234384
-0.036469
0.162161
0.004238
0.123857
0.435444
0.171757
-0.008793
-0.124808
0.214640
-0.021751
-0.018785
-0.242119
0.019205
-0.029422
-0.413885
-0.101000
0.055634
-0.183416
0.095720
0.491152
0.086302
-0.273712
-0.031024
0.038638
0.176151
0.123588
-0.316267
-0.230664
0.072785
-0.178283
-0.191738
0.217268
0.019269
0.110830
0.179275
-0.388270
0.251653
-0.192952
-0.021810
-0.013922
0.218737
0.050271
-0.116080
0.106591
0.086790
-0.181051
-0.111644
-0.514621
-0.254700
-0.334672
0.263057
-0.080892
0.078615
-0.119914
0.044307
-0.189487
-0.602523
-0.231366
-0.391634
0.198358
-0.443971
-0.735606
-0.425977
0.234630
0.126818
0.083619
-0.045659
0.182728
-0.290906
0.106474
0.061741
-0.007196
0.111616
-0.619808
-0.020100
-0.080070
0.167777
0.056654
-0.312795
-0.325013
0.056863
0.135098
-0.087090
-0.098088
0.000300
-0.001326
-0.056981
-0.054479
-0.021149
0.082763
-0.048341
0.040425
0.194532
-0.036038
0.218350
-0.039287
-0.070414
-0.067706
0.098699
0.318699
0.013359
0.357675
0.086814
0.032013
0.377700
0.428676
-0.015681
-0.045963
-0.307074
-0.062647
-0.370311
-0.075791
-0.013699
0.101929
-0.152985
0.250069
-0.023135
-0.721983
-0.077233
-0.046316
0.153679
-0.163448
-0.352061
0.113568
-0.037901
0.128700
-0.118583
-0.008873
-0.235779
0.326312
0.048231
0.414813
-0.146050
0.033059
-0.093275
0.294702
-0.282585
-0.220681
0.212028
0.039258
-0.215313
0.038578
-0.011812
-0.023654
-0.197326
-0.240520
0.125623
-0.429367
0.407411
0.110464
-0.125294
-0.682722
-0.609728
-0.011465
-0.124725
-0.415268
-0.317517
-0.450815
0.162709
-0.114300
0.275746
0.399872
0.006017
0.113655
0.106366
-0.193055
-0.251789
0.318686
0.008982
0.108393
-0.379502
-0.409104
0.039192
-0.176223
0.295531
-0.210961
-0.045192
0.092034
-0.326737
0.006132
0.029302
-0.058752
-0.133553
0.160119
-0.048529
-0.245857
-0.017691
0.217637
-0.246495
0.230318
-0.140707
-0.057870
-0.586384
-0.146621
-0.212725
0.378718
-0.029568
-0.673238
0.057501
-0.289777
0.199083
0.146394
-0.294354
0.267426
-0.176631
-0.309189
-0.395637
-0.304758
0.191272
-0.152657
0.391855
0.362697
-0.221133
0.337482
0.160514
-0.241744
0.139455
0.001322
-0.133689
0.217419
-0.048045
0.205271
-0.597453
0.122032
0.552987
0.005168
-0.083679
-0.516976
0.027073
-0.401244
-0.077171
-0.269097
0.064928
-0.039285
-0.371352
0.308485
0.258297
-0.181177
0.193352
0.279746
-0.442078
0.069279
-0.041178
0.121713
0.079235
-0.177223
0.180255
-0.110447
-0.041472
0.087661
-0.283193
-0.241886
-0.222715
-0.333361
0.284033
-0.406119
-0.106672
0.331319
-0.289223
-0.295123
-0.185254
0.104115
0.203335
-0.285928
-0.193147
0.017941
-0.464052
0.054551
0.287255
0.134468
0.297563
0.116380
0.363205
-0.161927
-0.080894
0.284840
-0.372518
-0.501372
-0.374269
-0.361336
-0.029986
-0.396359
0.311079
-0.294902
-0.296907
0.542935
-0.350430
0.338924
-0.254115
0.132427
-0.121202
-0.254501
-0.116864
-0.162057
-0.223376
-0.083180
0.087341
-0.145952
0.046017
0.047358
-0.008353
-0.229818
-0.385428
-0.166048
-0.192916
-0.224723
0.236818
0.044589
0.075039
0.057514
-0.261871
0.035933
-0.038127
-0.125254
-0.480310
-0.621589
0.080040
0.059957
-0.187816
0.115437
-0.330732
-0.021587
0.403539
-0.352228
0.554909
-0.126759
-0.327767
-0.043590
-0.281276
-0.011255
0.187724
-0.851508
0.105097
-0.313472
-0.104085
-0.053635
-0.319802
0.005133
0.199347
0.165240
-0.118011
-0.200812
-0.102764
0.401199
0.186302
-0.149213
0.296653
-0.258254
-0.369523
0.373878
-0.155615
-0.146212
0.110364
-0.050564
-0.331275
-0.144129
-0.073401
-0.576446
-0.341385
-0.094573
0.268866
0.210390
-0.023532
-0.019003
0.336187
0.089072
-0.335754
0.113150
0.318720
0.207611
0.135597
0.015011
-0.380752
-0.026796
-0.102882
-0.322621
-0.379965
-0.331707
-0.322899
-0.051922
0.223289
0.106621
-0.271500
-0.419118
-0.067462
-0.211731
0.082112
0.191251
-0.034793
0.059537
-0.185938
0.037267
-0.158224
0.080921
-0.117606
-0.163323
0.071956
-0.009144
0.362025
0.228400
-0.373469
0.204525
-0.161098
-0.264852
0.229424
-0.137951
0.086047
-0.186844
0.130093
0.081548
-0.059071
-0.001608
0.033977
0.253424
-0.020064
-0.424981
0.451963
0.100689
-0.018981
-0.476100
-0.276450
0.248611
0.584636
0.054790
0.412988
0.174686
0.208846
0.094989
-0.349155
0.343717
0.054168
-0.193993
-0.062010
0.012793
-0.056112
0.195372
0.110381
0.069757
0.118281
-0.139311
-0.011951
0.221415
-0.280198
-0.072118
-0.270883
-0.176515
0.130873
-0.288777
0.158671
0.180107
-0.313075
-0.419730
-0.121665
0.168347
-0.181472
0.096618
0.135074
-0.178381
0.254133
-0.252749
0.384023
0.013953
-0.035245
-0.423185
-0.127293
-0.159260
0.443685
0.130028
-0.229066
0.022701
-0.324874
0.316236
0.285649
-0.524696
0.387816
-0.097137
0.107767
0.159749
-0.271908
0.485121
-0.143538
0.043830
0.236953
-0.330862
0.020397
-0.059295
0.193660
0.097107
-0.034929
0.217067
-0.372348
0.247026
0.380013
-0.030330
0.075263
0.165480
0.211867
-0.397930
-0.023707
0.321504
-0.090348
-0.363863
-0.281338
-0.675686
-0.081015
-0.087796
-0.659327
-0.141142
-0.345159
0.190370
0.215809
0.307885
-0.339783
-0.641258
-0.102881
0.001129
0.341260
-0.027686
0.123633
-0.022010
-0.127147
0.207001
-0.164553
-0.074985
-0.531469
-0.119500
-0.024138
0.492637
-0.198822
-0.207456
0.104868
-0.133829
0.454123
-0.295236
-0.095775
0.194423
0.022670
0.107885
-0.117127
-0.047625
-0.094727
-0.150705
-0.157694
-0.076048
-0.147384
-0.285514
-0.250309
0.298002
0.141979
0.139805
0.040763
-0.315345
-0.287098
-0.048709
0.183905
0.141869
-0.026745
0.054688
0.018182
0.206607
-0.145129
-0.421316
-0.030382
-0.216950
0.241303
0.134112
0.075001
0.222372
0.118399
0.010596
-0.275299
-0.150076
0.336311
0.190010
0.055245
0.104425
0.009074
0.287027
-0.237238
0.081401
0.245412
0.071821
-0.039842
0.155907
0.031122
-0.120913
-0.134988
-0.452763
-0.433043
-0.063502
-0.043859
0.123777
-0.025689
0.121742
0.132856
-0.194713
-0.120992
-0.069860
0.075959
0.036845
0.385547
-0.103962
-0.157893
-0.162890
-0.166600
0.224921
-0.245611
-0.162596
-0.018577
0.112838
0.020140
0.173735
-0.106781
0.048027
0.281707
-0.123540
0.232257
0.184176
-0.064475
0.126516
-0.330598
0.212091
0.228694
-0.054131
0.301129
0.157056
-0.379372
-0.216679
-0.202622
-0.095142
0.117312
-0.178879
-0.232924
-0.150348
-0.199092
-0.197117
-0.137765
-0.068198
-0.018930
0.505808
-0.146404
-0.062518
0.117530
-0.016875
0.186554
-0.458006
-0.131850
0.198663
0.192478
-0.249770
0.019721
0.076882
0.198882
-0.455355
0.225623
-0.127328
0.101816
0.296851
-0.045862
-0.339679
-0.070371
0.081579
-0.177615
-0.062147
0.136180
0.204944
-0.331150
-0.238171
0.102471
0.093525
0.043797
-0.132695
-0.044020
0.165916
0.072965
0.228396
-0.168040
0.030021
-0.063063
0.326884
0.219539
-0.048012
-0.009626
-0.155314
-0.111176
-0.274083
-0.046317
0.190136
0.258388
0.279062
-0.658733
-0.961601
-0.366343
-0.109710
-0.032882
0.126376
-0.077078
-0.404810
-0.158319
-0.043267
-0.194996
0.023487
-0.338928
-0.442663
0.024413
0.259669
-0.016838
-0.004396
0.116652
-0.201501
0.043394
0.224872
0.224627
0.207291
0.034919
0.355716
-0.386410
0.006791
-0.075994
-0.262199
-0.297452
0.411052
0.005594
-0.245152
0.002176
0.085918
-0.744342
-0.187859
0.013861
0.019507
-0.032778
-0.107097
-0.231222
0.007469
0.324044
-0.052645
-0.004118
-0.021245
0.460811
0.256418
-0.395599
-0.240117
0.170233
0.232075
0.243817
-0.403543
-0.241958
-0.483472
0.009082
0.184683
0.101857
0.154062
0.082168
-0.011666
-0.154829
0.234072
-0.035302
0.130059
0.307402
0.154238
0.139884
0.026841
0.082819
0.002485
-0.212578
-0.204498
-0.356875
0.291508
0.626626
0.385009
-0.067790
0.052476
0.216961
-0.272457
0.144985
-0.024935
0.070503
0.056559
0.239031
-0.163273
0.256996
-0.086349
0.159531
-0.075035
-0.086933
0.164307
0.015914
-0.031700
0.021284
0.040101
0.110946
-0.121037
-0.250710
0.220325
-0.007075
-0.082144
0.056867
-0.450415
-0.043004
-0.056319
-0.242148
0.047946
0.302773
-0.034947
0.277393
-0.021971
-0.212855
-0.280860
0.141241
0.384488
0.073448
-0.038430
0.105041
0.027218
-0.121148
0.275796
-0.256113
0.076930
-0.080449
-0.133853
-0.184360
0.061564
-0.109554
-0.193114
0.113232
-0.249834
-0.657456
0.277581
0.205666
-0.346409
-0.336740
-0.038842
0.205919
0.154625
-0.055970
-0.095224
0.233836
-0.140037
0.126974
0.123715
0.032296
0.180587
0.216866
-0.044281
-0.254921
0.116866
-0.010168
0.181953
0.014395
-0.075454
-0.003618
-0.004688
0.058798
-0.054728
-0.106076
0.185763
0.244751
-0.177492
0.154312
-0.155864
-0.292243
-0.567145
0.266076
-0.363955
-0.124797
0.833280
0.167626
0.172855
0.066038
0.106954
0.362068
0.170738
0.087504
-0.135634
-0.148180
-0.046708
-0.225349
0.105959
-0.067672
-0.273456
-0.055314
-0.024899
0.069370
0.181836
-0.575410
-0.168740
0.008403
0.041277
0.268759
0.078621
-0.263989
0.025791
0.324105
0.187205
-0.107258
-0.305770
0.113084
0.019496
0.288811
0.291950
0.633640
-0.236259
-0.217129
-0.038509
-0.049694
0.033319
0.254137
-0.016593
-0.342323
-0.303616
0.040742
0.193738
-0.358248
-0.146958
0.046894
0.277360
0.226216
0.418147
0.362629
0.174547
0.181957
0.103763
-0.025920
-0.152269
0.068943
-0.240508
0.261034
-0.022654
0.110174
-0.377213
-0.332447
0.229257
0.349980
-0.569438
0.005722
-0.133020
-0.122732
-0.409489
-0.096374
-0.079255
-0.278226
-0.168419
-0.129404
-0.162155
0.071734
0.058850
-0.337572
0.012075
-0.019437
0.128938
0.111377
-0.098314
0.071437
-0.101613
0.128643
0.512657
0.006663
-0.156233
0.253076
0.132806
-0.027649
0.003257
-0.032294
0.011689
-0.205035
-0.290744
-0.061528
0.042419
-0.084578
-0.014148
-0.337114
0.074759
0.081377
-0.226630
0.114797
0.049483
-0.086955
0.007581
0.015707
-0.075848
0.404301
0.031827
-0.108520
0.050850
0.128944
-0.158881
-0.199044
0.043343
0.114679
0.127874
0.067586
0.165531
-0.038204
-0.129770
-0.132370
-0.044024
-0.335364
0.149515
-0.127256
-0.172695
0.049955
-0.055615
0.141451
-0.102625
0.127430
0.419543
0.080005
-0.135357
0.005125
0.191484
0.004290
0.038151
0.076491
-0.081036
-0.035543
-0.288428
0.132846
-0.085331
0.013787
-0.039342
0.160949
0.116993
0.036353
0.169880
0.414226
-0.214160
-0.114728
0.309213
-0.230826
0.078578
0.446886
-0.404843
-0.309479
-0.190948
0.009201
0.054602
0.188154
0.285992
0.027844
0.232232
-0.240341
0.037143
-0.163884
-0.095921
0.329556
-0.173978
-0.141262
-0.142163
-0.140203
0.519498
0.295175
0.123908
0.070656
-0.042348
-0.071234
0.017064
-0.137934
-0.052730
-0.033774
0.152141
0.178327
-0.141768
-0.152993
0.105879
0.072063
-0.218506
-0.098510
0.201299
0.243825
0.173242
0.041657
0.239980
-0.098338
0.305875
0.257816
0.121287
0.064681
-0.052818
0.046033
-0.042468
-0.175288
0.159367
0.209173
-0.001773
-0.008562
-0.224169
-0.082390
-0.017489
-0.114500
0.272530
0.021813
-0.516607
-0.529179
0.163847
0.251717
-0.299952
0.163661
-0.174959
-0.021900
0.308440
0.182795
0.082933
-0.204220
-0.083483
0.214337
-0.059765
-0.156417
-0.002312
-0.069253
0.033677
0.033630
-0.042938
0.115280
0.081885
-0.095139
0.138761
-0.328811
-0.460545
-0.463155
-0.410579
0.138066
0.267545
-0.328169
0.201458
-0.098061
0.127741
-0.141424
0.174043
0.041561
0.155274
0.117007
-0.214009
-0.182710
-0.023879
0.149774
-0.415868
0.172281
-0.292001
-0.035165
-0.029368
0.025170
-0.084056
0.199950
0.131804
0.266889
-0.048819
-0.223333
0.114608
0.097061
0.511857
0.207443
0.026671
0.248812
0.299399
-0.150846
0.258971
0.345484
0.119213
0.089574
-0.115726
-0.002523
-0.075240
0.179934
0.071248
0.098673
-0.226944
0.171102
0.548203
0.382126
0.252400
-0.309943
-0.153854
0.168234
-0.049143
0.187780
0.298947
0.186526
0.036236
-0.093881
-0.022201
0.148848
0.212862
0.103381
-0.208574
-0.423149
0.117891
-0.048601
0.101721
0.045636
0.069454
0.026466
0.239572
-0.267401
-0.349975
-0.050489
-0.003460
-0.130942
-0.259728
0.172648
0.410001
0.184489
-0.080512
-0.210648
-0.088088
0.444458
0.005917
-0.285688
-0.101295
-0.342514
-0.013158
-0.072193
0.072980
0.184264
0.177489
-0.033833
0.123552
0.072082
-0.061128
-0.275704
0.100995
0.249271
0.003301
-0.294282
-0.071505
-0.273624
0.175440
-0.143844
-0.166267
-0.066189
-0.066183
-0.117759
-0.212744
0.206298
-0.136386
0.063422
0.100894
-0.128327
-0.342933
0.186140
0.100840
-0.133367
-0.110753
0.049327
0.221857
0.448563
-0.219778
-0.324452
0.133861
-0.185268
-0.008144
-0.030323
-0.133237
-0.210505
0.161469
0.065631
-0.197159
-0.003550
0.189510
0.187827
-0.446432
-0.461927
0.056040
0.257575
0.197711
-0.042394
0.261013
0.329785
0.374058
0.015319
-0.066903
0.196974
0.231486
0.054547
-0.315129
-0.298607
0.067676
-0.153598
-0.034573
-0.078118
-0.097483
-0.018960
-0.058225
0.018767
-0.088327
-0.164643
-0.034773
-0.044584
-0.153947
-0.134811
0.126418
-0.530384
-0.255266
-0.181473
0.254852
0.317939
-0.134198
-0.252854
-0.210751
0.047134
0.230308
0.102609
-0.181799
0.073104
-0.318419
-0.112680
0.191244
-0.001771
-0.068654
0.180657
0.044223
0.124719
-0.085373
-0.008851
0.150460
-0.010589
0.147345
0.303869
0.456222
0.600985
0.244387
-0.020752
-0.120829
-0.199720
-0.304301
-0.371078
-0.282965
0.116463
0.042552
-0.269226
-0.443377
-0.094001
0.479202
0.010142
-0.061394
-0.092391
-0.261650
-0.178548
-0.297017
0.127514
0.176482
-0.027988
0.070455
0.054628
-0.041812
0.141742
-0.003171
0.105103
0.219465
0.068953
-0.172697
-0.000666
0.113018
0.019605
-0.173151
-0.235357
0.285696
-0.112729
-0.783934
0.198524
0.299118
0.152909
0.098579
-0.075859
-0.339624
0.059452
-0.003696
-0.142837
0.013245
0.027765
0.188742
-0.121430
-0.132097
-0.041310
-0.291436
0.011976
-0.070177
0.000710
-0.072228
0.014550
-0.156155
-0.118323
-0.041661
0.114984
-0.156276
0.054094
-0.007599
-0.008410
-0.249842
-0.212933
-0.445931
-0.001368
0.230544
0.065584
0.168028
-0.020863
-0.134504
-0.461259
-0.144801
-0.220697
0.035988
0.101633
0.185886
-0.134653
-0.576042
-0.531710
0.468785
-0.037446
-0.100196
-0.161415
0.117160
0.069636
-0.037049
-0.380748
0.086541
0.161399
-0.046768
0.025720
0.095203
0.058118
0.022491
0.054415
0.066310
0.184013
-0.024003
0.253935
0.308287
0.124090
0.246777
-0.263386
-0.036630
-0.106983
-0.266611
-0.193259
-0.166150
0.024688
-0.021848
0.012806
-0.351339
-0.354332
-0.203262
0.013325
0.054707
0.017242
-0.050705
0.147507
-0.182743
-0.187868
-0.223431
0.004509
0.284245
-0.323606
-0.179548
0.029343
-0.207509
-0.469247
-0.222492
0.087061
0.021091
-0.248330
-0.295331
0.192689
0.047792
-0.052834
0.111675
-0.237618
-0.194107
-0.182433
0.033386
0.234184
0.214018
0.256471
0.202597
-0.279857
-0.039325
0.156758
0.050634
-0.242207
0.090288
0.171994
-0.502209
0.060987
0.076893
0.144036
-0.032024
-0.726791
0.009755
0.045043
-0.514927
-0.257335
-0.207463
0.039760
0.389473
0.557903
0.427442
0.232008
-0.007488
0.195178
0.177428
0.293456
-0.012406
0.043719
-0.019486
-0.587786
-0.009876
0.435591
-0.030108
-0.194655
-0.293445
-0.200695
0.078597
0.122351
0.015671
-0.032790
-0.197427
-0.468899
-0.126164
-0.066490
0.067353
0.222841
0.038597
-0.124903
0.092245
0.238035
-0.231801
0.158336
0.110617
0.411561
0.461851
0.021342
-0.350879
0.139298
-0.177576
0.033974
0.333418
-0.067017
0.064002
-0.140763
-0.430429
-0.245487
-0.091180
-0.011226
0.303276
0.096107
0.217494
0.009946
-0.076707
-0.084670
0.103029
0.027108
0.285680
0.018260
0.017279
-0.167614
-0.217692
-0.160901
0.104065
0.045869
0.119255
-0.228542
-0.521222
0.077764
-0.046638
0.001762
-0.045403
-0.304823
0.059624
-0.060121
0.057583
0.295794
0.065112
-0.228356
-0.416452
0.041049
0.119250
0.147044
0.084433
-0.690166
-0.382688
-0.019709
0.184017
-0.174579
-0.067787
-0.125382
-0.480089
-0.456791
0.197306
0.235465
0.128130
0.130407
-0.066848
-0.164632
0.239262
0.151457
-0.015409
-0.211700
0.101238
0.049913
0.198246
0.085970
0.326333
0.011901
-0.120175
-0.015633
-0.360890
0.302919
0.154377
0.131698
0.008900
-0.128324
-0.237932
-0.042038
-0.124123
-0.128876
-0.341690
-0.021487
-0.024341
0.144896
-0.035082
0.292007
0.019381
-0.327924
0.247458
-0.015362
0.165084
-0.056009
0.326448
0.130855
-0.004368
-0.332019
-0.193319
-0.161084
-0.389056
0.213294
-0.006207
-0.110654
0.028298
-0.458026
-0.233175
-0.029453
0.181695
0.052963
-0.014606
0.004449
0.335255
0.385181
-0.230746
-0.432839
-0.000126
0.089213
-0.210403
0.101722
0.011247
-0.402824
0.002762
0.290618
-0.015159
-0.813707
-0.209092
-0.361461
0.203305
0.072198
-0.149195
0.180382
-0.452085
-0.183794
-0.017592
0.017721
-0.191098
0.006189
0.233339
-0.108856
-0.109263
-0.161839
-0.422486
0.196608
-0.253749
-0.043379
0.308268
-0.112284
-0.255760
0.017346
-0.066691
0.163239
-0.172619
-0.328648
0.023562
-0.023944
-0.204279
0.059149
-0.164775
-0.190997
0.127713
0.166372
0.139609
0.074246
-0.114594
-0.247127
0.094845
0.135950
0.292389
-0.132557
0.153272
0.014942
0.209923
0.195099
-0.060681
0.047860
-0.017205
-0.258786
-0.221549
-0.009290
-0.108217
0.047520
0.179198
-0.441400
0.027696
-0.290341
-0.309857
-0.207978
0.050162
-0.082821
0.104557
-0.264102
-0.089260
0.057418
0.063092
-0.352084
-0.291856
0.114234
0.294635
0.097990
0.102479
-0.097624
-0.179008
-0.293141
-0.161358
-0.249431
0.183929
0.063489
0.021588
-0.007760
-0.043508
-0.050563
0.040847
-0.050213
-0.285307
-0.333822
-0.169084
0.128073
-0.153894
0.061640
-0.121543
0.184054
-0.130146
-0.159177
0.242783
-0.139738
-0.168377
0.105729
0.251529
0.059911
0.242504
0.103778
-0.103445
0.261979
-0.013668
-0.078699
-0.020697
-0.028576
-0.117764
-0.200038
-0.180585
-0.116792
0.236280
-0.039285
0.044779
0.091316
-0.038996
0.081851
-0.483233
0.073354
0.141977
-0.254449
-0.355183
-0.182679
0.070394
0.204648
0.031598
-0.067543
0.032521
0.010404
-0.337302
-0.449110
-0.314092
0.041295
-0.123752
-0.343185
-0.319131
0.356573
0.088240
0.059644
0.082397
-0.081571
0.010531
-0.278735
0.180487
-0.506110
-0.472103
-0.069574
-0.178457
0.187687
0.176301
0.080163
0.073541
0.392696
0.393144
0.023621
-0.212049
0.033093
0.123906
0.046858
-0.272541
-0.200882
-0.500945
-0.353752
-0.194921
-0.056929
-0.187372
0.118458
-0.369950
-0.380036
-0.160540
0.122240
-0.196331
-0.310390
0.040947
-0.013986
0.102960
0.147443
0.394911
-0.291758
-0.061001
0.155642
0.009285
-0.093263
-0.254070
-0.216336
0.195694
0.224057
-0.253389
0.007569
0.026550
0.345268
-0.189462
-0.083870
-0.181273
-0.095908
-0.318384
-0.324898
-0.433973
-0.179202
-0.090252
0.015111
0.085337
0.010893
-0.227032
-0.111178
-0.444804
-0.219917
-0.150001
-0.001711
0.076680
-0.129234
-0.111641
-0.113284
-0.128851
0.267612
-0.034893
-0.459913
-0.313931
0.072617
0.144643
0.179950
0.130859
-0.219481
0.300785
-0.082686
0.304706
0.301989
-0.247804
-0.337460
-0.701598
-0.638790
-0.020726
-0.111046
0.132702
0.143865
-0.484884
-0.385225
-0.343368
0.115051
0.174270
-0.057841
-0.601367
-0.752245
0.030175
0.115285
0.255125
-0.066390
0.164770
-0.300717
-0.041561
0.017681
-0.114327
0.048616
0.096525
-0.122718
0.100300
-0.335796
-0.102664
0.153209
0.009579
0.111105
-0.103187
-0.132968
0.401407
0.323247
-0.116701
-0.140312
-0.313199
0.219295
0.071787
0.042121
0.047802
-0.613721
-0.161362
0.025068
-0.088980
0.085264
0.030810
-0.195247
-0.115869
-0.357847
-0.300838
-0.497595
-0.116229
-0.160977
-0.353061
-0.157243
-0.118534
0.244444
0.221979
0.039410
0.290503
0.048639
-0.171861
-0.070888
0.033826
0.077102
-0.187795
0.014380
0.019705
0.256727
0.131271
0.175321
-0.073758
-0.571770
-0.244000
-0.125822
-0.178608
-0.353910
0.148907
0.132318
0.003920
-0.173278
0.025745
0.390922
0.208570
0.156877
-0.064631
0.104522
0.036934
-0.049623
0.100121
-0.657140
-0.210121
-0.140955
0.060749
-0.013014
0.077399
-0.037001
-0.097643
-0.221586
-0.104112
-0.130815
0.033552
-0.027883
-0.042023
-0.407437
-0.288473
0.224148
0.281525
0.120392
-0.380869
-0.581072
-0.116545
-0.173880
-0.012197
-0.482811
-0.714649
0.041898
-0.173163
0.015345
0.083194
-0.067673
0.042468
0.025491
0.092193
0.432218
0.135050
0.396683
0.093398
0.138097
-0.380583
-0.478041
-0.235764
-0.057896
0.030959
0.114428
-0.238479
0.366968
-0.198313
0.292217
0.291869
-0.495893
0.024718
0.068908
0.122954
-0.136788
-0.172527
0.061504
-0.130445
-0.161003
-0.153857
-0.089379
-0.246252
-0.196974
0.215925
-0.128047
0.181287
-0.137691
0.020787
-0.598711
0.127618
-0.115100
0.006230
0.284368
-0.064663
0.338397
0.236061
0.286509
0.194356
0.116699
0.128672
-0.197175
0.225343
0.387227
0.138813
0.096143
-0.066404
0.302685
-0.107074
-0.053216
0.275527
-0.133843
-0.437470
-0.306853
0.124286
0.158335
-0.268701
-0.301854
-0.150929
0.156088
0.307448
-0.410236
-0.293872
-0.100723
0.131071
0.043872
-0.266966
-0.079916
-0.018575
-0.105976
-0.017652
-0.167729
0.166750
-0.531690
0.016141
-0.175628
-0.611828
-0.098892
-0.774352
0.138230
-0.899794
-1.535877
0.039445
0.117998
-0.111334
0.200932
0.109003
-0.192435
0.189148
0.248451
-0.049360
-0.160167
0.232450
-0.071166
0.148223
0.267190
0.147682
-0.027768
-0.371581
-0.207612
-0.102664
0.026962
-0.111847
-0.137857
-0.091676
0.431233
0.034192
-0.408168
0.375872
0.062722
0.103216
-0.471335
-0.190716
0.336734
-0.093133
0.007134
0.201596
-0.058238
-0.031917
-0.062811
-0.027541
-0.015942
-0.051545
-0.025401
-0.008532
0.024282
-0.020314
-0.014004
0.006726
-0.037870
-0.042437
0.004230
0.010006
-0.043062
0.023882
-0.054176
0.019309
0.019990
0.056707
0.039912
0.022281
-0.032221
-0.002688
-0.008587
0.005859
0.017965
0.015124
-0.020242
0.033162
-0.027166
0.030205
-0.029192
-0.018503
0.011890
-0.007532
-0.001442
-0.025546
-0.020228
-0.040717
-0.064344
-0.048387
0.032344
-0.026368
-0.042250
0.034239
-0.006212
-0.013802
-0.028534
0.005417
-0.024238
-0.004319
-0.005850
-0.000869
0.022219
-0.029986
0.032678
0.022896
0.033807
0.024472
-0.009121
0.002749
-0.044343
-0.024437
-0.015045
-0.044809
-0.011268
-0.005839
-0.001639
0.016949
-0.055452
-0.004495
0.000518
-0.035762
0.020981
-0.004453
-0.052448
-0.053330
-0.013671
-0.014926
0.051516
-0.018530
-0.061927
-0.066248
-0.061258
-0.024078
-0.044748
0.009950
-0.041632
-0.025666
-0.010885
-0.014196
0.001725
0.021670
-0.045251
-0.013682
-0.030924
-0.015527
-0.010821
-0.021112
-0.028735
0.002748
0.033470
0.020344
0.028936
-0.028473
0.007730
-0.022360
-0.054119
-0.063949
-0.052660
-0.000609
0.028214
-0.011088
0.034043
-0.004009
0.005862
-0.021913
0.025441
-0.053555
-0.027300
0.022505
0.037589
0.020029
0.004117
0.003734
-0.045670
0.013909
0.009101
0.024806
-0.009228
-0.002318
-0.027995
0.007271
0.006703
0.003559
0.017665
-0.056998
0.019827
-0.018417
-0.013368
0.014561
0.010298
-0.003567
-0.058499
0.006343
-0.011813
-0.030681
0.035435
-0.045101
-0.049286
-0.043076
-0.036508
-0.061160
-0.046419
-0.050807
-0.010142
0.023376
-0.008379
-0.044759
-0.004122
0.031153
-0.027187
-0.054920
0.002405
-0.037616
-0.009992
0.021893
-0.033207
-0.036392
-0.009903
-0.025654
0.050899
0.003573
-0.047321
-0.007355
-0.021772
-0.042147
-0.017556
0.010088
-0.049521
0.020075
0.035176
0.029963
-0.032092
-0.042494
0.010753
0.001832
-0.040715
-0.016134
-0.030600
0.048852
-0.035521
-0.049588
-0.025973
0.016346
0.031495
-0.039813
-0.055858
0.022223
-0.041116
0.017856
-0.002873
-0.020654
-0.010270
0.014278
-0.026912
0.002381
0.015686
-0.000231
-0.033313
-0.013903
-0.023841
0.014967
-0.026969
-0.066679
0.012263
-0.047820
-0.066026
-0.029991
-0.017274
0.030136
0.021800
0.029685
-0.048041
0.020329
-0.002345
0.036607
0.031688
-0.038454
-0.013295
-0.019288
0.019460
0.014336
0.019244
-0.000218
0.041606
0.012356
-0.025806
-0.014136
0.037435
-0.010160
-0.010185
-0.042313
0.032373
-0.036368
-0.043968
0.031916
-0.053096
-0.001159
-0.037575
-0.034440
-0.006652
-0.078561
-0.030506
-0.007461
-0.028354
-0.054311
-0.010032
-0.036243
-0.064391
-0.005283
-0.002968
0.005480
-0.044691
0.018522
0.045555
-0.002946
-0.063162
0.005632
-0.001636
0.016242
-0.031433
0.021556
0.002394
-0.009055
0.013852
-0.044175
0.040159
0.031476
-0.033126
0.015335
0.041473
-0.021362
0.030899
-0.013810
0.027679
0.034295
-0.029192
-0.042271
0.039661
-0.028484
-0.055177
-0.017036
-0.010909
-0.035334
-0.050146
-0.048612
-0.063760
-0.031713
-0.018136
-0.026023
-0.031963
-0.029259
-0.034171
0.030198
0.005183
-0.003759
-0.059992
-0.060404
0.042826
-0.021373
-0.043236
-0.019129
-0.046098
-0.019816
-0.050367
-0.003027
-0.040876
-0.043911
0.008223
-0.057080
-0.053320
0.040260
-0.009514
-0.055626
-0.022491
-0.045259
-0.007173
-0.032744
-0.040532
-0.045920
0.007980
0.001634
-0.002915
-0.011640
-0.002487
0.028108
0.014743
-0.030266
0.010044
-0.048153
-0.040447
0.001753
0.032616
-0.043645
-0.002186
-0.014889
-0.020766
-0.034441
0.017444
0.009723
-0.058509
-0.002668
0.034185
0.021444
-0.037673
-0.032344
0.027896
-0.003662
0.002459
0.010577
0.037310
0.019698
-0.034565
0.003143
0.022628
0.007312
0.005335
-0.003317
-0.000109
-0.040616
-0.011791
0.018799
0.035709
-0.030168
0.012749
0.002693
0.007791
-0.032857
-0.021621
-0.009926
0.010015
0.001017
0.022025
-0.048086
-0.059448
-0.059779
-0.056461
0.022595
0.026526
0.015301
-0.038767
0.018026
0.048454
-0.060428
-0.055149
-0.012000
-0.226660
-0.032265
-0.130510
-0.017000
0.023984
-0.068753
-0.122155
0.023144
0.036938
0.301050
-0.623621
0.099432
0.072618
-0.001510
-0.447200
-0.185923
0.087729
0.038759
-0.112484
-0.244870
0.378988
0.338821
0.149298
-0.332283
-0.045241
0.000615
-0.000137
-0.130900
0.053848
-0.042999
-0.137006
-0.093538
0.007359
0.064415
0.295283
-0.168589
-0.351274
-0.035526
0.297679
-0.122870
-0.162969
-0.317290
-0.086140
-0.326396
-0.449979
-0.149761
-0.162676
0.118567
0.300177
0.167097
-0.089896
0.065802
0.199383
0.070101
-0.339047
-0.294266
0.127114
0.194389
0.143957
0.251465
-0.479401
0.064177
-0.021328
-0.039136
0.276270
0.039604
-0.176489
-0.012076
-0.618864
-0.373160
0.394776
0.138968
0.012024
-0.170982
-0.092666
0.035821
0.087210
-0.057365
0.105956
0.045228
-0.025652
0.185902
-0.192032
0.178768
-0.059021
-0.267533
-0.003650
0.229525
-0.063708
-0.318108
-0.338841
-0.369358
0.017009
-0.301959
-0.493637
-0.336307
0.279905
-0.021103
0.020821
-0.005833
-0.063956
-0.010323
0.299443
-0.075810
-0.454464
-0.203609
-0.124556
-0.259174
0.109264
-0.113290
-0.060177
-0.210174
-0.099717
0.352925
0.440834
-0.162897
0.186861
-0.054496
0.166917
0.130929
-0.222919
0.094087
-0.007156
0.100192
-0.210499
-0.150032
0.112936
0.166722
0.114165
-0.442627
0.067496
-0.106761
0.185932
-0.240864
0.263024
0.319696
0.111591
-0.280074
-0.082785
-0.113375
-0.026230
-0.094471
0.102832
-0.397637
-0.040412
0.353653
-0.667816
-0.095812
0.569032
0.239101
-0.044434
0.186544
-0.175967
0.073801
0.308689
-0.281029
-0.137768
-0.062347
0.193713
0.099022
0.018672
-0.326434
-0.183112
0.116487
0.018301
-0.020453
0.061772
0.161261
0.011139
-0.009279
-0.094135
0.111070
-0.005375
-0.008368
0.149123
-0.114951
-0.101789
0.202579
0.339389
0.000699
-0.270979
0.092207
-0.037476
0.286897
0.479769
0.059352
0.094998
-0.116927
-0.056277
0.026806
0.387433
0.294326
0.058477
0.072721
-0.399222
0.373680
-0.238061
0.222666
-0.079151
-0.589995
-0.062764
-0.048389
0.119129
0.059279
-0.322316
-0.152602
0.078421
0.141053
0.159174
-0.187803
-0.237951
-0.221793
0.033515
0.113621
-0.075092
-0.089404
0.058911
0.235565
0.156487
-0.018656
0.061819
0.059261
0.045499
-0.055993
0.048140
0.008801
-0.107042
0.081165
0.170615
0.047034
-0.814847
0.016484
-0.046301
-0.092029
-0.394555
-0.607859
-0.088238
0.184811
0.214643
0.351949
-0.357729
-0.077808
0.224583
0.162539
0.105152
0.036082
-0.037591
0.057901
0.160573
-0.224404
0.139865
0.134469
0.155313
0.230872
-0.001600
-0.109428
-0.008272
-0.011314
0.228970
-0.021657
-0.137196
0.088974
0.004500
0.289708
0.019172
-0.112168
0.110783
0.073845
-0.158390
-0.626081
-0.160670
0.024103
0.212742
-0.202417
-0.595342
0.097803
-0.356429
-0.019081
0.196499
-0.014183
-0.066023
0.196675
0.113559
0.154988
0.265649
-0.039695
0.239082
-0.043627
0.097714
0.147561
0.235730
0.150818
-0.135259
0.342050
-0.014525
0.243959
0.304827
0.219469
-0.007755
-0.241812
-0.129157
0.059246
0.014439
-0.275099
0.098939
-0.098550
0.009242
0.064756
-0.265958
0.117769
-0.710908
-0.108715
-0.369891
-0.398225
-0.508183
-0.276572
-0.011824
0.003959
0.146361
0.198273
0.419845
-0.107501
-0.053224
0.141923
0.271175
-0.032114
-0.101575
0.042454
-0.093091
-0.630610
0.124277
0.016366
-0.331336
-0.014708
-0.297240
0.156943
0.131598
0.018456
-0.042339
0.117672
-0.388918
-0.306676
0.261036
-0.275149
-0.062310
-0.384210
-0.439065
-0.053266
-0.005349
-0.356727
-0.000240
0.200106
0.369732
-0.262567
-0.161472
0.085115
-0.154960
0.014246
0.400293
0.093321
-0.869956
-0.647624
0.178377
0.147111
0.090082
-0.149232
-0.628514
-0.067246
0.255643
0.131046
0.226393
-0.093532
-0.031779
0.109470
0.135965
-0.027095
-0.008690
0.004807
-0.280800
-0.385165
0.018357
-0.054074
0.051283
-0.941412
-0.289911
0.195942
-0.078372
-0.649473
0.514660
0.123161
0.082175
-0.721972
-0.377930
-0.101868
0.153801
-0.023170
-0.174675
-0.019168
0.138552
0.123617
-0.034841
-0.094209
-0.076276
-0.016349
-0.041858
-0.009475
0.023559
0.026245
-0.032535
-0.021148
0.065015
-0.063406
-0.022484
-0.067679
-0.023934
0.055876
-0.051823
0.038933
0.027650
-0.004070
-0.036777
-0.030644
-0.011093
0.049387
0.010755
-0.014443
-0.018270
-0.022672
-0.057182
-0.047823
-0.080752
-0.064621
0.004703
0.022257
0.005875
-0.033944
-0.057552
-0.071050
-0.028630
-0.019834
0.034249
-0.055196
-0.018973
-0.039919
-0.050473
-0.020116
-0.035439
0.043604
-0.020786
0.035148
-0.041381
-0.069717
-0.088583
-0.064997
-0.025951
0.019553
0.010281
0.000465
-0.048319
-0.065261
-0.030316
-0.001711
0.020891
0.011042
-0.060660
0.057953
0.004746
-0.041702
-0.073977
-0.047100
0.022965
0.048699
0.031774
-0.039296
-0.078040
-0.074869
-0.032531
-0.035326
-0.041034
-0.072735
0.002412
0.013570
0.001576
0.003643
-0.054105
-0.087244
-0.067663
-0.013409
-0.010490
-0.015617
-0.047289
-0.051384
0.015518
-0.065769
-0.000753
-0.040878
-0.044377
-0.011604
0.015097
-0.059422
-0.010951
0.012889
-0.019292
0.018475
-0.076958
-0.034487
-0.058450
-0.083693
-0.056549
-0.090240
-0.049567
-0.078918
-0.026829
-0.052285
-0.028047
-0.024886
-0.048283
-0.075994
-0.065707
-0.035585
-0.021053
0.021118
-0.015505
0.000110
0.051096
-0.027294
-0.037149
-0.073748
-0.034564
0.010109
-0.029441
-0.059279
-0.053624
-0.046496
-0.058983
-0.071917
-0.030581
-0.040136
-0.045768
-0.016389
-0.004811
0.007919
0.010166
-0.042165
-0.003604
0.049103
-0.045771
-0.006040
-0.058405
0.024371
0.005948
0.047500
0.018878
-0.009918
-0.002129
0.052407
-0.012492
-0.012048
0.021144
-0.046618
-0.005477
-0.010443
-0.046772
-0.004008
-0.062377
-0.014758
0.003295
-0.012590
-0.054334
-0.038842
0.025414
0.006212
0.007349
-0.010506
-0.074274
-0.010259
-0.027357
-0.069189
0.008863
-0.029484
-0.003885
0.007957
-0.074867
-0.037175
-0.002711
-0.008472
-0.008814
-0.063177
-0.037984
0.023708
-0.007394
-0.005609
0.022143
-0.031154
-0.000858
-0.043309
0.016396
-0.031765
-0.084356
0.011231
-0.021099
-0.028711
-0.002966
0.011468
-0.021388
-0.013667
0.002706
-0.012257
-0.072740
-0.001463
-0.005287
-0.044135
0.045283
0.057986
-0.071322
-0.057492
-0.013880
-0.005879
-0.026019
-0.066136
-0.015169
-0.029865
-0.045880
-0.027315
0.039882
-0.034089
0.015335
-0.027013
-0.029080
0.047433
0.065877
0.014177
0.026296
-0.073822
-0.024891
-0.007667
0.007823
-0.048274
-0.054260
-0.043318
-0.028862
0.007082
-0.062244
-0.016590
-0.010629
0.011780
-0.034613
-0.020349
-0.049532
0.007267
0.025547
-0.019106
0.031744
-0.032262
-0.002609
-0.019986
-0.056502
-0.074389
-0.093049
-0.002105
-0.031864
-0.078697
-0.016481
0.029606
-0.017048
-0.047010
-0.036193
-0.037525
-0.030859
0.048464
-0.007422
0.006581
-0.058805
-0.032547
-0.033405
-0.102012
0.000931
-0.005461
-0.008732
-0.008306
-0.035960
-0.014771
-0.046811
-0.063148
-0.044665
-0.070723
-0.061430
-0.045202
-0.033894
0.030447
-0.045711
-0.064480
0.003741
0.016399
-0.009738
0.036482
-0.029140
0.042528
-0.087778
-0.011775
-0.063393
-0.046598
-0.030590
-0.036640
0.008610
-0.001501
-0.060599
0.017663
0.027356
-0.010109
0.049757
-0.000773
-0.081586
-0.072161
-0.079175
-0.054956
0.008461
0.028340
0.042006
-0.037572
0.006388
-0.033813
0.017841
-0.006154
0.005569
-0.004768
0.006824
-0.056238
0.044604
-0.021352
0.003934
-0.008785
-0.049440
-0.061545
-0.079714
-0.022587
-0.046239
-0.053619
-0.003389
-0.036636
0.023174
0.012987
-0.022073
-0.085158
-0.045370
-0.051243
-0.062873
-0.008861
-0.057560
-0.009008
-0.039101
-0.069431
-0.056957
-0.009926
-0.049618
0.010565
-0.067517
-0.038769
-0.039637
0.026149
0.002419
0.014003
-0.007723
-0.017965
-0.068723
-0.049487
-0.011813
0.005819
0.030724
0.050031
-0.040755
-0.072545
-0.001261
0.005834
-0.047758
-0.033778
-0.015776
0.046099
-0.030269
-0.005524
0.045851
-0.054675
-0.035589
-0.072666
-0.060046
-0.029717
0.015687
-0.004438
-0.023557
-0.057160
0.005122
-0.028384
-0.020835
-0.039427
-0.000584
-0.017547
-0.037112
0.004839
0.012798
-0.060781
0.124705
0.126143
0.203259
0.115851
0.165234
-0.389939
-0.362316
0.070315
-0.038797
0.064976
0.068774
0.302800
0.248335
-0.176161
-0.502594
0.132522
0.218511
-0.106219
-0.309399
-0.201154
-0.112912
-0.200687
-0.370632
0.327346
0.480898
0.032094
0.211692
-0.054557
-0.038137
-0.028938
-0.203000
-0.230744
0.063178
-0.079753
0.262817
-0.080949
-0.312876
-0.082477
0.164364
0.115981
0.199567
0.066220
-0.311049
0.034137
-0.175746
0.158069
0.045282
-0.207879
-0.119865
0.104014
0.126982
0.003922
0.149983
-0.210456
-0.279277
-0.452211
-0.225415
0.000995
0.529201
0.251019
-0.225966
0.007830
0.013288
0.300806
-0.302036
0.439509
0.448092
0.008836
-0.009136
-0.151739
-0.102126
-0.173627
0.104184
0.024506
-0.075393
0.475461
0.041635
-0.169905
-0.052096
0.016712
-0.150164
-0.043426
0.494173
-0.371721
0.221444
-0.083992
-0.243163
0.078702
-0.050998
-0.441591
0.148403
-0.042976
-0.162044
-0.355138
-0.210772
0.065420
0.133254
-0.288953
0.288485
-0.041462
0.207858
0.085503
0.136486
-0.068495
-0.589140
-0.162846
-0.023436
-0.046865
0.090901
0.006527
-0.110805
0.101204
0.195113
0.197677
0.210462
0.091102
-0.171366
0.039137
-0.134151
-0.218456
0.082030
-0.015460
-0.197321
-0.324077
-0.188675
-0.298046
0.139878
0.041688
0.041191
-0.235853
0.151798
0.073721
-0.374146
-0.596561
-0.206852
-0.004830
0.171587
-0.023908
-0.280187
0.247173
0.098740
0.042939
-0.243520
0.045906
-0.022233
0.041420
0.266575
0.461206
0.126445
-0.012904
-0.533510
-0.414662
0.120903
0.432971
0.177486
0.181314
-0.042878
-0.047506
-0.087806
-0.612509
0.215334
0.256620
0.034164
-0.101937
-0.126021
-0.144181
-0.006798
-0.108838
-0.038498
-0.223950
-0.042344
0.118396
0.171846
-0.040117
0.088651
-0.191724
-0.299071
0.140188
0.342097
0.442034
-0.123019
0.292047
-0.065453
0.020359
0.055782
0.325365
0.266293
-0.306938
-0.342893
-0.163080
-0.087061
-0.332618
0.179970
0.044412
-0.024693
0.162513
-0.100234
0.196673
0.300949
-0.130045
-0.016830
0.408707
0.258621
0.155024
-0.196263
-0.370671
-0.375627
0.004748
0.236382
-0.107632
-0.193004
0.123520
-0.061250
0.144313
0.538630
0.075369
0.146243
0.269144
-0.001592
0.196241
0.073989
0.074392
0.358357
-0.051616
-0.136993
0.041698
0.035413
0.057079
-0.162574
-0.176801
-0.539999
-0.226643
0.042105
0.131726
-0.023673
-0.004944
0.076388
0.141772
0.092464
0.137353
-0.146667
-0.043420
0.098472
-0.137411
-0.078162
0.241339
0.186250
-0.136154
-0.017848
-0.065956
-0.094767
-0.073545
0.103591
0.108415
0.191322
0.181372
0.072358
0.052624
0.148897
-0.303447
-0.118706
0.156410
0.247226
-0.575231
-0.470273
0.038605
-0.011498
0.032203
-0.197336
0.038714
0.130437
-0.135817
0.048336
0.240724
-0.159742
-0.185290
-0.239907
-0.016100
0.446900
0.202996
-0.065249
0.224041
0.206488
0.342734
-0.078576
0.054429
0.006636
-0.226578
-0.020227
0.042961
0.017264
-0.336357
0.290261
-0.111491
-0.005841
-0.183127
-0.243267
0.542085
0.311278
0.263291
0.150218
0.173177
-0.306895
-0.618890
0.010012
-0.240736
-0.305777
-0.265372
-0.406918
-0.497464
0.084976
0.291627
0.154066
-0.311107
0.072215
0.007901
0.095955
-0.211459
0.057186
-0.001939
0.313465
-0.729255
-0.609077
0.093176
-0.092237
-0.481980
-0.140270
-0.800652
-0.112731
-0.037378
0.145623
0.046942
-0.296953
-0.112611
-0.129189
-0.308599
-0.149407
0.097560
0.234033
0.060091
-0.228537
-0.321889
0.145949
0.181799
-0.143265
0.418707
0.039437
0.082806
0.172591
0.268758
0.581820
0.241867
0.147437
0.217216
-0.290925
-0.511927
-0.505785
-0.337265
0.209416
-0.282141
-0.252626
-0.356631
-0.154844
0.014905
-0.295156
0.026072
0.106406
0.235295
0.139838
-0.349754
-0.037708
0.033621
0.027870
-0.028548
0.047799
0.126840
-0.076351
-0.449438
-1.135949
-0.467440
0.010225
0.067394
0.044284
-0.226669
-0.016821
0.034835
-0.139935
-0.590163
0.160903
0.351511
0.078200
-0.154571
-0.108938
-0.132426
-0.065793
0.068639
0.009409
0.010864
-0.135911
0.013760
-0.077930
-0.039856
-0.118548
-0.097239
0.026020
-0.143781
-0.046041
-0.003752
-0.022892
-0.078550
0.005662
-0.073402
-0.079606
-0.078296
-0.081009
-0.085694
-0.057541
-0.013646
-0.013233
-0.016435
-0.012275
0.013579
-0.014841
-0.123774
-0.082870
0.032174
0.012228
-0.123957
-0.037888
-0.025020
-0.011165
-0.092548
-0.024406
-0.005899
0.006874
-0.059650
0.020532
-0.028187
0.013213
-0.073580
-0.020321
-0.009129
-0.031586
-0.054159
-0.028709
0.049325
0.036842
-0.017266
-0.033284
-0.025097
-0.025342
-0.059985
-0.070432
-0.045282
-0.072281
-0.049162
-0.018772
-0.106311
-0.017490
0.012517
0.002199
0.003764
-0.072201
-0.091236
-0.135259
-0.133219
0.003209
0.001776
-0.083617
-0.072312
-0.037531
-0.026914
-0.022952
-0.113086
-0.108897
-0.029796
-0.022358
-0.023503
-0.062054
-0.057341
-0.106297
-0.076721
0.036930
-0.059373
0.013282
-0.030159
0.018136
-0.056414
-0.050601
-0.100235
0.006627
0.008462
-0.109862
-0.029940
0.014431
0.069535
-0.024304
-0.000638
-0.111569
-0.081715
0.057242
-0.031818
-0.013487
-0.033577
-0.113134
-0.106015
-0.071560
-0.089422
-0.009872
-0.028570
-0.058997
-0.065288
0.002477
0.025858
-0.025653
0.042745
-0.002045
-0.072655
-0.045532
-0.019709
-0.011627
0.010985
-0.079450
-0.064938
0.062118
-0.011289
-0.039005
-0.013993
0.020413
-0.025081
-0.023281
-0.049534
-0.103950
0.032290
-0.037434
0.000366
-0.038356
0.006392
-0.023285
-0.015156
-0.068740
0.000299
-0.038456
-0.067242
0.000370
0.051940
0.017266
-0.054907
-0.102359
-0.059315
-0.068842
-0.035808
0.033802
0.018246
-0.031492
-0.013053
-0.052921
-0.008922
0.007418
-0.064692
-0.025885
0.019368
-0.068303
-0.036468
-0.012012
-0.088270
-0.110040
-0.031966
-0.021261
-0.082557
-0.055936
-0.090193
-0.025862
0.010407
-0.050554
0.007753
-0.103544
-0.034778
0.064898
-0.062836
-0.118038
0.017457
-0.102964
-0.133329
0.012088
0.022353
-0.071551
0.029923
-0.095789
-0.053073
-0.080932
-0.092096
-0.024205
-0.022666
0.026772
-0.000325
-0.005871
-0.042508
-0.101659
-0.043490
-0.048621
0.005446
-0.047117
-0.041211
-0.033359
0.025401
-0.015521
-0.058424
-0.027912
0.014699
-0.073691
-0.077496
0.011714
0.019213
0.019707
-0.074605
-0.110293
-0.085822
-0.062207
-0.090755
-0.036845
-0.032329
-0.029075
-0.030248
-0.005342
-0.056966
0.011692
0.048177
-0.085537
-0.039493
0.019522
-0.081150
-0.097929
-0.090628
-0.058264
-0.111063
0.015273
-0.076221
0.051007
-0.059213
-0.109602
-0.095066
0.024449
-0.046228
-0.097981
-0.043287
-0.048086
-0.058409
-0.041501
-0.013454
-0.004208
-0.018093
0.006037
-0.015549
-0.121276
-0.066142
0.021460
-0.140444
0.034174
-0.001042
-0.051069
-0.025783
-0.042634
-0.047413
-0.090603
-0.017325
-0.034036
-0.107656
-0.023130
-0.014884
-0.031451
-0.068324
-0.082065
-0.040028
-0.016646
-0.095251
-0.085695
0.048962
-0.056582
0.020652
-0.035033
0.058632
-0.090991
0.017740
-0.043210
-0.020590
-0.011856
-0.034799
-0.080794
-0.081711
-0.050732
-0.053596
0.043768
-0.073390
0.025866
-0.023939
-0.003478
-0.056094
0.035404
-0.106383
-0.123856
-0.050759
0.005688
-0.007946
0.022031
-0.035713
0.082476
0.026048
0.025833
-0.033565
-0.033203
-0.078113
-0.125465
0.010985
0.026581
-0.004272
-0.051133
-0.036764
0.002167
-0.030348
0.037990
-0.005343
0.009244
-0.037827
-0.067508
0.014157
-0.074180
-0.049840
-0.031391
-0.035269
-0.012451
-0.087925
-0.037382
-0.085778
-0.044054
-0.005501
-0.196625
-0.051683
-0.131224
-0.021284
-0.067150
-0.008798
-0.086386
-0.065231
-0.001163
0.016591
0.045115
-0.065347
-0.070921
-0.007852
-0.027766
-0.055327
-0.044089
-0.054855
-0.014998
-0.045584
-0.067990
0.008199
0.077326
-0.087974
0.000995
0.059583
0.047078
-0.038699
-0.070437
-0.138127
-0.061813
-0.009585
-0.095835
-0.016021
0.019844
-0.011796
-0.096346
0.002803
-0.021512
-0.081321
0.063884
0.003690
-0.069548
-0.052434
-0.084644
-0.028378
-0.038940
0.023518
-0.066935
-0.054113
-0.031706
-0.119778
0.012986
-0.022828
0.025108
-0.095114
0.004561
0.062348
-0.042659
0.002031
-0.064046
0.015278
-0.030424
-0.037010
0.027563
0.207721
0.194688
0.198801
0.057844
0.041037
-0.016974
-0.452271
-0.099899
-0.178170
-0.188711
-0.103889
-0.451280
-0.296313
-0.285239
-0.106252
-0.088243
0.134631
0.079824
-0.429593
0.327727
0.285222
-0.167909
0.058243
-0.016916
-0.077694
0.173620
-0.059122
0.184117
-0.038818
0.007037
-0.086318
0.093153
0.208053
-0.094595
-0.300261
-0.144726
0.042406
-0.212728
-0.224867
0.001725
0.022611
-0.338932
-0.130331
-0.318170
-0.216469
0.039030
0.114384
0.339964
0.073654
-0.088601
-0.043796
-0.006296
-0.083004
-0.024503
0.110862
-0.297012
-0.201827
0.047397
0.063941
-0.225537
-0.175660
-0.648825
-0.142632
-0.021296
-0.043104
-0.050830
-0.176200
-0.194057
0.033045
0.285332
0.146233
0.018297
-0.181223
-0.159524
-0.031516
0.202125
0.072469
0.271661
-0.086586
0.119827
0.203913
-0.126681
-0.423220
-0.142791
-0.034731
0.236806
0.043583
-0.381408
0.026790
0.057896
0.108308
-0.205947
-0.036353
-0.146693
0.218592
0.263252
0.327618
0.138315
-0.325792
-0.073523
0.154310
-0.036680
-0.176560
-0.046607
0.186242
-0.004792
0.117484
0.022445
-0.233062
-0.068765
-0.010459
-0.174391
-0.041242
-0.039029
0.094933
-0.195578
-0.491439
0.084214
0.248958
0.150054
-0.230566
0.090413
-0.048243
0.054145
-0.292718
-0.035726
-0.076144
-0.033297
0.198729
0.334225
-0.361029
0.093131
-0.075377
-0.181766
-0.017002
-0.399754
-0.389038
-0.180775
-0.399280
0.185031
0.428993
-0.420514
-0.035261
0.045900
-0.423105
-0.221354
0.109503
0.122236
0.096217
-0.211550
0.298802
-0.086932
-0.066820
0.128558
-0.493933
-0.056750
-0.372497
-0.139449
0.126116
0.210028
-0.484040
-0.014677
0.107748
-0.167009
0.081886
-0.013813
-0.170738
-0.071782
-0.315638
0.112134
0.239049
0.048896
0.010183
0.151315
0.423546
-0.358242
-0.075936
-0.132171
-0.113419
-0.133982
-0.548996
-0.185460
0.108589
-0.082455
-0.068130
-0.193923
-0.301582
0.253063
0.319745
0.180667
0.062614
-0.096996
-0.026250
-0.065258
0.167835
0.093739
-0.264879
-0.409223
-0.145584
0.037654
-0.158793
0.020053
0.085247
0.307544
0.193599
0.374492
0.172693
0.061718
0.039141
-0.022229
0.085900
0.245665
0.007546
-0.566234
0.044111
0.164019
-0.026224
-0.337621
-0.218151
-0.322077
-0.397016
-0.242988
0.013225
-0.278369
0.452872
0.053108
-0.013392
-0.007257
0.074450
-0.031205
-0.001777
-0.068047
0.188677
-0.133503
-0.164657
0.138917
0.218965
0.179586
0.003208
0.112823
0.106090
-0.033456
-0.016862
-0.301405
0.168240
0.043125
-0.166882
0.152717
0.030430
-0.177602
-0.265676
-0.206539
-0.468019
-0.034226
-0.096553
-0.072931
-0.041195
-0.166028
0.102486
0.127917
0.113585
-0.614620
0.081222
-0.054235
0.138852
0.059892
-0.458833
-0.167076
-0.290297
-0.120871
-0.027731
0.090179
-0.324309
-0.282509
0.049900
-0.130193
-0.059190
-0.300290
-0.147154
0.356790
0.251525
0.064042
-0.164265
-0.370491
-0.148968
0.141625
-0.500304
0.140946
0.471346
0.002126
-0.081992
-0.382942
0.084669
0.208242
0.033165
-0.007344
0.198988
-0.281498
0.038941
0.127233
0.414834
0.046662
-0.029839
-0.052049
0.111815
-0.192278
-0.481073
-0.013871
-0.011160
-0.552124
-0.264680
-0.123845
0.342117
-0.343426
-0.507506
-0.113243
-0.072623
0.022452
-0.050489
0.283107
0.230380
0.170436
0.066063
-0.050466
-0.454877
-0.581980
-0.008282
-0.097209
-0.419621
-0.002437
-0.271733
-0.107284
-0.001374
-0.345213
0.252782
0.111005
-0.615890
0.031049
0.371177
-0.006476
0.019140
-0.268508
0.090452
0.450710
-0.239583
-0.186009
-0.065158
0.117148
0.193264
-0.047313
0.146999
0.385046
0.308931
0.088826
0.048644
-0.106440
-0.224415
-0.321894
-0.325127
-0.155659
-0.066151
0.102494
-0.096459
-0.178898
-0.156364
0.033349
0.279568
0.166518
-0.201550
-0.229169
0.167377
0.250175
0.115208
0.282183
0.076981
0.079968
-0.270622
-0.716830
-0.193302
0.049511
-0.007070
-0.250252
0.016619
-0.131536
-0.069980
-0.067015
-0.005018
0.114341
-0.095766
0.000432
0.044779
0.180118
0.091977
0.106004
0.205933
-0.009018
0.182494
0.100492
-0.027120
0.015718
0.013599
0.014713
0.010096
-0.048964
-0.023220
0.025599
-0.014424
-0.000264
0.003297
-0.021663
0.010157
-0.015491
-0.004276
0.025739
0.022075
0.031194
-0.044504
-0.036056
-0.029567
-0.036036
0.040796
-0.039112
0.029704
0.017774
-0.010977
0.002496
-0.021255
0.018443
0.000782
-0.025742
-0.055375
-0.013387
-0.045506
0.035205
0.006769
-0.026578
-0.040506
-0.003024
-0.035781
-0.033089
-0.021376
0.018498
-0.028292
0.038953
0.027428
-0.006386
-0.056460
-0.036278
-0.010396
0.019267
0.006968
-0.033732
0.009184
-0.045907
-0.007177
-0.011536
0.018097
0.024591
-0.048859
0.022308
-0.027512
-0.007590
0.028529
0.004386
0.009560
0.000185
-0.004531
-0.039127
-0.032353
0.019994
0.023496
-0.023093
0.009419
-0.035714
-0.039790
-0.037663
-0.018526
-0.057832
0.002744
-0.029510
-0.046203
-0.014797
0.013618
-0.019868
0.033886
-0.009681
-0.039375
-0.009373
-0.045449
-0.017392
0.013204
0.018679
0.010437
-0.047869
-0.005427
-0.014204
-0.003222
-0.005978
0.039664
-0.043626
-0.037389
0.030300
0.028145
0.006145
-0.009445
-0.000264
-0.031007
-0.041529
-0.048824
0.026520
-0.058263
0.027736
0.019175
0.039603
0.034537
-0.008549
-0.048599
-0.040031
-0.027346
0.041459
-0.035886
-0.030310
-0.017672
0.022571
-0.057696
0.038193
-0.012958
-0.060818
0.032448
0.010328
-0.017435
0.035827
-0.024701
0.014298
0.012921
-0.013247
-0.014991
-0.015994
-0.023225
-0.046076
0.007564
-0.014430
0.004736
0.036110
-0.050791
0.006841
-0.012133
-0.007490
-0.003466
0.026056
-0.005825
-0.006911
0.030032
-0.025832
-0.012857
-0.028118
0.013380
-0.000222
0.025299
-0.025587
0.029623
-0.055022
-0.038245
-0.012874
-0.060067
0.028963
-0.036184
0.031294
-0.039858
-0.028528
-0.038888
-0.045925
0.032155
0.014329
-0.056021
-0.004479
0.020556
-0.038441
0.028419
-0.035546
-0.046421
0.007823
-0.031394
0.004463
-0.049000
-0.052653
0.024017
-0.025964
0.027542
-0.016759
0.033002
0.021018
-0.046815
-0.012547
-0.001834
-0.016795
-0.019666
-0.046861
-0.045744
-0.031840
0.024455
0.005161
-0.032989
0.045143
-0.018798
-0.008661
0.012334
-0.012253
0.039986
0.015030
0.011829
0.007157
-0.019642
-0.042578
0.027753
-0.029971
0.028397
-0.048585
0.002427
-0.005227
-0.029825
0.013057
-0.037852
0.021093
0.002142
-0.002003
-0.036132
0.002272
0.023118
-0.039611
-0.050287
0.002243
0.039587
-0.042485
-0.006443
0.002815
0.017433
0.038573
-0.023358
-0.018171
-0.048539
-0.002100
-0.023410
-0.009576
0.023676
0.013908
-0.038150
-0.025175
-0.008232
-0.007832
-0.054328
-0.034064
-0.042248
0.034541
-0.050971
-0.011152
-0.000861
-0.003290
-0.036448
-0.018844
-0.023231
0.028237
-0.022271
0.031195
0.024222
-0.044035
-0.000061
0.024087
-0.044029
-0.032699
-0.010266
-0.060761
0.012294
0.023405
-0.030727
0.008841
0.015727
-0.025082
-0.009709
0.012504
-0.034242
-0.012754
-0.054489
0.044581
0.039375
-0.026850
-0.026636
-0.004810
0.009228
-0.043531
-0.033060
0.007283
0.034244
0.027847
0.031458
-0.051325
-0.001775
-0.006527
-0.049265
-0.042633
-0.019749
0.013307
0.025711
-0.037476
-0.037432
-0.001657
0.028677
0.018087
-0.012148
-0.005243
-0.030073
-0.040749
-0.043120
0.008303
0.018784
-0.009861
-0.036660
0.026826
-0.033330
0.022542
-0.044860
-0.016355
-0.014371
0.019041
-0.023450
-0.002750
-0.012652
0.030254
0.019032
0.023346
-0.013949
0.018792
-0.052677
-0.047011
-0.042829
0.040761
-0.025991
-0.057897
0.014226
-0.037889
-0.016080
-0.014291
-0.024282
0.024534
-0.012391
-0.050041
-0.068845
0.030416
0.029348
0.013917
-0.026323
0.005468
-0.038584
-0.044534
-0.027173
-0.040353
-0.019443
0.016303
-0.052836
0.012772
-0.008477
-0.041074
-0.056373
-0.016313
-0.045108
0.027571
0.031189
-0.058846
-0.006388
-0.043764
-0.050805
-0.021839
-0.049934
-0.002653
0.032057
-0.067864
-0.034113
-0.017022
-0.004613
-0.029793
0.025174
-0.005246
-0.045393
-0.008277
-0.007547
-0.059842
-0.059073
-0.005280
0.005791
0.028315
-0.000739
-0.000441
-0.004949
-0.007737
-0.056223
0.026690
-0.044195
-0.020978
-0.011556
0.141578
0.096088
-0.105583
-0.195050
-0.089585
0.324882
0.401836
0.272643
-0.035145
0.158435
0.508563
0.162688
-0.025269
0.074195
0.184002
-0.526049
-0.184393
0.002411
-0.470388
-0.079630
-0.105262
-0.297990
-0.291503
-0.463655
-0.233628
0.371494
0.014526
-0.191154
-0.075423
-0.201713
0.476276
0.304764
-0.050088
-0.321594
0.019645
0.626352
0.069641
-0.309277
0.109119
0.194793
-0.115670
-0.438583
-0.324775
-0.023261
-0.147918
-0.529354
-0.240059
-0.328432
-0.223895
-0.271495
-0.168600
0.058944
-0.076703
-0.289436
-0.233260
0.173780
0.432925
0.286885
-0.228205
-0.322810
0.369601
0.426714
0.104732
0.153589
0.131594
-0.413978
-0.109699
-0.221296
0.133440
0.057313
-0.378533
-0.090787
-0.136486
-0.557882
-0.106573
0.069160
-0.188095
-0.081377
-0.297213
0.212378
0.228021
0.015623
-0.135887
0.226368
0.044148
0.357128
0.017872
0.028454
0.169551
0.069147
0.005920
-0.315579
-0.084004
0.361423
0.226040
-0.159086
-0.016253
-0.210020
-0.375714
0.072289
0.128647
-0.305152
-0.036666
0.011255
-0.250033
0.215279
-0.049743
-0.061104
-0.348719
0.231320
0.314265
0.104175
-0.118450
-0.119307
0.187293
-0.024524
-0.250343
0.102424
-0.017409
-0.011446
-0.432868
-0.173145
-0.064076
0.018432
0.114256
0.234764
0.066024
0.015437
-0.208399
-0.528477
0.017264
0.527166
0.114000
-0.072488
0.012373
-0.332049
0.199337
0.049382
0.314560
0.401539
0.233435
-0.129562
-0.365679
-0.183593
0.164042
-0.295798
-0.472827
-0.287658
-0.180504
-0.237578
0.050951
-0.013878
0.134157
0.041756
-0.242891
0.004723
0.131661
0.261385
-0.032809
-0.671827
-0.152468
-0.123578
0.154224
-0.106270
-0.438417
0.103653
0.004110
0.263591
-0.061208
0.150112
0.135222
0.032483
-0.129120
-0.098539
0.082554
0.249817
0.137297
-0.147844
0.055856
-0.135178
0.075859
0.149347
0.033383
-0.010071
-0.373597
-0.113630
0.225716
0.261942
-0.170081
-0.063819
-0.161374
0.341618
-0.084112
-0.071818
0.353091
-0.016303
0.060893
-0.230516
0.111085
0.374663
0.092643
-0.070752
-0.148176
-0.401564
-0.437880
-0.035335
0.065989
0.074012
-0.108650
0.267967
0.117783
0.278574
0.228223
0.324186
0.477917
0.339868
0.184465
-0.036240
-0.097361
0.258729
-0.022616
0.128773
-0.153221
-0.474367
0.124045
-0.088859
0.175282
0.138421
0.065777
-0.371143
0.287410
0.316635
0.069042
-0.743289
-0.717297
0.279812
0.199189
0.185872
-0.026388
0.014155
0.274047
0.096755
-0.190559
0.203043
0.293056
-0.169348
-0.170191
-0.170436
-0.244593
-0.108886
-0.192146
-0.245717
0.034016
0.027651
-0.000754
0.176647
-0.217135
0.014254
-0.224121
-0.271906
0.081403
-0.104534
0.479286
0.182922
-0.010183
0.022612
-0.038080
0.011463
0.001896
0.577446
-0.145787
0.061079
-0.105286
-0.218536
0.212739
-0.007818
-0.166156
0.360805
-0.072654
0.263959
0.025674
0.090071
0.338641
0.064332
-0.136189
-0.168987
-0.049472
0.213652
0.010105
-0.104559
-0.299202
0.219438
0.099511
-0.051228
0.266385
-0.112241
-0.368211
-0.113984
-0.082866
0.068096
-0.100876
-0.059863
-0.183624
0.162837
0.068894
0.146402
-0.037998
-0.187551
-0.030811
0.122258
0.066678
-0.288911
-0.007978
-0.225677
0.042235
-0.457406
0.069505
0.319459
-0.127851
-0.430202
-0.070922
0.352773
0.233420
0.386115
0.002474
0.187213
-0.082853
0.074733
0.175665
0.326026
0.021694
-0.147527
0.204482
-0.037159
0.482733
-0.043340
-0.208773
-0.304081
0.095571
0.198900
0.452278
0.403188
-0.144893
0.152210
-0.072677
-0.128735
0.290781
0.067063
0.141235
0.107808
-0.264444
-0.073024
-0.081411
-0.155004
-0.099181
0.055391
0.217237
-0.140222
0.137710
-0.086343
0.356228
0.117033
-0.417956
-0.246015
-0.121699
0.326520
0.165528
0.029643
-0.120716
-0.460847
-0.073614
0.128328
-0.008622
-0.328582
-0.045850
-0.186235
0.090489
-0.305307
0.221383
-0.113080
-0.083402
-0.162779
-0.080497
-0.078025
-0.282303
0.050923
-0.090455
-0.208597
-0.510605
-0.289908
-0.180299
0.119081
-0.005425
0.086717
0.018713
-0.230582
0.027984
0.225876
0.054402
-0.486514
-0.016088
0.024936
-0.045333
-0.014770
0.017022
-0.009666
0.001884
0.012546
0.009138
0.011192
-0.043847
-0.023698
-0.006711
-0.000844
0.027812
-0.009779
0.021170
0.025853
-0.007798
-0.012268
0.028684
-0.018479
0.032280
-0.054560
0.013329
-0.001834
0.014607
-0.052744
-0.040800
0.003836
0.036967
-0.022380
0.008774
-0.080004
-0.075971
-0.047408
0.025374
-0.042416
0.010084
-0.034088
0.034889
0.009937
-0.054987
-0.043899
0.016437
0.029860
-0.045258
-0.004040
-0.014452
-0.036248
-0.044236
0.012637
0.017816
0.002076
-0.012432
-0.036101
0.038909
0.021716
-0.024036
-0.027545
0.025406
-0.004506
-0.006886
-0.057412
-0.030762
-0.022247
-0.031357
-0.010453
0.017098
-0.055689
0.016777
0.015000
-0.033523
0.016806
-0.004913
-0.048343
-0.009593
0.009627
-0.003341
-0.003631
-0.033208
-0.032155
-0.064355
-0.063211
-0.005418
0.023233
-0.014416
0.015576
0.002445
-0.011783
-0.006765
-0.023334
-0.034344
-0.047610
-0.015752
0.000595
0.009003
-0.054087
0.015113
-0.006016
-0.029009
-0.000955
0.022733
0.026989
0.016432
-0.027837
-0.041603
-0.015559
0.006030
-0.077237
-0.022356
-0.022502
0.028526
-0.049901
-0.022637
-0.040050
0.007511
-0.014402
-0.022038
0.027446
-0.036412
-0.031048
-0.021872
0.039910
-0.009016
-0.025882
-0.010787
0.019173
-0.004778
-0.042625
-0.008687
-0.034703
-0.064016
0.018340
-0.023525
-0.036827
-0.025587
-0.036369
0.015918
-0.012123
-0.048031
0.012821
-0.069280
-0.036173
0.027703
-0.041156
-0.007530
0.019935
0.013067
-0.018136
-0.061808
-0.034257
-0.074129
-0.042609
-0.047890
-0.057078
-0.022882
-0.042431
-0.041481
0.029720
-0.041421
0.000002
-0.009957
0.002761
0.006945
-0.034219
0.008841
-0.009569
0.003152
-0.021639
-0.012816
-0.059694
-0.048471
-0.038784
0.006717
-0.015652
-0.054241
0.009057
0.019878
0.019904
-0.014540
-0.055929
0.006343
-0.015782
-0.054654
-0.028323
-0.026323
-0.068152
0.000877
-0.053009
-0.006283
-0.045638
-0.010495
-0.023706
0.038499
-0.025498
0.013824
-0.042757
0.017071
0.029080
-0.055164
-0.047179
0.003924
-0.036560
-0.071059
-0.062793
-0.012341
-0.047713
-0.048153
-0.023453
-0.072102
-0.016055
-0.044447
-0.043014
-0.002771
-0.032886
-0.042581
-0.077580
-0.032278
-0.059208
-0.049617
-0.005074
-0.060662
-0.044608
0.013444
0.013205
-0.049733
0.025068
-0.018384
0.029150
-0.051965
-0.014589
-0.047933
-0.050842
0.001315
0.027095
0.018827
-0.016444
-0.025717
0.001558
-0.015083
-0.046248
-0.037509
-0.003289
0.025136
-0.048622
0.028049
-0.022616
-0.035157
-0.005461
0.036260
-0.012593
-0.003313
0.026049
-0.030308
-0.007528
0.006695
-0.029943
-0.067749
-0.074207
-0.017981
-0.033968
-0.015497
-0.065208
-0.051786
-0.057149
0.012938
-0.071663
0.003917
0.036201
-0.085992
-0.034284
-0.073955
-0.002550
-0.051016
-0.007894
-0.027994
-0.051584
0.012015
0.030079
0.037278
-0.039703
-0.038289
0.022176
-0.026436
0.002511
-0.003174
0.023673
0.009876
0.023777
-0.003648
-0.017865
-0.025092
-0.039922
0.020096
-0.015440
-0.010531
0.030237
0.037666
-0.034502
-0.047604
0.020638
0.012095
-0.009032
0.004891
-0.009673
-0.002295
0.030870
-0.028871
0.048004
0.004933
-0.052898
0.039007
-0.037076
-0.051180
-0.016011
0.013584
-0.042358
-0.052929
0.009308
-0.028022
-0.011894
-0.006697
-0.057801
0.029400
0.019362
-0.025671
0.009941
-0.033380
0.000041
-0.035725
-0.003772
0.037746
0.017423
-0.008619
-0.008637
-0.061349
-0.023625
0.028517
0.038229
-0.005016
0.012560
-0.011270
0.004924
0.009438
-0.061672
-0.016612
0.035609
-0.037381
-0.012141
-0.020434
-0.003406
0.000261
0.000620
0.016757
-0.043968
-0.004560
0.001888
0.031588
-0.009925
0.005459
-0.020603
-0.016647
0.013429
-0.058321
-0.033881
-0.048528
-0.042923
0.006980
-0.025229
-0.033064
0.022554
-0.045311
0.023081
-0.039812
0.026299
-0.043308
-0.061043
-0.000547
-0.010748
0.001288
0.006384
-0.037945
-0.045136
0.032018
-0.051107
0.042113
-0.014340
-0.040007
-0.068329
-0.045993
-0.016856
0.002129
-0.057261
-0.078324
-0.043778
-0.065316
-0.013878
-0.004597
-0.000737
0.090144
0.061237
0.118045
-0.064203
-0.068287
-0.053564
0.052792
0.152154
-0.043045
-0.151813
-0.034837
-0.126126
-0.364738
0.106787
0.205613
0.086694
0.345317
0.231191
-0.041850
-0.303231
0.478612
0.320366
0.004626
0.024408
-0.427147
0.128004
-0.072979
-0.164288
0.100983
0.028039
0.439144
0.270125
-0.157503
-0.208525
0.025148
-0.087477
0.102230
0.103504
-0.079107
0.038026
-0.201862
-0.203756
0.104328
-0.069374
0.006467
0.066736
0.010039
-0.160108
-0.031256
-0.386300
0.085369
0.116024
-0.004253
0.005149
0.011219
0.110276
0.197363
-0.037111
-0.013481
-0.107676
0.263931
-0.181738
0.158298
0.053551
-0.342155
0.074172
0.234355
0.463110
0.045763
0.084746
0.087474
0.089935
0.128260
-0.346709
-0.550728
0.034694
-0.089539
0.020109
-0.142354
-0.122846
0.010625
0.104459
-0.187344
-0.059603
-0.328892
-0.233193
0.256468
0.251232
0.115890
0.101896
-0.101871
0.044727
0.035924
0.542040
0.177632
0.234761
-0.128417
-0.168843
-0.140544
-0.327742
0.027170
-0.230777
-0.136183
-0.150604
-0.269752
0.418898
0.092650
0.066272
-0.180207
0.054221
-0.034961
0.086838
-0.321752
-0.227144
-0.132510
-0.328709
0.086357
-0.181796
-0.018962
0.202728
0.046036
-0.053735
-0.327201
0.163298
-0.045108
0.118942
0.112035
-0.067303
0.027988
0.003787
0.109965
-0.118271
0.065758
-0.014781
0.096700
-0.448225
0.004647
0.230109
0.149065
-0.393739
-0.132588
0.274176
0.073246
0.122974
-0.042065
-0.362153
-0.459730
0.004017
-0.127614
-0.054874
0.099910
0.544637
0.366090
0.127661
-0.114733
-0.075523
-0.101564
-0.196038
0.067892
0.170732
0.013850
-0.025461
0.387073
0.425305
0.410392
-0.011924
0.218262
0.078790
0.023363
-0.223195
-0.055788
-0.184746
-0.200445
-0.492683
-0.450644
0.130373
0.236119
-0.010056
-0.232004
-0.318447
0.058266
-0.484605
-0.347582
-0.077559
-0.211744
-0.334246
-0.253021
-0.072442
0.081901
0.096310
0.288631
0.155892
0.177364
0.001570
0.046377
-0.614536
-0.225457
-0.123232
-0.107756
-0.015107
0.179726
0.008812
0.219112
0.223281
0.167425
0.157734
0.214043
0.256819
0.093619
0.216047
-0.067861
-0.132930
0.390385
0.274970
-0.249579
0.349249
0.384328
0.312766
0.285278
-0.007843
-0.026994
-0.219729
-0.021069
-0.074159
-0.315964
-0.081821
0.022889
-0.046174
0.241824
0.089021
0.356626
0.254579
-0.014586
0.145038
0.187194
0.190821
0.108229
0.247758
-0.070491
-0.268853
0.241752
0.336047
-0.099029
-0.280024
-0.115064
-0.103370
-0.102643
-0.214031
-0.101313
-0.085177
0.166723
-0.104075
-0.005604
-0.122913
-0.211566
-0.078391
-0.011887
0.025412
0.072822
0.234371
-0.142946
-0.021090
-0.079331
0.187814
0.079967
-0.232423
-0.035490
0.181698
0.186258
0.040900
-0.135299
0.001265
0.002938
-0.206662
-0.167430
0.098661
0.281243
-0.009803
-0.473474
-0.094449
0.091286
-0.070678
-0.172009
-0.336944
-0.389788
0.014037
-0.057418
-0.107253
-0.043387
0.169665
0.128623
-0.522134
0.014287
-0.135684
-0.182722
-0.045337
-0.258123
0.220891
0.047080
0.121985
-0.306852
-0.230120
-0.126461
0.072334
0.072825
0.171230
0.209345
0.052797
0.282250
0.135194
-0.054003
-0.178688
0.013594
-0.104404
0.094759
-0.125308
-0.200273
-0.019088
-0.218136
-0.394226
0.337137
0.418573
0.007286
-0.329219
-0.092351
-0.155396
0.009499
-0.112117
-0.193531
-0.101118
-0.149278
-0.112412
-0.057088
0.024080
-0.163347
0.243859
0.188353
-0.123487
0.039384
0.151038
-0.021642
0.005956
-0.041863
-0.030407
0.172935
-0.300878
0.134795
-0.085442
0.388952
-0.047881
-0.126979
-0.383259
-0.081306
0.108195
-0.004148
-0.132687
-0.015682
-0.122942
0.180401
0.271929
-0.077366
0.167279
0.164510
-0.112504
0.282384
0.377948
-0.144375
0.138630
0.351470
0.098984
0.074018
0.264064
0.239411
-0.051444
-0.076672
-0.279173
-0.527263
-0.635679
0.084482
0.062501
0.322817
-0.098520
0.133709
-0.105266
0.074525
0.303592
0.160743
0.170646
-0.390876
-0.386968
-0.017181
-0.005715
0.001199
-0.064422
0.133580
-0.085045
0.142331
0.100291
-0.012746
0.110866
0.176535
-0.036699
0.005431
0.077858
0.072083
-0.280553
-0.035526
0.004621
0.317594
0.009218
-0.049822
-0.087427
-0.184980
-0.247328
-0.627008
-0.053002
-0.469410
-0.227510
-0.089215
-0.132291
-0.421126
-0.509955
-0.130570
-1.131154
-0.291637
-0.061811
0.082082
0.052961
0.074251
0.169404
0.422244
-0.342031
0.285641
0.203439
0.087049
0.063117
0.290073
0.080705
0.091404
-0.314646
-0.213930
0.265186
0.057393
0.010519
-0.372168
-0.036849
-0.015791
-0.021320
0.069345
-0.314906
0.127226
0.011762
-0.044282
0.007724
0.410347
-0.072722
0.101363
0.009778
-0.046651
0.211365
-0.240988
-0.397177
-0.259487
-0.327204
0.067604
-0.128768
-0.274833
-0.608530
-0.378082
-0.177201
-0.240073
0.004687
-0.495907
-0.216232
-0.028916
-0.147918
0.013364
0.190400
0.150853
-0.054126
-0.231664
-0.133985
0.019080
0.146043
0.294888
-0.099838
-0.165285
0.117882
-0.202599
-0.529921
0.102716
0.076429
-0.434219
-0.334510
-0.296526
0.058433
-0.085350
0.340022
-0.255977
-0.021569
0.014725
0.146544
0.000531
0.051733
0.111539
0.278690
-0.301727
-0.019518
0.238918
0.000778
-0.066044
-0.106212
0.010345
0.214296
0.105184
-0.031019
-0.032977
0.223905
0.068290
-0.485596
0.110901
0.003360
0.235137
-0.052589
-0.531252
-0.129479
-0.100445
0.067071
-0.085339
0.254135
0.072340
-0.102863
-0.144075
0.208156
0.234872
0.212563
-0.254222
0.191236
-0.067723
0.094976
0.121535
-0.133697
0.022253
-0.030595
-0.199063
-0.150248
0.051931
-0.345162
0.022642
-0.565191
0.110460
-0.355749
-0.372883
-0.020177
0.118693
-0.069468
-0.006301
-0.074092
-0.317023
0.234028
-0.053308
-0.446161
-0.670559
-0.258392
-0.234694
-0.192531
-0.149547
0.279212
-0.509961
-0.194057
0.024570
0.118004
-0.251132
-0.010335
-0.079576
0.347246
-0.069253
0.204046
0.146783
-0.084054
-0.492471
0.228083
0.102818
0.164761
0.268709
-0.419056
-0.396806
-0.267349
-0.100736
-0.380328
0.032127
-0.560745
-0.543467
0.081304
-0.337225
-0.103735
0.136135
0.208895
-0.126879
0.081887
-0.374866
-0.234289
-0.026321
0.103066
0.381957
0.129203
-0.076808
-0.232400
-0.247551
-0.275824
0.085147
-0.140851
-0.151034
-0.180644
-0.298258
0.256428
-0.132049
0.160089
-0.025760
-0.423756
0.277948
0.121123
-0.159986
-0.016900
-0.242347
-0.340973
-0.365809
-0.062540
0.072423
0.584347
0.128973
0.024594
-0.468123
-0.055292
0.084294
-0.050044
-0.218036
0.350001
-0.117009
0.017268
-0.114286
-0.104743
0.217251
0.199296
0.146663
0.044030
0.207150
0.150530
0.061737
-0.144787
0.043082
0.079240
0.227804
0.415538
0.371459
0.062058
-0.024928
0.028387
0.134813
-0.258488
-0.412745
0.080602
-0.198855
-0.510491
-0.328771
-0.239851
-0.176498
-0.501188
-0.343775
-0.856600
0.150650
0.244881
0.047360
-0.275093
-0.025106
0.025641
0.132748
0.211188
0.009641
0.005722
-0.310383
0.051294
0.142438
0.292980
0.173004
-0.173938
-0.497641
-0.070209
0.021302
0.198468
-0.429239
0.049820
-0.255580
-0.437695
-0.093319
-0.130155
0.226912
-0.392207
-0.165790
-0.037765
-0.175425
-0.014330
0.147997
0.063797
-0.191631
-0.035387
0.260042
0.415881
-0.413455
0.167426
0.126397
0.102432
0.237199
-0.256331
-0.056450
-0.051260
0.017296
0.462192
0.004513
-0.013940
-0.389407
-0.115857
-0.121216
0.075857
0.352073
-0.004988
0.186365
0.171203
-0.105595
-0.080714
-0.124612
0.243156
0.028180
0.046639
0.094466
0.228854
0.080652
-0.076043
0.202099
0.342367
0.167772
0.103640
-0.018590
0.138907
-0.203175
0.042834
-0.034188
0.097795
-0.153566
-0.421837
-0.190874
-0.108464
-0.327216
0.053132
0.127132
-0.033079
0.190556
0.115774
0.050370
0.186526
0.492552
0.201151
0.018052
0.166409
-0.300736
0.264300
0.094292
0.085212
-0.257706
-0.470579
-0.083308
-0.204458
0.073534
0.176510
-0.455464
-0.050152
0.258058
0.493890
0.068587
0.028994
0.198985
-0.041820
0.190065
-0.031204
0.138288
0.268938
0.300260
0.660206
-0.055723
0.163408
0.149103
-0.048713
-0.031827
-0.038328
0.250812
0.145621
0.149773
0.087113
0.169234
-0.120474
0.074677
-0.103983
-0.038330
0.089993
0.252082
-0.397786
0.127237
-0.030456
-0.190092
-0.184648
0.054752
-0.020070
-0.099578
-0.472691
0.036422
-0.095840
-0.509985
-0.293886
-0.426957
-0.048379
-0.750861
-0.209710
0.391509
-0.260329
-0.351525
-0.121826
-0.012095
0.225217
0.067985
0.104945
0.078261
-0.299524
-0.120153
0.108527
-0.216595
-0.022681
-0.009395
-0.049034
0.157191
-0.079453
0.140457
0.172842
-0.031343
-0.355954
-0.320202
-0.167538
0.054696
-0.075401
0.007722
-0.240977
-0.155986
-0.124711
-0.030484
0.117996
0.226049
-0.137903
0.000106
-0.691168
0.061094
0.275281
-0.096395
-0.208037
-0.247549
-0.213579
-0.503150
-0.051416
-0.755165
-0.333225
-0.293056
-0.073358
-0.267382
-0.065491
-0.015484
-0.242600
-0.143001
0.037305
-0.045680
0.050408
-0.162571
-0.146582
-0.153097
-0.339274
0.323597
-0.480579
-0.207595
0.006925
-0.121057
0.238104
-0.117626
-0.121701
0.071836
0.186482
-0.195230
-0.421212
-0.210528
-0.151723
-0.305393
-0.023796
-0.182981
-0.419161
-0.155031
0.080608
0.128314
-0.274709
-0.116287
-0.243966
-0.146735
0.148021
-0.007299
-0.114073
-0.229438
-0.052979
0.175566
-0.020427
-0.117762
-0.330055
-0.095135
0.085214
-0.127572
-0.275821
-0.127517
0.001611
-0.077605
0.065362
-0.046370
-0.286240
-0.006484
-0.033712
-0.112414
0.240501
0.578749
0.125980
-0.539037
0.162032
0.239226
-0.143341
0.009450
0.197332
0.128762
-0.241673
0.283010
0.108408
-0.011006
-0.169248
-0.472022
0.084396
0.096392
0.115402
0.217364
0.081985
-0.006535
-0.158354
0.120458
-0.213213
-0.314371
0.117731
-0.036727
-0.162954
-0.267868
-0.147108
0.271000
-0.047079
-0.290424
-0.355840
-0.186816
-0.072998
-0.292317
0.024228
-0.002845
-0.448521
0.098462
0.046091
-0.267287
-0.227945
0.027032
-0.063364
-0.238921
-0.060443
0.046090
0.232295
0.195874
0.513195
0.281200
-0.232846
-0.049706
-0.077717
0.468138
-0.004249
0.225521
-0.170500
-0.434987
-0.240309
0.237503
0.314515
-0.117233
0.227467
0.118909
0.177595
-0.325705
-0.276278
-0.026313
0.031616
0.009553
0.053795
0.106008
-0.421018
-0.384061
-0.419373
-0.053121
0.085963
-0.124086
-0.258064
-0.194604
-0.035909
-0.045822
-0.217349
-0.214960
-0.295144
-0.044491
-0.112746
-0.025328
0.226522
0.226251
0.248903
-0.011684
-0.015612
-0.315079
-0.225400
-0.216622
0.133438
-0.292841
-0.708938
-0.589482
-0.425141
-0.128441
0.203113
-0.583534
-0.166912
0.032984
0.074531
-0.608156
-0.408191
0.126238
-0.014891
-0.065970
0.034900
-0.029955
0.080186
0.175195
0.004923
0.163219
-0.018598
0.054815
0.136192
0.449393
0.140838
-0.043926
0.256716
-0.045701
-0.060522
-0.079367
0.194781
0.118762
-0.259084
0.039629
-0.149158
-0.211176
0.033670
-0.083846
-0.338750
0.181720
-0.014658
-0.086912
-0.550112
-0.669123
-0.164603
-0.252050
0.148704
0.232788
0.166396
0.099755
0.187454
0.007359
0.104322
-0.232134
-0.261995
-0.016362
-0.119785
0.200374
0.350052
-0.225820
0.364471
-0.106615
0.335776
-0.118670
-0.227579
0.107128
-0.190314
-0.124470
-0.111861
0.019305
0.046032
0.076648
-0.143216
-0.364538
-0.092952
-0.302776
0.012234
-0.256710
-0.292051
0.192692
0.033136
0.051745
-0.338086
-0.041051
0.257590
-0.206426
0.232411
-0.128552
0.000824
-0.131120
-0.473223
-0.160964
-0.056029
0.059567
0.384666
0.080129
0.127513
0.196624
-0.048624
0.307750
0.007311
-0.088528
0.219682
-0.189410
-0.117210
-0.103086
-0.048573
0.068549
0.092788
0.414555
0.327829
0.074037
-0.169501
0.288573
0.419354
0.091930
-0.160542
-0.024286
0.112034
-0.441566
0.136783
-0.032346
-0.061929
-0.197080
-0.401422
-0.092364
0.023993
-0.080289
-0.381871
0.044136
0.070231
-0.016499
-0.172392
-0.196905
0.231841
0.311468
-0.098279
0.082904
-0.489590
0.014647
-0.290636
0.128871
0.441340
0.159262
0.057549
0.286567
-0.052499
-0.214104
0.069072
0.112021
-0.496992
-0.243318
-0.058235
0.108898
0.356091
-0.045257
0.020859
0.235062
0.279783
0.298820
-0.068798
-0.202548
-0.176759
-0.115263
0.337508
-0.230125
0.071900
0.150213
0.145698
0.156140
-0.032994
-0.123257
-0.077159
-0.191167
0.279017
0.176389
-0.090788
-0.264497
-0.539963
0.303057
0.126221
0.249594
0.122248
0.187909
0.072643
0.146059
0.130726
0.158381
0.148184
0.465203
0.286066
0.097193
0.040983
-0.054516
0.143748
-0.222084
-0.060246
0.084916
0.067965
-0.287536
0.073625
-0.190229
0.022332
-0.370396
-0.265173
-0.013925
-0.202348
0.058840
0.058565
-0.408780
-0.444648
0.115158
0.020625
0.107912
-0.184464
-0.029693
-0.160287
-0.330123
-0.110095
0.240266
0.105948
-0.136587
0.109515
0.128183
0.830311
0.211619
-0.284932
-0.225730
-0.260017
0.806978
-0.110897
0.197924
0.229097
0.202788
0.178703
-0.042653
-0.084479
0.175883
0.171922
0.043963
0.184228
-0.249426
0.213343
-0.100178
-0.335603
-0.235033
-0.098770
0.158546
0.034401
0.060904
0.150015
-0.025977
-0.201205
-0.241313
0.161137
-0.195916
0.020757
0.224113
-0.095586
-0.122383
-0.277435
0.159116
0.085310
0.120534
0.327130
0.061595
0.023709
-0.254863
-0.013127
-0.076172
-0.163206
0.094582
0.139384
-0.205904
-0.273580
-0.057379
-0.076426
-0.085405
-0.105699
-0.079450
-0.057306
-0.033782
-0.193970
-0.164791
-0.254843
0.176862
0.205496
-0.158909
-0.272991
-0.140525
-0.051932
-0.039910
-0.144253
0.046559
0.395661
-0.085111
-0.031475
-0.158413
-0.144661
-0.113707
-0.179038
0.104971
-0.262030
0.005839
0.150298
0.018624
-0.287902
0.197924
0.136090
0.158300
-0.117891
0.269099
0.282128
-0.045048
0.405536
-0.003878
-0.170264
-0.509013
-0.027468
0.067791
0.301502
0.383100
-0.506155
-0.723066
0.047548
0.117539
0.213180
0.176547
-0.263665
-0.093204
-0.157744
-0.240826
-0.043653
0.014413
-0.001217
0.126454
0.118975
0.190221
0.039114
0.052354
0.045848
-0.022321
-0.225450
-0.139179
0.214334
0.073160
-0.369872
-0.157073
-0.152056
-0.076670
-0.296258
-0.286850
-0.477812
-0.145729
-0.452748
-0.324683
0.115055
0.131201
0.055124
0.114393
0.279086
-0.338538
0.048972
0.127265
0.256923
-0.312965
-0.011481
0.180800
-0.009745
0.182482
0.127235
-0.049782
0.190413
-0.045930
0.356357
0.496319
0.439096
-0.083510
-0.193143
0.243473
0.412879
0.025062
0.174272
0.022133
0.245453
0.419851
0.198911
0.269714
0.117370
0.171666
0.066453
0.087411
0.171455
-0.009680
0.181203
0.278811
-0.170003
-0.198977
0.133228
0.452729
-0.006322
0.099198
0.066590
0.157183
0.139894
-0.053268
-0.305794
-0.234592
-0.345834
-0.031485
-0.041704
-0.116335
-0.122383
0.142503
-0.339110
-0.107052
0.039402
0.113430
-0.085719
-0.082772
-0.005019
0.037230
0.055612
-0.565193
0.124833
-0.311545
-0.051201
-0.075282
-0.155623
-0.296855
-0.426753
0.166365
-0.121327
-0.127559
0.142001
0.084301
0.127653
0.200589
0.364716
0.006051
-0.019983
0.158334
-0.178460
0.095568
0.004910
-0.036427
0.022868
0.209732
-0.376592
-0.016974
-0.206066
-0.296832
-0.284491
0.218415
0.174447
-0.144457
-0.044094
-0.149609
-0.407049
0.278081
0.477805
-0.142222
-0.165827
0.173880
0.501152
-0.000713
-0.001170
0.056084
-0.099002
-0.003851
-0.202532
0.237843
-0.512033
-0.709162
-0.110221
0.295104
0.035463
0.274300
0.410190
-0.178352
-0.370254
-0.307881
0.163116
0.062667
-0.071045
0.180287
-0.199892
0.045120
-0.207991
0.277572
-0.073710
-0.021217
0.041344
-0.012812
-0.161764
-0.152781
0.288930
0.533046
0.252332
-0.396995
-0.263615
0.115173
0.248263
-0.102489
0.004910
-0.162320
0.090187
-0.061914
-0.401897
0.044591
-0.190958
0.193266
0.003980
-0.290912
-0.274387
-0.096652
0.208762
0.005417
-0.195835
-0.137638
0.110044
0.141832
0.102883
-0.338441
0.033095
0.103324
0.041125
0.046958
-0.063501
0.140194
0.090293
-0.057122
-0.021820
-0.280195
0.010187
0.009929
-0.075801
-0.193343
0.345733
-0.185361
0.126910
-0.046830
-0.124786
-0.067572
-0.165377
-0.415384
0.436940
0.275990
0.566609
-0.320494
0.441711
-0.070701
-0.076368
0.196413
-0.360158
0.446110
-0.044351
-0.290632
-0.359237
-0.392559
0.333264
0.000447
-0.062126
-0.206220
-0.357501
-0.032084
-0.112506
-0.043866
-0.314159
-0.049512
0.017799
0.008145
0.002076
-0.017576
-0.065652
-0.072382
-0.023187
-0.019116
-0.017525
-0.025768
0.021325
-0.033316
-0.011597
-0.017529
0.015759
-0.035423
0.004168
0.019339
-0.004072
0.041014
-0.018363
-0.065559
-0.040003
0.003873
0.025938
-0.062075
0.002467
-0.015818
-0.030486
-0.010754
0.022249
-0.036222
-0.049441
-0.027200
-0.023373
-0.066628
-0.056182
-0.037094
-0.012187
-0.008276
-0.069941
-0.072366
0.004933
-0.027476
0.007762
0.009283
-0.069608
0.021019
0.004805
-0.060267
-0.016304
-0.062830
-0.046676
-0.057811
0.018484
-0.065600
-0.047184
0.009645
-0.048573
-0.056504
-0.049288
-0.000066
-0.062975
-0.014931
0.031334
0.003981
-0.058507
0.013617
-0.059009
0.007208
-0.014649
-0.012075
-0.072274
-0.047772
0.011842
-0.063602
-0.025479
-0.069413
0.018857
0.028361
-0.046995
0.013471
0.022002
-0.012785
-0.019858
-0.004717
0.002564
0.002565
0.007115
0.011227
0.025473
-0.051306
0.024353
0.025107
0.025959
-0.064265
-0.067823
-0.053413
0.009391
-0.000195
0.008685
0.015372
-0.002548
-0.020762
0.025271
-0.023279
-0.029376
-0.050010
0.006211
0.020427
-0.006637
-0.031787
-0.065020
-0.022624
-0.001305
-0.016393
-0.056816
0.025925
-0.016909
-0.008584
-0.043063
0.016252
0.002376
-0.066485
-0.006121
-0.025248
-0.025756
0.020955
-0.008627
0.011332
0.024824
-0.023834
-0.030544
-0.059598
-0.051909
0.029911
-0.056528
-0.035524
-0.004552
-0.017438
0.025111
0.015577
0.000997
-0.019877
-0.021846
-0.049538
-0.019166
-0.013303
0.015001
-0.018999
0.007477
-0.032475
0.018684
-0.049829
-0.070684
-0.023956
-0.010418
-0.065073
0.010265
0.021238
-0.042275
0.012227
-0.042709
-0.057120
-0.049233
-0.036746
0.020410
0.023765
0.035185
-0.025961
-0.051329
-0.031110
0.000406
-0.024417
0.002760
-0.055169
0.024084
0.013015
-0.048517
0.015155
-0.002928
-0.059865
-0.005510
-0.048103
0.018218
-0.053420
0.015817
-0.058662
-0.063256
-0.055514
-0.055244
-0.015730
-0.013960
0.022813
-0.040299
0.023981
-0.040118
0.008570
-0.006540
-0.020037
-0.044310
-0.065490
-0.041219
-0.027593
-0.030674
-0.057773
-0.045065
-0.041182
0.014535
0.037394
-0.058286
-0.060656
-0.059191
-0.035816
0.023430
0.026628
-0.011955
-0.063456
0.004582
-0.037396
0.017677
-0.011399
0.012368
0.006305
-0.019931
-0.013268
0.012170
-0.047476
-0.051702
-0.038677
-0.011725
-0.035212
0.026898
-0.016308
0.005793
-0.022886
0.019602
0.016412
-0.042661
-0.045788
0.018423
-0.048825
0.034919
-0.034287
0.025863
-0.030444
0.002581
-0.033510
0.014262
-0.063841
0.024545
0.015986
-0.045467
-0.042627
-0.007829
-0.039897
-0.040939
-0.044739
0.018751
-0.054810
-0.018022
-0.030867
0.021420
0.001738
0.008369
-0.021213
-0.020020
-0.005420
-0.020851
0.017824
0.011662
-0.054838
-0.067381
-0.004798
-0.052719
-0.003189
0.018342
-0.033423
0.026036
-0.014403
-0.060439
0.004600
-0.043729
0.017286
-0.067872
0.023919
-0.039074
-0.063434
-0.033721
-0.042506
-0.012910
-0.067961
-0.028694
0.024076
-0.010274
-0.025719
0.026017
-0.035663
-0.067965
-0.026444
-0.014727
0.006877
0.003184
-0.057781
-0.029599
0.004476
-0.051871
0.029878
0.018754
-0.013160
-0.003842
0.023508
-0.055019
0.026745
-0.053714
-0.029889
0.023806
-0.026685
-0.004775
-0.020573
-0.018576
0.015821
0.016276
-0.065033
-0.017234
-0.054437
-0.023773
-0.004039
0.020410
0.033857
-0.039432
0.017300
-0.042698
0.023638
-0.027766
0.007803
-0.040056
-0.030896
-0.058246
0.023874
-0.016687
-0.059033
0.003883
-0.041553
-0.052785
-0.000985
-0.013037
0.013285
-0.033607
-0.041337
-0.057060
-0.062073
0.028376
-0.021488
0.020961
0.025970
-0.018893
-0.058145
-0.009263
-0.066101
-0.047198
-0.011298
-0.042565
-0.057894
-0.066326
-0.043907
-0.045641
-0.032911
-0.049643
0.023166
-0.051194
-0.022957
-0.056584
0.005160
-0.019756
-0.037736
-0.002144
-0.043563
0.026875
-0.055184
0.009227
-0.061147
-0.056048
-0.000177
-0.004378
-0.008063
0.002859
-0.047952
-0.040187
-0.030633
0.000063
0.028692
-0.039507
0.027670
0.002047
-0.016439
-0.004613
-0.001668
0.020921
0.416804
0.210190
0.049591
0.010802
0.150564
0.232979
0.264367
0.077579
0.101282
0.213069
0.089599
-0.084168
0.275521
-0.004100
-0.051434
-0.010538
-0.354298
-0.570943
-0.401164
-0.362706
-0.244817
-0.979560
-0.163736
-0.406355
-0.197538
-0.228501
0.278481
-0.263724
-0.007849
0.190096
0.393956
0.227315
-0.220018
-0.068286
0.397735
0.198271
0.247262
0.130569
0.277894
0.006819
-0.424289
-0.107071
-0.149636
-0.062526
-0.221548
0.259304
0.029651
-0.084440
-0.145011
-0.235625
0.068785
0.067001
0.119671
-0.300818
0.049634
0.097082
0.127130
0.074817
-0.167334
0.053598
-0.099347
0.280975
0.009515
0.024026
0.028927
-0.101069
0.070295
-0.137096
-0.151262
-0.175776
-0.303143
-0.431763
-0.114424
-0.081059
-0.311729
0.340854
0.090964
-0.303459
-0.103864
-0.018307
0.330281
0.292017
0.082394
0.158351
0.402619
0.200759
0.084015
-0.028723
0.162988
0.106061
0.022107
-0.122995
0.149234
-0.115379
-0.125709
0.250809
-0.396100
-0.047821
0.115468
-0.019216
-0.111955
0.355048
-0.327249
0.072627
0.379621
0.101034
-0.179174
-0.068971
-0.000679
0.296132
0.445309
-0.206671
0.123138
0.285814
0.187106
0.097351
-0.173252
-0.039413
-0.088418
-0.058466
0.079029
-0.068481
-0.054896
-0.157663
-0.158509
0.081140
-0.093865
0.059434
-0.105455
-0.040556
0.487055
0.362809
0.219237
-0.126093
-0.069937
0.228110
0.066831
0.116584
0.041649
0.306044
-0.036107
-0.203396
-0.053011
-0.319830
0.060290
-0.704346
0.180830
0.095877
-0.241790
-0.106437
0.669199
0.215979
-0.136439
-0.112327
-0.167824
0.041380
-0.089017
0.131103
-0.100710
-0.435973
0.109313
0.187514
0.079490
-0.030009
-0.078694
0.236247
-0.164874
-0.104243
-0.075677
-0.064950
-0.219210
-0.374265
-0.183800
0.052352
-0.129909
0.212571
-0.069107
0.040084
-0.032571
-0.122325
0.536221
0.188958
0.051800
0.055959
0.090419
0.534871
0.447688
-0.035783
-0.027353
-0.081663
-0.220054
-0.060509
-0.405619
-0.000246
-0.009387
-0.454831
0.397769
0.160908
0.017743
0.087539
-0.223465
-0.043739
-0.031925
-0.470746
-0.209847
-0.017347
-0.021376
0.166874
-0.128361
0.139162
-0.019819
-0.160478
0.048915
0.162589
0.082045
0.407835
-0.027764
0.064516
-0.009788
-0.111599
-0.052554
0.043637
0.247356
0.225437
0.032182
-0.275959
0.100148
0.080758
-0.428406
-0.247090
-0.153323
-0.071351
-0.025202
-0.139139
0.015165
-0.027647
-0.091763
0.041899
0.224617
-0.080685
0.332942
-0.084512
-0.173881
0.002780
-0.041518
-0.463581
-0.297106
-0.058971
-0.287818
0.033666
-0.078916
0.073929
-0.162149
-0.116737
0.172332
0.220838
-0.191571
0.102478
0.138241
0.007770
0.435433
0.106627
0.164373
0.146873
-0.081331
-0.036305
-0.147889
0.223915
-0.019087
-0.075946
-0.039212
-0.003944
-0.253034
0.092603
-0.342049
0.006761
0.082674
-0.037273
0.073344
0.178928
0.155057
-0.161190
0.119338
-0.051946
0.169690
0.086883
-0.137221
-0.050088
0.044729
0.216884
-0.265994
-0.203847
-0.161422
0.168666
0.165014
-0.498729
-0.216495
-0.140263
0.005104
-0.216666
0.220515
-0.064258
-0.165871
0.110397
-0.096334
-0.073400
-0.218651
0.095736
-0.106711
-0.124691
-0.336747
-0.140841
0.207497
-0.288375
-0.071495
0.139723
0.127027
0.051346
0.067064
-0.083023
-0.215254
-0.127846
-0.357989
0.049328
0.007400
-0.064372
0.066311
0.026039
0.129814
0.475474
0.366914
-0.081039
-0.117880
-0.234404
0.601835
0.299050
0.081949
-0.076919
-0.290433
0.420442
0.124511
0.017690
-0.005482
0.064374
0.477550
0.246181
0.402467
0.229778
0.076820
0.544809
0.238446
0.069494
-0.292195
0.014741
0.035698
0.124814
-0.142408
0.056495
-0.027688
-0.028503
-0.278619
-0.257069
-0.065620
0.233387
-0.071103
0.285267
0.070630
-0.097466
0.178493
-0.054665
0.303840
0.172016
-0.165740
-0.086178
-0.280111
-0.224093
-0.179469
-0.152199
-0.157429
0.363002
-0.137265
-0.044352
-0.321406
0.115763
0.139521
-0.279519
-0.114059
0.273019
-0.081486
0.196705
0.035390
0.041986
0.241401
0.240667
0.004899
0.271513
0.114998
0.273521
-0.098471
0.136568
-0.058693
-0.148217
-0.053578
-0.128296
-0.230499
0.154289
0.034006
0.052487
-0.031388
0.023836
0.070615
-0.102133
0.050691
-0.019417
0.174581
0.284069
0.153102
-0.090968
0.066880
0.084077
0.291689
0.254560
0.229209
0.191775
0.151848
0.125503
-0.174740
0.072472
0.114787
-0.243523
-0.229896
-0.461696
-0.067868
0.213521
-0.033304
-0.200275
-0.255541
0.211871
-0.032644
0.047524
-0.227044
-0.080077
-0.020687
-0.063990
-0.063078
-0.067153
-0.011847
0.073466
0.058496
0.484320
0.167210
0.142317
-0.143158
-0.179300
-0.005112
0.076699
-0.039725
-0.278372
0.192988
0.183915
0.168686
-0.083486
0.195363
0.002941
-0.237224
0.277839
-0.354436
0.119448
0.050572
0.144250
0.221102
-0.022640
0.025982
0.192924
0.190523
-0.116349
0.159174
0.023396
0.201705
-0.309991
-0.442173
-0.020855
0.110738
-0.008837
-0.067867
-0.119877
0.020382
0.079345
-0.161985
0.135781
-0.072229
0.036512
0.082368
-0.033368
-0.114158
0.056133
0.170303
0.086960
0.096055
0.328941
-0.273770
0.159613
0.160045
-0.006455
-0.200958
0.113009
-0.189294
0.051234
0.216284
-0.103158
-0.058770
0.084773
0.136898
-0.165443
-0.247465
-0.019373
0.157501
0.046344
-0.174824
0.081815
-0.070990
0.212855
-0.121539
0.301468
0.230324
0.158936
-0.115264
-0.067396
-0.224625
-0.352971
-0.254963
-0.381136
0.068684
0.327690
0.019484
-0.533685
0.377653
-0.102860
0.350893
-0.227355
-0.030193
-0.272828
-0.020766
-0.257158
-0.070231
0.251011
-0.052928
-0.105305
0.136115
0.377814
0.097752
0.394092
0.375345
-0.451587
-0.128933
0.260323
-0.065094
-0.059934
-0.278150
-0.142598
-0.051998
0.082192
-0.355609
0.021598
0.210695
-0.030707
0.268288
-0.027892
0.372700
-0.286519
0.026813
-0.060971
-0.138595
-0.145255
0.084537
0.088750
0.201027
-0.036794
-0.036787
-0.572702
-0.054346
0.042050
-0.234221
-0.207242
-0.073174
-0.274248
-0.143484
0.200906
0.218646
0.153417
0.141827
-0.046484
0.195370
0.016083
0.185821
0.277864
-0.148053
-0.378507
0.082046
-0.224542
0.193955
0.219810
0.055848
-0.325136
-0.692245
0.271044
0.231660
-0.069410
-0.181812
-0.190757
0.004930
-0.014519
0.013834
0.000675
-0.233074
-0.024606
-0.065307
-0.077421
-0.081259
-0.018082
-0.028884
-0.046208
0.071961
0.028177
0.290837
0.157192
-0.153540
-0.165541
-0.403839
-0.293116
0.082602
0.130507
-0.073763
-0.099837
0.302552
-0.096331
-0.265960
0.088671
0.220953
-0.376726
-0.075534
0.333413
0.210288
-0.041328
0.164359
0.150419
0.230304
0.247671
0.189115
0.088731
0.197431
0.258006
0.053907
-0.222721
-0.246950
0.001130
0.129748
-0.227038
0.014638
-0.229498
-0.221496
0.132841
-0.007839
0.042358
0.171641
0.036870
-0.183551
0.214406
0.141773
0.153868
0.082554
-0.062456
-0.206760
-0.131951
-0.612225
0.077479
-0.074046
0.054769
0.001320
-0.010314
-0.047385
0.356460
-0.202741
-0.092715
-0.061744
-0.069581
0.223455
0.120414
0.068820
0.154459
-0.081764
-0.121574
0.155179
-0.078044
0.104036
0.166345
0.085868
-0.115001
0.148895
-0.007348
0.005790
-0.251410
0.139409
-0.290567
-0.018368
-0.027166
-0.259624
-0.009519
-0.085263
-0.147541
-0.006641
-0.188932
-0.252057
-0.028312
0.045021
0.062943
0.070045
0.178067
0.080864
-0.327761
0.246617
0.133435
0.341472
-0.075140
0.103227
0.332336
0.101725
0.171377
0.238128
-0.245424
-0.224510
-0.056782
0.030185
-0.121203
-0.153495
-0.290716
-0.096255
0.185769
-0.421733
-0.171132
0.046801
0.027506
-0.166191
-0.309813
0.053009
-0.295619
-0.246401
-0.382793
-0.045054
0.322564
0.271134
0.033733
-0.065191
-0.192256
-0.305911
0.181131
-0.060442
0.244327
0.184982
-0.035840
0.185829
0.192764
-0.187183
0.156862
0.276403
0.021650
0.238114
0.003464
0.087151
-0.001006
-0.086980
0.227984
0.164887
0.488160
-0.068903
-0.238255
-0.434806
0.322150
0.368385
0.074981
-0.027853
0.076062
-0.210978
-0.199168
0.194377
0.114163
0.133103
-0.167697
-0.145187
-0.307218
-0.040771
-0.041338
-0.266962
-0.164912
0.096794
-0.137596
-0.005413
0.164594
0.086341
0.184551
-0.042492
0.047872
-0.095015
-0.002746
-0.029065
-0.322258
-0.263110
0.243475
0.346068
0.338813
0.213353
0.189831
0.139015
-0.120623
-0.071879
-0.027687
-0.222676
-0.286966
-0.329272
-0.419737
0.003347
-0.307147
0.157437
0.253393
0.143004
0.000361
-0.123623
-0.224000
-0.243151
-0.149004
-0.139401
-0.103202
0.267075
0.383803
0.261369
-0.178191
-0.006026
0.341363
0.381377
-0.016283
-0.007783
0.051404
-0.283689
-0.113190
-0.083518
0.077292
0.392071
0.063145
-0.571200
0.018911
-0.068263
-0.229641
-0.019453
-0.291018
-0.090191
0.197682
0.142423
0.276822
0.349095
0.181138
-0.015687
