-0.016616
-0.244227
-0.032671
-0.142704
-0.158511
0.167796
0.068780
0.141053
0.280166
0.342723
0.142711
0.092831
0.035365
0.601874
0.204747
-0.111944
-0.188399
-0.404682
-0.223665
0.006433
-0.255797
-0.443156
-0.472327
-0.117726
-0.048908
0.310075
0.560892
0.455104
0.322770
-0.030442
-0.019747
0.352864
0.528126
0.518360
-0.041898
-0.645981
-0.661787
-0.239759
0.242320
-0.064518
-0.859634
-0.558549
-0.275850
0.089607
0.114093
-0.228924
-0.144555
-0.049445
0.205954
0.099259
-0.037705
-0.176847
-0.418401
-0.426432
-0.485692
-0.167826
-0.368685
-0.335723
-0.026323
-0.328990
-0.095775
0.370857
0.778354
0.761706
0.223795
0.058572
0.651103
0.854776
0.573791
-0.066706
-0.104919
0.067699
-0.028045
0.242725
0.083878
-0.127180
0.173491
-0.103166
0.031161
-0.148246
-0.548860
-0.535432
0.208676
0.473162
0.344183
-0.872371
-0.194779
0.469370
0.691352
0.450507
-0.470992
0.295957
0.526717
0.464577
-0.035575
-0.177421
0.230109
0.139640
-0.257137
-0.937461
-0.048892
0.171726
0.032251
0.055187
-0.061591
-0.042291
0.077845
-0.023198
0.233602
-0.290156
0.020641
0.128787
0.193272
0.459492
-0.042966
0.070060
-0.080883
-0.133838
0.021353
0.004187
-0.004312
-0.190967
-0.038882
0.169686
0.120862
-0.018911
0.217471
0.370470
0.063220
-0.174557
0.194552
0.351102
0.182859
0.388016
-0.151650
-0.004245
0.107397
0.133552
0.368351
-0.130070
-0.055182
-0.111140
-0.262871
-0.333437
-0.416601
-0.075139
-0.281642
-0.345360
-0.132742
0.052300
