0.240504
-0.084492
-0.201622
0.126325
0.375713
0.294076
-0.089189
-0.249776
0.063654
0.228872
0.405694
-0.165595
-0.324972
0.072233
-0.041757
0.061313
-0.250018
-0.129278
-0.054914
-0.047161
-0.115168
0.016637
-0.061525
-0.044557
0.025531
-0.022194
-0.257713
-0.295102
0.247824
0.067941
0.070134
-0.367906
-0.423086
0.035951
0.060993
0.198514
-0.447623
-0.259801
0.137294
0.023532
0.093136
-0.387859
-0.037171
0.113273
0.011911
-0.369064
-0.101449
0.090829
-0.183216
-0.052360
0.070793
0.207022
0.081431
-0.309802
-0.270994
0.095829
0.080635
0.039840
-0.485104
-0.456112
0.180607
0.007029
-0.193783
-0.621320
-0.407182
0.301128
-0.029590
-0.324437
-0.287275
-0.093435
0.321211
-0.286364
-0.173009
0.054112
0.001018
0.107328
0.020035
0.239299
0.146804
-0.041652
0.253544
-0.106908
0.188564
0.149767
-0.077838
0.074259
-0.111309
0.084745
0.131070
0.013019
-0.044921
0.002318
0.056158
-0.061367
-0.010958
0.027679
0.034835
-0.063583
-0.157720
0.023906
-0.181971
-0.041065
0.188115
0.255654
0.015085
-0.142790
-0.267878
0.086802
0.219866
0.030647
-0.034908
-0.190237
0.048073
0.162784
0.050474
-0.161886
-0.150896
0.072441
0.157393
-0.041736
-0.114191
-0.105335
-0.038884
-0.026303
0.057050
-0.048497
-0.215123
0.056344
0.236804
-0.039159
0.078085
-0.228932
-0.081505
0.151866
0.082822
0.023109
-0.216070
0.084498
0.061827
0.047402
-0.103846
-0.203721
0.026187
0.003845
0.080401
-0.102132
-0.011865
0.022020
-0.128994
0.080926
-0.077879
-0.075619
0.121279
0.282439
0.242631
-0.094297
0.013832
0.029029
-0.034390
0.117551
-0.312169
-0.255852
-0.129443
0.050175
0.168562
-0.173419
-0.057900
-0.047813
0.043352
0.026876
-0.100698
-0.111967
-0.212744
-0.237369
-0.159749
-0.100409
-0.088886
-0.093645
-0.089983
0.084135
-0.041532
-0.122288
-0.025964
0.125382
0.049035
0.089292
-0.260586
-0.207045
0.086412
0.164236
-0.233899
-0.138576
0.130819
0.141471
0.162708
-0.156013
0.005651
0.122411
0.120144
-0.101208
0.199619
-0.236173
-0.447454
-0.422829
-0.139136
0.103845
-0.000709
-0.172010
-0.549899
-0.080411
0.228032
0.067706
-0.171363
-0.308762
-0.260681
-0.038444
-0.170655
-0.205937
-0.056366
0.048502
-0.121029
-0.004022
0.123207
0.274092
0.094146
-0.082842
0.051565
0.182838
0.105786
-0.002059
0.189770
0.155946
-0.087205
-0.207488
-0.070822
0.038795
-0.114309
-0.161386
0.021661
-0.157933
-0.019805
0.035385
-0.041933
-0.097687
-0.481729
0.000036
-0.135984
-0.294781
-0.385559
-0.197713
-0.068997
0.115822
0.091040
0.001245
-0.190862
0.088011
0.062912
0.049067
0.095062
-0.064800
0.050670
0.148328
0.041309
0.105109
0.034368
-0.048300
0.081399
0.189273
0.025929
0.063755
0.061556
0.027868
0.077769
0.006930
-0.059848
-0.042487
0.036264
0.085749
0.024987
0.007649
-0.082816
0.094347
0.118388
-0.043498
0.028128
-0.009123
0.014356
-0.100810
-0.012726
0.046932
-0.024817
-0.043392
0.079034
0.141675
-0.049880
0.036066
0.002625
-0.039536
-0.103046
-0.153189
-0.140709
-0.162556
-0.131012
-0.067881
-0.085110
0.027371
0.068487
0.038005
0.021811
0.107583
-0.170209
-0.067220
-0.211785
-0.314135
-0.232409
-0.257416
-0.160204
-0.183271
-0.156910
-0.342531
0.060192
0.193502
0.194569
0.115157
0.002526
0.066207
0.068542
0.198560
-0.031716
-0.008265
-0.175398
0.076796
-0.012878
0.002737
0.142229
0.053534
0.005959
0.000182
0.085525
0.086102
-0.157486
-0.281559
-0.347467
-0.282274
-0.149702
0.080111
0.097029
0.061837
0.072807
0.074422
-0.324453
-0.240696
-0.244150
-0.303981
-0.214839
-0.401566
-0.221653
-0.280820
-0.238828
-0.177060
0.302004
0.333792
0.431463
0.396081
0.354881
0.349519
0.315423
0.179271
0.215327
0.383668
-0.355638
-0.351727
-0.502712
-0.673742
-0.522839
-0.022282
-0.097744
-0.252338
0.030595
-0.022133
0.020818
-0.024740
0.006392
0.101430
0.129891
-0.132905
-0.299630
-0.309340
-0.070721
0.022618
-0.122153
-0.123101
-0.164789
-0.210838
-0.137503
0.311915
0.279335
0.323577
0.146926
0.020674
0.076321
0.087870
0.022214
-0.120146
-0.073882
0.063249
-0.019813
-0.089790
0.027507
0.099031
0.090202
-0.041660
-0.073380
-0.061115
0.147926
-0.048255
-0.269255
-0.301190
-0.212718
-0.175805
-0.073713
-0.003679
-0.068979
-0.070971
-0.078941
-0.032356
0.067158
-0.014012
-0.026070
-0.118434
0.041838
0.066639
0.028613
0.127067
0.179776
0.101293
0.122500
0.049131
0.036268
0.076400
-0.334639
-0.477213
-0.412775
-0.168675
-0.145255
0.002603
0.035457
0.231979
0.180610
-0.022553
-0.176639
-0.183828
-0.019550
-0.026459
-0.036841
0.048124
-0.324890
-0.373954
-0.387043
-0.019005
0.241902
0.336321
0.057817
-0.227208
-0.252049
0.010172
0.292971
0.325677
0.100947
-0.190798
-0.151640
-0.130649
0.031066
-0.017433
-0.119827
-0.007257
0.027446
-0.025650
0.096374
0.021596
-0.106224
-0.125419
-0.297912
0.125320
0.075265
-0.094824
-0.185898
-0.211921
-0.033212
-0.017650
-0.052569
0.126919
0.206698
-0.007546
-0.117918
-0.132797
-0.066570
0.177219
0.001302
-0.017771
-0.132369
0.163336
-0.000259
-0.319995
-0.310610
-0.071824
0.437694
0.439642
-0.127746
-0.245055
-0.356127
-0.627760
0.011228
-0.004319
-0.067967
0.754337
0.358566
-0.078042
-0.189839
-0.051360
0.423387
0.423057
0.261770
-0.059130
-0.260181
0.108992
0.215066
0.197371
0.012856
0.025402
-0.043325
-0.322556
-0.184094
-0.071009
-0.018161
-0.085079
0.069890
0.077963
0.022905
0.226096
-0.116563
-0.035302
-0.011525
-0.001211
0.198222
-0.196186
-0.146762
-0.256008
-0.195170
-0.011623
-0.184213
-0.012733
0.079045
0.081783
0.048325
-0.309060
-0.210942
0.021294
0.115808
0.044546
-0.035364
-0.211358
-0.208232
0.018400
0.096103
0.154671
0.237253
-0.091556
-0.108436
-0.007428
0.029818
0.163027
0.155116
-0.004942
-0.021901
-0.118020
-0.043011
-0.047123
0.113247
-0.006724
-0.023187
-0.191789
-0.238426
-0.020107
-0.039508
0.056499
-0.005498
0.028786
-0.061975
-0.055305
-0.015775
0.150411
0.213128
0.128355
0.032681
0.035758
-0.025680
0.001041
0.098437
0.089774
0.061963
0.012720
0.228601
0.182845
-0.060265
0.035478
0.020114
0.002098
0.050098
-0.135625
0.066819
-0.021786
-0.037763
-0.010346
0.145141
-0.020102
-0.067509
-0.056129
0.047145
0.284531
-0.062716
0.002304
0.019260
-0.312068
-0.009928
-0.309755
-0.092694
-0.006099
0.041335
0.015466
-0.191844
0.043875
0.075481
0.019430
-0.086971
-0.090450
0.177431
0.047545
-0.160785
-0.154759
0.289112
0.144806
-0.069703
-0.079427
0.067493
0.014553
0.097018
0.003471
-0.378046
-0.145375
0.168288
-0.444453
-0.840209
-0.624261
-0.226772
-0.189494
-0.532715
-0.558356
-0.610956
-0.166092
-0.440577
-0.362848
0.182957
-0.067289
-0.358393
-0.167126
0.041921
0.280798
0.453440
0.250492
0.126429
-0.012992
0.106598
0.444329
0.400704
0.048794
0.115839
0.046729
0.031876
0.052296
-0.068246
-0.098353
-0.048943
-0.098108
-0.322731
0.055808
-0.028627
-0.076328
-0.229029
-0.075534
-0.064271
-0.159276
-0.558346
-0.271385
0.125487
-0.203356
-0.128299
-0.497367
-0.151987
0.093419
-0.033708
0.023614
-0.110578
-0.042160
-0.034171
0.007960
0.104415
0.034399
0.019770
-0.275673
0.116449
0.073940
-0.013577
0.060255
-0.129147
0.079751
-0.064240
-0.023436
0.130193
0.175737
0.080653
-0.023103
-0.197171
-0.039558
0.159666
-0.192442
0.090562
0.121683
-0.008570
-0.014462
0.042555
0.178484
0.019565
0.046452
-0.133517
0.014690
0.051763
0.029411
-0.061551
-0.159194
0.194565
0.083201
-0.003103
0.102871
0.275699
-0.065158
-0.012657
-0.288732
-0.427947
0.105243
-0.090101
-0.041051
0.040409
-0.055859
-0.057154
0.035845
-0.101865
-0.081327
-0.050028
-0.023362
-0.060404
-0.058130
0.033173
-0.083293
-0.013930
0.002352
-0.082435
-0.053188
-0.043584
-0.014644
0.013726
-0.107354
-0.107702
0.033136
-0.091841
-0.048325
-0.067597
-0.011365
0.021855
-0.000307
-0.063870
0.003557
0.026742
-0.043725
-0.014481
0.047059
0.013259
0.007864
-0.102214
0.028115
0.025347
0.027264
-0.030265
-0.110790
-0.114678
-0.031365
-0.093116
-0.029150
0.018294
-0.116757
0.024298
-0.019638
0.022514
0.055096
-0.006545
0.017040
-0.043289
-0.038073
0.041974
0.018372
-0.076871
-0.094412
-0.047005
-0.001704
-0.005856
0.028158
-0.046100
-0.073287
-0.006190
0.058934
0.023650
-0.048629
-0.015324
0.051200
-0.012351
-0.057893
-0.065100
-0.022351
-0.055689
0.020271
-0.103651
-0.006067
-0.109694
-0.062308
-0.071621
0.037793
-0.110493
-0.099397
0.032952
0.023394
-0.079712
-0.117564
0.020566
0.007476
-0.080772
-0.017630
-0.100394
-0.097769
0.030967
0.021370
-0.114069
-0.073031
-0.030143
-0.035860
-0.090771
-0.113521
-0.108951
-0.010868
-0.090143
0.018330
-0.062397
-0.029541
-0.073650
0.035865
-0.064729
-0.098488
-0.014028
0.027196
-0.060488
-0.110398
-0.049453
-0.009988
-0.048015
0.003422
0.036313
-0.067243
-0.096483
-0.095259
-0.053423
-0.038743
-0.100605
-0.111239
0.019265
-0.099052
-0.006711
0.014040
-0.094304
-0.048559
-0.082342
-0.003806
-0.074140
-0.023402
-0.091351
-0.048848
-0.032550
-0.033398
-0.052284
-0.030703
-0.062599
-0.073131
0.012377
-0.038649
0.060144
0.104682
0.300287
-0.178856
-0.240594
-0.041634
0.199741
0.018164
-0.028517
0.151930
-0.018903
-0.168112
-0.084108
0.068550
-0.116148
-0.263138
-0.208887
0.129664
0.006885
0.059393
0.072437
0.200066
0.055970
-0.039347
-0.067749
-0.019645
-0.192421
0.188874
-0.043477
-0.351399
-0.050012
0.204991
0.271424
-0.370272
0.252151
0.243326
0.123933
-0.044022
0.263402
0.164888
-0.104455
-0.144366
0.006658
-0.083579
-0.165880
-0.020593
0.068561
-0.074259
0.042100
0.025208
-0.027270
-0.330365
-1.019216
0.118722
0.203480
-0.212251
-0.644138
-0.499616
-0.004818
-0.520079
-0.057419
0.012923
-0.186987
-0.015323
0.133570
0.178237
0.038674
-0.127678
0.182522
0.155206
-0.221470
-0.167573
-0.000388
0.021615
-0.232595
-0.215103
-0.014704
-0.130539
-0.280173
-0.120089
0.277172
-0.009511
-0.359781
0.089299
0.328836
0.091536
-0.586711
-0.495299
0.119501
-0.263985
-0.730066
-0.202083
-0.013614
-0.225116
-0.152480
-0.151558
-0.123426
-0.185958
-0.001788
0.125313
0.086783
0.078202
0.051373
-0.076909
-0.017841
0.149519
0.088419
-0.042039
0.069396
0.014422
0.101425
0.008345
-0.056207
0.116311
0.039439
-0.016797
-0.033120
-0.033173
0.099902
-0.018601
-0.029918
-0.072612
0.047939
0.003581
0.109246
0.023113
0.058790
0.241089
-0.134484
-0.168886
-0.034193
0.147406
0.134334
-0.014365
0.213419
0.201339
0.040278
-0.257568
0.120896
0.074638
-0.145344
-0.290445
-0.001675
-0.003708
-0.092290
-0.125623
0.071915
-0.103807
-0.046129
-0.069742
-0.162426
-0.219976
-0.136460
-0.016433
-0.029337
-0.027224
0.000551
0.009734
0.181240
0.190172
0.138385
0.078093
0.118809
-0.242894
-0.397157
-0.332461
-0.343379
-0.214202
-0.020610
0.168585
0.007746
-0.137311
-0.229180
0.071969
0.036157
-0.088191
-0.097681
-0.116519
-0.142750
-0.069356
-0.170579
-0.110134
-0.211370
0.071226
0.199454
0.168884
0.074430
0.075336
0.164522
0.212252
0.000989
0.023798
-0.046103
-0.171662
-0.046488
0.027081
0.068214
0.116430
-0.170575
0.091086
-0.036219
-0.136761
-0.244927
-0.019454
-0.243779
-0.280682
-0.314773
-0.314962
-0.283380
-0.296600
-0.062787
0.137640
0.332117
0.539485
0.618890
0.562441
0.463209
0.282603
-0.130231
-0.055072
-0.143833
-0.103179
-0.179966
0.090392
-0.097624
-0.183373
-0.228159
-0.293104
-0.075011
-0.058799
0.184197
0.180553
0.158779
0.131602
0.321178
0.187274
0.063685
-0.061929
-0.257410
-0.326896
-0.469300
-0.311011
-0.140962
-0.160083
0.084679
0.072329
0.177477
0.144138
-0.089634
-0.161572
-0.074442
-0.014601
-0.113349
-0.075917
-0.110340
-0.118126
-0.089340
0.009329
0.076361
0.091759
0.077851
0.106428
0.026612
0.061457
-0.023925
-0.001901
-0.058507
0.072031
-0.004843
-0.056346
-0.145713
-0.112387
-0.028171
0.172167
-0.024493
-0.056029
-0.117699
-0.121785
-0.236629
-0.219232
-0.069747
-0.033152
0.043912
0.048120
0.322169
0.192455
0.244794
0.049557
0.082295
0.030489
-0.090775
-0.064716
-0.059184
-0.017605
-0.017085
-0.070561
0.021442
-0.019451
0.029523
-0.111115
-0.132902
-0.096174
0.025561
-0.189915
-0.311328
-0.506097
-0.792351
-0.655659
-0.413645
-0.354277
-0.460991
-0.211233
0.068479
0.230720
0.135245
0.000452
0.136214
-0.034964
0.054031
0.110642
0.129744
0.093105
0.019545
0.156873
0.014066
0.176535
0.273694
0.071073
0.014083
-0.006243
0.033417
-0.231780
-0.593621
-0.494578
-0.689716
-1.056058
-0.779903
0.033796
-0.224596
-0.225569
0.015576
0.229056
0.316487
0.130162
0.149796
0.092980
-0.001130
-0.133576
0.058706
0.044881
-0.134083
0.113114
0.314450
0.331480
0.324175
0.254352
0.462100
0.296679
0.164293
0.409887
0.207804
-0.128650
-0.676375
-0.693031
-0.872317
-0.803957
-0.159224
0.473724
-0.196870
-0.158167
0.087789
0.389011
0.307549
0.070160
-0.064839
0.272175
0.338863
-0.039192
-0.292779
-0.372571
-0.649468
-0.578402
-0.187659
-0.409739
-0.438783
-0.164768
0.175210
0.299098
0.091027
0.232446
0.285004
0.214812
0.035729
0.123238
0.107120
0.004459
-0.149185
-0.155247
0.124483
0.079853
0.032378
-0.059456
-0.114268
0.016704
-0.200156
-0.326481
-0.373578
-0.239160
-0.380315
-0.540983
-0.616633
-0.343966
-0.062785
-0.423981
-0.382822
-0.063914
0.103970
-0.014446
0.024992
0.043925
0.012721
0.074381
-0.065965
0.159312
0.085418
0.045120
0.052537
0.032920
-0.020308
-0.104037
-0.065413
-0.442315
-0.487376
-0.403740
-0.666707
-0.672402
-0.230692
0.098708
-0.057892
-0.169334
0.018746
0.228517
0.153961
0.115873
0.148629
0.053851
0.004077
-0.140081
0.032214
0.102633
0.016025
0.160778
0.162720
0.047298
-0.103536
-0.605372
-0.170800
-0.030263
0.018782
-0.288311
-0.324030
-0.082172
-0.077547
-0.180853
-0.324399
0.001332
0.010751
-0.085299
-0.057927
0.015167
0.046083
-0.012069
-0.186186
0.040234
-0.015319
-0.317469
-0.169865
0.032392
0.105450
-0.117330
-0.356635
-0.063286
0.052068
0.137840
-0.494888
-0.281308
0.151018
0.062547
-0.035207
-0.277687
0.360434
0.251805
-0.010857
-0.449068
0.229625
0.310018
0.091562
-0.261071
0.076325
0.151240
0.052804
-0.388128
-0.539700
-0.043702
0.038576
0.266271
-0.253931
-0.418666
0.014750
-0.013154
-0.191436
-0.519831
-0.229021
0.079472
-0.832798
-1.002329
-0.378220
-0.029711
-0.216383
-0.877183
-0.282439
0.036067
0.006600
0.159305
-0.099561
0.103676
-0.010187
0.109128
0.027113
-0.543801
-0.206961
-0.083666
0.001775
0.007791
-0.374637
0.175275
0.260597
0.101598
-0.427900
0.169147
0.442651
0.225858
-0.234377
0.223498
0.536656
0.186590
-0.264354
-0.279445
0.000700
0.009126
0.151006
0.058081
0.040378
-0.066229
-0.171219
0.050877
0.137182
0.119409
-0.115149
-0.535303
-0.230769
0.002715
0.087330
-0.431345
-0.243960
0.115340
0.051844
-0.040900
-0.237773
0.122689
0.039622
-0.039239
-0.182577
0.133541
-0.096329
-0.061885
0.087595
0.132701
0.017968
-0.305705
-0.169154
-0.056210
0.026954
-0.106485
-0.662802
-0.127060
0.084928
-0.011056
-0.163460
-0.138640
0.096695
0.187399
0.035115
-0.207325
0.191681
0.256765
0.044244
-0.114206
-0.019059
-0.077133
-0.096127
-0.005154
-0.116150
0.023471
0.236115
0.004496
-0.030854
-0.329039
0.014548
0.126793
0.018010
-0.251306
-0.193511
-0.135447
0.172919
-0.224986
-0.451277
0.050081
-0.309698
0.084702
-0.054877
-0.205445
0.123501
-0.150691
-0.323554
0.122723
0.164357
0.127939
-0.196371
0.127883
0.248328
0.138983
-0.159614
0.125914
0.319038
0.069969
-0.350727
-0.064786
0.094172
0.362881
-0.174409
-0.083320
0.399477
0.079034
0.102209
-0.234651
-0.172223
0.171195
-0.016335
-0.100583
-0.437434
-0.193957
0.073384
-0.124617
-0.209540
-0.008615
0.214203
0.248084
-0.247134
-0.214590
0.192562
0.179356
-0.129569
-0.364540
-0.355406
0.016125
-0.177587
-0.348362
-0.320795
-0.387885
-0.237107
-0.214703
0.426804
-0.161495
0.038380
0.198723
0.052420
0.089939
0.039175
0.202794
0.207744
-0.079922
-0.229229
0.202641
0.237244
-0.468110
-0.306236
0.213327
0.257854
-0.088852
-0.734269
0.116037
0.351265
0.203606
-0.223696
-0.351866
0.212786
0.111107
-0.158483
-0.002355
0.100496
0.175722
0.090318
0.041336
0.043299
0.079772
0.025530
-0.121012
0.068501
0.127252
-0.030229
-0.179227
-0.159595
0.146386
0.015627
-0.294470
-0.206924
0.086281
0.114232
-0.109717
-0.517005
-0.104202
0.185964
0.023348
-0.204428
0.169232
0.079014
-0.047553
-0.005166
0.135069
0.085381
-0.094459
-0.268787
0.109310
0.213213
0.051190
-0.333697
-0.320784
0.104858
0.030132
-0.286891
-0.263842
0.069772
0.160876
-0.106534
-0.495233
-0.141203
0.195004
-0.000258
0.108646
0.083088
0.062789
0.017413
-0.063933
-0.055640
0.042281
0.279202
0.130268
0.001178
-0.270531
-0.300452
0.175088
0.420837
-0.090014
-0.060433
-0.105736
-0.298458
0.161942
-0.087388
-0.073523
-0.105825
-0.161466
-0.130292
-0.032662
-0.168469
-0.084991
0.074903
-0.006128
-0.088648
0.000236
-0.010956
0.036450
-0.014897
0.141917
-0.141836
-0.183735
-0.036496
0.173462
0.015128
0.011529
-0.065026
-0.109940
0.222061
0.195039
0.165696
0.104244
-0.045099
0.161564
-0.100126
-0.482511
-0.612214
-0.276487
0.083685
0.245013
0.121479
-0.248101
-0.641035
-0.221173
0.050060
0.274124
0.273731
-0.004204
-0.235809
-0.103312
-0.138465
0.011727
0.170464
-0.049614
-0.005336
-0.123523
-0.131490
0.112472
0.006775
-0.071603
0.014528
0.082279
0.009072
-0.057574
-0.109780
-0.113939
-0.092012
-0.092772
-0.220136
-0.073558
-0.371092
-0.142560
-0.155792
-0.214107
-0.006386
-0.154866
-0.186459
0.024576
-0.208378
0.127989
0.174784
0.021162
0.106457
-0.092917
0.116114
0.001718
0.035317
-0.121924
-0.010479
0.041900
0.216439
0.182776
-0.033029
-0.113526
-0.151835
-0.062522
0.194252
0.202717
-0.168167
0.015326
-0.094896
-0.047152
0.235234
0.158018
0.008073
0.056230
-0.105631
0.014887
0.052948
0.014515
0.033323
0.055236
0.144798
0.014981
0.003256
0.052037
0.129701
0.141057
-0.049816
0.089160
-0.067142
-0.054563
0.007485
0.130787
-0.082312
-0.021693
-0.048547
-0.102457
0.010277
-0.096677
-0.015736
0.028302
0.021166
-0.033304
-0.217527
-0.155016
-0.106750
-0.100978
0.080845
-0.051866
-0.474300
-0.382541
0.149598
0.193908
0.318652
-0.078573
-0.418107
-0.650756
-0.412983
0.339006
0.380856
0.234635
-0.110182
-0.308065
0.233806
0.295794
0.207635
0.154810
0.133711
-0.043976
-0.019130
0.025410
-0.101487
0.173522
-0.189447
-0.296959
-0.307125
-0.016620
0.195350
-0.212839
-0.547457
-0.616957
-0.338643
-0.113801
0.090254
-0.043721
-0.276342
-0.551754
-0.112450
0.016490
0.048573
0.052844
-0.100712
0.076534
0.451535
0.194993
0.167376
0.003443
-0.079759
0.128963
0.213422
0.176111
0.105903
0.282331
-0.334870
0.055651
0.277816
0.513069
0.658372
-0.262288
-1.084403
-0.632553
-0.271324
-0.081658
0.288788
-0.114285
-0.437966
-0.753774
-0.490258
0.112164
0.093067
0.010393
0.131680
0.289484
-0.277363
-0.313358
-0.030762
0.129967
0.222469
-0.173400
-0.226831
-0.415398
-0.428372
-0.143390
0.008784
0.078489
-0.070631
-0.044827
-0.053164
0.175035
0.051958
0.007123
0.125216
0.064877
0.023732
0.061981
-0.047659
-0.033944
0.006154
-0.311823
-0.170292
-0.123534
0.112468
0.127024
-0.334006
-0.502854
-0.324066
-0.141270
0.049541
0.162980
-0.191678
-0.492797
-0.413036
-0.131008
0.324233
0.153594
-0.059097
-0.053441
-0.142722
-0.015280
0.059637
-0.002559
-0.013392
0.101698
-0.031644
-0.228278
-0.040922
0.229701
0.319927
-0.067856
-0.311466
-0.429157
-0.286224
-0.067088
0.140218
0.206223
-0.024791
-0.128320
-0.140595
0.146369
0.133521
0.045011
-0.046821
0.056556
0.272788
-0.342667
0.047729
0.186000
-0.037269
0.362137
-0.336029
-0.054782
0.289145
-0.062915
0.165241
-0.356490
-0.097372
0.318750
0.004215
0.003462
-0.414687
-0.169172
0.166984
0.072573
0.107333
-0.244249
-0.051190
0.234868
0.093172
-0.171945
-0.521746
0.252963
0.120788
-0.115874
-0.055393
-0.454017
0.293198
0.151469
-0.181271
-0.087247
-0.099939
0.270745
0.073068
-0.257691
-0.099003
-0.073271
0.142608
0.085345
-0.123109
-0.172959
-0.164616
-0.045151
0.077204
0.017537
-0.105786
-0.236918
-0.946905
-0.641434
-0.041792
-0.085688
-0.234022
-0.964197
-0.651924
-0.063447
0.053784
-0.206998
-0.403885
-0.172763
0.066453
0.131018
-0.178971
-0.096887
0.045907
0.222781
-0.155713
-0.093062
0.079322
-0.076714
0.286152
-0.373325
0.033832
0.187185
0.146884
-0.136935
-0.386733
0.132643
0.390820
-0.091953
-0.325726
-0.348918
0.108736
0.222850
-0.184572
-0.115368
-0.342004
0.118066
0.174093
-0.228818
-0.103171
-0.156355
0.043617
0.237547
-0.199214
-0.157156
-0.345067
-0.006277
0.133780
0.000329
-0.145845
-0.352854
0.000528
0.217258
0.017782
-0.148911
-0.182876
0.031806
0.224930
-0.062846
-0.124160
-0.301507
0.076859
0.131944
-0.029694
-0.230103
-0.139741
-0.066355
0.133708
-0.032463
-0.151672
-0.303525
-0.240228
0.154329
0.021627
-0.108305
-0.127043
-0.131000
0.283674
0.090841
-0.197355
-0.207738
-0.002951
0.236447
-0.001529
-0.222412
-0.241414
0.002986
0.192521
-0.067816
-0.102599
-0.197160
0.014668
0.012663
-0.121226
-0.072649
-0.026290
0.056239
0.013750
-0.069825
-0.180028
-0.222771
0.070586
0.169618
-0.015276
-0.125385
-0.244866
0.014585
0.219193
0.193007
0.201016
-0.042488
0.035413
0.090776
0.144575
0.164842
-0.185953
-0.096416
-0.039678
0.089854
0.095465
0.010984
0.183781
0.078218
-0.043911
0.265938
-0.161037
-0.043176
-0.080931
-0.152510
0.095051
-0.170446
-0.175988
-0.185790
0.042767
0.109723
-0.385762
-0.328317
-0.040191
0.101391
0.053778
-0.374115
-0.020970
0.146558
0.182239
0.094686
-0.027586
-0.378461
-0.381202
-0.135880
0.245394
0.043150
-0.288021
-0.317602
-0.230710
0.205163
0.093732
-0.281300
-0.326282
-0.349674
-0.198393
0.074179
-0.138186
-0.202257
-0.088315
0.075399
0.167483
0.018386
-0.078652
-0.182460
-0.041579
0.148774
0.008046
-0.034940
-0.106580
0.035529
0.091297
-0.019401
-0.254868
-0.188518
-0.115328
-0.068265
0.051998
-0.084783
0.047305
0.129093
-0.044698
0.093097
0.025162
0.061270
-0.269204
-0.052644
-0.013423
-0.162693
-0.371715
-0.683367
0.137946
0.071730
0.052050
0.021619
0.124841
0.112783
0.053607
0.013884
-0.089643
0.078622
0.042992
0.117455
0.056817
-0.051995
-0.065865
-0.050553
0.134651
0.120182
-0.060956
0.030875
0.038772
0.144471
0.187378
0.086068
-0.185842
0.088845
0.124351
-0.068684
-0.105043
0.031290
-0.059651
0.010706
0.009233
-0.180846
-0.020424
-0.080825
-0.153412
-0.040467
0.154602
0.039380
-0.193462
-0.032020
0.099401
0.138574
0.003771
-0.173848
-0.062447
0.099396
0.127312
-0.046650
-0.066290
0.071084
-0.105461
-0.334636
-0.130575
-0.066560
0.233264
0.340028
0.225843
0.122250
-0.191585
-0.240249
-0.035185
0.034615
-0.236781
0.220950
-0.040325
-0.216650
-0.231268
0.017300
0.056743
-0.159903
-0.261197
-0.343952
-0.190550
-0.231817
-0.108703
-0.258763
-0.263376
-0.158223
-0.111154
-0.017404
-0.157028
-0.039167
0.127477
-0.007166
-0.077350
0.246738
0.164470
-0.020499
0.071510
0.053244
0.018250
-0.022969
0.012055
0.282117
0.043097
0.112206
0.072309
-0.041973
0.037630
-0.317363
0.156371
0.398664
-0.058956
0.202120
-0.113754
-0.511909
-0.631525
-0.513701
0.434641
0.709406
0.461463
0.143532
0.189605
-0.496952
-0.108174
0.177033
-0.041726
-0.146561
-0.262359
-0.187614
-0.141234
-0.171294
-0.177929
0.062920
-0.031681
-0.166168
-0.228285
0.032188
0.091174
-0.047158
0.043134
0.201534
0.295955
-0.053631
0.005372
-0.061445
-0.254622
-0.614549
0.248213
-0.013539
-0.009891
0.041260
0.145763
-0.030992
-0.130362
-0.069478
-0.016321
-0.159287
-0.094797
-0.187465
-0.090102
-0.025967
0.007986
-0.052555
0.065450
-0.058877
-0.017652
0.151866
-0.098170
0.129883
0.113729
0.123615
0.056119
-0.103523
-0.073046
0.099540
0.106674
0.014874
0.074441
-0.062391
-0.099927
0.118447
0.004946
-0.105602
-0.069710
-0.218410
-0.169179
-0.106257
-0.047968
0.111134
0.147522
0.069627
0.197103
-0.141778
-0.010633
0.122756
0.076313
-0.117216
0.203609
0.088437
-0.050409
-0.167004
-0.171663
0.103416
0.040779
0.086611
0.009006
-0.023790
