0.213178
0.149024
-0.112192
0.035597
0.258551
-0.396434
0.006604
-0.014389
0.261054
0.061471
-0.048071
-0.157265
-0.073968
0.123622
-0.142895
0.026483
-0.040571
-0.071152
-0.033730
-0.208814
-0.080324
0.436932
-0.280894
-0.064568
0.129531
-0.019152
-0.230735
0.222587
-0.051256
-0.026996
-0.055849
-0.232292
-0.041953
0.247167
0.113051
0.091324
-0.051757
0.006206
0.181249
0.101181
0.359912
-0.036545
-0.079564
-0.045342
0.067051
-0.037117
0.172490
0.116663
0.258590
-0.035418
0.018798
0.060201
-0.010719
-0.090231
-0.053304
-0.207981
-0.029815
0.010360
-0.074725
-0.061483
0.188141
0.048948
-0.169613
-0.035918
0.268160
-0.270231
0.087996
-0.100794
-0.034721
-0.156394
-0.106427
-0.084883
-0.098690
-0.089985
-0.071600
-0.112081
-0.081753
-0.059555
-0.061736
0.181394
-0.292023
-0.362651
0.203213
-0.065520
-0.002759
0.149080
0.146149
-0.025403
-0.101399
-0.115330
-0.006248
-0.209057
0.000210
0.154557
-0.060758
-0.196263
-0.022093
0.172914
0.012883
0.088296
0.028357
-0.043687
0.108154
-0.042655
-0.016168
0.052062
0.130067
0.031762
-0.112554
0.094114
-0.074031
-0.205437
-0.017480
0.268542
-0.084889
0.093444
-0.054781
-0.067589
-0.146715
0.250203
