0.025376
-0.009759
-0.121276
0.024336
0.258603
-0.013085
-0.052513
-0.172991
-0.201513
-0.095588
-0.245525
-0.057781
-0.046326
-0.086654
0.126540
-0.258606
-0.232785
-0.107656
0.310256
0.041948
-0.123159
-0.157828
0.168330
0.382988
0.129611
0.078119
0.126436
0.091793
-0.004239
-0.045262
0.211903
0.021179
-0.204565
-0.089066
-0.145543
-0.019192
-0.016659
-0.125356
-0.150387
0.066797
-0.215545
-0.104277
-0.243415
-0.035288
0.067724
-0.071379
0.107763
-0.146204
-0.109998
0.329442
0.076602
0.109788
0.074408
0.055473
0.119867
0.046117
0.080761
0.077843
-0.131887
0.008937
0.159329
0.330542
0.225417
0.036945
0.028408
0.120524
0.122729
0.092244
-0.060386
-0.338471
-0.075933
-0.115877
-0.060613
-0.091247
-0.015078
0.012259
0.009743
0.086767
-0.012471
-0.179338
-0.184746
-0.199952
-0.137802
0.052911
-0.001197
-0.195690
-0.100921
0.003886
-0.077726
-0.149867
-0.003490
0.228325
0.246527
0.157552
-0.008817
-0.114143
-0.045655
0.099186
-0.049884
-0.177441
0.186361
0.071236
0.007975
0.029958
0.075782
-0.171245
0.019199
0.079959
-0.060504
0.126765
-0.033541
0.171066
-0.164658
-0.081909
-0.589925
-0.103560
-0.215034
0.002521
-0.135689
-0.000269
-0.174908
-0.001879
0.018643
-0.028242
0.039563
-0.069873
-0.026641
-0.001238
-0.041336
-0.028028
0.088676
-0.018074
-0.046391
0.007483
0.029515
0.076682
-0.019588
-0.027121
0.040493
0.008917
0.038616
-0.062607
0.028199
-0.073991
0.007468
-0.045897
-0.053194
-0.013663
-0.004431
0.016420
-0.092050
-0.098969
0.106926
0.019571
0.181914
0.051639
0.150188
0.121890
0.068318
0.020111
0.152752
-0.098095
0.054453
-0.007832
-0.538142
-0.341167
-0.054328
-0.324579
-0.244209
0.004963
-0.215489
-0.231483
-0.051971
-0.035081
0.072686
-0.017807
0.029776
0.036842
0.086374
0.028610
0.071523
0.187259
0.216805
0.091530
0.146820
-0.021745
-0.028245
0.067885
-0.042790
-0.217001
0.087583
0.081044
0.092624
-0.052951
-0.077982
-0.079237
0.013006
0.132395
0.015524
-0.187412
-0.194449
-0.169194
-0.027246
0.156492
0.057730
-0.106424
0.073907
0.038028
0.133370
0.171742
-0.023466
0.012551
0.003934
0.033431
0.050080
0.113646
0.257085
0.137991
0.007043
0.290340
0.351919
0.424568
0.254148
-0.058841
-0.177790
-0.072349
-0.172435
-0.083467
-0.011029
0.066209
-0.104739
-0.060424
0.190912
-0.019323
-0.000000
-0.430352
-0.104445
-0.068250
-0.314268
0.124093
-0.258151
-0.169791
-0.088220
0.191982
0.272397
-0.083353
0.022693
0.350029
0.216547
0.026786
-0.112263
-0.191410
0.110421
0.052642
-0.105302
-0.080860
0.040227
0.067647
0.003678
0.039806
0.085649
0.036720
-0.248262
0.165121
-0.211389
0.215219
-0.227637
0.032908
-0.097915
-0.206768
0.123222
0.208493
-0.006947
0.033333
0.124157
0.223253
0.153892
-0.065436
-0.073914
-0.250430
0.054141
0.073017
-0.085019
-0.208533
-0.171932
-0.010257
-0.018935
-0.075544
0.008667
0.043027
-0.050536
-0.053595
-0.140498
-0.002980
-0.015343
-0.122761
-0.016392
-0.059948
-0.085014
0.138483
0.055156
0.123829
-0.015348
-0.019274
-0.240216
0.082717
-0.064332
-0.276402
0.060065
-0.110211
0.113259
0.285619
0.164298
0.197696
0.042218
0.130928
0.427250
0.163205
0.296019
0.286679
0.085807
-0.099119
0.035027
0.073907
0.072629
0.215701
0.179825
0.197116
0.031277
-0.267178
0.045426
-0.045187
-0.014953
-0.108244
-0.362331
-0.159585
-0.052560
0.039151
-0.165978
-0.011296
-0.332799
-0.147290
0.107066
-0.135035
-0.104434
-0.289596
-0.003246
-0.057856
0.038197
-0.031145
-0.036517
0.021877
-0.136592
-0.141587
-0.099087
-0.127609
-0.136227
-0.079121
-0.083702
-0.091223
-0.418193
-0.113648
-0.170871
0.054515
0.070335
-0.077766
-0.071676
0.070922
0.089280
0.145243
0.114018
0.132932
-0.004718
0.162733
0.176510
-0.029299
0.068435
-0.055101
-0.050753
-0.157435
0.061222
0.129634
0.225014
0.073498
-0.054424
-0.198728
-0.124036
-0.021959
-0.019955
-0.013430
-0.351820
-0.042628
-0.024260
0.120945
0.075734
0.022950
0.183843
0.144884
0.110693
-0.046384
0.220909
0.046286
-0.032336
-0.523551
0.089858
0.102491
-0.052078
-0.160230
-0.270427
-0.126346
0.089427
0.066737
-0.165403
-0.527173
-0.261058
-0.096068
0.184706
-0.154568
-0.164200
-0.000384
-0.099164
-0.056642
-0.018537
0.008838
0.141912
0.255650
0.187552
0.226049
-0.233742
-0.182783
-0.084156
0.104570
-0.108482
-0.110397
-0.023693
-0.211304
0.027134
-0.233217
-0.240691
-0.109001
-0.442978
-0.088444
-0.069267
0.019681
0.059110
-0.110909
0.038231
-0.081537
0.055986
0.051544
0.039299
0.111189
0.170063
0.233419
0.224588
0.079636
0.058320
0.077754
0.077422
0.192370
0.196603
0.037098
0.008298
-0.171948
0.002029
0.181560
0.044353
-0.065827
-0.360156
-0.819864
-0.048830
-0.208174
-0.085539
-0.036798
0.066443
-0.110723
-0.001315
0.108255
0.097485
0.018307
-0.015011
-0.249668
-0.165853
-0.053960
0.037943
-0.083796
-0.014643
0.049275
0.146817
0.256489
0.010933
0.127685
-0.033670
0.120248
0.185582
-0.026472
0.386092
0.264667
-0.011684
-0.369170
0.052887
0.181792
0.195675
-0.001668
-0.078023
-0.123447
0.036170
-0.105450
-0.058074
-0.042251
-0.161983
-0.098583
0.197021
0.079782
-0.350431
-0.214696
-0.186627
0.080617
-0.255428
-0.009204
0.079656
0.079962
0.102575
0.103797
0.254951
-0.029046
0.018009
-0.009142
0.010248
0.027183
-0.035946
0.024897
-0.004952
0.012498
-0.039984
0.055343
0.051370
0.011168
-0.005100
-0.037872
0.063003
0.003325
-0.001776
-0.022665
-0.010145
-0.057377
-0.013691
0.024371
-0.030979
0.008698
-0.024989
0.080906
-0.029903
-0.102346
0.020702
0.001114
0.001366
0.141258
-0.105551
-0.042727
0.025144
0.070975
-0.012970
0.008521
-0.326127
-0.052572
-0.062520
-0.097753
-0.270205
-0.035413
-0.115032
0.017772
0.055270
0.238457
0.377318
0.028542
0.137074
0.090369
0.138545
0.082434
0.080730
0.106926
0.077128
0.069256
0.236941
0.158557
0.028742
-0.043143
-0.204400
-0.290806
-0.024926
-0.120848
-0.153525
-0.331892
-0.205474
0.311702
0.107465
0.078048
0.080580
-0.068273
-0.072433
-0.091013
-0.025816
0.069769
0.037176
-0.106105
-0.116750
0.122543
0.181462
0.166216
-0.048456
-0.078992
0.102743
0.056983
0.250647
0.252563
0.108904
0.040234
-0.009780
-0.085461
0.047650
0.146322
0.258828
0.019866
-0.454916
-0.108397
-0.073313
0.021205
-0.146429
0.093151
-0.094248
0.131700
0.073414
-0.143830
-0.048311
-0.219683
-0.058933
-0.000903
-0.325454
-0.214286
0.034721
-0.034777
-0.153884
0.058332
-0.131526
-0.305923
-0.236752
0.203490
0.304371
0.097670
-0.034062
-0.173124
-0.241600
-0.300484
-0.120821
0.023961
0.058521
0.028314
-0.095090
-0.016408
0.002702
0.012202
0.040473
-0.078295
-0.188663
0.162165
-0.057005
-0.175602
-0.039007
-0.156148
-0.097041
-0.007824
-0.083838
0.061263
0.358594
0.059467
0.153812
0.048948
-0.124053
-0.079925
-0.079548
0.081890
-0.040219
0.023007
-0.030871
-0.043015
-0.016706
-0.019992
-0.031994
0.240902
-0.228093
0.086968
0.087248
0.227524
0.116760
-0.014357
0.040510
-0.000331
-0.073800
0.057506
-0.069180
-0.480435
0.047542
-0.032891
-0.164859
0.087878
-0.016202
-0.013882
0.167792
-0.112893
0.027922
-0.023417
-0.176245
0.391490
0.310005
0.106022
0.229695
0.147773
0.364676
0.371334
-0.072242
-0.051237
0.128270
-0.042171
-0.369829
0.031384
0.276982
0.032474
-0.081615
0.007679
-0.104803
0.135207
-0.094082
-0.333614
0.041107
-0.282603
0.135192
0.011158
-0.295305
-0.207953
-0.513746
0.028296
0.072804
-0.261228
-0.190351
-0.400061
-0.272310
-0.152105
0.025405
0.324236
-0.007036
0.127585
0.018002
-0.196548
-0.039820
-0.011202
0.111903
-0.223354
-0.300906
-0.029460
-0.532592
0.049439
-0.025048
-0.146139
0.161773
-0.122085
-0.202754
0.077736
0.304557
0.038631
0.296376
0.079709
0.084416
0.124768
-0.097381
0.027067
-0.101764
-0.042987
-0.061030
-0.325915
0.087204
0.198390
0.057405
0.271592
0.047898
-0.057257
0.000610
-0.139863
0.075768
0.236441
-0.327708
-0.030717
-0.104248
0.238669
0.421625
0.125600
0.081572
0.181048
0.174594
-0.176806
-0.356084
-0.271154
0.010251
-0.000219
0.239379
-0.188050
-0.140295
-0.035818
0.193929
0.492704
-0.054142
-0.188291
-0.129595
-0.058644
0.105323
0.024203
-0.006103
-0.179569
-0.414941
-0.050588
0.190856
-0.000573
-0.071042
-0.232228
-0.209728
-0.391226
-0.086112
-0.084188
-0.063205
0.197006
-0.209865
-0.133751
-0.165385
0.012920
0.289623
-0.014233
-0.117212
0.003119
-0.347723
0.198236
-0.031733
0.087658
0.004212
-0.323263
-0.521562
0.071287
-0.103268
-0.047460
-0.059558
-0.313963
0.162789
0.097907
0.103896
-0.224618
-0.381456
-0.081609
0.020513
0.087616
0.092230
-0.250208
0.009470
-0.061084
-0.319358
-0.074818
0.119443
0.071372
0.134005
0.143438
0.229084
0.184319
0.181014
0.121424
0.083050
-0.013750
-0.109104
-0.177890
-0.048767
0.000882
-0.133110
-0.129814
0.150095
0.181476
-0.018324
-0.406554
-0.291756
-0.168668
-0.010691
0.259935
0.209964
-0.169272
-0.184653
0.030449
0.024810
-0.015283
0.183977
-0.257618
0.047774
0.059710
-0.113016
-0.208826
-0.150185
-0.453690
-0.187962
0.115289
-0.063071
-0.051095
-0.154297
0.092916
0.171355
-0.116722
0.223265
0.124980
0.003113
0.044049
-0.013952
-0.098143
0.086478
0.089437
-0.136978
-0.171196
-0.043000
-0.108612
-0.094600
-0.047304
-0.257678
0.045958
-0.010971
-0.026461
0.021824
0.020062
0.016180
-0.017887
-0.043229
0.034170
-0.015195
-0.021687
0.008192
-0.036717
-0.011917
0.042846
0.024279
-0.025060
-0.002531
-0.008358
-0.019247
0.004621
-0.053249
-0.043358
0.027899
0.000490
-0.192829
-0.341483
-0.175940
0.005698
0.108007
-0.155940
-0.029806
0.159191
-0.102705
0.099644
-0.099900
-0.001840
-0.304409
-0.122752
0.507062
-0.033880
0.051798
0.104499
-0.108601
0.100363
0.046603
0.100712
0.018855
0.033622
-0.529837
-0.085023
-0.291349
-0.234060
-0.164796
-0.079356
0.101591
0.066058
0.155227
0.028630
-0.093067
0.051910
-0.008523
-0.181634
0.001708
0.247940
0.159920
0.040725
0.032244
0.007742
-0.010820
-0.085374
0.038376
0.064941
-0.023938
-0.129615
0.007309
0.101689
0.138361
0.108786
0.081030
0.050582
0.136198
-0.041669
-0.270333
-0.452372
0.109753
-0.093504
0.153976
0.183415
-0.200981
0.074342
-0.255780
-0.092602
0.146432
0.309763
-0.094721
-0.010517
0.190955
0.239089
0.200537
-0.182909
-0.067658
0.106668
0.202515
0.247851
-0.249549
0.129055
-0.033349
0.130291
0.238539
-0.012065
0.104883
-0.021286
0.185500
0.212759
-0.146706
0.106579
-0.090144
-0.101363
0.046473
0.129250
-0.332193
-0.375873
-0.006215
0.040246
0.026476
0.164557
-0.138587
0.155445
0.000720
0.046459
-0.228179
0.138436
0.091453
-0.018462
-0.106931
-0.013523
0.188295
0.075834
-0.044022
0.281105
0.021969
0.150923
0.097223
-0.029381
-0.097811
-0.100757
0.103051
-0.084454
-0.113479
-0.151748
-0.264748
-0.149617
0.224628
0.152079
-0.118833
0.012318
0.041843
-0.047334
0.134338
0.106767
0.091811
-0.226995
-0.368780
0.118006
0.015612
0.132046
0.209141
-0.092783
-0.091307
0.056091
0.046071
-0.126859
-0.087085
-0.388734
0.248679
0.193566
0.208544
0.058294
-0.209205
-0.134239
-0.172159
-0.028365
-0.452637
-0.553342
0.053259
-0.026026
0.038134
0.129807
-0.342992
0.081164
-0.059934
0.094930
-0.047536
0.211226
-0.017647
0.137992
0.006086
-0.018597
0.095315
-0.187444
-0.246666
-0.074869
0.146308
0.699018
-0.102020
-0.200663
0.100477
0.093011
0.565120
-0.195269
-0.027217
0.019106
-0.017918
0.025671
0.028588
0.135407
-0.089520
-0.268688
-0.108361
0.129434
0.225352
0.011900
-0.294498
-0.076717
-0.168772
-0.047895
0.041453
-0.074506
0.103174
0.057821
0.040615
-0.257650
-0.323706
-0.049763
0.199723
0.068233
0.052802
-0.038483
-0.105450
-0.011385
0.200101
-0.139841
0.079494
-0.275109
-0.362228
-0.293273
-0.256206
-0.227245
-0.364018
-0.248554
-0.370914
-0.232698
-0.011174
0.179745
-0.080301
0.071105
0.052674
-0.202888
-0.013494
0.086088
0.003495
-0.123147
-0.109799
-0.040969
0.139829
0.058517
0.309791
-0.001111
-0.159617
0.036383
0.063120
-0.161021
0.118738
-0.255455
-0.174126
-0.105609
0.064315
0.153469
0.318076
0.007299
-0.139508
0.021879
-0.084283
0.046033
-0.058753
-0.091739
-0.051520
-0.096227
0.124106
-0.080603
-0.360591
0.021264
0.052522
0.284602
-0.050976
-0.277780
-0.035177
0.034742
0.300440
-0.042610
-0.031062
0.085173
0.059551
0.195534
0.165485
-0.076179
-0.052164
-0.152761
0.098964
0.117348
0.048050
-0.132836
-0.107552
0.210477
0.144625
0.133583
-0.104696
-0.071662
0.376759
0.067176
-0.022333
-0.068805
-0.238134
0.288580
0.477234
0.307087
0.055171
-0.176125
-0.280910
-0.071686
-0.027441
0.176335
0.039749
-0.011105
0.069440
0.120483
0.057584
-0.011141
-0.205577
0.067122
0.050486
-0.093701
0.015791
0.079451
0.057407
0.060186
0.077130
-0.037271
-0.094961
-0.228443
-0.013258
-0.050330
-0.004533
-0.136086
0.082300
0.170120
-0.178533
-0.012873
-0.066301
-0.010571
0.070865
0.132522
0.109326
-0.015030
0.100155
0.118676
0.146155
-0.014425
-0.156901
0.062522
0.063616
-0.183141
-0.134831
-0.552525
0.177561
0.011235
0.048803
-0.013794
0.057466
-0.177107
-0.086112
0.139572
-0.139665
0.043667
0.147540
0.095281
-0.119620
0.006523
-0.293058
0.069768
-0.077392
-0.043287
0.229224
0.048718
-0.046926
-0.017415
-0.042329
-0.099650
0.185364
-0.047653
0.064707
0.004316
0.019303
-0.038456
0.052736
-0.011229
-0.033575
-0.031559
0.010766
-0.010163
-0.039283
-0.024834
-0.028422
0.041608
0.002659
-0.040313
0.040333
0.019288
0.011573
-0.070229
-0.020683
0.019607
-0.015492
-0.009451
0.014563
-0.111498
-0.123114
-0.133951
0.072421
0.147867
0.103668
0.091674
-0.024691
0.142311
0.371216
-0.077053
-0.167850
-0.070195
-0.237724
-0.130293
-0.075037
-0.023852
0.050888
-0.003786
0.043795
0.155999
-0.079260
-0.109646
0.208667
0.123720
0.074932
0.015808
0.002296
-0.053003
0.076095
0.057831
0.139080
-0.186383
-0.198587
0.044918
0.046587
0.069315
-0.042709
-0.191341
0.124194
0.022752
0.063318
0.138050
0.075924
0.008330
0.031840
-0.043741
-0.084958
-0.148971
-0.018241
-0.189885
-0.042803
-0.184773
-0.199253
0.211408
0.065251
-0.013857
0.059743
-0.105610
-0.010661
-0.074559
-0.058231
0.173441
0.103710
0.106666
0.161114
0.037166
-0.024550
-0.398995
0.358328
0.314073
-0.058449
-0.010772
0.001808
-0.032483
-0.103886
-0.206836
-0.119624
-0.084907
-0.105824
0.004789
-0.037660
-0.055923
0.012979
-0.269482
-0.087133
-0.284721
-0.122181
0.095851
-0.094249
-0.116709
0.118857
-0.090582
0.137085
0.037733
0.139100
0.243361
0.199362
0.226522
-0.176335
-0.198544
-0.076026
0.072063
0.028170
0.215694
0.150275
-0.049250
-0.185289
0.010176
0.030343
-0.155077
-0.092990
-0.015607
-0.149347
-0.149065
-0.266252
-0.188402
0.092072
-0.169117
0.036289
0.115258
0.048126
0.162475
-0.061285
0.263270
0.172037
0.129248
0.016368
-0.085618
0.120458
-0.337699
-0.017307
-0.002801
0.053723
0.185189
0.083818
0.017612
-0.095306
0.059983
0.164416
0.047155
0.032629
0.066115
0.287045
-0.030413
-0.099057
-0.022905
-0.254402
0.127958
0.318936
0.231217
-0.277303
-0.251397
-0.270191
0.022129
0.057399
0.150416
0.072878
-0.071602
0.066817
0.146472
0.010493
0.206149
0.075727
0.189648
0.270980
0.050226
0.039941
-0.282740
0.080454
-0.192818
-0.221602
-0.070464
-0.142649
-0.030375
-0.205438
0.026868
0.175936
0.289682
0.021872
0.010195
-0.050696
0.005224
0.209645
0.093447
0.056401
-0.134876
-0.062508
0.254023
-0.199636
-0.042568
-0.049638
0.088866
0.481585
-0.124297
-0.204953
0.054720
-0.086039
0.123181
0.108795
-0.028358
-0.201038
-0.141442
0.090523
0.244153
0.005364
-0.318058
-0.142341
-0.075566
-0.215747
0.016340
-0.048912
-0.060888
0.164708
0.066734
0.018109
-0.046740
-0.105990
0.209330
0.456862
0.037966
-0.229352
-0.277352
-0.131880
0.136196
0.095699
-0.053368
-0.091971
0.087890
0.006674
-0.105732
-0.097675
0.025345
-0.110334
0.161368
-0.136016
-0.038055
-0.009834
-0.160003
-0.150768
-0.021912
0.184346
0.175666
-0.052577
0.213668
0.194314
0.057188
-0.080319
0.053059
-0.046200
0.128259
-0.137630
-0.228768
0.039653
-0.161065
0.110380
-0.129124
0.077744
0.245401
0.006011
-0.043618
-0.099005
0.100214
-0.064216
0.126236
0.025009
-0.171602
-0.002237
0.001247
0.135312
0.029816
-0.074822
-0.007087
0.004591
-0.096639
0.120913
0.055030
-0.111688
0.188247
-0.088212
0.049296
0.040942
-0.052107
0.089857
0.182173
-0.113943
0.061163
-0.164743
-0.282472
0.047206
-0.025052
0.036990
0.226681
0.068243
-0.096675
0.077804
-0.072063
0.043401
0.230716
0.149373
0.016393
-0.022627
0.028208
-0.052534
-0.087701
-0.027826
-0.003547
0.022490
-0.063187
-0.062834
-0.150571
-0.194566
-0.153015
0.127208
-0.111645
-0.050269
-0.170899
-0.053092
-0.033049
0.025908
-0.035839
0.006568
0.067620
0.195980
0.072726
-0.095457
-0.073001
0.095521
0.041489
0.058372
0.126385
0.067410
0.012306
-0.122966
0.101300
0.087227
0.144360
-0.017500
0.099877
0.067414
-0.200616
-0.188379
-0.036312
0.223927
0.063542
-0.181139
0.040174
-0.005329
0.114178
-0.073462
-0.002711
-0.001193
-0.047105
-0.085320
0.017473
-0.181348
-0.023069
0.043665
-0.056241
0.160849
0.184271
0.085668
0.100848
-0.081227
-0.000985
0.071107
0.001661
0.024742
-0.020098
-0.025203
0.052816
-0.151715
-0.148609
0.086790
-0.001476
-0.016550
-0.015332
-0.006620
-0.014737
-0.051148
-0.045889
0.010951
0.021130
0.006493
-0.082493
0.006964
0.040765
0.020127
0.006035
-0.074686
0.012282
0.000045
-0.015374
-0.042880
0.042414
0.062458
-0.033977
0.040569
-0.022214
0.083127
0.094518
0.110061
-0.116826
-0.079993
-0.043352
0.099460
-0.051797
-0.022321
0.112492
0.023400
0.079231
0.079840
-0.001900
0.154175
0.119859
0.152598
0.159264
-0.087165
0.020653
-0.009677
-0.087477
-0.193303
0.029617
0.027399
0.034406
-0.005810
0.016587
0.018024
0.073986
-0.250607
-0.247760
0.025482
-0.051985
0.101514
0.035943
0.227720
0.025676
-0.020762
0.209020
-0.084753
-0.019602
-0.126562
0.013201
0.234869
-0.044052
-0.066974
-0.028224
-0.075660
0.102885
0.016535
0.147257
0.041797
-0.057718
0.089515
0.260951
0.055832
-0.041191
-0.086827
-0.157319
0.174576
0.195724
0.120119
-0.097636
0.095189
-0.023888
-0.202171
-0.104372
0.211876
0.183149
-0.363326
-0.227888
-0.273619
-0.080512
-0.037488
0.193561
0.109697
0.091082
-0.304549
0.047972
0.130331
0.009626
-0.110512
0.154028
0.250349
0.212362
0.382851
0.071623
-0.194684
0.245868
0.184008
0.203904
-0.286284
-0.201603
-0.220248
-0.035907
-0.203456
-0.346905
-0.260026
-0.248834
0.148631
0.067246
-0.088163
-0.115204
0.013495
-0.103843
-0.068453
0.088055
0.131578
-0.035004
-0.027188
-0.227599
0.100227
0.125958
-0.002623
0.045899
0.032688
0.079608
-0.197109
-0.129017
-0.030846
-0.135028
-0.008927
-0.098396
-0.157478
-0.053461
0.145372
0.053624
-0.035748
0.291407
-0.320619
0.133037
0.008103
-0.057607
0.066400
0.011600
-0.085947
0.036831
-0.054877
-0.096285
0.006334
0.020466
0.120466
0.118671
0.054275
0.011353
-0.078976
-0.119771
0.049642
0.228307
0.200621
-0.201931
-0.213701
0.035662
0.214936
0.082307
0.060607
0.007555
-0.123128
0.022050
-0.019553
-0.281156
-0.167723
-0.165202
-0.060626
-0.121054
-0.396978
-0.065438
-0.068569
0.130191
0.018181
-0.001447
-0.037562
0.069096
-0.051625
-0.058920
-0.015794
-0.013942
-0.085291
0.174861
-0.040756
-0.057660
0.050652
0.014055
0.120892
0.054156
-0.050633
-0.141147
-0.041270
-0.057406
0.049164
0.217881
-0.220366
0.138629
0.206791
0.133497
0.427893
-0.316726
-0.122245
0.324200
0.003483
-0.000815
-0.024918
-0.056994
0.040791
0.193267
0.014432
0.181954
0.034434
-0.002709
0.329981
0.002920
0.020935
0.041039
0.060728
-0.013512
-0.111748
-0.262107
-0.050414
0.233956
-0.548350
-0.156519
0.023628
-0.172331
-0.163903
0.032546
0.203361
0.008896
0.124555
0.123849
-0.154548
-0.083139
-0.037565
-0.015905
0.070423
0.198570
0.287203
0.241337
0.153970
-0.105474
0.281678
0.021727
0.112835
-0.040258
0.005876
-0.100834
-0.162348
-0.104793
0.146264
0.359806
-0.007183
0.011393
0.001103
-0.010664
0.017727
-0.075068
0.028642
-0.059756
-0.018305
-0.025051
-0.011993
-0.078495
-0.001295
-0.023319
-0.060684
-0.001193
-0.005315
-0.045401
-0.023538
-0.049991
-0.067234
-0.018927
-0.015060
0.039367
0.047045
-0.014102
-0.035806
-0.071163
-0.048904
-0.027856
-0.010250
-0.048082
-0.075985
0.000832
-0.032362
-0.013371
-0.024009
-0.038806
-0.069144
-0.006936
0.004368
-0.029778
-0.071344
-0.035332
0.031398
-0.034420
-0.064925
-0.008752
-0.024988
-0.056245
0.000917
-0.048690
-0.013995
-0.031548
-0.062688
0.005293
-0.021158
-0.039036
0.051596
-0.010261
-0.018402
-0.014913
-0.026249
0.023594
-0.027148
-0.045638
0.018709
0.005763
0.006121
-0.068474
-0.055426
-0.081939
-0.055260
-0.016878
-0.053811
-0.001953
-0.064387
-0.018636
0.002560
0.011054
-0.005799
-0.007756
0.015558
-0.055300
-0.055708
0.008822
0.014603
0.014857
-0.064309
-0.011542
-0.020320
-0.058513
-0.046636
-0.065452
-0.055871
-0.063476
-0.015385
0.014886
0.012528
-0.036716
-0.070917
0.006222
0.010563
0.058661
0.005996
0.008199
-0.043040
-0.012083
0.031369
-0.046763
0.009847
0.017309
-0.005610
-0.041644
0.016078
0.019492
0.008902
0.067351
0.001186
0.006978
-0.013618
-0.030789
-0.060566
-0.078791
-0.072847
-0.027181
-0.047630
0.026641
-0.045493
0.002038
0.000383
-0.038042
-0.019683
-0.008661
-0.026436
0.009273
-0.006972
0.034825
0.016635
-0.024159
0.034819
-0.007228
0.032514
0.043556
0.012793
-0.018301
0.026934
-0.047995
-0.035922
0.008923
-0.008980
-0.016918
-0.076874
-0.055289
0.000923
0.013836
-0.004205
0.016065
-0.030089
-0.057031
-0.011854
0.042402
-0.070043
-0.030970
-0.029404
0.015998
0.010232
0.001699
-0.070582
-0.032501
-0.043775
-0.006330
0.006109
-0.006311
-0.037464
-0.054384
0.004052
-0.040019
-0.007619
0.023484
0.001786
0.006014
-0.032578
-0.035248
-0.056957
0.006766
0.023998
-0.027085
0.010167
-0.004021
0.011750
-0.043751
0.030340
-0.017564
0.024431
0.003325
-0.062050
-0.076327
0.000534
-0.014509
-0.032337
-0.063529
0.060299
0.015500
-0.060296
0.059918
-0.025196
-0.078207
0.040391
-0.019265
-0.015492
-0.025475
-0.004154
0.002542
0.020459
-0.065501
0.013496
-0.022722
-0.066276
-0.069671
-0.006989
-0.032242
-0.030039
-0.006216
-0.032730
-0.044673
-0.035318
-0.016765
-0.027456
-0.004945
-0.016703
-0.044697
0.015701
-0.065104
-0.005137
-0.065596
-0.074626
0.006092
-0.001352
-0.012483
-0.030047
-0.067396
0.012916
-0.034056
-0.034331
-0.010605
-0.066891
-0.070858
0.062773
-0.010355
0.039050
-0.020298
-0.018647
-0.016060
0.022420
0.004878
-0.053530
-0.028190
-0.049049
-0.002839
0.011261
-0.060085
-0.071866
-0.054566
0.016593
-0.024719
0.023715
0.018262
0.003947
-0.068424
0.007899
0.015889
0.039104
-0.066332
0.007949
0.016867
-0.063886
-0.031801
-0.019772
0.023788
0.013025
-0.019483
-0.045005
-0.043448
0.022379
0.043112
0.004378
-0.028996
-0.045741
0.045088
0.000652
0.070028
-0.026659
-0.010696
0.006043
0.021959
-0.015274
-0.040736
-0.011843
-0.043886
-0.001896
0.010108
0.041938
-0.070560
-0.006743
-0.060680
-0.066986
0.006195
0.030818
-0.060599
-0.049053
-0.020510
-0.028183
0.052028
0.010765
0.008653
0.021887
-0.041532
-0.022078
-0.048968
-0.049239
0.060572
0.050666
0.002460
-0.045239
-0.015596
0.017158
-0.014956
-0.020155
-0.028094
-0.048937
-0.038288
-0.004822
-0.034999
0.033131
0.047812
0.030210
-0.041456
0.015534
-0.013464
0.019363
0.040857
0.008890
-0.069743
0.002174
-0.042778
0.050737
0.007071
-0.059707
-0.037865
-0.034616
-0.010125
-0.042065
-0.072732
0.062696
0.023925
0.009226
-0.060435
-0.060754
-0.032257
0.022216
0.041975
0.007629
-0.014734
-0.034943
-0.039372
-0.062636
-0.061208
-0.056507
0.009424
0.021098
-0.080445
0.022503
-0.023590
-0.010861
0.015113
-0.074117
-0.060634
-0.015352
0.015539
-0.019463
-0.078386
-0.064511
0.018213
-0.034456
0.055268
-0.017674
-0.042360
-0.011571
-0.020708
0.000887
-0.032322
-0.031534
-0.006927
-0.045867
-0.052848
-0.042015
-0.067816
-0.055579
-0.063010
0.217314
0.219067
0.073944
0.015792
0.089687
0.002454
0.094640
0.034323
-0.007288
0.251108
0.097204
0.111538
0.056967
-0.088514
-0.006232
0.204549
0.013175
-0.297726
-0.316525
0.117163
0.051289
-0.074879
-0.257282
0.100795
-0.029814
0.027657
0.210410
0.016499
0.096543
0.140783
-0.026550
0.052090
0.090689
0.015305
0.127109
-0.018819
0.102818
0.068792
0.019468
-0.133574
0.005114
-0.074656
-0.047107
-0.134742
-0.176502
-0.049543
-0.132183
0.027313
0.109792
-0.020531
0.008005
-0.127725
-0.112155
-0.129240
-0.068799
-0.018790
-0.133066
-0.280155
0.004169
0.060513
-0.221811
-0.246495
0.012943
0.077304
0.195252
-0.162280
-0.079066
-0.032535
0.085446
0.011794
0.005361
-0.063757
0.007546
-0.002340
0.052893
0.097804
-0.063909
-0.063056
-0.036069
0.054905
0.076869
0.169228
0.113659
0.064113
-0.064677
0.166815
0.160674
-0.014472
0.017503
0.135980
-0.250248
-0.433339
-0.156301
-0.031649
0.216912
0.136054
0.303290
0.142356
0.164625
0.043322
-0.041312
-0.145645
-0.123358
0.120932
0.058564
0.356025
-0.173338
0.015417
-0.055267
-0.012629
0.116155
-0.083855
0.258466
0.019603
-0.039514
-0.069781
0.103750
-0.017817
-0.153203
-0.213624
0.005650
-0.067067
-0.089615
-0.080719
0.183066
0.047788
-0.047163
-0.061335
-0.034227
0.030014
-0.007775
-0.035881
0.042852
0.032084
0.013230
0.019513
0.045730
0.015059
-0.021218
-0.044315
-0.027074
0.073468
-0.040670
0.046136
-0.047803
-0.015254
-0.006350
-0.027280
-0.040491
-0.031999
0.079492
0.013366
-0.113257
0.098322
0.051810
-0.106704
-0.136442
-0.080584
0.182037
0.202950
-0.221421
0.068761
0.292595
0.138201
0.094252
0.100297
0.226129
0.015079
-0.155487
-0.277344
-0.132396
-0.291555
-0.122929
-0.001120
0.148607
0.119038
0.015906
-0.106031
-0.089228
0.045839
-0.180410
-0.299780
-0.203968
-0.136911
0.019728
-0.321182
0.059341
0.045957
0.054899
0.049403
-0.087748
-0.106131
-0.177023
0.136519
0.131401
-0.120711
-0.088774
-0.049114
0.134467
0.160437
0.071120
-0.049213
-0.086770
-0.097966
0.060969
-0.279474
-0.133741
-0.092711
-0.262863
-0.181058
0.307891
-0.008652
-0.319293
-0.000003
0.148319
-0.286372
-0.476204
0.014146
0.073368
0.010835
-0.517464
-0.465464
0.160132
0.165010
0.098922
0.067411
0.123095
0.102896
0.051190
-0.126480
-0.118311
-0.053920
0.167648
0.066143
-0.024099
0.222881
0.442907
0.135220
-0.176594
-0.237618
0.200629
-0.177823
-0.202708
-0.167879
-0.011113
-0.059180
-0.174895
-0.328161
0.133327
-0.000451
-0.010427
0.086904
-0.081362
0.136266
-0.015351
-0.283940
-0.095886
0.159222
0.218238
-0.012525
0.146618
-0.149364
0.293203
0.055163
-0.037468
-0.460869
0.212460
-0.170512
-0.052015
-0.024975
-0.339768
-0.402983
-0.099050
-0.123456
-0.072449
0.230309
0.121237
0.132887
0.048536
0.190145
0.138608
0.138862
0.030556
-0.070446
-0.035153
-0.000655
0.108980
0.101800
-0.073004
-0.016272
-0.082003
-0.030478
0.005529
0.093817
-0.008069
0.022612
-0.128424
0.006748
0.005597
0.025002
0.127975
0.054860
-0.027788
-0.099976
0.120862
0.196016
-0.016043
-0.215315
-0.120800
0.010179
0.042805
-0.482123
-0.304447
-0.122001
0.170276
-0.045955
-0.191229
0.050161
-0.077382
0.085495
-0.014992
0.093092
-0.058798
-0.058257
-0.232801
0.122019
0.021081
0.140393
-0.193088
0.101712
0.045015
0.033635
-0.036518
-0.132016
-0.276028
0.017162
0.053715
0.019004
-0.189262
-0.281069
0.193792
0.223426
-0.280245
-0.317180
-0.062580
0.292841
0.096644
-0.292240
-0.151864
0.290961
-0.013820
0.053286
-0.050389
0.043724
0.019072
-0.230669
0.013558
0.274735
0.159909
-0.013382
0.256100
0.138217
-0.035243
-0.000029
-0.053879
-0.121313
-0.313511
-0.149667
0.110048
0.130767
-0.375667
0.034548
0.029217
-0.023295
-0.060096
0.132650
-0.017387
0.082899
0.181763
0.268782
-0.123609
-0.265443
-0.072535
-0.089822
0.030983
-0.059079
0.318676
0.187930
0.048967
-0.011205
0.262686
0.087323
0.050919
0.019131
0.087449
-0.201685
-0.275671
-0.045842
0.023620
-0.013775
-0.078774
-0.069864
-0.011129
-0.063909
-0.050588
-0.069534
-0.040789
-0.024135
0.006655
-0.005090
-0.061371
-0.035254
0.012135
-0.010576
0.045178
-0.059635
-0.055167
0.013545
-0.026914
0.032707
-0.014710
-0.000899
0.008790
0.008310
-0.034250
-0.046389
-0.017170
0.043414
-0.004512
-0.036215
-0.003058
-0.031611
-0.053511
-0.058093
-0.006008
-0.080522
-0.077278
-0.056903
-0.054053
0.006000
-0.036862
-0.048248
-0.069746
-0.046643
-0.036222
0.017824
0.011368
-0.043223
-0.071431
-0.041116
0.015633
-0.035091
0.001000
-0.066772
-0.019674
-0.074346
-0.043648
-0.041550
-0.019671
-0.066416
-0.043152
-0.058431
0.006138
-0.048532
-0.058273
-0.074330
-0.038807
-0.046570
-0.054076
-0.066078
-0.038924
-0.037566
-0.004039
-0.004398
-0.064803
-0.013110
0.003252
-0.064037
-0.065118
-0.047933
-0.054594
-0.049721
0.001283
-0.036187
0.016313
-0.029899
0.024588
-0.069320
-0.081139
-0.016489
-0.009264
-0.011388
-0.035095
-0.047813
-0.018587
-0.061080
-0.058261
-0.002550
0.004855
-0.064592
-0.030368
0.009199
-0.041734
-0.049001
-0.053839
-0.022313
-0.072904
-0.066393
-0.057048
0.004180
-0.071260
-0.003345
-0.016166
-0.046151
-0.000944
-0.009464
-0.014667
-0.037151
-0.039505
-0.066252
-0.020933
-0.034477
-0.073794
0.006814
-0.004531
-0.027954
0.012486
0.035309
0.032393
0.010610
-0.001931
-0.043140
-0.001516
0.016307
-0.025709
-0.034508
0.003398
-0.014937
-0.044038
-0.040835
0.036471
0.018252
0.041964
-0.014126
0.016163
0.030402
-0.018457
-0.030728
0.010107
-0.018670
0.018756
-0.016544
-0.034540
-0.034957
-0.009011
-0.022693
-0.014402
-0.063871
-0.046027
-0.024209
0.006728
-0.027104
-0.033437
-0.066144
-0.015456
0.041466
-0.003072
-0.017265
-0.050130
-0.060182
-0.060215
-0.012636
0.000747
-0.073350
-0.003453
-0.029556
0.007466
-0.023051
-0.040700
0.022103
-0.027575
-0.014867
-0.031454
0.013432
-0.022893
-0.017774
0.008768
0.004354
0.002128
-0.058752
0.012227
0.004096
0.026924
0.034035
-0.053714
0.003351
-0.037697
0.012177
-0.020484
-0.047272
-0.014267
-0.036437
-0.051767
0.011317
0.008017
0.019351
-0.074010
-0.012939
-0.028153
-0.075302
0.031449
0.010476
0.024641
-0.009615
-0.062381
0.007884
0.012166
-0.022163
-0.053546
-0.055288
-0.037164
-0.052045
-0.069083
-0.023867
-0.022689
-0.023388
-0.027972
-0.057824
-0.015551
-0.013417
-0.028359
0.028945
-0.009221
-0.035724
-0.018718
-0.022319
0.006906
0.021652
-0.048773
0.014288
-0.079295
-0.014053
-0.046836
-0.073265
-0.016085
-0.037064
-0.012326
-0.032131
0.012402
-0.021345
-0.041706
-0.054463
-0.033264
0.023372
-0.032767
-0.006312
0.017669
-0.053730
0.023749
-0.020280
-0.065485
-0.008299
-0.018323
-0.049368
-0.018229
-0.002707
0.023389
-0.026871
-0.060438
0.022364
0.023201
-0.005806
-0.038814
-0.074877
-0.027399
0.045384
-0.030736
0.009630
0.028929
-0.014029
-0.011501
-0.047740
0.035331
-0.021353
-0.047466
-0.050311
-0.049588
-0.039364
-0.050874
-0.075691
-0.040984
-0.013255
0.008250
-0.077568
-0.029518
0.015558
-0.001269
-0.068655
-0.060495
-0.044646
-0.045786
0.003698
-0.030895
-0.012303
0.003458
-0.008050
0.016601
-0.001222
-0.073881
0.000323
-0.028549
-0.057158
-0.000816
-0.034958
0.041528
0.011826
-0.009051
-0.036811
-0.003796
0.003387
-0.065268
0.002800
0.025511
-0.039577
-0.007844
0.015220
0.037304
-0.027942
0.018265
-0.015095
0.005204
-0.040675
0.010730
0.015541
-0.025506
0.003445
-0.038666
-0.010820
0.006916
-0.015135
0.027981
0.014593
-0.043745
0.015017
-0.044193
0.040718
0.031952
-0.029590
0.010714
0.025610
-0.040816
-0.061094
-0.030404
-0.011754
-0.051104
0.021799
-0.012661
-0.017093
-0.064306
0.009443
-0.064158
-0.052799
0.009559
-0.025975
-0.068750
-0.053940
-0.029672
-0.074567
-0.043448
-0.012103
0.019114
-0.036784
0.017638
-0.006736
-0.035647
0.002018
-0.038695
-0.046261
0.034825
-0.077252
-0.079253
-0.052893
0.019554
0.005397
-0.052264
-0.078394
-0.024925
-0.050532
-0.015415
-0.012684
0.036674
0.017234
0.022695
-0.027178
0.002371
-0.035548
-0.045197
0.012110
-0.044837
-0.013461
0.043651
-0.038945
-0.096604
-0.302313
0.084354
0.081771
0.023899
-0.126051
-0.137145
0.186915
0.084729
0.057864
-0.014426
-0.269107
-0.294567
0.191935
0.045454
-0.053456
-0.261988
0.071262
0.023501
-0.127896
-0.204260
-0.330307
0.292149
0.089636
0.101234
-0.095927
-0.171155
-0.259707
-0.003269
-0.015805
-0.091200
-0.078296
-0.154606
-0.118643
0.032285
-0.066529
-0.083813
-0.109112
-0.027788
-0.123815
0.024615
0.086091
-0.033705
-0.025689
-0.058414
0.076431
-0.025428
0.038654
0.271042
0.394749
0.213806
0.118141
0.296759
0.100732
0.070270
0.017554
-0.085891
0.204802
0.249803
-0.073691
-0.112367
0.063022
0.088031
0.068394
0.018575
-0.081744
-0.038075
-0.184860
0.073992
0.077537
0.057905
0.017590
0.019041
-0.106348
-0.043432
0.130971
0.123881
0.010183
-0.146489
0.182217
0.076875
-0.087306
0.090698
0.008027
0.164903
-0.017102
0.069380
0.148172
-0.054665
-0.061121
-0.082956
-0.134969
0.046381
-0.166510
0.222759
0.193512
-0.179991
-0.580700
0.075259
0.003731
0.040208
-0.105983
0.087882
0.095937
-0.083307
-0.113834
0.096035
0.099419
-0.049084
0.031080
0.062071
0.095468
-0.227332
-0.065587
0.025614
-0.181647
-0.152558
-0.105277
-0.002682
-0.056701
-0.168418
0.013590
-0.054875
0.015246
0.063263
-0.019042
0.013126
0.032406
0.045056
-0.062100
0.014227
-0.001431
0.006126
0.024803
-0.049621
-0.025686
-0.037454
-0.013084
0.080711
0.013689
0.006198
-0.018171
0.018887
-0.031441
-0.019416
-0.075786
0.022366
0.038591
0.239713
0.149736
0.060016
0.078019
0.019967
-0.058470
-0.043164
-0.047703
-0.131127
0.168118
0.073707
0.210714
0.011578
0.034260
-0.053455
0.073083
0.096364
0.170498
0.068726
-0.137987
-0.068313
-0.107996
0.039921
0.028894
0.095418
0.085035
0.165283
0.082159
0.099130
0.123210
0.127360
-0.030280
-0.122659
-0.017779
0.254752
0.263093
0.371413
0.105846
0.225817
0.157330
-0.084446
-0.000838
-0.015914
-0.138946
-0.129328
-0.039120
-0.041217
0.039670
-0.063896
-0.193322
0.062834
0.041784
-0.065983
-0.033795
0.058400
0.147293
-0.141173
-0.109055
0.063758
0.106798
0.452599
0.087185
-0.137355
-0.180735
0.272935
0.208096
0.064688
0.021069
0.012146
-0.117381
-0.159321
-0.142747
-0.052641
0.084482
-0.233819
0.057132
-0.036568
-0.154278
-0.176905
0.076545
0.063841
-0.179545
-0.113941
-0.067510
0.244011
0.166198
0.240240
-0.097714
-0.253730
-0.439876
0.073866
-0.003786
-0.100468
-0.125594
-0.001209
-0.099331
-0.168655
-0.073933
0.231021
0.238712
-0.056742
-0.144461
-0.166478
-0.256141
0.167624
-0.023973
-0.234971
-0.164062
-0.005041
0.038949
0.395568
-0.255431
-0.162786
0.050690
0.095858
0.275361
0.271838
-0.159788
-0.052531
-0.048421
-0.046570
-0.155700
0.033243
0.080607
0.003764
-0.130130
0.279272
0.065380
-0.123900
0.252874
0.028489
-0.043239
-0.007759
-0.108045
-0.023764
0.021229
0.008033
0.026976
-0.001571
0.099450
-0.119084
-0.017414
0.070120
0.011279
0.253551
0.070225
-0.011710
-0.113716
-0.244000
-0.081982
-0.055119
0.052879
0.434388
-0.005500
-0.112399
0.323260
0.155065
0.189295
0.050428
-0.160329
0.176594
-0.105801
-0.141494
0.154548
0.169577
-0.054293
-0.068605
-0.099285
0.169240
0.230066
0.063231
-0.085174
-0.309703
-0.344788
-0.330827
-0.078496
0.190063
-0.031123
0.169287
0.032220
0.041523
0.084461
0.133757
0.047553
0.104259
-0.058927
-0.100536
0.006245
-0.035443
-0.266842
0.175786
0.071909
0.075584
-0.111641
-0.033406
0.091081
-0.090634
-0.251210
-0.125729
0.349843
-0.081108
0.116474
0.023463
-0.161015
-0.038030
-0.036431
-0.003575
-0.149529
-0.185596
-0.020613
0.214320
0.070312
0.063429
-0.170071
0.062605
-0.131943
-0.144323
-0.163921
0.004743
-0.187727
-0.119859
-0.034119
-0.089497
0.044103
-0.282141
-0.222979
-0.069475
-0.139944
-0.027509
-0.226816
-0.081321
0.005281
0.030107
0.061724
-0.020153
0.231587
0.149615
0.091904
0.207380
0.286654
0.207473
0.205570
0.134123
0.091118
0.135800
-0.192964
0.013855
-0.000964
-0.211403
-0.266237
0.008297
0.157771
0.062961
-0.304545
-0.080613
0.016737
0.026975
-0.076894
-0.204332
0.122078
-0.016819
0.062085
-0.134064
-0.055851
0.286918
-0.144647
0.241400
-0.347418
-0.220184
0.134195
-0.087927
0.004534
-0.119488
-0.417022
0.028649
0.073449
0.185359
0.004016
-0.039470
-0.060537
-0.065008
-0.171633
0.255685
0.028382
0.162345
-0.241890
0.046910
-0.021538
-0.081593
0.147964
-0.004823
-0.105554
-0.114751
-0.307299
-0.060521
-0.067442
0.012212
0.222744
-0.402192
-0.158010
-0.125506
0.063551
-0.069848
0.092215
-0.112666
-0.074825
0.088075
-0.062087
0.165279
-0.400784
-0.145646
-0.117798
0.148413
0.204656
0.060215
0.027187
0.016407
-0.027380
-0.063868
0.110008
-0.166343
-0.058191
-0.093830
0.074032
0.079737
0.039161
0.006897
0.125404
0.042758
0.086475
0.050190
-0.107834
-0.082771
0.078160
0.185966
0.076305
-0.089625
-0.099314
0.034421
0.038846
-0.483164
-0.087935
-0.109809
0.119546
-0.184559
0.084288
0.386324
0.376798
0.322915
0.044126
-0.125373
0.242377
0.151833
0.240265
-0.501915
-0.002741
0.074568
0.080668
-0.063947
-0.244932
-0.149583
-0.061952
0.088370
0.020561
0.002509
0.072339
-0.033694
-0.100602
-0.191881
0.038581
0.056327
-0.114698
0.102846
0.165167
0.109838
0.001304
0.021535
0.008236
0.036836
0.019310
-0.000009
-0.048055
0.035357
0.033417
-0.024040
-0.035651
-0.041028
0.006077
-0.025015
0.001001
-0.032927
-0.003023
-0.045499
-0.027669
0.015872
-0.061501
-0.024740
0.014752
0.034584
0.008228
0.044963
0.013257
0.107086
0.039925
-0.641698
-0.095421
0.030213
0.102062
-0.034197
-0.194162
-0.057204
0.106394
0.122143
0.263541
0.173804
0.043236
0.026671
0.004631
-0.002426
0.129487
-0.380133
-0.150309
0.063241
0.046663
0.141624
0.016475
0.155133
0.039094
0.083641
-0.199782
-0.052639
0.024713
0.027148
0.086500
-0.026306
-0.023891
-0.259696
-0.197603
0.092846
0.005351
0.068505
0.063612
-0.031438
-0.083136
-0.168640
-0.317643
-0.078827
0.069591
0.168487
-0.010049
0.027935
0.127469
0.139199
0.036812
0.005089
0.129860
0.076106
-0.134648
0.088677
-0.072508
-0.361318
-0.010636
0.046358
0.152009
-0.149538
-0.286457
-0.194529
-0.005837
0.039765
0.128297
-0.181314
-0.037734
0.129451
0.294422
0.247765
-0.062065
0.090482
0.297803
-0.143340
-0.433230
0.037275
-0.045118
-0.080842
0.096353
-0.166494
0.081067
-0.222147
0.010907
-0.148548
0.032677
-0.335198
-0.017507
-0.148679
0.022715
0.098679
-0.060167
-0.118233
0.007860
-0.130783
0.195152
0.323054
0.133880
-0.018737
-0.144814
-0.229141
0.049378
0.036272
0.084801
-0.190753
0.000908
-0.116582
-0.052464
-0.082536
0.010515
0.045579
-0.238769
-0.057576
0.055744
0.083340
-0.047965
-0.370194
-0.111834
-0.334522
0.268911
0.106339
-0.107157
-0.041530
0.302609
0.233328
-0.072733
-0.071899
-0.071701
0.137735
0.102740
0.162953
-0.289406
0.182714
-0.057044
0.238321
0.141379
0.091052
0.161381
-0.129921
-0.087791
-0.239982
-0.107042
0.077474
0.146926
-0.365917
-0.095172
0.009974
-0.123938
-0.096698
0.199279
0.181753
-0.125576
0.007122
-0.055630
0.050341
0.257410
-0.296116
-0.140020
0.038159
0.089281
-0.262448
0.021121
0.005476
-0.024269
0.151957
0.026315
0.133928
0.170007
0.431630
0.333209
0.289990
0.274986
-0.235562
0.018982
-0.330910
-0.122600
0.012435
-0.119869
-0.069404
-0.241344
-0.336830
-0.012012
-0.005818
-0.072467
-0.064504
0.013940
0.017578
-0.163708
-0.014302
-0.160232
-0.213776
-0.166285
-0.165696
0.037923
-0.220260
0.115807
-0.052228
-0.051618
0.073694
-0.123089
0.077730
-0.064284
0.022396
-0.098996
0.132435
0.072433
-0.055737
0.086403
0.091749
-0.283267
-0.007282
-0.287163
-0.169033
0.127469
-0.174305
-0.077087
0.315278
0.288149
0.177377
-0.006971
-0.180545
0.024895
-0.020893
0.245425
-0.008124
-0.178152
0.125163
0.192752
-0.011548
0.052437
0.083951
-0.108318
-0.177850
-0.185654
0.322678
0.113480
-0.105186
0.034069
-0.103904
-0.160142
-0.064427
-0.302281
-0.260766
0.201468
0.117300
-0.224736
-0.088284
-0.053515
0.038540
-0.278650
0.145123
-0.052605
-0.158142
0.160408
-0.170728
0.419411
0.013053
0.085791
0.027901
-0.380024
0.053375
-0.024826
-0.034652
-0.267595
-0.023279
0.090936
0.012542
0.037098
-0.316680
-0.229846
0.046490
-0.125568
-0.119102
0.031206
0.037066
0.044778
-0.099720
-0.131306
0.183809
-0.059653
0.209618
-0.136564
-0.147439
0.008507
-0.140760
-0.007051
-0.065859
-0.231704
-0.156047
-0.246304
-0.218895
-0.068910
-0.191256
0.020751
-0.310523
-0.211689
0.009227
0.252844
0.097434
-0.027111
-0.238728
0.033366
-0.047835
-0.181369
0.016184
-0.149990
-0.267748
-0.009027
-0.008110
-0.045003
0.060290
0.151536
0.139102
-0.074314
0.048497
0.136703
0.215154
0.084405
-0.014549
-0.003706
-0.063259
-0.049863
-0.066089
-0.117530
0.014638
0.112071
0.061544
-0.162643
0.041746
0.267001
-0.163173
-0.009415
-0.152114
-0.066969
-0.146773
-0.134601
-0.045315
-0.038138
0.049085
-0.139916
-0.272990
-0.030363
0.372425
0.352552
0.078470
-0.064211
0.068203
-0.033428
-0.181198
0.122807
-0.078367
-0.152339
-0.048270
-0.098716
0.203087
0.043293
-0.091666
-0.198593
0.017474
-0.038998
-0.014417
-0.079937
-0.057010
-0.209767
0.047470
-0.127256
0.092289
-0.087684
-0.159772
0.103066
-0.003615
-0.016813
0.051853
0.038401
0.021711
-0.009168
0.070059
-0.036811
-0.019585
0.002017
0.032087
0.005192
-0.048385
-0.048600
-0.036610
-0.008197
0.046100
-0.020212
0.028428
-0.025582
0.049958
-0.066332
0.030926
-0.005802
0.020737
0.024802
-0.089956
0.030957
-0.152818
-0.060185
-0.085127
-0.050176
-0.059906
-0.030670
0.154830
0.179635
0.020563
0.024929
0.098953
0.077810
0.278473
0.001765
-0.131288
0.031780
0.042395
-0.103083
-0.170682
-0.187002
-0.039236
0.033614
-0.046601
-0.069070
0.076400
0.124031
0.056637
0.030703
0.190324
0.052821
0.071344
0.098259
0.073952
-0.032482
0.023658
-0.251346
-0.196219
-0.134564
-0.086878
0.066147
0.120834
0.082276
0.011394
-0.035478
0.084241
0.060226
0.055318
-0.174725
0.046506
-0.007700
0.024324
0.146239
0.124895
0.235033
0.300978
-0.131381
-0.348588
-0.183996
0.057096
-0.100225
-0.059725
0.099844
-0.052841
-0.007586
-0.095020
0.086148
0.021775
-0.013001
-0.211805
0.082198
0.212362
0.263887
0.205706
0.066412
-0.072539
-0.147507
-0.165828
-0.183825
0.117211
0.047138
-0.022495
-0.037571
0.141690
0.137679
0.045785
-0.111977
-0.169336
-0.082426
-0.164973
-0.306709
-0.224598
0.124468
0.049679
-0.061963
0.004117
-0.197633
-0.008593
0.049228
-0.093327
-0.160269
-0.491291
-0.049457
0.038823
0.089176
-0.104596
-0.234970
-0.070994
-0.110841
0.295309
0.119509
0.156738
0.019982
0.117770
-0.058236
0.124972
-0.264598
0.008198
-0.067582
-0.260770
-0.144568
-0.005862
0.033348
0.042546
-0.096155
-0.042972
0.263527
0.048854
-0.021860
-0.039107
0.089044
-0.015711
-0.037898
0.244517
-0.225629
-0.287134
0.094269
-0.008828
-0.044961
-0.028141
0.197902
-0.217074
-0.236688
-0.247374
0.142447
-0.074158
-0.179849
-0.276556
-0.150902
0.149041
0.437264
0.033332
-0.000365
0.147190
0.129049
-0.145519
-0.022928
-0.332560
-0.219811
-0.135151
-0.034554
-0.067105
-0.039199
-0.023132
0.012115
0.043889
0.112557
0.019822
0.104410
0.021537
0.026349
-0.037934
-0.272130
0.150367
-0.340603
-0.263635
0.045822
-0.336188
0.094635
-0.271675
-0.328172
0.011809
-0.335875
0.108914
0.048211
-0.068112
-0.106126
-0.219997
-0.063851
0.198542
-0.013706
-0.068067
-0.084391
-0.129821
0.226260
0.004194
-0.358001
-0.003655
0.103045
-0.053488
-0.101581
0.075134
0.116058
0.112766
0.119979
-0.108304
-0.078798
-0.078976
-0.211767
0.120510
-0.085400
-0.160636
-0.000804
0.038091
0.018540
-0.132481
-0.169738
-0.177309
-0.028115
0.135182
0.158851
0.196532
-0.055511
-0.016400
-0.249501
-0.063494
-0.029908
0.323798
0.035292
0.123030
0.016395
-0.032173
0.012944
0.132823
0.030299
0.001374
-0.123843
0.249700
-0.380551
-0.024881
0.002464
0.025145
-0.062105
-0.078891
0.120526
-0.006562
-0.045695
-0.113690
-0.192720
-0.056986
-0.009927
-0.007123
0.009408
0.021430
-0.054587
-0.053366
-0.022611
0.005578
-0.002658
-0.046600
-0.047581
0.023566
0.030970
0.027942
-0.042309
0.013085
0.030794
-0.048743
-0.012534
0.006689
-0.044374
0.034771
-0.057780
-0.029692
-0.021677
-0.051654
-0.013618
0.029623
-0.039081
0.012685
-0.060605
0.029704
-0.034512
0.015245
0.001926
0.009372
-0.040784
-0.026288
-0.002428
-0.039599
-0.061710
-0.035953
0.024080
-0.036155
-0.040168
-0.055384
0.009345
-0.024098
-0.044591
-0.019092
-0.033899
0.032866
-0.027014
0.014672
0.007361
-0.023053
-0.042503
-0.028430
-0.032166
-0.036319
-0.041563
-0.019288
0.034285
0.041110
-0.001918
0.000709
-0.007245
-0.062752
-0.052208
-0.017641
-0.045683
0.010297
-0.060453
-0.010203
-0.029194
0.003778
-0.001088
-0.061905
0.001298
-0.019239
-0.063016
-0.025611
-0.062799
-0.031139
-0.051972
-0.034425
-0.033544
-0.028812
-0.028537
-0.036907
0.020011
-0.030866
-0.051515
0.032140
-0.007291
0.015635
0.035093
-0.033216
0.004848
0.014056
0.000794
-0.002519
-0.002463
-0.039544
-0.053642
-0.048053
0.015559
0.001634
-0.037002
-0.055904
0.003741
-0.051379
-0.017193
-0.018484
0.026471
-0.009457
0.030776
0.006758
0.001071
-0.014495
-0.005474
-0.014826
-0.049011
0.031909
-0.010623
-0.012393
-0.017246
-0.041161
0.025848
0.041875
-0.025005
-0.014539
-0.022824
0.019187
-0.001520
-0.018484
-0.028131
-0.031997
0.048215
-0.049672
-0.028768
-0.027329
0.031213
-0.027966
0.000962
0.001810
0.043244
-0.042305
0.026594
-0.026066
-0.004961
0.007326
0.008799
0.006429
0.022113
0.032323
-0.043764
0.041854
-0.006373
-0.009909
-0.058958
0.004093
-0.028407
-0.039086
-0.050601
0.021459
0.001212
0.001419
0.022511
-0.038052
-0.027960
-0.064551
0.001316
-0.022320
0.027759
-0.014165
-0.005423
0.002778
-0.021144
0.003564
-0.049090
0.036762
0.023216
-0.031659
0.033747
0.033255
0.020443
-0.010914
-0.046478
-0.003169
-0.001554
-0.034227
-0.026361
-0.022828
0.011434
-0.060476
-0.012835
0.021584
-0.040357
0.007667
-0.018193
-0.060784
0.021689
-0.044246
0.025322
-0.010101
-0.008622
-0.009733
-0.035331
-0.020014
-0.011417
-0.026085
-0.007549
-0.018136
-0.060817
-0.023275
-0.041291
0.000671
-0.009289
-0.010664
-0.060527
-0.004759
-0.021888
0.005925
-0.047065
-0.034641
-0.009283
-0.033430
-0.005482
-0.055861
0.019846
-0.039109
0.005373
0.009195
-0.005193
0.030167
-0.007101
-0.005872
-0.027445
-0.047803
-0.013793
-0.003816
-0.019647
0.005897
0.025328
-0.025726
-0.021438
-0.018841
-0.018763
0.031525
0.021128
-0.019014
0.032387
-0.044003
-0.005708
-0.030070
-0.043205
-0.062553
0.011891
0.008963
-0.011852
-0.044474
-0.028051
0.019468
-0.005415
0.013773
-0.060968
0.010897
-0.030957
-0.045057
0.018954
-0.021095
-0.022736
0.010769
-0.025487
0.032126
-0.034469
-0.006465
0.021283
0.034366
-0.063107
-0.002723
-0.018748
-0.029925
-0.019591
-0.038505
-0.053224
-0.035015
-0.009765
-0.046844
0.022219
-0.017914
-0.014683
0.032477
0.007183
-0.021748
0.022238
-0.006377
-0.048948
0.030282
-0.019756
-0.019334
-0.005731
-0.046466
-0.064555
0.009739
0.001939
-0.033385
-0.048013
-0.011436
-0.019543
-0.050107
-0.064215
-0.040534
-0.036973
-0.041169
0.002722
-0.028653
-0.047210
0.008186
0.006569
-0.025411
0.023186
0.012401
-0.044375
0.029353
-0.043485
-0.031456
0.024004
-0.052110
-0.056896
-0.018898
-0.037994
-0.007847
0.048045
0.010683
-0.026390
-0.006847
0.012976
-0.062109
-0.062185
-0.058430
-0.030679
-0.014377
-0.007712
-0.038741
-0.038593
-0.058038
-0.058036
-0.019168
0.003006
-0.014986
-0.060447
0.019295
0.007793
-0.030140
0.022276
-0.024027
-0.017521
-0.015739
0.003122
0.027457
0.031554
0.011400
0.030492
-0.028155
-0.052847
0.012242
0.005308
-0.023129
-0.035457
-0.012617
-0.020111
-0.063199
-0.024923
0.000203
-0.042297
-0.029442
-0.040020
0.030446
0.007312
-0.029529
0.009039
-0.020259
-0.041667
-0.055122
-0.063278
-0.031463
-0.014402
0.005306
-0.012216
-0.053358
0.018516
-0.003017
-0.042025
-0.028409
-0.029700
-0.062523
0.025681
-0.020541
-0.018839
-0.009677
0.032260
-0.105029
0.026564
0.172178
-0.074953
0.138493
0.159155
0.130646
0.169372
0.123012
0.021113
-0.093672
0.127216
0.206727
0.211216
0.124555
-0.028125
-0.017666
0.224829
0.068155
0.145020
0.104859
0.173922
0.063145
-0.247323
0.122263
-0.110669
-0.042335
0.199289
-0.009648
-0.037721
0.251710
0.225175
-0.142059
-0.027677
-0.067996
-0.027312
-0.170020
-0.038107
0.048849
0.137303
-0.034055
-0.043854
0.011906
0.243462
0.141628
-0.014210
0.413199
0.262065
0.185521
-0.117252
-0.123499
0.069272
-0.062803
0.136546
0.000017
-0.091776
-0.078990
-0.265837
-0.420617
-0.539757
-0.125487
0.010491
-0.420701
-0.272163
-0.612797
-0.249976
-0.212030
-0.075826
-0.057499
0.098954
0.007632
0.208191
0.190863
0.162242
0.051461
0.085496
0.202105
-0.050040
0.399034
0.017484
-0.104940
0.119610
0.054947
-0.064975
-0.049157
0.106508
0.130635
-0.419576
-0.241408
-0.332132
0.136191
0.084346
0.136976
0.039415
-0.117150
-0.428810
0.101941
-0.087666
0.150054
0.078672
0.027489
0.016589
0.059461
0.197025
-0.174413
-0.003421
0.030427
-0.130110
0.069796
-0.075103
-0.051918
-0.468242
-0.170341
-0.258924
-0.043044
-0.085386
-0.135901
0.025309
-0.024501
0.356719
0.243467
0.059430
0.034986
0.059084
0.020014
-0.026577
0.053247
0.051910
-0.011541
0.005011
-0.023981
0.062525
0.063730
0.014590
-0.011866
0.011949
0.064977
0.049835
-0.023114
-0.045994
-0.025634
0.066949
0.014663
-0.041962
-0.009868
-0.034785
-0.252286
-0.069303
0.195398
0.063261
-0.098263
0.031398
0.077116
0.089862
-0.019934
0.118694
-0.042578
0.081391
-0.375841
-0.115295
0.288433
0.243624
-0.062230
-0.092601
-0.117808
-0.192503
-0.311325
0.008133
0.128839
0.320092
0.024781
0.075797
0.130738
0.048546
-0.075500
0.113736
0.169747
0.122950
0.140154
0.108077
0.003083
-0.151500
-0.316485
-0.647038
-0.583318
-0.102927
-0.434438
-0.881782
-0.829192
-0.553978
-0.368305
-0.110492
-0.109021
-0.128659
0.065624
0.026634
0.163184
0.144227
0.100762
0.048070
0.189187
-0.210613
-0.032160
0.016042
-0.279109
-0.018049
0.036704
-0.357074
-0.359238
0.068110
-0.185073
-0.019745
-0.143947
-0.429503
-0.354196
-0.277168
-0.135018
-0.465736
-0.244508
-0.479569
-0.280323
-0.058508
0.007742
0.017315
-0.043907
0.129454
-0.109437
0.095415
-0.045043
0.213003
-0.061980
0.063944
0.289574
-0.148995
0.119709
-0.034502
-0.023123
0.137224
0.095159
0.190708
-0.203903
0.080980
-0.089745
0.049056
0.137168
0.084613
-0.021145
-0.075832
-0.022265
0.042548
-0.020010
-0.137963
0.138975
0.191984
0.021162
0.121735
0.107661
-0.035839
0.279070
-0.031773
0.094336
0.097503
0.140285
0.003936
0.057954
0.220597
-0.356793
-0.377860
-0.066554
0.047431
0.038846
0.293369
0.308335
-0.081653
-0.081889
-0.002052
0.205855
0.242868
0.176672
0.032128
0.120536
-0.004244
-0.018289
0.121183
0.048350
-0.097857
-0.023381
-0.018700
-0.246854
0.019657
-0.094574
-0.271850
-0.010046
-0.043811
0.018581
-0.193408
0.226123
0.443181
0.116210
0.009018
-0.047480
-0.028813
-0.089620
0.002906
-0.096675
0.151831
0.049013
-0.218824
0.042869
-0.110200
0.144533
0.028896
-0.481838
-0.181517
-0.322005
-0.021617
0.024348
-0.079345
0.051242
-0.450671
-0.445784
0.189334
0.164809
0.267488
-0.172803
0.033470
0.103447
0.204461
0.031000
-0.319431
0.331302
0.141199
0.191338
0.001456
0.069410
0.188976
0.004764
0.303994
-0.038008
0.099195
0.148943
0.169411
0.141187
0.142279
0.103998
0.184994
0.132807
0.191359
0.073431
0.038710
0.200765
-0.050841
0.014710
0.006311
0.085976
0.055645
-0.061247
-0.172790
0.021872
0.210389
0.020610
-0.320067
-0.348664
0.100721
0.252075
0.048397
-0.193478
-0.258557
0.189459
-0.220970
0.103606
-0.141873
-0.063006
-0.082649
0.018788
0.043656
0.061133
0.139732
0.188797
0.177765
0.127246
-0.192282
-0.310237
-0.019414
0.110672
-0.134462
0.021850
-0.263763
-0.333103
-0.080772
-0.117020
-0.359206
-0.341594
-0.032760
-0.308323
-0.131526
0.011482
-0.006686
0.091096
0.120707
0.152888
-0.067093
-0.022581
0.012632
0.149861
-0.109774
0.082471
-0.040222
0.039326
0.044843
-0.049743
0.046637
-0.019197
0.114747
0.091501
0.024810
0.018334
-0.013816
0.057069
0.143408
0.047123
0.077249
-0.122728
-0.181073
0.008048
0.177379
-0.100542
-0.102901
-0.027962
-0.237642
0.051834
0.130301
-0.104913
-0.032468
-0.072832
-0.104389
0.048403
0.014157
0.050778
0.095128
0.116003
-0.053349
-0.067000
-0.036262
-0.024333
0.220186
-0.224889
-0.490323
-0.217485
0.008767
0.056823
-0.492959
-0.112205
0.114821
-0.018897
0.201612
-0.100627
-0.103068
-0.015289
0.054499
-0.092565
0.166830
0.114634
0.047746
0.034701
0.044530
-0.003833
0.054481
0.100104
0.062847
0.000730
0.184571
0.102832
-0.059112
-0.013832
-0.024257
0.118257
-0.002857
-0.134464
-0.053257
-0.148481
0.001631
0.112637
0.209207
-0.008177
0.114309
0.115485
-0.059595
0.000120
-0.006994
-0.013584
-0.124007
0.075937
0.012335
0.224405
0.034463
-0.545160
-0.095415
-0.193430
0.117839
-0.010308
-0.309491
-0.348522
-0.066948
-0.160424
0.046958
0.281212
0.004180
0.132766
0.107203
-0.063621
0.240197
-0.017824
-0.063196
0.134309
0.000547
-0.005140
-0.116508
-0.136387
-0.122779
-0.025353
0.002725
-0.062176
-0.013674
-0.017604
-0.034318
-0.012245
-0.059938
-0.014698
-0.044296
0.026641
0.057779
0.009566
-0.021107
0.041072
0.004519
-0.017988
0.000515
-0.014437
0.018543
-0.039704
-0.035677
-0.016299
-0.062047
0.059371
-0.038532
-0.141417
-0.065043
-0.104977
-0.015935
0.003986
-0.059613
0.090280
-0.052364
0.041814
0.113811
0.084456
0.094775
0.100103
-0.145598
-0.119159
0.078086
0.100883
-0.139593
-0.011132
-0.071099
-0.147155
-0.036618
-0.015797
-0.085576
0.001382
-0.143351
-0.343326
-0.291634
-0.034192
-0.093192
-0.567925
-0.289300
0.118430
0.015011
0.055177
0.027287
0.173249
0.249477
0.087492
-0.001560
0.150588
0.128626
-0.047971
0.048959
0.137094
-0.131755
0.016761
-0.021448
-0.051700
-0.046127
-0.082168
-0.067530
-0.087102
0.049836
0.103334
-0.018215
-0.142101
0.131975
-0.064362
0.055572
-0.186342
-0.373618
0.062858
0.039977
0.133077
-0.116175
-0.001196
0.119983
0.094243
-0.045852
0.041467
-0.177918
-0.134062
-0.172884
-0.025661
0.164877
-0.009352
0.149926
0.287304
0.344320
0.063719
0.071137
0.055789
0.070230
0.059373
0.090998
0.027290
0.146658
0.035645
-0.011043
0.034450
0.104789
0.000617
-0.092429
-0.111524
0.030189
-0.193092
-0.279716
-0.107557
-0.121624
-0.026306
0.409632
0.096228
0.203841
-0.015384
-0.025778
0.213365
0.020750
0.127560
0.007923
-0.452559
-0.028987
0.139758
0.108683
-0.170813
0.062719
0.127099
0.212182
-0.090944
-0.078320
-0.032611
-0.233230
-0.102486
-0.058362
-0.190971
0.140310
-0.055325
-0.178998
-0.007693
0.131891
-0.251513
-0.303002
-0.148838
-0.094516
-0.002467
0.159865
-0.159654
-0.075992
-0.106597
0.010601
0.240035
0.137597
0.097209
0.056109
0.080594
-0.019410
-0.021655
0.017748
0.107371
0.009132
-0.130939
-0.225809
-0.150948
-0.182735
-0.059480
-0.461301
-0.143623
-0.187606
-0.264223
-0.049621
-0.318702
-0.229418
-0.465704
-0.060522
0.127584
0.225916
-0.048222
-0.029805
-0.067348
0.140483
0.085364
0.176271
0.005775
0.245770
-0.214505
0.270739
0.261497
0.351787
0.240028
0.264881
0.258601
0.060292
0.280124
0.048487
0.257061
0.102740
0.051707
0.129774
0.057730
-0.160678
-0.013437
0.021745
0.203163
-0.001331
0.078382
-0.120666
0.131014
0.014709
-0.210130
0.271063
0.032452
-0.204188
-0.155751
-0.048184
0.167359
0.123430
0.065189
0.159506
-0.142159
0.051161
0.208078
0.120771
-0.114182
-0.040858
0.001838
-0.106716
0.061018
-0.019925
-0.148131
0.080055
-0.080879
-0.034052
0.036285
-0.202924
-0.088425
-0.110289
-0.209394
-0.180659
-0.192816
0.116850
-0.270941
0.002142
0.041974
0.085136
-0.025277
0.134017
0.003924
-0.013203
-0.093856
-0.018801
0.243415
0.131784
0.096772
-0.132652
0.099522
-0.055382
-0.025787
0.019572
-0.044629
0.047752
0.108724
0.022922
0.104930
0.363615
0.357779
-0.074980
0.045819
0.183024
0.147049
0.232684
-0.212621
-0.092961
-0.011721
-0.312859
0.209248
-0.302771
-0.124704
-0.038591
-0.097005
-0.056132
0.031130
-0.291138
0.073629
0.081140
-0.131136
0.052649
0.189722
0.102426
-0.138101
-0.170971
-0.128900
0.032687
0.141978
0.059964
-0.109634
-0.202676
-0.119420
0.052467
-0.005168
-0.252943
-0.406455
-0.186242
-0.039727
-0.096362
0.046085
-0.104625
-0.029956
-0.079981
0.079444
-0.039301
0.147175
0.060322
-0.198940
-0.413549
-0.062602
0.116240
0.115076
-0.118714
-0.088892
-0.053398
-0.088066
0.118897
0.055709
0.102099
-0.123927
0.024168
0.009555
-0.087328
-0.032639
-0.289261
-0.135545
-0.057584
-0.024760
0.079748
0.031802
-0.222898
-0.060360
0.046438
-0.086649
-0.163700
-0.239150
-0.166911
0.025057
0.025023
-0.040233
-0.120042
0.000212
0.063222
-0.204706
-0.026593
-0.271210
0.106565
-0.000807
0.021105
0.111137
0.346127
0.260595
0.078302
0.043444
0.226851
0.148169
-0.010880
-0.173623
0.029155
0.013530
-0.023786
0.002707
0.088490
0.248629
-0.058971
-0.199041
-0.194186
-0.067235
-0.029822
-0.098849
-0.044539
-0.403030
-0.025165
-0.027308
-0.099714
-0.005622
-0.003429
-0.005815
0.123015
0.056278
-0.030313
-0.031824
-0.042949
-0.008520
-0.016999
-0.041688
0.040898
0.040454
-0.037284
0.031693
0.004103
0.046863
0.039323
0.007457
0.008342
-0.029075
-0.015614
0.004434
0.043208
-0.005971
0.051297
-0.016756
0.026069
-0.025314
0.036822
0.216321
0.302410
-0.308691
-0.117926
-0.147376
0.107410
0.114272
0.228794
0.247695
-0.342387
-0.151845
-0.026953
0.338854
0.269617
-0.149838
-0.281282
-0.136210
-0.083689
0.066411
-0.135960
-0.225189
0.045099
0.125053
0.045019
0.108687
0.166150
0.087241
-0.070552
-0.201021
-0.174034
0.106984
0.174844
0.104452
-0.124675
-0.092474
-0.281812
-0.053227
0.044114
-0.029644
-0.144599
-0.035883
-0.029208
-0.094098
-0.207409
-0.175340
0.045420
0.040342
0.073959
0.125789
0.072540
0.112331
0.038150
-0.123581
-0.239910
-0.160036
0.240063
0.077755
-0.128919
-0.140144
0.044085
0.013831
0.101870
0.084162
-0.078738
0.026731
0.064850
0.064237
0.105397
0.065616
0.049328
0.257983
0.428858
0.214261
-0.234664
-0.060364
0.135531
0.012422
-0.064711
0.009380
-0.075497
-0.040798
-0.072950
0.133321
0.099196
0.079184
-0.382249
-0.263922
0.156213
-0.066402
-0.040896
-0.315435
-0.271003
0.073726
0.016810
0.153488
-0.037483
-0.026831
0.220382
0.195810
-0.012489
0.045642
-0.075939
0.134624
0.371142
-0.003907
0.260988
0.116606
-0.127591
0.203332
0.005306
0.297948
0.174030
0.049125
0.063413
-0.084935
-0.164778
-0.008889
-0.059280
-0.009672
-0.076823
-0.077452
0.135512
-0.118272
-0.063948
0.173878
-0.037300
0.014728
0.071714
-0.144744
-0.576369
-0.045253
0.030882
-0.018346
-0.065544
-0.138601
-0.123625
-0.022012
0.134326
-0.006394
-0.257213
-0.194244
0.003738
0.056381
0.002489
-0.008360
-0.023922
-0.148248
0.007680
0.051244
0.054083
0.089174
-0.226774
0.117856
0.425640
0.095156
0.001605
-0.178621
-0.349316
-0.129860
0.068458
0.027841
0.313080
-0.121324
-0.282976
-0.140883
0.022446
0.191677
0.045778
-0.049300
0.200622
-0.027523
0.123540
0.029024
-0.080299
0.301086
-0.185330
-0.164951
-0.191162
-0.283485
0.084706
-0.070102
-0.166175
0.039137
-0.028255
-0.083787
-0.195274
-0.342010
-0.115467
-0.134855
0.226026
-0.160970
-0.392574
0.004406
0.066114
0.047695
-0.005168
-0.146678
0.008176
0.269715
-0.045614
-0.010064
-0.043427
0.084571
0.040188
-0.319192
-0.292735
-0.197418
0.104976
-0.005116
-0.339613
-0.502166
-0.162670
0.133910
0.090605
-0.108540
-0.048339
-0.021772
-0.054053
0.130599
-0.002182
0.488138
0.093825
-0.020857
0.226187
0.219547
0.197443
0.296661
0.027897
0.143411
-0.084300
0.161705
-0.028133
-0.069472
-0.247890
-0.199795
-0.175396
-0.050839
-0.260742
0.017561
-0.126499
-0.130384
-0.057373
-0.053280
-0.068776
0.069301
-0.167338
0.009936
0.096546
0.083032
0.156678
-0.051057
-0.047859
-0.071322
0.015118
-0.006849
-0.033955
-0.040145
-0.005922
-0.017185
-0.008623
-0.037400
-0.054611
0.005146
-0.051485
0.036700
-0.000923
0.023848
-0.030245
-0.011903
-0.078878
0.013466
-0.020436
0.026005
-0.045332
-0.002305
0.037070
-0.051331
0.013100
-0.085495
-0.012974
-0.041063
0.030638
-0.034637
-0.044520
-0.035821
-0.064062
-0.008222
0.006169
-0.005914
-0.056361
-0.017858
0.004089
0.039625
0.010907
-0.006576
-0.031826
-0.035220
-0.021504
0.033706
0.015560
-0.017038
-0.056280
-0.032851
-0.011504
-0.030449
-0.021676
0.013982
-0.086178
-0.028773
-0.008066
0.017783
0.013943
0.033655
-0.053663
-0.073877
-0.040030
-0.026574
-0.047878
-0.001922
-0.059494
-0.069097
-0.027484
-0.003492
-0.068799
-0.053012
-0.050979
-0.066704
-0.029717
-0.068161
-0.074857
0.003364
-0.078186
-0.042844
-0.079963
0.004617
-0.025333
-0.054212
0.011854
0.011511
-0.009528
-0.016058
-0.030762
-0.027299
0.009387
-0.077023
-0.067138
-0.004847
0.015931
0.010155
-0.072198
-0.020191
-0.077849
0.006144
-0.063976
-0.018596
0.019857
-0.054994
0.024524
0.044494
-0.052873
-0.055262
0.006523
0.005052
0.001719
-0.041138
-0.069371
-0.039183
-0.032986
-0.076655
0.003521
0.041700
-0.037587
0.002092
-0.003367
0.029428
0.036564
0.004398
0.003429
-0.000807
-0.045825
-0.014889
0.046941
0.004331
-0.018424
0.014420
-0.027470
0.049132
-0.019340
-0.044453
0.018795
0.025659
-0.022267
-0.024337
0.002117
0.044865
0.005954
-0.031161
0.042453
0.046829
0.003645
0.000264
-0.020433
-0.034690
-0.029104
0.004987
0.000169
0.036300
0.029544
-0.037350
-0.005355
-0.034587
-0.043363
0.028270
-0.037172
-0.018318
-0.006043
-0.020898
0.004799
0.012355
-0.031810
-0.081713
-0.000296
-0.049191
-0.037705
0.039940
-0.031761
-0.015614
-0.001262
-0.071497
0.015044
0.009014
0.017364
0.007115
-0.015770
-0.001253
-0.028855
0.004474
-0.033519
-0.010860
-0.063758
0.022052
0.012568
-0.069966
-0.078578
0.008766
0.022854
-0.030286
-0.040822
-0.037682
-0.033585
-0.017114
-0.011062
-0.003170
-0.006405
-0.018295
-0.002468
-0.066628
-0.028286
-0.037126
-0.017703
0.027589
-0.043875
-0.048886
0.027353
0.010429
0.006231
0.024202
-0.036061
0.000746
-0.031062
-0.000955
-0.021590
0.001898
-0.054813
-0.001241
-0.011965
-0.004995
-0.064971
0.015424
0.016059
-0.044325
-0.049525
-0.039215
-0.058613
-0.017072
-0.000330
-0.015431
-0.040046
-0.015631
0.022797
-0.022634
-0.010621
-0.038907
-0.007256
-0.075424
-0.037055
-0.033077
-0.030381
-0.046525
0.000987
-0.033694
-0.060738
-0.074641
0.028594
0.020606
0.006782
-0.077464
0.023987
0.004779
-0.059046
0.002495
-0.031844
-0.043609
-0.059734
-0.051674
-0.011280
-0.038550
0.049256
-0.051635
0.023478
0.000371
-0.038503
-0.001880
-0.043108
-0.037450
0.029851
-0.027480
-0.078631
-0.050790
-0.010317
-0.029816
0.037941
-0.006657
-0.009556
-0.038597
0.000508
-0.048178
-0.058806
-0.051215
0.010435
-0.040823
0.006878
-0.025592
-0.017935
0.036003
0.026314
-0.062248
-0.071101
-0.051934
-0.073148
-0.069001
0.004948
-0.036560
-0.000268
-0.028925
-0.031467
-0.005852
0.000734
-0.024282
0.051939
0.006870
-0.010537
0.021316
0.021135
-0.061209
-0.081579
0.037518
0.026704
-0.000137
0.015313
-0.063105
0.000625
-0.079485
-0.050907
-0.029187
-0.000249
0.003351
-0.050073
-0.021783
-0.030935
-0.068647
0.007391
-0.047214
0.013757
0.001165
-0.059638
0.018111
-0.045714
-0.053376
0.039942
-0.042831
-0.063411
0.025801
0.025221
0.014101
0.012199
-0.043165
0.004526
0.004614
-0.044807
-0.026661
-0.025613
-0.030009
-0.045724
-0.076890
-0.035151
-0.073426
-0.007673
0.011001
0.014158
-0.066498
-0.048094
-0.051360
-0.013047
-0.040112
-0.048939
-0.027627
-0.081694
0.005806
0.000343
-0.028586
0.012713
0.024510
-0.035793
-0.024540
0.003146
-0.023535
0.033423
-0.073197
-0.010849
-0.014290
-0.069856
-0.058310
-0.007010
-0.018550
-0.032264
0.032530
-0.078169
0.009811
0.033760
0.040360
-0.034069
-0.019790
0.000201
-0.054090
-0.002606
0.018915
-0.013456
-0.079757
-0.003721
-0.067678
-0.038981
0.017916
0.032406
0.056531
-0.014877
0.062838
0.189452
0.240572
0.071112
0.068749
0.012879
-0.008660
0.004881
0.148390
0.060171
-0.060536
-0.164455
0.109699
-0.007710
0.073192
0.124729
-0.197465
0.189940
-0.041524
0.018994
0.060907
0.054302
-0.069119
0.220200
-0.069642
-0.002698
0.178583
0.139262
-0.037987
-0.077956
-0.089428
0.053593
0.004484
0.237686
-0.005030
-0.008172
-0.106076
-0.127612
0.218430
-0.077069
0.157703
-0.107790
-0.066701
0.162644
-0.016149
0.051070
-0.202581
-0.614832
-0.453259
-0.062616
-0.094707
-0.110770
-0.298722
-0.110304
-0.076267
0.022557
0.129927
0.135588
-0.012889
0.065652
0.160799
-0.102016
-0.053338
-0.052098
0.053162
0.041829
0.056917
0.032234
0.045382
-0.009650
-0.010073
-0.009521
0.044380
-0.074855
-0.030629
0.030314
-0.046310
-0.009229
0.016418
0.018992
-0.053074
0.195415
0.084311
-0.042495
0.040811
0.085066
0.126052
0.125241
-0.102573
0.087561
0.079272
0.012838
-0.134567
-0.286676
-0.047697
-0.076798
-0.077926
-0.103084
-0.139828
-0.100832
-0.320806
0.096201
0.076470
0.123601
0.093748
0.127233
-0.150178
0.221872
0.016848
0.007835
0.093989
-0.194365
-0.216883
0.083020
-0.036194
-0.099726
-0.046586
0.035850
0.192513
0.024718
-0.008069
0.001743
0.019278
-0.011554
0.016217
0.085364
-0.041417
0.001334
0.011492
-0.052290
0.010116
0.036893
-0.034930
-0.022010
0.045953
0.043113
-0.042119
0.051446
0.040273
-0.019818
-0.041513
-0.005087
0.017768
0.024408
0.212503
0.063112
-0.156244
-0.126819
-0.193288
-0.096614
0.031403
-0.031683
0.020630
0.016460
-0.097427
-0.186203
0.114567
0.258302
0.060070
-0.105086
-0.102079
-0.059636
0.150560
0.122652
-0.120250
-0.000029
0.147032
0.075820
0.185380
0.170405
0.111398
-0.055770
-0.232342
-0.287843
0.082080
-0.004989
-0.196644
-0.254407
-0.178226
-0.063468
0.037540
0.093292
0.181775
0.164168
-0.000809
0.055116
0.046724
-0.040063
-0.011574
0.001875
-0.010494
-0.028193
0.024041
-0.187877
0.131263
0.100324
-0.105535
-0.213905
-0.127358
0.188434
-0.035914
-0.129837
-0.299760
-0.259162
-0.122472
-0.296950
-0.093263
-0.039750
0.029860
-0.080581
-0.041053
0.158898
0.070456
-0.103165
0.139230
0.355062
0.168331
-0.041142
0.012612
0.049122
0.153559
-0.272863
-0.253369
-0.236915
-0.009994
-0.117902
0.081757
0.007635
0.014520
0.067166
-0.098095
-0.305457
-0.103357
-0.187418
0.037661
-0.044331
0.108655
-0.007186
0.162411
0.022202
0.268406
-0.013302
0.248701
0.016777
0.203378
-0.195429
-0.126287
0.074420
0.207364
0.212535
0.056686
-0.029928
-0.057124
0.124301
-0.146283
-0.276871
-0.109983
0.032353
0.145422
-0.054709
-0.062537
-0.092668
-0.039322
0.010522
0.089259
0.153991
0.099421
0.126671
0.062486
-0.142382
0.021210
0.138052
0.072762
-0.526558
0.039948
-0.147542
0.035281
0.042890
-0.210515
0.064242
0.045963
0.142963
0.109354
0.122978
0.061354
0.266735
0.104052
0.042135
0.150736
-0.060488
-0.031989
-0.077807
-0.033195
0.017361
0.136190
0.048430
-0.210929
0.035997
0.082896
-0.212606
-0.310690
-0.031932
-0.330240
-0.150346
0.099209
0.066365
0.192968
-0.126140
-0.159889
0.066724
0.312554
0.064763
-0.027033
-0.206476
0.013964
-0.108927
-0.044610
-0.169963
-0.098251
0.038813
-0.211639
-0.260691
0.083906
0.248477
0.026061
0.001695
-0.004867
0.236076
-0.025744
0.067175
0.006119
-0.020224
0.046025
0.264961
0.088073
0.041525
-0.260343
0.025269
0.387473
0.074569
0.089633
-0.172400
0.175362
0.107001
0.088590
0.044327
0.033452
0.190964
0.076400
-0.009626
-0.268363
0.064636
0.214042
0.238304
-0.097769
0.035203
-0.208115
0.055076
0.158767
0.102423
0.007297
0.159564
0.007354
0.146645
0.333310
0.148806
-0.092775
-0.083169
0.301056
0.153278
-0.006707
0.067206
0.027257
-0.068417
0.168177
0.017591
-0.269583
-0.090606
-0.232176
0.012518
-0.155872
-0.091079
0.084592
0.135095
-0.149532
0.014997
0.086684
0.231007
-0.117449
0.063620
0.072862
0.120945
-0.087572
-0.052650
0.288592
-0.074623
-0.055337
-0.021748
-0.299887
-0.023060
-0.086015
-0.089018
0.022902
0.151028
-0.056698
-0.007614
-0.150518
0.201318
0.197350
0.037767
0.149683
-0.373263
-0.036761
-0.024756
0.103682
0.162375
-0.287686
-0.592470
-0.047458
0.111075
0.065116
0.005026
-0.083773
0.069449
-0.144869
-0.098520
-0.035430
-0.063238
0.178828
-0.058389
-0.058448
-0.121359
-0.010196
0.220900
-0.095407
0.012043
-0.113765
-0.173000
-0.127218
0.094762
0.106454
0.022485
-0.216289
-0.303877
-0.059881
0.128316
-0.095023
-0.246999
-0.279793
0.051252
-0.001736
-0.140030
-0.011079
-0.055414
-0.043166
-0.132443
0.034250
-0.005589
0.007958
-0.061683
0.068010
-0.065016
0.081820
0.327719
-0.025645
0.004014
0.062702
0.020218
0.057902
-0.088679
-0.089075
0.007469
-0.021587
-0.026483
0.036732
0.158882
0.302462
0.117883
0.042030
-0.038173
-0.057847
-0.039181
0.040720
0.025961
-0.108298
-0.036968
-0.022458
0.126112
-0.189327
-0.127571
-0.068202
0.024880
0.075891
0.298149
0.036316
0.132394
0.061424
-0.103311
-0.262842
0.003289
-0.049519
0.052163
-0.048405
-0.296724
-0.044623
-0.085361
-0.028860
0.144904
0.182833
-0.053501
-0.004999
-0.112342
-0.143911
0.191870
0.060489
-0.072912
0.316276
0.007623
0.028766
0.013235
0.074328
0.059768
-0.013008
-0.047265
0.010093
0.002955
0.004002
0.047684
-0.037763
-0.016704
-0.052227
0.026754
-0.032014
0.040683
-0.046742
0.019562
-0.005957
-0.027095
-0.004048
-0.067165
0.015125
-0.027087
-0.054436
0.011459
0.406877
0.118117
-0.203943
-0.328845
-0.389179
-0.080556
-0.172829
-0.148030
-0.047671
-0.362910
0.022131
-0.078878
-0.208643
0.047669
0.307737
-0.107764
0.030306
-0.110602
0.142930
0.107404
-0.085131
-0.021991
0.003520
-0.036855
0.019938
0.108302
0.068929
0.013042
-0.099889
-0.225190
0.009295
-0.014490
-0.207079
-0.095764
-0.212258
-0.068510
-0.169137
-0.191596
-0.002167
0.263484
-0.144554
-0.060891
0.079010
0.052465
-0.041392
-0.020531
-0.045958
-0.056174
0.076700
-0.002270
0.040533
-0.058467
-0.257770
-0.006754
-0.035360
0.100814
0.115708
0.065495
-0.090796
0.173271
-0.169676
0.016168
0.031593
0.238803
-0.007007
-0.123064
-0.048996
-0.173285
-0.150284
0.154759
-0.291161
-0.071666
0.263651
0.266217
0.252336
0.034003
-0.023179
-0.087304
0.019217
-0.438502
0.042644
-0.115302
-0.018968
-0.035764
0.165066
-0.064453
-0.056693
0.007486
0.201194
0.170859
-0.241047
-0.062316
-0.169403
-0.006178
0.048517
-0.205157
-0.102865
-0.178668
-0.148183
0.021054
-0.050852
0.063282
0.006045
-0.289564
-0.074930
-0.002924
0.039559
0.064760
-0.026125
0.035906
0.056399
-0.030797
0.097874
-0.004847
0.080507
-0.113610
-0.356264
-0.214617
0.096877
0.171698
-0.320740
-0.177829
-0.149247
0.062475
-0.003382
-0.041064
0.016782
0.185824
0.181730
-0.073887
0.003396
-0.094325
0.093130
0.097838
0.144752
-0.067076
0.143156
-0.094027
0.101146
0.053927
-0.080296
0.088817
0.025749
-0.135536
0.040896
0.055680
-0.029376
0.117197
-0.123620
-0.133789
-0.080684
0.400913
0.130434
0.154964
0.324828
-0.038720
-0.012308
0.153603
0.154597
0.124113
-0.100020
-0.029268
0.204318
-0.179696
-0.360944
0.093114
0.072634
-0.112303
-0.059452
-0.115256
-0.017849
0.162546
0.405892
-0.017910
0.381688
0.047683
0.081994
-0.107069
-0.308166
-0.139466
0.074692
-0.064849
-0.154771
-0.017678
0.052444
0.018932
-0.038816
-0.054498
0.055203
0.191624
0.136895
0.063532
0.034339
-0.116575
-0.017287
-0.004722
0.087286
-0.038168
-0.077221
-0.108999
-0.143496
-0.095149
-0.112009
-0.059709
-0.026094
0.043322
-0.109597
-0.113937
0.012417
0.132398
-0.035191
-0.023347
0.000387
0.032914
-0.008637
-0.080713
0.094479
0.110630
-0.233387
-0.038691
-0.049314
0.016347
0.034119
0.116064
-0.120068
0.187036
-0.052437
0.070346
0.044098
-0.037963
-0.037024
-0.034040
-0.065331
0.042401
-0.055944
0.218471
-0.006953
-0.082556
0.241036
0.041002
-0.074130
-0.051083
0.113366
0.076228
-0.019622
-0.009790
-0.060605
0.067420
0.198823
-0.154577
-0.036366
-0.054244
-0.007254
-0.004644
0.005219
-0.073493
0.003852
-0.007675
-0.015868
-0.030019
0.009148
-0.042323
-0.001418
-0.040820
0.010214
-0.004886
0.036427
-0.046557
-0.060926
-0.012144
-0.024458
-0.037768
-0.031975
-0.032875
-0.055946
-0.001090
-0.041513
-0.002955
0.014854
0.017833
-0.020618
-0.061143
-0.046341
-0.030791
0.037936
0.017086
-0.006478
0.039569
-0.002203
-0.020936
0.007999
-0.015298
-0.047141
-0.029249
-0.038485
0.010592
-0.022703
-0.039079
0.015724
-0.002442
0.002914
0.030552
-0.027246
-0.028378
-0.069049
0.034606
-0.046740
0.003521
-0.002167
-0.033483
-0.006619
-0.025553
-0.054286
-0.032070
0.014750
-0.047222
-0.004433
-0.037504
-0.053632
-0.012737
0.026980
-0.048964
-0.030608
-0.031760
-0.039507
0.031207
-0.023400
-0.042900
0.004775
-0.069526
0.023740
-0.053959
-0.036130
0.025323
-0.056353
-0.053295
0.014440
-0.064591
0.016513
0.016901
0.023582
-0.065863
0.012294
-0.025915
0.015120
-0.009354
0.032132
-0.034363
-0.017171
0.031137
-0.029770
-0.021672
-0.049596
-0.010882
0.030116
0.038487
0.024556
-0.017394
-0.028834
-0.033939
-0.032012
-0.056931
-0.007481
-0.013353
-0.046243
-0.021496
-0.024877
-0.023353
-0.063311
-0.028659
-0.012835
-0.035828
0.017033
-0.003534
-0.016127
-0.018349
-0.040100
0.043378
0.007416
-0.006233
-0.007895
-0.020930
-0.049853
0.002992
-0.033121
-0.033250
-0.033833
-0.048752
-0.044301
0.029249
-0.041097
-0.040457
0.045372
0.011566
0.049002
0.035219
0.045280
0.019133
0.031608
0.035658
0.037563
-0.042145
-0.029542
0.026235
-0.010233
-0.018372
-0.043274
-0.015423
-0.055100
-0.010079
-0.062411
-0.029222
-0.045268
-0.015514
-0.001917
-0.033436
-0.041962
0.044622
0.033834
0.011228
-0.042213
-0.039582
-0.070202
0.003200
0.023446
0.018177
0.040014
-0.072652
-0.046106
0.000847
-0.031892
-0.060848
0.002709
-0.032236
-0.058395
-0.011687
-0.010609
-0.006679
0.005655
-0.080262
0.017307
-0.015907
-0.003414
-0.044017
0.020714
-0.030757
-0.034292
-0.012819
-0.040122
0.007138
-0.060264
-0.061414
0.007648
-0.011698
-0.003979
-0.047007
-0.037167
-0.024025
0.020080
-0.025680
-0.010239
-0.008420
-0.051784
-0.061677
0.009051
-0.058204
-0.026677
-0.007871
-0.018814
0.036149
-0.010033
-0.011113
-0.047154
-0.031030
0.014697
-0.023511
-0.035965
-0.038159
-0.008363
-0.008986
-0.039624
-0.000935
-0.043761
0.037650
-0.019577
-0.004752
-0.053946
0.030446
0.037164
0.043776
-0.008681
0.023477
-0.042265
0.000402
-0.015085
0.000297
0.039386
-0.044858
0.006366
-0.070697
-0.005258
-0.021856
-0.011842
-0.033058
-0.081894
-0.009969
0.006504
-0.073525
-0.070932
-0.062130
-0.033559
0.005731
-0.021903
-0.045555
0.011065
0.007816
-0.058249
0.023946
-0.043584
-0.031159
0.005107
-0.066296
-0.051936
-0.009605
0.028682
0.037500
-0.039591
-0.039777
0.024223
0.004511
0.021106
-0.022620
-0.054847
-0.074678
-0.014687
-0.070596
0.007237
-0.019088
-0.014900
0.010861
-0.009262
0.013842
-0.006630
-0.047560
-0.030721
-0.041978
0.036633
0.043629
-0.014236
-0.019839
-0.051360
-0.019420
-0.085363
-0.024204
-0.016626
0.007572
-0.024359
0.014235
-0.018132
0.001069
-0.050276
0.036821
-0.000654
-0.015067
-0.036487
-0.047836
0.008408
-0.034183
0.033194
-0.011385
0.011974
-0.022436
-0.037765
-0.005276
-0.040335
0.004635
0.018080
0.010030
-0.029077
0.013154
0.009078
0.010607
0.004646
-0.010477
0.033553
-0.040468
-0.040334
0.011853
-0.052575
-0.026264
-0.037025
0.031908
-0.024338
-0.026002
-0.018746
-0.042943
0.042782
0.012609
-0.006890
0.010940
-0.066039
0.000325
-0.010465
-0.063686
0.038440
-0.054251
-0.002367
-0.051824
-0.045420
0.013347
0.012583
0.013538
-0.064282
-0.000992
0.020300
0.036946
0.035100
-0.046713
-0.016860
-0.038675
-0.017872
0.008518
-0.003222
-0.036482
0.013467
-0.052749
-0.049398
-0.044294
0.028248
0.004569
-0.035361
-0.020738
-0.040226
-0.003756
-0.013438
-0.040403
-0.039501
-0.006371
0.027582
-0.038820
0.039813
-0.013050
-0.018705
-0.023821
-0.016887
-0.021895
-0.004294
-0.039911
-0.021632
-0.025992
-0.036395
0.027022
-0.106822
-0.216740
0.077516
0.028971
0.075975
-0.053458
0.026948
0.226953
-0.010673
-0.019431
0.078843
0.106095
-0.020309
0.217924
-0.030057
-0.016743
-0.189453
-0.115129
0.119584
0.179003
-0.108207
0.037998
0.037959
-0.139384
-0.047661
0.023134
-0.173914
0.201570
0.053077
-0.013827
-0.085414
-0.137058
0.006564
0.030144
-0.034407
0.006072
-0.057779
-0.243755
0.064285
0.085311
0.001067
-0.031693
0.008631
-0.067163
0.102165
-0.004060
-0.040765
0.178309
0.104274
0.018896
0.090948
-0.001271
-0.116996
0.164839
-0.000954
0.008465
-0.096797
-0.012748
0.139393
-0.001913
-0.072610
0.010771
0.153791
-0.094125
-0.035261
-0.028663
0.076806
0.047427
0.119425
0.051893
0.011096
-0.025203
0.013303
0.027467
-0.041659
-0.023587
0.090403
-0.022631
-0.058927
0.206394
0.002513
-0.103066
-0.153285
0.085465
0.144369
0.104351
-0.045138
0.082719
0.097291
-0.235556
0.043425
-0.077714
0.096014
-0.050139
-0.320396
-0.024722
0.020601
0.268111
-0.028224
-0.081477
-0.051422
-0.091979
-0.028687
0.013128
-0.012233
-0.192514
0.082808
-0.148015
0.227871
-0.136415
0.030576
0.172365
-0.001867
-0.041409
0.098759
-0.074998
0.009307
-0.103935
-0.193034
0.100366
-0.058590
-0.093662
-0.021603
0.004003
-0.014447
-0.050523
0.038963
-0.026559
-0.034134
-0.012422
0.001168
-0.018633
-0.026670
0.017527
-0.067750
0.032013
-0.016704
0.009910
-0.023514
0.011684
0.052508
0.015646
0.041290
-0.008126
0.029666
-0.031863
0.042839
0.022325
0.318985
0.204291
-0.043280
0.002422
0.130414
0.016123
0.052671
-0.124701
0.026283
0.275041
0.046376
-0.067442
-0.003411
-0.022015
0.331056
0.073148
-0.021562
0.205869
0.040660
-0.013377
0.036169
0.059503
-0.100639
0.122405
-0.053591
0.175456
0.102090
0.158706
0.085565
0.102857
0.002979
-0.141937
-0.023332
-0.081785
-0.101684
0.047451
0.113751
0.073415
0.245826
0.445474
-0.124748
0.030440
0.106758
0.030748
0.230749
-0.062208
-0.075799
0.036801
-0.055237
-0.028021
0.210282
0.079810
0.019717
-0.128443
-0.090178
0.195192
-0.038567
-0.181488
-0.031600
-0.189687
0.339070
0.098216
0.099950
-0.065664
0.084243
0.128974
-0.115601
-0.073393
0.175181
0.021713
-0.207755
0.017222
-0.274514
-0.172216
-0.098785
0.055912
0.023407
-0.112757
-0.411063
-0.128104
-0.003776
-0.098529
-0.175321
0.062418
0.306889
-0.038009
0.197842
0.016907
0.231011
0.120092
0.237194
0.041908
0.034945
-0.235972
-0.197121
-0.029705
0.200506
-0.311163
-0.085133
-0.100894
0.133469
-0.172596
-0.142231
-0.074326
0.080050
-0.007467
-0.311449
-0.107830
0.079103
-0.082597
0.345407
-0.208984
0.167221
0.142032
0.103247
0.237627
0.097753
0.079971
0.009404
0.140070
0.149746
-0.045763
0.089301
-0.080292
-0.124741
-0.126913
0.038999
-0.066757
0.061319
0.403776
0.003622
0.116917
-0.060212
-0.052834
0.023086
0.134475
-0.067633
-0.089855
-0.190929
-0.140897
-0.020875
-0.083592
0.019047
0.074237
0.239330
-0.085122
0.076863
-0.049794
-0.005125
0.097624
0.080810
-0.182025
0.178069
-0.049961
0.043304
0.255927
0.054731
0.177308
-0.057191
-0.238209
0.314159
-0.071100
0.134772
-0.203396
-0.257022
-0.281217
-0.443094
-0.278365
-0.126152
0.092592
0.014140
-0.185783
-0.329093
-0.131909
0.070408
-0.171888
0.093489
-0.181717
0.011020
0.348326
-0.087822
0.201242
0.094425
0.166808
0.287483
-0.166543
0.074632
-0.063142
0.023370
0.157271
-0.016278
0.246534
-0.034913
0.029339
0.226154
0.238683
0.245389
-0.108917
0.039191
0.145415
0.066990
0.075911
-0.001736
-0.127211
0.085940
0.034994
-0.134973
0.011863
-0.055627
0.042297
0.199215
0.048320
0.048334
-0.121534
0.071976
-0.015669
-0.025352
-0.125336
-0.037282
0.030318
-0.515612
-0.136581
-0.043514
0.092503
-0.061014
0.029220
0.136695
0.076320
0.116448
0.168165
-0.139518
-0.204295
-0.053334
-0.205166
-0.219104
0.297548
0.098133
0.129090
0.022568
-0.103724
0.240413
0.157158
0.100198
0.114663
0.137943
-0.068770
-0.043783
-0.030379
0.000382
0.193454
0.016636
0.059395
0.017363
-0.287237
-0.041521
0.041905
-0.070790
0.080015
-0.148023
-0.025871
0.040462
0.039302
0.109680
0.056376
0.220573
0.045322
0.069137
0.000822
0.045683
-0.021734
0.046639
0.147892
0.232761
0.342167
0.149207
0.050457
-0.141010
0.161007
-0.057153
0.135213
0.045841
-0.179175
0.192830
0.141421
-0.133463
-0.024344
0.137407
0.059030
0.088405
-0.117842
-0.027336
0.037747
0.079536
0.064328
-0.022111
0.021069
-0.095140
0.167191
0.111818
0.085361
-0.179936
-0.060015
0.128811
0.105186
0.064234
-0.283732
-0.036955
-0.076220
0.031415
-0.003185
0.152853
0.024250
-0.040727
0.112575
0.124815
0.081612
0.143973
0.134010
-0.007135
-0.152236
0.120557
0.175307
-0.001255
-0.122490
-0.148205
-0.090851
-0.213358
-0.043991
0.078352
0.078922
-0.012583
-0.069650
-0.038493
-0.027256
-0.010901
-0.051990
0.180913
0.084409
-0.033918
-0.144127
-0.019130
0.212625
-0.040232
-0.089522
-0.352931
-0.113196
-0.107138
-0.294493
-0.155273
-0.025037
-0.296617
0.079088
0.041085
0.006891
-0.100410
-0.095825
-0.095249
-0.076233
0.073385
0.007029
0.266326
0.081493
0.093341
-0.013658
0.258173
-0.003858
0.165151
0.030381
-0.175053
-0.092680
0.071797
-0.172163
0.067318
-0.261999
-0.113297
0.020086
0.069672
0.001380
0.012270
0.046745
0.060744
0.053640
-0.000236
0.014310
-0.000885
-0.006029
0.058352
0.002655
0.040352
-0.004899
0.063868
0.054832
0.037887
0.001057
-0.028992
0.054770
-0.044072
0.019623
0.061598
-0.039555
-0.171192
0.341515
0.105358
0.030404
-0.131303
0.186382
0.062173
-0.131239
0.007490
-0.023731
-0.074226
-0.319450
0.266233
0.298055
0.314496
-0.259296
0.076741
-0.003777
0.050042
-0.079493
0.170105
-0.083432
-0.014408
-0.159553
-0.073057
0.005633
0.263880
0.146710
0.013794
-0.114301
-0.037397
-0.147082
-0.040358
-0.005239
0.121745
-0.206905
-0.102612
0.042402
0.172741
0.162917
-0.147753
0.104516
0.120399
0.071399
-0.115253
0.069672
0.068261
-0.004056
-0.036631
-0.194871
0.200640
0.213662
0.114974
-0.038919
-0.059087
-0.056420
-0.405215
-0.099636
0.125613
-0.244041
-0.480106
-0.004995
0.021924
-0.003429
0.007850
0.045300
-0.159642
-0.038185
-0.133583
-0.019265
0.049417
0.038623
-0.211806
-0.181780
-0.247017
0.189977
0.133043
0.039415
-0.169845
-0.435879
0.118286
-0.112491
-0.106686
0.022250
0.250778
-0.018288
0.090325
0.051409
0.035922
0.014900
0.230326
0.021453
-0.018787
-0.321031
0.013662
0.079827
0.172529
-0.093291
-0.104332
-0.135027
0.276941
-0.117129
-0.219386
-0.122746
-0.047245
-0.136379
0.042111
-0.058754
-0.073531
0.019160
0.024639
-0.184346
-0.324197
0.260396
0.232846
-0.213333
-0.079149
-0.029746
0.145634
0.033761
-0.043870
0.119056
-0.000706
0.027038
-0.044528
-0.384823
-0.251443
-0.049499
0.067772
0.339418
-0.133062
-0.077143
0.075876
0.065400
-0.104279
0.163632
0.140741
-0.121695
-0.185448
-0.160905
-0.064044
0.156227
-0.020810
0.041632
-0.266023
0.044886
-0.067006
0.022976
0.013986
0.072969
0.044843
-0.400018
-0.152815
0.095050
0.157618
-0.300673
0.039769
0.086613
0.062110
-0.012848
0.079192
-0.113675
-0.164712
-0.357111
-0.283598
0.047258
0.097066
-0.207903
-0.309551
-0.132328
0.094200
-0.119849
-0.075453
0.007745
0.055196
-0.168894
-0.286089
-0.341255
0.008997
0.049521
0.161300
0.003590
-0.090497
-0.002611
-0.163192
0.079630
0.064858
-0.005544
0.069926
0.204605
0.027311
-0.240530
0.031249
0.093316
0.034456
0.255094
-0.007220
0.179383
0.131312
0.075593
0.175588
0.051469
0.080746
0.063058
-0.064392
0.021791
-0.174266
0.033827
0.191512
0.044328
-0.238796
0.159274
0.142200
-0.078186
-0.308276
0.211263
-0.134150
-0.015411
-0.095974
0.106992
-0.039541
-0.207983
-0.127625
0.008615
0.296530
0.116084
0.285038
0.209187
0.004115
0.019316
0.104074
-0.072082
-0.019621
-0.058854
0.094037
-0.090769
0.065738
0.125160
-0.143408
-0.055798
-0.210501
0.213990
0.064676
-0.164013
-0.204012
0.164702
0.157053
0.033931
-0.418545
0.299799
0.170082
-0.032855
0.082500
-0.334551
-0.158643
0.067332
-0.116151
-0.176140
-0.133869
-0.089678
0.127084
-0.050029
-0.026142
-0.119743
0.087585
-0.179571
0.025615
0.034412
-0.145321
0.043648
-0.045606
0.065651
0.137092
0.040021
0.068022
0.241502
-0.303963
-0.115865
-0.061569
-0.036983
0.008539
-0.031739
-0.016121
-0.119030
-0.019417
0.058595
0.025313
0.018030
-0.021647
-0.190948
-0.170190
-0.163499
0.221328
0.089865
-0.298487
-0.181645
-0.083109
-0.023462
0.046596
0.085717
-0.392169
-0.162474
0.053210
0.241490
0.163768
-0.172558
-0.240262
-0.150559
0.128335
0.079086
0.222481
0.139269
0.178432
0.017790
-0.032115
-0.008298
0.085092
-0.042342
-0.152226
-0.312831
-0.053254
-0.074800
0.029364
0.130602
-0.022025
-0.023291
0.023661
-0.076568
-0.067171
0.053148
-0.130404
0.007543
0.178981
0.073870
-0.014413
0.016069
0.320344
0.130568
0.030237
-0.023841
-0.101051
-0.016114
-0.005622
-0.031503
0.094147
-0.307450
-0.172463
0.008963
-0.006345
0.021908
-0.339778
-0.171408
-0.047366
0.223722
0.044864
0.056702
0.045569
-0.101865
-0.031748
-0.175788
0.275378
0.102052
0.020982
-0.072671
-0.046238
-0.063144
-0.216110
-0.049382
-0.065420
-0.178091
-0.084562
-0.072580
-0.015555
-0.043582
0.081300
0.020186
-0.020246
-0.003872
0.016273
0.014985
0.009286
-0.071002
0.030682
-0.002962
-0.038402
-0.021400
-0.073106
0.009894
0.025304
0.035661
-0.015629
0.016091
-0.035109
0.028688
-0.018914
0.022363
0.021467
0.048739
-0.020716
0.001579
-0.057543
0.228971
0.082378
0.266582
-0.033472
0.024346
-0.122250
0.037136
-0.091174
-0.137378
-0.013358
0.118018
0.208156
-0.051843
0.053028
-0.053144
0.029443
0.019685
-0.118111
-0.144640
-0.031957
-0.063212
-0.136175
0.082407
0.000029
-0.050969
0.053826
-0.039964
0.117715
0.127307
-0.147591
-0.224613
-0.018284
0.213884
0.075403
0.036130
0.221400
0.086674
-0.152877
-0.169792
-0.071511
0.110637
-0.184112
-0.130060
-0.008625
-0.095678
0.024835
0.092951
0.064583
-0.013138
-0.071645
0.121281
0.053230
0.071696
-0.044106
-0.188408
-0.333819
0.232249
-0.087442
-0.239150
-0.342822
-0.213394
0.121075
0.056648
-0.062194
0.109229
0.152194
0.106676
0.051603
-0.039453
-0.118282
-0.170223
-0.105458
-0.155407
-0.055832
0.093560
0.079846
0.251261
0.084869
-0.393274
-0.104659
0.059975
0.047468
-0.018836
-0.200099
-0.007915
0.201257
-0.119548
-0.168783
0.064273
0.100293
0.238678
0.146509
-0.109637
-0.200903
-0.057887
-0.274409
-0.063249
0.050158
-0.131626
0.153917
0.273178
-0.091692
-0.125943
-0.277585
-0.425828
-0.247757
-0.189015
0.124601
-0.021915
-0.300558
-0.292376
0.180511
0.189528
-0.086759
0.115270
0.095559
0.001093
0.007060
0.023122
-0.078881
-0.080133
0.041173
0.042422
0.177183
-0.045099
-0.234548
-0.065381
0.097667
0.514068
0.051955
-0.062208
-0.230411
-0.080804
0.116602
0.168401
0.247706
0.052556
-0.073572
-0.163490
-0.102052
-0.016134
0.039317
0.054439
-0.236809
-0.121544
0.001433
-0.010714
-0.024116
0.046817
-0.098274
-0.544256
-0.082425
0.014025
-0.071823
-0.253529
-0.285721
-0.334787
0.058321
0.141929
0.181366
0.067960
-0.138119
0.056788
0.261482
0.109753
0.075501
-0.009125
0.081190
0.107542
-0.012562
0.150030
-0.154199
0.001455
-0.047180
0.195702
0.046918
0.084008
0.030314
-0.088538
0.119029
-0.092896
0.014857
-0.373160
-0.178500
-0.163297
0.012707
0.097715
-0.144989
-0.176904
-0.381215
-0.026153
0.077431
0.065541
0.064768
-0.253078
0.019836
-0.003606
0.130496
0.111841
0.091453
-0.110432
0.034544
-0.174294
-0.166854
-0.051446
0.127649
0.094035
-0.120671
-0.174855
-0.006573
0.145028
0.123812
0.007922
-0.147268
-0.158489
-0.205483
-0.041136
0.217646
0.001736
-0.186539
-0.095369
-0.054475
-0.031136
-0.054988
0.142361
0.077995
-0.012886
0.059383
0.098843
-0.171933
-0.152208
-0.126055
0.060351
0.248243
-0.001794
0.275451
0.356838
-0.071698
-0.007820
-0.021595
-0.002434
-0.152660
-0.236717
-0.012200
0.002715
-0.045961
0.118014
0.035585
-0.042862
-0.007832
-0.004125
-0.020411
-0.012038
0.030502
-0.003268
-0.046089
0.021447
-0.065754
0.005493
-0.046196
-0.033034
-0.024993
-0.036911
0.029823
-0.017914
-0.028331
-0.078127
0.007888
0.046331
-0.023583
-0.039337
-0.056635
-0.020357
-0.035596
-0.025120
-0.009374
-0.051046
-0.029813
-0.002506
-0.049794
-0.022910
0.020723
-0.003556
-0.001969
0.014954
-0.052400
-0.012471
-0.028843
-0.047531
-0.023780
-0.030193
-0.046873
-0.013971
-0.025760
-0.057263
-0.006093
-0.019660
0.026095
-0.032455
-0.009981
-0.029930
-0.069305
-0.038053
-0.024963
0.043654
-0.053407
-0.059923
-0.030899
0.039315
0.004903
0.004768
-0.056796
-0.028335
-0.035812
0.017454
-0.044147
-0.010367
-0.048067
-0.011179
0.012351
-0.030993
-0.003194
0.012209
-0.018776
-0.023881
-0.036571
0.000277
-0.046079
-0.022643
-0.020604
-0.062933
-0.056021
-0.028619
0.013022
-0.048620
-0.023805
-0.030592
-0.017070
-0.026522
-0.038311
-0.061657
-0.003960
-0.017893
-0.041814
0.020993
-0.007833
-0.058073
-0.013843
-0.006907
0.018474
-0.054770
-0.073125
0.018347
-0.014476
0.004141
-0.063146
-0.052794
-0.051236
-0.019718
-0.039432
0.028534
-0.026440
0.001769
-0.047499
-0.029864
-0.003260
-0.027573
-0.073593
0.018916
-0.072130
0.011525
-0.070433
0.006787
0.008104
-0.023559
-0.043311
-0.013842
-0.022999
-0.004562
-0.039262
0.036734
0.037358
-0.022569
0.001851
-0.045875
-0.023059
0.017387
0.042639
-0.047281
-0.026652
0.017187
0.006461
-0.048217
0.023628
0.048627
0.020297
0.005194
-0.030172
0.025688
0.009930
-0.042142
-0.059521
0.022983
-0.021928
-0.055877
0.006220
0.027839
0.005808
-0.013766
-0.026940
-0.044278
0.004805
-0.003397
0.024122
-0.049198
-0.054140
-0.004740
-0.009672
0.020059
-0.018747
0.014704
-0.062668
0.011227
0.015756
0.029565
-0.035055
-0.018995
0.016351
-0.019401
0.020183
0.006098
-0.029762
-0.052800
-0.012100
0.013766
0.017867
0.011368
0.004836
0.003042
-0.031398
0.040942
0.001711
-0.041667
-0.041210
-0.022736
-0.070652
0.007739
-0.067428
-0.007222
-0.058808
-0.009859
-0.010022
0.027657
-0.025421
-0.041157
0.022267
-0.034105
-0.017614
0.012726
0.018337
0.020789
-0.032289
-0.070647
-0.022209
-0.012446
-0.054422
0.002870
-0.051884
0.041060
-0.028327
0.042764
-0.025501
-0.026230
0.028687
-0.006706
-0.001306
-0.023540
-0.027520
-0.043022
0.002086
0.000779
-0.007635
0.001431
-0.040528
-0.055206
-0.020976
0.030795
0.013803
-0.029611
-0.004284
0.030546
-0.047920
-0.031786
-0.019645
-0.036342
0.030840
-0.038901
-0.033347
0.005513
-0.073174
0.027971
-0.063161
-0.036113
-0.013643
-0.064271
-0.025546
0.016293
-0.037118
-0.014678
0.005461
0.015453
-0.007292
-0.014487
-0.008817
-0.007887
0.000861
0.008270
-0.048077
-0.038055
-0.059938
0.018247
-0.020979
-0.026970
0.011122
-0.020026
-0.009205
0.015543
-0.024842
0.024870
-0.053981
-0.037996
-0.036571
-0.066423
0.005080
0.015473
0.018864
-0.036207
-0.046205
0.016359
-0.078725
-0.066015
0.002763
-0.000128
-0.047871
-0.077977
-0.004798
0.006477
-0.067917
-0.001134
-0.036415
0.019914
-0.034947
-0.015021
-0.064217
0.000037
0.003234
-0.050528
-0.039962
0.008615
-0.051847
-0.030941
-0.002769
-0.013282
-0.011978
-0.025964
0.008859
-0.073781
-0.054876
0.008264
-0.040533
0.025748
-0.005411
-0.043956
-0.044628
-0.035434
-0.051190
0.028643
0.001952
0.023177
-0.002752
0.014606
0.007623
-0.047664
-0.038349
-0.005688
-0.034989
-0.043486
-0.010858
0.001942
0.009335
-0.038128
-0.021065
-0.038167
-0.006744
-0.046117
-0.059017
0.016013
0.008194
-0.006526
-0.042496
-0.062148
-0.001082
0.010142
-0.010864
-0.009093
-0.043788
0.014789
-0.022298
-0.016898
-0.052922
-0.037086
-0.069563
-0.030309
-0.049253
0.015112
-0.076482
-0.056234
-0.054901
-0.012716
-0.040025
-0.059461
0.015753
-0.014192
-0.075990
-0.012752
-0.043368
-0.062217
0.003134
-0.044098
-0.013371
-0.041045
0.000126
0.004402
-0.035122
0.004390
-0.028008
-0.049827
0.025205
0.005645
-0.000988
0.013125
-0.045737
-0.010085
0.019700
-0.049078
-0.054620
-0.021433
-0.020191
-0.006657
-0.008358
-0.035547
0.143783
0.142902
0.050205
0.016416
-0.007352
-0.001796
-0.190310
-0.099992
-0.097210
0.045865
-0.063769
-0.337006
-0.131832
-0.069028
0.114408
-0.005507
-0.102297
0.135075
-0.171279
-0.000893
-0.150122
-0.334020
-0.028922
0.038570
-0.019247
0.194469
0.099961
-0.102167
0.033966
0.186267
-0.078180
-0.238134
-0.233574
-0.136158
-0.042274
-0.177640
-0.098275
-0.091929
0.001747
0.105458
0.071577
-0.049506
-0.099855
-0.106103
-0.007998
-0.160417
-0.043300
-0.324241
0.009151
-0.005656
-0.035336
0.242639
0.307492
-0.062954
0.089806
0.023659
0.132146
0.168792
0.062845
0.094797
0.008043
0.060370
-0.168029
0.121403
0.082872
0.028518
-0.069343
0.010852
0.113197
0.077669
0.141409
0.088747
0.058992
-0.074834
-0.117942
0.001940
-0.185911
-0.168407
-0.180960
-0.153206
-0.169199
-0.007544
0.021725
-0.023727
0.021931
-0.050321
0.035147
-0.027167
0.191210
0.203749
-0.027247
0.041598
-0.006275
-0.112093
0.006575
-0.001066
-0.092969
-0.113356
-0.076314
-0.172278
-0.206154
0.055347
-0.052022
-0.127018
0.099745
0.128527
-0.012670
-0.092818
-0.076483
-0.134401
-0.141693
-0.253640
0.012559
0.032030
-0.025143
0.030665
0.012186
0.125851
-0.046606
0.043924
0.177945
0.021504
-0.166768
-0.048485
0.016319
0.044043
-0.028726
0.038081
-0.022662
0.040347
-0.031507
-0.026288
0.033241
0.048464
-0.020654
0.014810
-0.009533
-0.013865
-0.029775
-0.014508
-0.006438
-0.015815
-0.045135
0.010552
0.002697
-0.035717
-0.013811
-0.024060
-0.117076
-0.091038
0.040407
0.086362
-0.023618
-0.109998
0.119856
-0.102399
-0.178628
-0.205770
-0.103309
-0.048011
0.029573
-0.189906
-0.275864
-0.045395
0.144591
-0.135985
0.056746
0.056939
0.082751
0.113153
0.122983
0.027469
0.003359
-0.237512
-0.104971
-0.083886
0.028338
0.076152
-0.021839
0.054191
-0.094989
-0.008663
0.047300
-0.030678
0.125246
0.116313
-0.048007
-0.136631
0.119939
0.062117
-0.021187
-0.043474
-0.052024
0.083730
0.065467
0.062831
0.093415
0.088577
-0.150026
-0.044993
-0.100809
-0.106354
-0.068245
-0.132289
0.085215
0.154951
0.204523
0.318376
0.042897
0.074774
-0.009514
0.224581
0.145498
-0.024956
0.183579
0.040931
0.264540
-0.080687
0.016927
0.112358
0.316208
0.337632
0.255208
0.007495
-0.116995
0.023469
0.076404
-0.012569
-0.080347
-0.190955
0.223375
-0.148560
0.094305
-0.166514
0.057586
-0.170709
-0.266947
0.076624
-0.023989
-0.053974
0.127737
0.014148
0.193939
-0.102002
-0.074521
0.088282
-0.107916
0.181368
-0.075240
-0.039304
0.193998
0.131798
-0.123974
-0.109299
0.031679
0.032548
0.043051
-0.235696
0.029292
-0.043766
0.031455
-0.141878
-0.088686
0.016606
0.072752
0.059513
-0.142485
-0.160279
0.039944
0.070711
0.045291
0.042150
-0.010526
0.064428
0.069869
-0.014335
-0.199415
-0.182704
-0.137924
-0.019569
-0.078361
-0.223084
0.046933
-0.080821
-0.127437
-0.057127
-0.132559
0.021751
0.017406
0.121763
0.016051
-0.158582
-0.090210
0.053705
0.021670
-0.001264
0.097360
-0.069969
-0.122603
-0.227975
0.103336
0.010367
-0.375721
0.022194
0.062040
-0.049322
0.292857
0.152406
-0.099886
0.088820
-0.036868
0.345484
0.160983
-0.021019
0.053615
-0.068324
0.375938
0.072033
0.106945
0.050310
0.403478
0.207660
0.088146
-0.020104
0.106073
0.130035
0.305887
-0.104274
-0.029298
0.014946
-0.035349
-0.083139
-0.209424
-0.004264
-0.080172
0.140144
-0.074943
-0.181141
-0.010862
0.074309
0.012418
-0.092141
-0.179767
-0.330810
-0.020971
0.078010
-0.216683
-0.095250
-0.224405
0.021232
-0.049916
-0.243693
-0.171660
-0.120049
-0.140729
0.022036
-0.155732
0.063562
-0.021111
0.209519
-0.130261
-0.008454
-0.118122
0.056121
-0.048627
0.028467
0.106100
-0.262912
0.144852
-0.016291
0.029283
0.016483
-0.164559
-0.129548
-0.197556
-0.181824
-0.127436
-0.281218
-0.133820
-0.076384
-0.058768
-0.037863
0.070291
-0.249260
-0.085363
-0.102382
0.138091
0.145383
0.077946
-0.018534
0.015989
-0.064498
-0.046680
0.073119
0.131174
0.095250
0.062804
-0.270872
-0.050180
-0.053832
-0.095788
-0.081012
-0.041583
-0.018888
-0.088500
-0.057064
-0.065522
-0.047706
-0.011317
-0.017190
-0.036100
-0.044964
-0.038781
-0.068283
-0.010277
-0.019684
-0.022420
-0.002064
-0.098405
-0.030093
-0.013613
-0.042495
-0.058113
-0.054127
-0.010693
-0.084926
-0.072807
0.019137
-0.066630
-0.019169
-0.032507
-0.081717
-0.008114
-0.067585
-0.067682
-0.080514
-0.071389
-0.068614
-0.029575
-0.036729
-0.068675
-0.003848
-0.038216
-0.035895
-0.050103
-0.056926
-0.009474
0.027260
-0.043410
0.006869
-0.002673
-0.026649
-0.039725
0.024133
0.039278
0.030649
-0.076938
0.006369
-0.021123
-0.030381
-0.062557
-0.007800
-0.007824
-0.027241
0.000945
-0.024927
-0.012158
-0.026130
-0.054714
-0.081551
-0.016857
-0.011753
-0.029564
0.036507
-0.007568
-0.058060
-0.035787
-0.057977
-0.042284
-0.067234
-0.089470
0.015924
-0.048047
-0.005094
-0.026754
0.016903
-0.045651
-0.005419
-0.042108
-0.013041
-0.062983
-0.077340
0.033379
-0.059836
-0.087170
-0.041029
-0.066186
0.021426
0.023840
0.021336
-0.009209
-0.061587
-0.047195
0.043742
-0.065549
-0.033606
0.006298
0.053726
-0.013379
-0.012984
-0.048827
-0.059965
-0.095142
-0.047543
-0.024080
-0.033493
-0.068986
-0.105080
-0.064175
-0.036465
-0.068260
-0.011008
-0.004817
-0.004648
0.001060
0.025871
0.011614
0.001501
0.008932
-0.022755
-0.013970
-0.033699
-0.026581
0.012422
0.045792
0.027773
0.002904
-0.042286
0.039317
0.020079
-0.003773
-0.031148
-0.041905
0.032245
-0.007953
0.030939
0.032522
0.001454
-0.028125
-0.018293
-0.003224
-0.071880
-0.062017
-0.071011
-0.107197
-0.024788
-0.062326
0.046710
-0.015468
-0.033384
-0.007105
-0.009653
-0.014294
-0.032085
-0.050708
-0.054199
-0.021348
-0.082508
-0.036767
-0.085703
-0.012024
0.008571
0.056468
0.056529
0.009039
-0.075072
-0.066304
-0.029177
-0.036872
0.003601
0.021812
0.031367
0.027126
0.014681
-0.047266
-0.017728
-0.046754
-0.012969
-0.037905
-0.014913
-0.053155
-0.061448
-0.091715
-0.099409
-0.047092
-0.000123
-0.066986
0.013793
-0.057735
-0.042483
-0.013739
0.025900
-0.005852
-0.068418
-0.005316
-0.074137
-0.051285
-0.086856
0.017934
0.043028
-0.101157
-0.012732
-0.017800
-0.100165
-0.050258
-0.029051
0.028818
-0.041830
-0.030792
0.000526
0.027559
-0.034104
0.002213
-0.017241
-0.084378
-0.024250
-0.000637
-0.039187
-0.011498
0.001686
-0.078707
-0.067316
-0.012237
-0.037156
-0.083134
0.041532
-0.030615
-0.057964
-0.068041
-0.040429
-0.036690
0.013652
-0.025391
-0.033477
-0.004182
0.014930
-0.044232
-0.011167
-0.047662
0.016318
-0.047215
-0.029369
-0.041663
-0.026988
0.012261
-0.026561
-0.047792
0.022305
-0.068935
0.001387
-0.041020
0.022732
0.008104
-0.050374
-0.015652
0.029732
-0.033487
-0.080781
-0.035421
-0.063169
-0.091451
-0.052057
0.047375
-0.082912
-0.039603
-0.093100
-0.040495
-0.033188
-0.006419
-0.033220
-0.018469
-0.051088
-0.033028
0.024796
-0.029304
0.011903
-0.046527
-0.060719
-0.044141
0.002048
-0.031201
-0.019720
0.025411
-0.014823
-0.086997
-0.007130
-0.054263
-0.034962
0.036483
0.052659
-0.015925
0.048465
0.011042
-0.036621
0.022588
-0.066044
-0.014072
-0.057671
-0.021338
-0.073480
0.013302
0.033026
-0.000892
-0.011931
-0.004658
-0.031803
-0.065727
0.061804
-0.062276
-0.018388
0.010372
-0.000647
-0.069934
0.056268
-0.103934
-0.108700
-0.043812
-0.034477
-0.061796
-0.104951
-0.036922
-0.015141
-0.054152
0.014934
-0.051579
-0.049946
-0.062859
-0.030671
-0.090444
-0.037656
-0.049944
-0.000328
-0.035153
-0.015639
-0.080099
-0.006035
0.058937
0.022772
-0.018667
-0.081451
-0.063845
-0.080413
-0.012102
0.040467
-0.015747
-0.031465
-0.046522
-0.053436
-0.064517
-0.008289
-0.005537
-0.056645
0.015920
-0.011017
-0.065417
-0.085418
0.012256
0.016395
-0.059134
-0.034557
0.024495
-0.003877
-0.082912
0.023720
-0.077284
-0.089466
-0.025270
-0.088681
0.067655
0.038392
-0.042603
-0.020009
-0.018458
-0.020548
-0.089777
-0.066599
-0.053425
-0.020293
0.026605
0.012697
-0.020558
-0.012394
-0.024924
-0.104978
-0.063349
-0.096488
-0.036628
-0.016084
-0.042085
0.178759
-0.070897
-0.106853
0.013541
-0.115041
0.089166
-0.048621
0.050326
0.366891
-0.044233
-0.138253
0.009984
-0.144553
0.152783
0.044916
-0.151456
0.035636
-0.312250
0.065162
-0.058861
-0.087935
-0.184996
-0.351697
-0.298698
-0.072066
0.120797
0.017803
0.131751
0.015340
-0.205629
0.059083
0.100713
-0.043095
-0.301176
-0.231845
0.076827
-0.107430
-0.102309
-0.084028
-0.093136
-0.010318
-0.063210
-0.072230
0.247785
-0.177361
-0.029281
-0.176112
0.014888
0.037951
-0.015861
0.039726
-0.123100
-0.146189
-0.319178
0.051692
0.086589
-0.182966
-0.036824
-0.016197
-0.268172
-0.082231
0.078162
0.136537
-0.070124
-0.055101
0.097906
0.029734
0.134732
0.147499
0.134888
0.122217
0.095818
0.114052
0.118364
-0.114843
-0.101269
0.026293
-0.014946
-0.051064
-0.073398
-0.162889
0.158769
0.028276
-0.179994
-0.068828
0.149648
-0.129377
-0.227372
-0.017808
-0.041012
-0.076477
-0.182777
-0.011622
0.147625
-0.116741
0.333056
0.079698
-0.077692
0.169059
-0.089915
0.017220
-0.044532
-0.106083
-0.288529
-0.140685
-0.114328
-0.143374
0.013053
-0.074232
-0.170412
-0.021391
0.000708
0.074255
-0.134801
-0.045692
-0.086889
-0.006349
0.032544
0.039076
0.064291
0.027324
0.096571
0.011618
-0.074694
0.050823
0.004599
0.021568
-0.039855
-0.007370
-0.055639
0.036924
0.024772
-0.006771
-0.012793
0.014681
0.034259
-0.029585
-0.020219
-0.029076
0.017953
-0.006164
-0.046796
0.003795
0.033873
0.032531
0.012116
-0.033155
0.015854
-0.013008
-0.000946
0.089769
0.025220
-0.185356
-0.459756
-0.105420
-0.041672
-0.077897
-0.001100
-0.081655
-0.370123
0.127715
0.062825
-0.132383
-0.100600
0.076619
0.038324
0.028359
0.125410
-0.011898
-0.068081
0.152674
0.036554
0.053186
0.091593
-0.174866
-0.073519
-0.091256
-0.161077
-0.325911
-0.097283
-0.036468
-0.066766
-0.137041
0.012384
0.037212
0.019269
-0.008745
-0.022189
-0.109497
-0.129049
-0.049539
-0.133497
0.045310
0.146980
0.197968
0.188397
0.060714
0.084849
0.126350
-0.121263
0.042586
-0.179949
-0.268874
-0.112769
-0.120526
0.007811
-0.139608
-0.197491
-0.251869
0.202652
0.081130
-0.106704
0.090084
0.092078
-0.165840
0.142799
0.207429
0.345378
-0.019474
-0.149638
0.219689
0.585866
0.324411
0.254403
0.027566
-0.030089
-0.102139
-0.148591
-0.052244
-0.361994
-0.196789
0.081788
-0.190451
0.308242
0.027475
0.144888
0.210314
-0.209752
0.269128
-0.141244
0.044017
0.313646
-0.014083
-0.166530
-0.109334
-0.186900
-0.029133
-0.095157
-0.136927
-0.008657
-0.227490
0.031059
0.036889
-0.028465
-0.128439
-0.201299
-0.134680
0.073837
-0.176774
0.160067
-0.064928
0.085361
0.061187
-0.398323
0.007915
0.203035
-0.031796
-0.158422
-0.230971
-0.061711
-0.018652
0.079751
0.007281
-0.112251
-0.135698
0.190449
0.268174
0.098283
-0.305955
-0.117089
0.049798
0.046725
-0.071548
-0.284154
-0.105498
-0.061805
-0.044760
-0.035275
-0.020142
-0.082172
-0.244414
-0.163926
-0.052582
0.247068
0.088263
-0.004621
-0.230764
-0.060265
0.103487
0.144190
0.090354
0.129891
0.367605
0.051423
0.051847
0.062092
-0.149507
0.136681
-0.154113
-0.078156
0.011335
-0.189173
-0.188622
-0.226384
-0.137007
-0.038066
0.015513
0.201646
0.129780
-0.043439
0.092051
0.176062
0.351471
0.298176
-0.117240
-0.060079
-0.014389
0.181479
-0.031501
-0.111912
-0.008307
0.070584
-0.069922
-0.067549
-0.327035
-0.098190
0.045797
-0.151057
0.106855
-0.024451
0.154970
0.008116
-0.318231
0.002643
-0.057208
0.034934
-0.009041
-0.258923
0.018757
-0.166390
-0.029309
0.036778
-0.036241
-0.272625
-0.208341
-0.284147
0.054804
-0.077938
-0.118133
0.078828
0.033274
-0.142611
-0.076965
0.204103
-0.037684
-0.009016
-0.109276
-0.175657
-0.010608
0.086471
0.245685
0.107460
-0.041194
-0.093377
-0.077380
-0.015721
0.052456
0.082323
-0.253766
-0.114512
0.022043
-0.123822
-0.070710
-0.165490
-0.103894
-0.043297
0.047528
-0.115124
0.028258
0.044953
-0.121275
-0.106462
0.053997
0.218187
0.008869
0.150030
0.035728
0.024700
0.092790
-0.082538
-0.070601
-0.081483
-0.063507
-0.000746
-0.061518
0.031062
-0.081781
-0.090066
-0.086770
0.012517
-0.064479
-0.079321
-0.008536
-0.057552
-0.067730
0.003186
-0.033288
-0.055015
-0.057533
0.049508
-0.019766
-0.033084
0.022619
-0.097451
-0.095660
-0.000162
-0.080128
-0.025389
0.035468
-0.073433
0.009505
-0.021941
-0.002011
-0.096448
-0.041271
-0.019213
-0.049851
-0.035032
-0.072074
-0.026509
-0.082397
-0.087199
-0.013942
0.016566
-0.000809
-0.024984
-0.031938
-0.024246
-0.073753
-0.000924
-0.053681
-0.001400
-0.022509
0.014666
-0.026735
-0.010900
-0.075194
