-0.049395
0.107846
0.412448
0.313699
0.092859
-0.195646
-0.084204
0.145256
-0.021497
-0.187873
-0.048671
-0.129118
0.060677
0.102169
-0.002790
-0.158258
-0.035051
0.142030
-0.014637
-0.106412
0.016989
-0.030123
-0.247016
-0.013444
-0.043552
-0.202949
-0.322257
-0.045905
0.116742
-0.251988
0.044557
-0.106042
-0.061243
0.128422
-0.023930
-0.015834
-0.065181
0.026322
0.161522
-0.198372
0.359371
0.029988
-0.036200
-0.303145
-0.008615
-0.053499
-0.047489
-0.055914
0.109105
0.050080
-0.011714
0.022316
-0.252426
0.080698
-0.005715
-0.403880
-0.231075
-0.385826
-0.014746
0.387442
0.041482
0.020941
-0.052371
0.035387
0.172609
-0.080390
-0.199552
0.053228
0.052677
-0.244581
0.176896
-0.179978
-0.022729
-0.234846
-0.005479
-0.055287
0.226306
-0.182977
0.267553
0.330927
-0.034028
0.060714
0.012329
-0.046790
-0.093566
-0.066702
-0.120559
-0.043972
-0.117789
-0.040548
0.259055
-0.216145
-0.081997
-0.230857
-0.018718
-0.342080
0.152355
-0.044986
0.404615
0.086861
0.124511
0.182516
0.059078
0.022030
0.044481
0.240490
0.346755
-0.237942
0.102383
-0.037886
-0.115193
-0.006607
0.035838
-0.087626
-0.174746
0.036379
0.022446
-0.016299
-0.117411
-0.028355
0.213081
-0.231370
0.075518
-0.015410
-0.244101
0.107041
0.199860
0.155362
0.216107
0.019371
-0.054822
0.269669
0.002000
-0.339894
-0.042413
0.013414
0.056041
0.170141
-0.079952
0.177596
0.221836
-0.159299
-0.082124
0.017462
-0.113676
-0.283560
-0.204734
0.130687
-0.249960
-0.091231
0.059731
0.331687
-0.085306
-0.068173
0.209371
-0.031253
0.449291
0.055608
-0.213159
0.181033
-0.200663
-0.071319
0.102802
0.293372
0.032183
0.024533
-0.499697
0.368139
-0.305257
-0.060358
-0.328570
-0.097609
0.318140
-0.631841
-0.526932
0.431473
0.398976
-0.035296
-0.046552
0.167967
0.131142
0.049450
0.018213
0.014905
0.043482
0.184207
-0.208549
0.049577
0.064053
-0.207100
0.052299
-0.148988
0.099160
0.174088
-0.085209
-0.054707
-0.339940
0.232300
-0.141956
-0.348038
0.229614
-0.303156
0.428407
0.025222
0.263836
0.070975
0.128054
-0.023524
-0.758134
-0.056781
0.271455
-0.011383
-0.068985
-0.083367
-0.013596
-0.216000
-0.110229
-0.056404
-0.045253
0.151339
-0.191260
0.227278
0.077931
-0.000815
-0.025040
-0.179872
0.206883
-0.005935
-0.123730
0.452416
-0.060174
-0.519280
-0.015090
-0.302394
0.137209
0.165261
0.045733
-0.021421
-0.096969
-0.111299
-0.107935
-0.106142
-0.032465
0.001524
0.035515
-0.006184
-0.014616
-0.041403
-0.071341
0.049633
0.019351
0.023971
0.002165
-0.056819
-0.059073
-0.088210
-0.041573
-0.085977
-0.089299
-0.046647
-0.092093
-0.031035
-0.052952
0.067097
-0.058834
-0.097007
-0.079804
-0.114136
-0.049078
-0.056947
-0.030163
-0.079035
-0.050451
-0.121102
0.003445
-0.076183
-0.005114
-0.096540
-0.021381
0.022649
0.040894
-0.090478
-0.134118
-0.015525
-0.060794
0.045521
-0.094680
0.013277
-0.012220
-0.030844
-0.050738
-0.138606
-0.029924
-0.001226
-0.129035
-0.053649
0.024637
-0.008866
-0.040305
0.045609
-0.080345
0.040307
0.069696
0.009142
-0.021000
-0.073558
-0.108230
-0.076417
0.028907
-0.036290
-0.000259
-0.068068
-0.017025
-0.094948
0.074765
-0.030215
-0.067679
-0.122634
0.055039
-0.009935
-0.022504
-0.112985
-0.072127
0.006547
-0.046960
-0.091111
-0.108732
-0.070232
-0.070064
0.040953
-0.059218
-0.058633
0.064382
0.023625
0.028050
-0.019148
-0.038039
-0.033257
0.079479
-0.117849
-0.022969
0.010361
-0.045308
0.071302
-0.075932
0.007778
0.038741
0.014732
0.040455
0.046665
-0.063656
0.005199
0.083236
-0.001554
-0.069219
-0.071886
0.014632
-0.011043
-0.024004
-0.016060
-0.189039
-0.106875
-0.434068
0.153468
-0.357157
0.157157
0.150673
0.230064
-0.057423
0.186600
-0.006652
-0.241304
-0.016060
-0.273924
0.131665
-0.136202
-0.079006
-0.030213
0.021807
-0.272280
-0.000222
-0.362951
0.154054
0.000206
-0.255256
0.160995
0.262820
-0.564186
-0.493461
-0.092702
0.105886
-0.326860
-0.013925
-0.014766
0.170902
-0.030546
-0.002865
-0.193048
0.070558
0.016949
0.177804
0.077872
-0.218197
0.157916
0.185279
-0.004434
-0.049428
0.059801
0.015337
0.035131
0.302484
0.211711
-0.015552
0.253320
0.303733
0.337423
-0.206453
-0.209696
-0.083532
-0.153445
-0.684007
-0.546703
0.008437
0.054060
-0.466294
0.079993
0.252346
-0.146739
-0.040804
0.092454
0.423027
-0.273555
0.125907
0.255316
0.092230
0.105848
-0.062913
0.426276
-0.203040
-0.067682
0.069421
0.211828
-0.095346
0.018981
0.226428
0.070233
0.007027
0.019399
0.311584
0.246654
-0.628421
-0.175230
0.045897
0.063358
-0.268105
-0.150865
-0.130441
-0.142877
0.333691
0.078973
0.127787
0.209432
-0.470595
0.059441
-0.050635
-0.272139
0.045309
-0.237797
-0.411145
-0.097854
-0.030928
0.080624
-0.043477
0.110518
-0.171203
-0.604319
0.078212
0.075006
0.250017
0.313364
0.539853
0.100456
-0.530779
0.396989
-0.011321
-0.107700
0.228412
0.161550
0.202917
0.111514
0.071194
0.178278
0.067184
-0.061617
-0.019442
0.024183
0.003897
0.032904
0.057622
-0.051006
-0.064059
0.036361
-0.058566
-0.026578
0.236904
-0.053384
-0.148077
0.086157
-0.247199
-0.104028
0.080027
0.092881
-0.014707
0.096738
0.135269
0.160864
0.461150
0.078171
0.111302
0.171668
0.127468
0.097048
-0.108831
-0.057169
0.147882
-0.007742
-0.155885
0.057647
0.001709
-0.061834
-0.000082
0.074492
0.070068
-0.049118
-0.084508
-0.243082
-0.439012
-0.051740
0.082991
0.137195
0.224513
0.016824
0.131033
0.078755
0.383389
-0.002013
-0.047230
-0.026775
-0.224984
-0.510105
-0.264846
-0.005140
-0.001554
-0.255935
0.033812
0.067204
-0.252104
-0.186053
-0.261641
0.234846
-0.287591
-0.494970
0.285603
-0.103724
0.126906
0.118783
0.284016
0.030830
-0.395610
-0.034488
0.142293
-0.134740
0.003310
0.162236
-0.014320
0.011997
-0.314793
-0.044777
0.042982
0.287992
0.072562
0.354403
0.462656
0.040044
-0.045497
0.023814
0.196034
0.228004
0.020612
0.383001
-0.105778
-0.480022
0.023757
-0.007654
-0.231089
-0.326357
0.077518
0.062525
-0.376866
0.200051
0.022432
-0.222662
0.095421
0.157251
0.152791
0.571200
0.022925
-0.020922
0.106483
-0.010146
-0.047410
-0.196255
0.043137
-0.160393
0.143313
0.098473
0.046721
0.172037
0.041098
-0.069957
0.337481
0.232167
0.423562
-0.024046
0.167282
-0.527804
-0.179286
0.160668
-0.260233
-0.115873
0.023439
-0.117678
-0.029148
0.042201
-0.002608
0.259826
0.269809
0.276253
0.137538
-0.134794
0.227774
-0.035598
-0.053933
-0.190438
0.143305
0.095790
0.115244
-0.389188
0.034463
0.011649
-0.255757
0.043416
0.062087
-0.069978
-0.256353
0.055426
0.165369
-0.052865
-0.014173
0.152846
-0.412873
-0.213628
0.038715
-0.003836
-0.076908
-0.024464
-0.163404
-0.265905
0.183741
-0.062523
0.097553
0.081890
0.043183
0.188760
-0.011543
-0.025549
0.199107
0.220672
-0.214460
0.369629
0.181306
0.289782
-0.178014
0.123200
0.032794
0.002564
-0.342961
0.119588
0.081262
-0.054962
0.108792
0.014179
-0.094909
-0.205898
-0.230021
0.161103
-0.162992
-0.374899
0.470536
-0.451185
0.187160
-0.019639
0.025527
0.023475
-0.088663
-0.007151
0.040497
0.018169
-0.015459
-0.026100
-0.249193
0.155713
-0.107730
-0.061860
0.125452
-0.299538
-0.023756
-0.222146
-0.464884
-0.466816
-0.202796
0.197816
0.157929
0.148007
-0.006495
-0.178557
-0.409745
-0.360192
-0.157160
-0.537628
0.041934
0.333181
0.075205
0.272539
0.031637
0.192699
0.010146
-0.492782
-0.051411
0.052551
0.148241
0.241231
-0.282985
0.087269
-0.141444
-0.203706
-0.212895
-0.025170
-0.202390
-0.062359
0.047298
-0.034394
-0.025058
0.012399
-0.161234
-0.368941
-0.526676
-0.266725
-0.368127
-0.427829
0.264676
-0.049873
-0.265215
0.145689
-0.427329
-0.003506
-0.442962
-0.016006
-0.180463
0.055078
0.033134
0.024572
-0.089803
0.180320
0.044620
-0.145609
0.189111
0.108487
0.062005
0.243654
-0.167581
-0.004110
0.063349
0.028789
-0.193920
-0.045816
0.176604
-0.060639
0.222272
0.029093
0.324799
0.202119
0.044693
0.193585
-0.067202
-0.056145
0.032188
-0.221766
0.219279
-0.599021
0.294126
-0.081849
0.012589
-0.101680
-0.139335
0.291579
0.015927
-0.046642
-0.119635
-0.316506
0.201262
0.274704
0.011973
0.079327
-0.024824
-0.323323
0.197916
0.172877
-0.177100
0.185112
0.054317
0.036086
0.303310
0.055689
-0.079304
0.030245
0.032991
-0.295094
-0.353221
0.020111
0.280966
0.029585
-0.035457
-0.541813
0.166564
0.239914
0.023106
-0.334660
-0.020771
-0.269974
0.198065
-0.026307
-0.522006
0.073451
-0.043049
-0.602941
0.010059
0.045641
-0.211738
0.226734
-0.000431
-0.275344
-0.053737
-0.211989
0.014319
-0.513637
0.021548
0.249634
0.079802
0.135248
-0.194445
-0.120198
0.263228
0.092340
0.071620
0.141963
0.061988
0.040867
-0.500851
0.092558
-0.079224
0.120431
0.049917
-0.585663
0.495336
-0.011202
0.300069
0.125455
-0.489468
-0.124501
-0.393101
-0.008080
-0.096288
0.303905
-0.013765
-0.052467
0.150392
0.246516
-0.030468
-0.001715
-0.432872
-0.375642
0.194791
-0.245474
-0.448193
0.132178
0.091514
0.143518
0.098421
-0.054693
0.224733
0.333771
0.039898
-0.060264
0.274279
-0.399054
-0.043945
0.018107
-0.181812
0.512574
0.354979
-0.425072
-0.000885
0.322808
-0.027033
-0.034927
0.023789
0.029419
-0.242652
-0.042343
0.167372
-0.500609
0.000559
-0.006973
0.176082
-0.345439
-0.058291
0.089830
-0.151672
0.329228
-0.544266
-0.318901
0.027068
-0.028642
-0.099071
-0.444473
0.152650
0.179782
-0.072464
0.200372
-0.311572
0.134211
0.019098
-0.071471
-0.044594
0.151022
0.345258
0.001090
0.019787
0.137905
-0.143546
-0.684098
0.072239
0.119657
-0.190079
-0.359545
-0.027333
-0.445268
0.035629
-0.007764
-0.196408
-0.500500
0.046990
-0.207569
-0.076228
-0.160561
-0.001664
0.046987
-0.038443
-0.133120
0.057263
0.064736
-0.028488
-0.387296
0.073380
0.114938
-0.048526
-0.099790
-0.037071
0.023711
0.074442
0.059128
0.241068
0.023301
0.014276
0.116874
-0.053749
-0.064894
0.106622
0.271036
0.205058
-0.021006
-0.047699
-0.196433
0.245035
-0.423161
-0.143746
0.290135
-0.115144
0.201276
-0.286274
0.052184
0.158204
-0.010749
-0.144035
0.022138
0.282687
-0.295719
-0.146047
0.022545
-0.030722
-0.087005
-0.221286
-0.136717
0.239845
0.191154
0.267015
0.368863
0.004652
-0.177878
-0.178857
-0.225820
-0.049655
0.006124
-0.002263
0.221160
0.270771
-0.121982
-0.202002
0.183731
-0.164816
-0.006613
-0.058568
-0.053620
0.003569
-0.113433
-0.509189
-0.209315
-0.102567
0.033205
-0.071728
0.126415
-0.335505
-0.044162
-0.295068
0.006000
-0.295843
-0.070731
0.180467
0.013888
-0.690983
0.136043
-0.017842
-0.269064
-0.312688
0.343943
-0.291811
0.177110
-0.582312
0.052511
-0.444686
-0.588490
-0.230137
-0.002942
-0.018844
-0.207437
-0.430890
-0.004999
0.181114
-0.272106
0.195028
0.145062
0.076775
0.076370
0.217753
0.213544
0.064978
0.032245
0.506333
-0.043991
-0.142614
0.316390
0.265700
-0.202558
-0.066875
-0.290063
-0.119068
-0.197383
-0.287996
-0.130512
0.067749
-0.146714
0.049678
0.010395
-0.074410
0.159819
-0.033985
0.154741
-0.079623
0.251161
-0.076260
-0.130125
0.103219
-0.081077
0.175601
-0.243594
0.236970
0.213543
0.169238
0.243094
-0.012272
-0.065347
-0.066752
-0.426353
-0.194817
-0.395618
-0.298423
0.274570
0.103967
-0.399804
-0.248703
-0.035946
-0.024316
0.262085
-0.066608
0.045891
0.113341
0.083807
0.002572
-0.032899
0.016500
-0.323643
-0.094015
0.167659
-0.085232
-0.279497
0.307064
-0.061429
0.093449
0.234669
-0.435827
0.361965
0.084066
0.088153
0.105719
-0.185512
-0.350870
-0.047996
0.071224
0.188160
0.129770
0.072266
0.048384
0.324520
-0.054671
0.098814
0.074146
0.317934
0.341382
0.050315
0.081613
0.041935
0.004519
-0.129126
0.145518
-0.232035
-0.493158
-0.107256
-0.087548
0.039846
-0.044818
0.042380
-0.026461
-0.180514
-0.109645
-0.007559
0.175142
0.273547
-0.200561
-0.139857
0.010825
-0.258321
-0.077786
-0.046350
-0.011031
0.048717
0.274542
-0.211148
0.138324
-0.091062
-0.299211
-0.142331
-0.005750
-0.196260
0.174241
-0.115362
-0.056271
-0.414376
-0.354559
-0.105746
0.074382
-0.078466
-0.445828
-0.125697
-0.165482
0.019451
-0.148666
0.012933
-0.006695
0.292187
-0.057997
0.319012
0.035331
0.212845
-0.108632
-0.034488
-0.012092
-0.129988
-0.005364
-0.063300
-0.123779
0.082108
-0.059559
-0.095710
0.085928
0.033278
0.214161
0.213408
-0.078357
0.227227
0.023521
0.190517
0.023461
0.094687
0.023518
-0.238171
0.256549
0.200207
-0.156720
0.017207
-0.395614
-0.080290
0.006095
-0.543701
-0.320098
0.085816
-0.201928
0.522447
-0.094009
0.011605
-0.173318
-0.351198
0.075828
-0.408037
-0.199264
0.673453
0.129560
0.164318
-0.011876
0.140023
0.415783
-0.134990
-0.056212
0.024076
0.182439
0.123926
0.107060
-0.408982
-0.302151
0.024372
-0.064484
0.112085
-0.027144
-0.290021
-0.067034
-0.122564
-0.514365
-0.046224
0.035462
-0.713233
-0.052150
-0.499059
-0.212658
0.042825
0.136391
-0.237933
0.050708
0.063150
0.096489
0.052860
-0.125180
-0.560556
-0.026500
0.339493
-0.312563
0.108029
0.170538
-0.035538
-0.475971
-0.044368
-0.248186
-0.280208
0.008408
0.044247
0.037877
-0.392886
-0.107771
-0.563704
0.084791
0.245324
0.296010
0.034792
0.022825
0.122605
-0.090882
0.311926
0.056574
0.011816
-0.007444
0.008752
-0.138807
-0.499180
-0.169310
-0.163241
-0.214912
-0.119138
0.136154
0.124410
0.018087
0.371616
-0.068792
0.314702
0.049676
-0.077560
-0.091605
0.349428
0.055941
-0.440348
-0.048716
0.067524
-0.059223
0.116023
0.053186
-0.085449
-0.033674
0.228584
0.314013
0.109060
0.239595
0.139447
-0.014025
0.332249
0.028336
-0.113071
0.040369
-0.482398
0.193327
0.058343
-0.007885
0.089914
-0.733167
-0.016275
-0.022117
-0.257580
-0.177376
-0.076620
-0.420733
0.008624
-0.235295
-0.043541
-0.091747
-0.134718
0.011680
-0.093721
0.178685
0.336410
0.078436
0.183090
0.037222
-0.069550
0.284295
-0.049959
0.113474
0.076000
-0.087381
0.359377
0.134468
0.153628
-0.401558
0.235777
-0.068777
0.118138
-0.029357
-0.190087
0.006262
-0.064107
-0.711976
0.012412
0.040690
-0.328363
0.133632
-0.163059
-0.086388
0.055643
-0.135818
-0.164277
-0.094299
-0.027772
0.217484
-0.435916
-0.204466
-0.580380
0.008436
-0.278217
0.310125
0.182729
-0.471188
0.210021
-0.316747
0.151372
-0.362931
0.100617
-0.227090
0.004892
-0.007303
0.061425
-0.375744
0.084737
0.274544
-0.017999
0.169522
0.156935
-0.048100
0.328815
0.247243
0.064853
0.053296
0.232531
0.633598
-0.095504
0.380147
-0.056958
-0.295267
-0.312476
0.033023
-0.158927
0.129277
-0.181949
0.027405
0.063694
0.078852
-0.387311
0.057198
-0.297381
0.091949
-0.411135
0.056365
0.251119
0.020888
-0.002659
-0.389654
-0.294378
-0.146066
0.032204
-0.230192
-0.027891
-0.297418
-0.098005
0.263191
0.018314
-0.040386
-0.135971
-0.047150
-0.382374
0.080236
0.315268
0.114705
-0.059653
0.161798
0.052405
-0.109432
-0.082679
0.186845
-0.062943
0.235083
0.027435
0.140204
-0.291134
0.110149
0.016796
-0.035922
0.127759
-0.152587
0.232858
0.029430
0.020689
0.040044
0.022643
0.033579
0.057494
-0.536811
0.088399
-0.027492
0.012734
-0.067503
0.245753
0.098715
-0.058181
0.210851
-0.091517
0.132344
0.032399
0.067164
-0.027859
-0.035828
-0.111770
0.396336
-0.290894
0.042482
0.045596
-0.010726
0.165083
-0.188190
0.020054
-0.193188
0.046442
-0.085122
0.046716
0.115508
0.260172
-0.200075
-0.120990
-0.021821
-0.245361
0.055375
-0.398638
-0.048998
-0.368674
-0.209568
0.043653
0.222492
-0.179507
-0.280047
0.039259
0.051130
-0.121377
-0.371280
-0.053710
-0.029459
-0.080939
0.056401
-0.331791
-0.045665
-0.628097
0.149816
-0.002159
-0.067315
0.147872
0.081771
0.291738
0.181927
-0.185064
0.355251
0.252487
0.104527
0.070500
0.011849
0.206894
0.096770
0.006476
0.024469
0.257584
0.044849
-0.433930
-0.027796
0.242528
0.017019
-0.349193
0.070260
-0.094054
0.369584
0.052923
-0.310367
0.013366
0.055788
-0.170808
0.237775
-0.099225
-0.047184
-0.130619
-0.113282
0.181175
0.033246
-0.064393
0.131283
0.098395
0.355256
-0.320518
0.044966
-0.074103
0.052143
-0.049938
-0.159106
-0.076716
-0.145684
-0.021119
-0.349486
-0.008907
-0.193860
-0.104968
-0.169469
0.095671
0.001737
-0.076389
-0.149928
-0.502333
0.182464
-0.310728
-0.051275
0.311572
0.023268
0.173190
-0.020884
-0.031592
0.167403
0.056240
-0.097309
0.140412
-0.060372
-0.325948
0.195070
-0.006706
0.046887
-0.162590
0.070153
-0.080250
0.353248
-0.430054
0.188352
0.006662
0.125615
-0.023572
0.020068
0.032661
-0.179623
0.101101
0.264874
-0.005725
-0.585756
-0.054275
0.353007
0.252367
-0.104556
-0.632363
0.348511
-0.126049
-0.047409
-0.152469
0.325127
-0.112065
0.328467
0.326021
-0.085388
0.084121
-0.057693
0.124764
-0.014075
0.192071
-0.133280
0.198196
-0.322264
-0.248325
-0.011045
-0.342471
0.344878
0.046337
-0.033591
-0.157890
-0.058114
-0.209605
-0.117733
0.397596
-0.311242
0.100834
-0.183421
-0.008937
0.021537
-0.157663
0.102661
0.322236
-0.045328
0.200592
-0.022241
0.231707
-0.192855
-0.195610
0.046977
0.107022
-0.014012
-0.104981
-0.335622
0.148532
0.030470
-0.021457
0.212634
0.149632
0.202650
0.208606
-0.254824
-0.007408
0.150342
-0.152697
-0.059774
0.260124
0.220327
-0.210480
0.195820
-0.117291
-0.187679
0.050935
-0.043459
-0.061063
-0.129594
-0.154475
-0.180111
0.067335
0.044818
0.263681
0.146198
0.030875
0.146971
-0.333257
0.039322
-0.241275
-0.309749
0.137750
-0.117279
0.100395
-0.043935
-0.027925
0.171752
0.158217
0.082509
-0.094973
0.116194
-0.145880
0.110668
-0.163676
0.099029
0.186888
-0.403875
-0.084547
0.031229
-0.145417
0.070627
0.007903
-0.057845
-0.033310
0.065266
0.027863
-0.148386
-0.032618
-0.031140
0.008496
0.045698
-0.216939
0.226917
-0.078796
-0.030590
0.276369
0.069359
0.127416
-0.010450
0.216684
0.097057
-0.315572
0.282075
0.248681
-0.606118
0.069283
-0.007276
-0.579131
0.137513
0.075275
0.008434
0.056903
0.169893
-0.196875
-0.181157
0.095078
0.147987
-0.131521
0.060495
0.142323
-0.079133
-0.252050
0.010693
-0.103966
-0.111964
0.494502
-0.023291
-0.096633
0.092924
-0.085401
-0.177673
0.461574
-0.056097
0.110895
0.238038
-0.343054
-0.054976
0.060133
-0.052868
-0.312843
0.025121
0.166250
-0.012435
0.112260
0.062560
0.011703
0.064563
0.026282
-0.133768
-0.022367
-0.211809
-0.405430
0.094959
-0.184203
-0.059113
-0.343862
-0.027320
0.170588
-0.030063
0.272609
-0.436734
-0.236843
0.127440
-0.296693
0.015012
0.060629
0.061621
-0.086056
-0.060689
-0.022764
-0.015580
0.061160
-0.383653
0.225054
-0.212746
-0.062110
-0.186988
-0.013829
0.257540
-0.052164
-0.137306
-0.109352
-0.123168
-0.366122
0.056803
0.331577
0.230260
0.149209
0.075249
-0.061833
-0.199224
0.093665
-0.175072
0.091705
0.389102
-0.023424
-0.030090
-0.110493
0.103726
-0.093897
0.002077
0.118875
-0.028343
-0.191904
0.070032
-0.166649
0.203551
-0.286436
0.023281
0.049025
0.023357
-0.000290
0.285145
-0.074733
-0.716115
-0.104119
0.034471
0.445903
0.001594
-0.316060
0.325901
-0.327705
0.015185
-0.107069
-0.178709
0.122432
0.078425
0.131547
-0.012829
-0.009681
0.001752
-0.070250
-0.003356
0.065508
-0.365387
-0.025522
-0.068620
-0.436957
0.051682
-0.351033
0.262169
0.222886
0.028518
0.028346
0.102732
0.008652
0.152322
0.157195
-0.450821
0.211748
0.252508
-0.338554
0.044083
0.048051
0.203189
0.438684
0.057816
-0.122698
-0.036092
0.429878
0.037649
-0.145545
0.044745
0.321082
0.062855
-0.492657
-0.545254
-0.011248
-0.302895
0.007112
0.324530
0.123187
0.091549
0.244245
-0.348338
0.041266
0.168587
-0.107455
-0.006738
0.086481
0.215220
0.191739
-0.094819
-0.202251
0.000240
0.169246
-0.014625
-0.047843
0.026448
-0.356777
0.086714
-0.020105
0.177217
0.429187
0.192338
0.042101
0.101587
0.162618
-0.038700
0.302632
-0.240972
0.114695
-0.532670
0.154370
0.053724
-0.102777
0.251852
-0.052237
0.008305
0.081504
0.352926
-0.279998
0.079696
-0.158946
-0.163760
0.009886
-0.308979
-0.030213
-0.024384
-0.226792
0.050895
-0.033239
0.027130
0.016865
-0.132633
0.354422
-0.258547
-0.000064
0.157658
0.056250
0.320575
-0.101043
0.276308
0.026843
0.029206
0.389538
0.186717
-0.294173
-0.079486
0.383639
0.101011
-0.014158
0.198553
-0.068045
-0.173220
0.078022
0.224045
-0.307489
-0.105543
-0.072572
-0.049284
0.179398
0.172201
-0.222471
-0.152327
-0.012306
0.194258
-0.109847
-0.030577
0.166309
-0.322214
-0.116405
-0.091117
-0.093961
-0.268445
0.206372
0.400396
-0.034768
-0.108400
0.110440
0.366300
0.259088
0.363657
0.169638
0.233121
0.050528
0.081372
-0.350051
-0.022701
0.214856
-0.055972
-0.304397
-0.010958
-0.087673
0.009089
-0.192809
0.256160
0.403239
-0.073595
-0.038583
0.266216
-0.196567
-0.084179
0.107984
-0.076022
-0.080416
0.101069
-0.213418
0.009332
0.132652
0.534565
-0.250215
0.105830
0.065301
0.155190
0.125016
0.280620
0.080080
0.184566
-0.527726
0.000409
0.012592
0.239480
-0.223014
0.259603
-0.074427
0.014217
-0.002255
0.154017
-0.341597
-0.167890
0.115362
-0.252908
-0.063007
0.006186
0.005984
0.035664
-0.004665
-0.074625
0.101821
0.354230
-0.175941
0.040060
0.114329
-0.345915
-0.264129
0.099440
0.018461
-0.012074
-0.161696
0.134356
0.001332
0.147979
-0.134035
-0.140140
0.102682
-0.751520
-0.101968
0.160922
0.131010
-0.033207
-0.057857
0.106477
-0.048050
-0.112033
0.265285
-0.138543
-0.111128
0.041222
0.126792
0.063120
-0.058705
-0.371061
-0.193006
-0.262691
0.346332
0.052593
-0.312834
0.268871
-0.022455
-0.004807
0.058539
-0.026779
0.075994
-0.148901
-0.151357
-0.304096
-0.167174
-0.068628
0.101393
-0.279549
0.017645
-0.048040
-0.234691
0.480241
0.237831
-0.027655
-0.197458
-0.682364
0.020484
0.235463
0.248025
0.082274
-0.207651
-0.110509
0.035755
-0.006908
0.006237
0.108337
-0.311987
0.070075
-0.224612
0.064503
-0.005196
-0.035694
-0.148258
0.015589
0.022253
-0.170825
-0.079618
0.022988
0.167063
0.144375
0.051873
-0.259033
0.232564
-0.057061
-0.044202
0.005968
-0.028384
0.535050
0.077779
0.012221
0.003789
-0.396582
-0.255581
0.199650
0.022056
-0.132677
0.194753
-0.181657
0.018158
0.044660
0.136217
0.228094
0.005180
-0.113430
-0.244126
0.049440
-0.259891
-0.064474
0.363753
0.445084
0.196611
-0.031589
-0.057409
-0.351984
-0.129588
-0.007761
0.121135
-0.216891
0.045954
0.044061
-0.779043
-0.063032
-0.449500
0.180020
-0.258337
-0.027218
0.376907
0.137093
0.016843
-0.082450
-0.031745
-0.056387
-0.057457
-0.138299
-0.104459
0.117881
0.108634
-0.047900
-0.221671
0.016978
-0.068980
0.103822
0.263502
-0.433857
0.014002
0.020555
0.115129
-0.170693
0.014090
-0.077492
-0.062100
-0.275659
0.087458
-0.148607
-0.293067
0.174936
-0.030416
-0.011681
-0.336181
-0.193716
-0.170847
-0.115628
-0.268790
-0.045913
-0.030083
0.065748
0.056931
0.113205
-0.263713
-0.111147
-0.223042
0.188725
0.168150
-0.120373
-0.142843
-0.267397
0.400802
-0.093359
0.339169
-0.148304
0.065419
0.004610
-0.094672
-0.035658
-0.282032
-0.010816
-0.053754
-0.027038
-0.218513
0.027044
0.328969
0.031512
0.160461
0.057447
-0.227514
0.489282
-0.064997
-0.166010
-0.018322
0.132387
0.067316
-0.032083
-0.022333
0.027433
-0.021710
0.065211
0.061584
-0.217594
0.563991
0.179176
-0.059510
0.178936
-0.338135
0.271485
-0.095321
0.189145
-0.222229
0.286987
-0.069140
0.135109
-0.055270
0.120650
-0.070096
0.044689
0.307549
-0.135217
0.328403
0.166820
0.120067
-0.415701
0.253957
-0.057030
-0.080606
-0.563959
-0.678167
0.028153
-0.025608
-0.289929
-0.246818
-0.186122
-0.128747
0.311301
-0.000706
0.376403
-0.028948
-0.075765
0.336175
-0.037812
0.102346
-0.022567
0.250276
-0.248702
-0.048583
0.093519
-0.019275
-0.084868
0.018707
0.288700
0.250332
-0.250842
0.118657
0.323423
-0.028998
-0.335326
-0.151892
0.043629
-0.056700
-0.388399
0.156359
0.290838
-0.218160
0.419773
0.050656
0.421236
0.051352
-0.124894
0.010630
-0.057959
-0.044133
0.057808
-0.489115
0.304985
-0.050488
0.064471
0.303447
-0.020341
0.126384
-0.035147
-0.346137
0.057473
0.056561
-0.196213
-0.219962
-0.033103
-0.140121
0.311754
0.143994
0.015757
-0.045561
-0.588999
-0.056094
-0.121117
-0.106095
-0.014008
-0.190270
0.072238
0.189338
0.080268
-0.114686
-0.036170
0.237445
-0.022479
0.059455
0.026445
-0.058305
-0.096368
-0.033621
0.035157
0.028426
-0.203940
0.060325
0.209505
0.030127
-0.148145
-0.084586
-0.103394
0.114273
-0.022960
0.101600
-0.009627
-0.217514
0.054555
-0.609223
0.284313
0.026397
0.068263
-0.234454
-0.061725
0.010824
-0.162192
0.043843
-0.103373
0.035291
0.024124
0.034148
-0.117503
0.368361
0.089556
-0.047490
0.073458
0.087703
-0.012487
0.378166
-0.294664
-0.042336
0.050026
0.047634
0.123300
-0.193554
-0.487825
-0.182504
0.111429
0.001534
0.641678
0.170498
-0.007272
0.261818
0.037231
0.060777
0.245485
0.036714
0.204343
0.077274
0.173405
0.282896
-0.203740
0.069425
-0.201443
0.002164
-0.030188
0.100548
0.091258
-0.051625
0.220390
0.314600
-0.035063
-0.168154
0.004419
-0.143611
0.155690
-0.258436
0.253918
-0.158197
0.356665
-0.128553
-0.023873
0.079128
0.017378
0.085543
0.085088
-0.299388
-0.077388
0.062449
-0.084911
0.007575
-0.061795
-0.112773
0.036593
0.260675
0.113912
-0.006379
-0.204440
-0.361091
-0.010604
-0.380193
0.162249
0.120644
0.254200
0.052431
0.204706
0.182724
0.072729
-0.201094
0.008775
-0.024854
-0.055311
-0.437816
0.030509
-0.065185
-0.068688
0.098544
-0.028493
0.020686
0.204310
0.030520
0.287944
-0.002333
0.173960
0.109146
0.175734
-0.045382
-0.234236
0.064317
0.036491
0.188868
-0.033273
-0.199378
0.440474
-0.280123
0.401266
0.230556
0.041952
0.294759
-0.192042
0.013295
-0.109072
-0.034527
0.355970
-0.070793
0.119222
-0.027905
0.113582
-0.067062
-0.422934
0.107202
0.113663
-0.164260
-0.135958
0.028597
0.209299
-0.174687
-0.064837
-0.286060
-0.000206
0.264468
0.014590
-0.018237
-0.122778
0.125865
0.137912
0.215210
-0.361723
0.164532
0.150076
-0.195173
-0.067925
0.136330
0.087238
0.041585
-0.069326
0.040845
-0.258968
0.197152
0.068259
-0.156700
0.046392
0.071062
0.021088
0.017967
0.101041
0.011063
-0.015012
0.275164
-0.454934
-0.186914
0.070824
-0.115056
0.279475
-0.068043
-0.345644
0.126039
-0.129128
0.105572
0.042409
-0.181205
0.141515
-0.032103
0.113098
0.150328
0.072534
0.202130
-0.062923
0.070556
-0.220684
-0.065536
0.027778
0.168838
0.080696
-0.248251
0.017102
0.156859
0.105200
0.167747
-0.206985
0.059406
-0.622132
-0.148690
-0.409277
0.109064
0.122699
0.010045
-0.092329
0.101428
-0.064010
-0.369530
-0.028731
-0.110589
-0.031729
-0.455780
0.085658
0.410482
0.083025
-0.005089
-0.233034
-0.163212
0.229077
0.006425
-0.185870
0.113877
-0.501099
-0.378103
-0.450600
0.097574
-0.108717
-0.145166
-0.089854
0.169310
0.132616
0.059846
-0.149772
-0.037545
0.050730
-0.050261
-0.071622
-0.054847
-0.169746
0.229838
0.143565
0.086989
-0.245863
0.341441
0.139158
0.002965
0.044224
0.217402
0.337071
0.438592
0.098163
0.158664
0.107122
-0.051330
-0.086146
-0.291458
-0.159029
-0.179608
-0.058891
-0.000126
-0.189837
-0.266833
0.208808
-0.307033
-0.036481
0.341651
0.278109
-0.348490
0.059236
0.282317
-0.009608
0.088237
0.099542
0.367338
0.076884
0.004596
0.178256
0.433282
-0.498424
0.005104
0.055750
0.029067
0.246518
0.057529
0.157226
0.332698
-0.361001
-0.195525
-0.026274
0.204636
0.042923
-0.427598
0.312614
0.032942
-0.147300
0.348287
0.063961
-0.344784
-0.258761
0.101196
-0.015783
-0.232896
0.203591
-0.362731
-0.605988
-0.282311
0.025747
0.002800
0.086112
0.079492
0.117422
-0.582162
-0.008324
-0.028404
0.217857
0.027100
-0.354281
-0.137723
-0.203188
-0.068088
-0.122148
0.570236
0.278127
-0.296032
-0.140256
-0.025877
0.011781
-0.417632
-0.081944
-0.073192
0.004163
-0.186821
0.077861
0.027541
-0.040980
-0.166000
0.158365
0.001485
0.096977
0.040260
-0.075248
0.094901
0.223245
-0.159875
-0.048390
0.020036
-0.060887
-0.197042
0.060171
0.033107
0.385572
0.003628
0.024644
-0.036802
-0.011054
-0.255390
0.291286
0.072452
-0.145764
0.049225
-0.201723
0.044864
-0.088926
-0.193437
0.100895
-0.057719
-0.152530
-0.273309
0.175568
0.099211
0.079155
0.266010
-0.000430
-0.128411
0.028016
-0.496322
-0.007426
0.005875
0.111750
0.036095
-0.002499
0.117833
-0.022604
-0.185260
-0.152699
-0.292042
-0.156063
-0.081746
0.060427
0.059279
0.045817
0.008444
0.201929
0.030773
-0.004127
-0.235722
-0.123284
-0.113542
-0.162951
-0.079564
-0.349667
0.045932
-0.008135
0.046157
-0.000662
0.038543
-0.226195
0.277998
-0.012700
-0.268184
-0.077224
0.006103
-0.183956
-0.679591
-0.400524
0.340620
-0.178706
-0.466765
-0.495774
0.004102
-0.037281
-0.287654
-0.042912
-0.052876
-0.116274
-0.662323
-0.310220
0.181947
-0.067281
-0.353490
-0.339800
0.093001
0.079012
-0.233846
0.422775
0.002227
0.152127
-0.106200
-0.118939
0.158997
0.099304
0.568843
0.550651
0.162840
-0.108128
0.265742
0.086443
-0.059831
0.102130
-0.419698
-0.104936
-0.143951
0.044759
-0.411360
0.009176
-0.390155
0.470661
0.212025
0.211793
-0.057485
-0.462102
-0.029742
-0.107651
-0.289826
-0.085426
-0.371991
-0.039027
-0.259824
-0.004475
-0.351751
0.243252
0.167203
0.020472
0.207135
0.231285
0.014529
-0.025940
-0.012597
-0.598180
0.093623
0.415926
-0.028643
-0.002965
-0.163921
-0.045943
-0.069831
-0.135839
0.025306
-0.195061
0.150397
0.123555
-0.137336
-0.279477
-0.373117
-0.058730
-0.260665
-0.078235
-0.197377
-0.037718
0.048022
0.250562
0.288378
0.114177
0.107713
-0.087750
0.123883
0.050810
-0.023801
-0.080080
-0.310414
0.113030
0.029557
-0.318843
-0.144079
-0.524083
0.397503
-0.089071
-0.095335
0.068618
0.028823
-0.287384
-0.228665
-0.238082
0.052708
-0.259733
-0.039701
-0.021132
0.033892
0.034252
0.024156
-0.160237
0.313583
-0.040165
0.008469
0.396795
0.250791
-0.290581
0.457703
-0.231440
-0.001790
0.054404
-0.195437
0.240717
-0.006186
-0.075470
0.168185
-0.490992
0.190983
0.004360
-0.060353
-0.271536
-0.189742
0.051802
-0.090529
0.330748
0.178248
-0.103037
0.085235
0.026721
-0.025672
-0.334411
-0.368603
-0.222709
-0.022886
-0.050110
-0.163186
-0.087045
0.041749
-0.020785
-0.453707
0.060469
-0.108231
-0.061901
0.041160
-0.063337
0.224468
0.115471
-0.402654
0.330282
0.049835
-0.181081
-0.121064
0.103794
-0.125828
0.019365
0.080496
0.069787
0.235389
0.021797
-0.147359
0.247517
0.363458
0.132256
0.089713
-0.166127
-0.060550
0.095193
0.051855
-0.070782
0.174522
0.203842
-0.065940
0.142341
0.075199
-0.285678
-0.035190
-0.451030
0.175106
0.024069
-0.553273
-0.068238
0.182983
0.105860
0.185593
0.084745
-0.322752
0.243325
0.347902
-0.026125
0.069614
0.142941
-0.010792
-0.109642
0.134208
-0.095862
0.058011
0.326949
-0.130398
0.068690
0.382476
0.018393
-0.097482
-0.060202
-0.046510
-0.394704
-0.597553
-0.002209
-0.142792
0.003178
-0.040010
-0.083216
-0.010719
-0.249968
0.050972
0.150286
0.303042
-0.373086
0.064025
-0.045173
-0.078549
-0.002267
-0.155153
0.091996
0.102551
0.363795
-0.019381
0.077493
0.120343
-0.169955
0.043278
0.046987
0.110794
0.200723
0.105538
0.212350
0.208264
-0.000992
0.006821
-0.004648
-0.043152
-0.086680
0.341877
0.070131
-0.085652
-0.195340
-0.199529
-0.046974
-0.034057
-0.096654
-0.084657
-0.079167
0.034827
-0.024055
-0.094117
-0.043958
0.041499
0.078009
-0.065952
-0.069179
-0.046108
-0.032218
-0.036590
0.075328
0.007516
0.084565
-0.087976
0.003486
-0.018461
-0.076780
-0.087953
-0.058280
-0.030432
-0.031675
0.031609
0.045217
-0.082516
0.058374
0.043576
-0.019267
-0.080937
-0.083615
-0.045203
-0.013909
-0.067744
-0.047399
-0.004047
0.038962
-0.060753
0.017596
-0.065633
0.062814
-0.035520
-0.083237
-0.022320
-0.085978
0.085164
-0.053056
-0.031732
0.017717
-0.012510
0.048567
-0.032391
-0.055064
-0.012011
-0.078113
-0.044154
-0.019172
-0.093063
0.066427
0.079149
0.024853
-0.074701
-0.038707
-0.010037
-0.016720
-0.025825
-0.051891
-0.106563
-0.092574
-0.091357
-0.000008
-0.087289
-0.077423
-0.075840
-0.014891
0.002379
-0.004708
-0.036823
0.018506
0.047571
-0.042221
-0.017758
-0.021888
-0.023250
-0.077246
-0.005585
-0.032586
-0.019485
0.091296
-0.033642
-0.040456
-0.000876
-0.093104
-0.064605
-0.078375
-0.048298
-0.053440
-0.043965
-0.002246
0.059268
0.053486
-0.090078
0.016450
-0.120875
-0.071716
-0.104075
-0.081665
-0.080152
-0.042669
0.032315
0.019676
-0.056903
-0.089269
-0.084712
0.012314
-0.051668
0.115374
-0.203394
-0.172000
-0.213059
-0.035584
0.037274
0.228525
0.058035
-0.136303
0.386400
0.078067
0.077973
0.012864
0.234501
0.104786
0.067453
-0.008012
-0.301719
-0.044401
0.124790
-0.094299
0.043134
-0.192264
-0.044880
0.105783
-0.152736
0.463651
0.064069
0.112383
0.216349
0.081227
0.122149
-0.061132
0.139351
-0.679056
0.249589
0.137785
-0.226046
-0.071191
-0.188680
-0.349448
-0.010009
-0.041104
0.177737
0.030147
0.067166
-0.512999
-0.149772
-0.128124
0.044929
0.270373
-0.216185
0.169906
-0.475733
-0.066331
0.329101
-0.122054
-0.064083
-0.055996
0.251081
0.314756
0.056231
0.049715
0.016270
0.209208
0.069973
-0.096461
-0.045741
-0.072089
-0.468519
-0.192005
0.248926
0.076237
-0.187756
-0.016366
0.060569
-0.337514
0.139115
0.166985
-0.445059
-0.264002
-0.420783
-0.272542
-0.056162
0.116630
-0.143634
-0.067716
-0.026663
0.484431
-0.367966
-0.101582
-0.388573
-0.012829
0.159934
-0.327070
0.422656
0.161977
-0.357967
0.184277
0.262728
0.019613
0.148364
-0.104803
0.007370
-0.066972
0.125841
-0.456336
-0.400025
0.285990
0.228872
0.174854
0.126944
-0.042036
0.029708
-0.115248
0.264955
0.102272
-0.120702
-0.432061
-0.165511
0.055151
-0.133594
-0.015715
-0.124709
-0.138421
-0.465608
0.082238
0.246954
-0.170748
0.306736
-0.034878
0.107361
0.006615
-0.124868
-0.012026
-0.334769
-0.027506
0.132278
0.049986
-0.050659
0.199609
-0.097221
-0.040840
0.079234
0.024762
0.080308
0.293123
0.060606
-0.447296
0.136466
-0.084999
0.069612
0.046408
-0.651205
0.491276
0.521201
0.235799
0.158990
-0.124017
-0.032267
0.121765
0.079813
0.081808
0.107560
0.277602
-0.023046
0.128618
0.211934
-0.030797
-0.054838
-0.310199
0.086191
0.019456
-0.024061
-0.000246
0.209725
0.038679
0.182976
-0.074867
-0.180609
-0.026856
-0.167442
-0.093374
-0.063695
0.076078
-0.356937
-0.071283
0.111659
0.044046
-0.260264
0.277688
-0.523024
0.009607
0.133446
0.083872
0.082731
-0.178172
-0.175182
-0.294499
-0.212137
-0.027418
-0.367932
0.084911
0.011077
0.156713
0.018156
-0.122626
0.082988
-0.224156
0.392508
-0.265520
-0.286298
0.075514
-0.166446
-0.088271
-0.312310
0.094256
0.119034
0.417305
0.167785
0.055866
0.084278
-0.231418
0.020682
-0.021016
0.142124
0.251389
-0.217103
0.021352
0.129160
0.048855
-0.529693
-0.017658
0.186489
-0.358086
-0.207844
-0.042020
-0.171856
0.002346
0.279979
-0.546432
0.226426
0.113671
-0.201537
0.118274
-0.006695
-0.316993
-0.301061
-0.245226
-0.096711
-0.022871
0.174955
0.029578
-0.209690
-0.069459
0.160312
0.042459
-0.369197
0.024824
0.016115
0.144385
0.143197
-0.316953
0.043103
-0.080346
-0.361702
0.212289
-0.274326
0.109859
-0.293539
-0.043273
-0.546839
0.001156
0.104925
-0.094696
-0.359439
-0.666677
-0.378982
0.055263
-0.156653
0.048796
0.072472
-0.024423
0.064004
-0.034843
0.089008
-0.242708
0.038976
-0.183320
-0.083277
0.128890
0.133764
-0.070595
0.356610
-0.047153
-0.017378
0.321601
-0.396184
-0.006308
0.202401
-0.324049
0.355905
0.120792
-0.082899
-0.436373
-0.297807
-0.142272
0.061072
0.164690
0.298357
0.349526
0.193363
0.024587
-0.126729
-0.025015
0.065229
0.217293
-0.217235
0.530814
-0.212587
0.037792
-0.006510
-0.158307
-0.026311
-0.207423
0.111575
-0.323701
0.011937
-0.459454
-0.194025
-0.024107
0.267389
0.002435
-0.200998
0.302847
0.116641
0.269234
0.019821
-0.140525
0.089312
0.020164
-0.205683
-0.156715
0.082131
0.083050
0.183150
-0.078350
0.115772
0.123844
0.013797
-0.016950
-0.025924
-0.029536
-0.353377
0.178890
0.176893
0.095005
-0.588334
0.027383
0.026762
0.144980
0.322778
0.039359
0.314413
0.234455
-0.086446
0.082276
0.230079
0.004497
0.234042
-0.056542
0.066524
-0.085432
-0.141491
0.010872
-0.150128
-0.024646
0.047026
0.044133
-0.198143
0.143761
0.268640
-0.281744
0.051965
-0.041497
0.206906
-0.627542
-0.025271
-0.055380
0.058298
0.034437
-0.328732
0.061348
-0.062125
0.154034
0.218119
0.012150
-0.067074
-0.004595
-0.020156
0.631291
0.054602
-0.099700
-0.106650
-0.160515
0.072090
0.156733
-0.103510
0.010005
-0.045312
0.007691
0.034485
-0.200253
0.215975
0.216467
0.001033
-0.291356
-0.073141
0.041462
-0.032776
-0.083847
-0.080156
-0.080645
0.036509
0.105890
-0.230022
0.153393
-0.005449
0.143304
-0.301452
0.263896
0.069387
0.083435
-0.404957
0.130085
0.033491
0.372852
-0.509697
-0.250138
0.303177
-0.467555
0.181105
0.173360
0.061981
-0.232010
0.112019
0.113928
-0.000825
-0.064177
-0.010958
0.029562
0.127506
0.014656
0.156448
0.171348
-0.577299
0.285065
-0.053266
0.269390
0.419908
0.296709
0.104679
0.366690
-0.017479
0.027576
0.275372
-0.001289
0.005219
-0.204017
-0.197806
-0.179857
-0.315704
0.035505
0.125443
-0.198825
-0.081180
0.048538
-0.005006
-0.028041
-0.008545
-0.527612
0.094856
-0.060972
-0.103780
-0.207045
-0.345365
-0.217564
-0.251493
0.179005
-0.647014
-0.030008
-0.301720
-0.060469
0.222655
0.064753
-0.239061
-0.096054
0.355107
0.053395
-0.029900
-0.381102
-0.443182
-0.031914
0.037211
-0.490119
-0.069368
-0.113385
-0.335589
-0.257831
-0.389127
-0.041183
-0.003684
-0.031988
0.167785
-0.025765
0.335746
-0.715570
-0.371605
0.099202
-0.258273
0.074174
-0.065100
-0.009395
0.129498
0.055987
-0.074190
0.173647
0.146804
0.204738
-0.048722
0.121934
0.302204
0.004187
0.432304
0.001129
-0.516191
-0.146731
0.098063
-0.063361
-0.265231
0.021652
-0.042582
-0.033899
-0.066255
-0.252085
-0.272260
-0.394320
-0.112547
0.112992
0.166193
-0.089923
0.060771
0.077521
0.295560
-0.077133
-0.028138
0.134977
-0.011801
-0.047980
0.134266
-0.003440
0.287212
-0.501955
-0.111994
0.146337
0.241442
0.248157
0.121821
0.181203
0.055985
-0.160352
0.139408
-0.022396
0.209041
0.325738
-0.338430
0.082335
-0.002101
-0.030649
0.140789
0.133679
0.097238
-0.583404
0.061556
0.068529
0.051506
0.052691
-0.164231
-0.233434
-0.345322
0.097711
0.233227
0.039996
-0.113081
0.047740
0.128797
-0.029120
0.065084
0.058866
0.290445
-0.434424
0.105480
-0.033165
-0.114127
0.197522
-0.362810
-0.282462
-0.200997
-0.228770
0.369505
-0.023971
0.030057
0.040009
0.136978
-0.068562
0.119363
0.022283
0.107264
0.029140
-0.117422
-0.251283
0.145373
-0.342100
-0.059483
-0.195086
0.092607
-0.043715
-0.011111
0.023210
-0.394923
0.027008
-0.160519
-0.074247
0.235794
-0.234111
0.217239
-0.538019
-0.332302
0.143020
-0.232005
0.081634
-0.006229
-0.075005
0.060432
-0.334727
0.101644
0.208057
0.330270
0.253756
-0.014978
0.235321
0.286368
-0.387676
0.242063
0.064193
0.109726
-0.097477
0.263255
0.021197
-0.088220
0.325680
0.020113
0.014410
-0.012542
-0.512190
-0.158198
-0.015303
-0.010163
0.070316
-0.014170
-0.169836
0.187220
0.019628
0.155267
-0.016462
0.012909
0.168770
-0.305905
-0.130811
0.036024
0.261108
0.286101
-0.504069
-0.039032
-0.137668
-0.001631
0.208385
-0.035679
0.213491
0.066026
0.162200
0.191300
0.083820
-0.128800
-0.335562
-0.336554
0.345807
0.193878
-0.003554
0.203999
-0.007635
-0.285867
-0.144372
0.008181
0.048792
0.145219
-0.212281
-0.355187
0.019099
-0.149248
0.063288
-0.002312
-0.045592
-0.083666
0.058542
0.193549
-0.082153
-0.135304
0.326453
0.156140
-0.010015
-0.114884
-0.065087
-0.064234
-0.106164
0.339985
0.267001
-0.015985
0.030414
0.264485
-0.062853
0.271724
-0.032672
-0.418437
-0.031398
0.184491
-0.070938
-0.525961
0.003560
0.154523
0.236423
0.065508
0.301738
0.038193
-0.285742
0.017987
0.018357
-0.312658
-0.010079
-0.328084
0.011619
0.084483
-0.087545
0.141410
0.129288
-0.350859
0.393961
0.058963
-0.045156
-0.088918
0.004317
-0.021179
-0.303497
0.405328
0.026368
0.020024
-0.185372
-0.032201
-0.003486
-0.041204
-0.331059
0.121872
-0.175168
-0.010435
0.042168
0.195090
0.323007
-0.108131
0.015417
0.088615
-0.235437
0.187399
-0.038697
0.022746
-0.570444
0.384068
0.097969
0.006467
-0.078934
0.028898
0.230854
-0.129296
-0.008543
-0.145719
-0.012117
-0.037072
0.022607
0.201088
-0.436414
0.103239
0.325446
-0.211798
0.274457
0.054729
-0.156158
0.024401
-0.078216
0.121369
0.011067
-0.064056
0.196078
0.090936
-0.064492
-0.351459
0.288546
0.191439
-0.021874
0.049074
0.138420
-0.106385
-0.114555
0.385572
0.200623
-0.029863
-0.079846
-0.146612
-0.209497
0.306474
0.036364
-0.064812
-0.423056
0.142318
0.083009
0.014119
-0.036696
-0.180162
0.008128
-0.045927
0.314283
-0.400736
0.136405
0.337093
-0.030499
0.018414
0.283119
-0.003428
0.162261
0.017054
-0.424939
0.035544
0.000034
0.253362
-0.063701
0.020816
-0.070265
0.122673
-0.048585
-0.205522
-0.000992
0.222174
0.153609
0.287986
-0.456371
0.070544
-0.343871
-0.140834
-0.159200
-0.027463
-0.035496
-0.120565
0.160822
-0.392554
-0.091179
-0.178697
0.150608
-0.219429
-0.399899
-0.025972
-0.558465
-0.329685
0.033281
-0.020214
-0.137687
0.502838
0.002595
0.025430
0.029622
0.295916
0.285723
0.026867
-0.036562
0.002962
0.079974
-0.018607
0.142648
0.256975
0.436413
-0.064064
-0.039555
0.023309
-0.381583
0.401485
-0.171908
-0.022856
-0.265180
-0.046982
0.223897
-0.024861
0.026519
-0.198932
0.128287
-0.253326
-0.052644
-0.124104
-0.030677
0.082386
-0.069736
0.113592
0.234207
-0.268369
0.011948
-0.094051
0.287533
0.030813
0.044877
0.022792
-0.243031
-0.044725
-0.152460
-0.048768
0.233197
0.289330
0.076059
0.016771
-0.087799
-0.224569
0.291753
0.251274
0.201626
0.022535
-0.256899
0.110234
0.061174
0.016844
-0.075320
0.016781
0.044915
0.089956
-0.583096
0.004575
0.139612
-0.193097
0.045263
-0.320959
0.224523
0.091565
0.081805
-0.414480
0.028139
0.135346
0.074576
-0.070366
0.191141
-0.098557
0.239768
-0.264426
-0.135325
0.093059
0.125754
-0.014752
-0.011753
-0.180724
-0.061000
0.134768
-0.044991
0.044781
0.018054
-0.003867
0.036387
0.057158
-0.013913
0.228222
0.082586
-0.064914
0.031639
-0.146998
0.065423
0.194678
0.452844
0.231013
0.017966
0.241184
-0.012958
0.004399
-0.488808
-0.044491
0.315749
0.551197
0.059342
0.245754
-0.260427
-0.073831
0.189595
-0.078594
0.192528
0.082963
0.191317
-0.203651
-0.099813
-0.023990
0.007192
-0.188875
0.230225
-0.214436
-0.450320
-0.226331
0.013875
0.164651
-0.026977
0.160326
0.080262
-0.092729
0.045201
-0.015068
0.127386
-0.202754
-0.000832
0.061100
0.115522
0.012864
-0.376029
0.103942
0.079007
-0.289350
-0.063235
0.097959
-0.014143
0.019713
0.247270
0.005160
0.055468
-0.182374
-0.014459
-0.014876
-0.053978
0.122475
-0.169915
-0.057814
-0.027497
-0.161676
-0.223646
-0.132762
0.047795
0.102753
-0.180882
0.243523
-0.352881
0.261393
-0.079602
-0.183105
-0.058785
-0.075617
0.105954
-0.008047
-0.021544
0.304819
0.119302
-0.134538
0.250855
0.326943
-0.025565
0.093388
0.001715
0.079493
0.293826
-0.184615
-0.103095
0.080608
-0.430566
0.043727
-0.081614
0.030821
0.119591
0.149799
0.189143
-0.327942
0.058845
-0.169806
0.276570
-0.520380
0.042057
0.014758
-0.036566
0.490363
0.039085
-0.167779
0.084572
0.036804
-0.061092
-0.051037
0.103231
0.217379
0.054039
0.009183
-0.075510
0.095535
-0.168878
0.215713
-0.248523
0.147920
-0.129018
-0.039296
0.041003
0.123818
-0.244681
0.654676
-0.107096
0.328389
0.207002
0.115387
0.108322
-0.003577
0.247807
-0.624110
0.291792
-0.062702
0.166174
-0.447539
0.321727
0.050747
0.225905
-0.254515
-0.256187
0.052422
0.222794
-0.437280
-0.321477
0.131777
-0.074358
-0.352463
-0.000962
0.197454
-0.071748
0.099961
-0.023384
-0.382319
0.022369
0.059416
0.183578
0.152685
-0.104514
-0.257948
0.053933
-0.113210
0.074371
0.132040
-0.050329
0.016968
0.105252
0.028402
-0.365208
-0.307761
0.018769
-0.044829
0.150994
0.184655
-0.115701
-0.078607
-0.034897
-0.066127
0.126403
-0.287066
0.040208
0.105311
-0.314234
0.120637
-0.144093
-0.190037
0.233164
-0.099227
0.041514
-0.361138
-0.286862
-0.077306
-0.026223
0.339935
0.161514
0.086249
0.097371
-0.139179
0.021933
0.337809
0.058362
0.375723
0.087873
-0.079414
0.006720
0.177531
-0.452995
0.080942
0.004289
0.103524
0.273426
0.348927
0.147962
-0.142098
-0.110521
0.240230
0.041204
-0.182960
0.062675
0.322077
0.023797
0.081299
0.027530
0.074020
-0.020523
-0.352417
-0.075003
-0.116523
0.176181
0.177586
-0.224503
-0.079283
-0.239233
0.097409
-0.167497
-0.042987
0.148542
0.040225
-0.071023
0.036932
0.058525
-0.111222
-0.153919
0.049012
-0.213798
0.057868
-0.188588
0.134547
0.126769
-0.031171
-0.012522
-0.010627
0.047741
-0.055789
-0.031835
-0.115797
-0.026310
0.062225
0.171915
-0.005448
-0.097771
-0.426546
0.119231
-0.016692
0.119620
0.030919
-0.067469
0.170556
-0.093528
0.195527
0.010026
-0.022746
0.219639
0.023851
0.465487
0.136044
-0.152640
-0.323533
0.105956
0.006528
0.043589
-0.216665
-0.017687
-0.040305
0.038053
-0.360874
0.332119
-0.351712
-0.138254
-0.489182
0.064435
0.009127
-0.363954
0.065910
-0.171765
-0.049799
0.013733
-0.285491
0.128792
-0.138837
-0.020706
0.031290
-0.007084
0.252807
0.054181
0.248191
0.455066
0.032622
0.072132
0.248717
-0.048854
-0.072676
0.082833
0.092556
0.334814
0.153432
0.160421
0.413844
-0.068546
-0.069921
0.000065
0.017493
0.019319
0.152258
-0.025735
0.067710
-0.044007
0.132448
0.050365
0.359389
-0.247341
-0.144235
0.096940
-0.006890
0.176969
0.006534
-0.046644
0.186033
-0.007712
0.405655
0.042666
0.032405
-0.084920
0.036126
0.041167
-0.249803
-0.009695
-0.072329
-0.031961
-0.123947
-0.542782
-0.034515
0.112103
-0.182257
0.026523
0.058936
-0.203957
0.020709
0.086167
0.176309
-0.058802
0.133697
-0.046907
0.132570
0.132210
-0.123259
-0.221484
-0.082970
-0.140422
-0.024281
-0.072960
0.057342
-0.182875
-0.110656
-0.566329
0.323977
-0.074725
-0.035500
0.216107
0.052587
-0.147433
-0.223312
-0.307837
0.422164
0.059454
0.137672
-0.069160
0.189608
0.204663
-0.049755
-0.083381
-0.006066
0.123893
0.035835
-0.005691
-0.136994
0.106544
-0.347097
0.078227
0.095810
-0.017997
-0.268308
0.076837
0.109033
-0.437264
-0.193210
-0.026989
-0.408769
0.091192
-0.612592
0.223258
-0.037477
-0.061797
-0.194594
0.022973
-0.033242
-0.167943
-0.201809
0.154525
-0.076640
-0.039927
0.163328
-0.172877
0.125402
0.365824
-0.132551
0.163268
-0.058021
-0.437743
0.179592
0.287295
0.056726
0.056735
-0.376918
-0.285033
-0.085414
-0.027623
0.299907
0.378475
-0.325329
0.023696
-0.506490
-0.062723
0.025940
-0.040418
-0.017313
0.082005
-0.162710
-0.072094
-0.316757
0.264445
-0.041910
-0.161167
-0.177356
-0.119617
0.054575
-0.037377
-0.268433
-0.035306
-0.114811
0.022772
0.233686
0.011376
0.246453
-0.080626
-0.049688
-0.059558
0.071315
0.158812
-0.326187
0.053904
-0.006124
-0.053139
-0.042512
0.056692
-0.034220
-0.004523
0.165423
-0.021887
0.320731
-0.036220
0.006261
-0.458889
0.179098
-0.049027
0.241256
0.046375
-0.163993
-0.226794
0.040478
-0.057565
-0.245549
-0.007868
-0.029031
0.157814
-0.085292
0.000874
-0.015750
-0.069896
-0.454658
0.001552
0.220185
-0.234432
-0.182660
0.346523
-0.366401
0.028517
0.115482
-0.125178
0.230627
0.037522
-0.085013
0.008185
0.023707
-0.101583
0.161102
0.052561
0.005501
-0.047522
-0.125416
-0.011339
-0.376391
0.060373
0.175589
0.014741
-0.108032
0.104093
0.024762
-0.007018
0.098990
-0.406452
0.012077
0.241858
-0.079371
0.218556
0.056117
-0.439849
0.133851
-0.016436
0.169035
-0.021578
-0.296244
-0.068261
0.090727
-0.091550
-0.269794
-0.170357
-0.166875
-0.075927
0.057960
-0.314692
0.024688
-0.090483
-0.107807
0.037989
0.108016
-0.079383
0.194570
-0.264435
0.289908
0.046915
-0.279590
-0.017569
-0.137298
0.019704
0.111163
-0.221201
-0.335646
-0.306837
-0.050042
0.155577
-0.018022
0.067033
-0.142044
0.124292
-0.192793
-0.332084
-0.054252
-0.077553
0.102208
0.014318
0.091178
-0.056449
0.062744
0.063565
0.165694
-0.047011
0.030168
0.008367
-0.069216
0.114960
0.051092
0.030005
-0.039512
0.030625
0.099510
0.128847
0.062682
0.053692
-0.038378
-0.067699
-0.139958
-0.114574
0.017091
-0.450296
0.187026
-0.318537
-0.268536
0.044688
0.053868
-0.095849
0.213540
0.017005
-0.025993
0.068954
-0.235882
-0.059097
-0.002660
-0.047867
-0.059480
0.044501
-0.052695
-0.148811
-0.365799
0.099165
-0.182655
0.118702
0.285818
-0.119033
-0.135125
0.068015
0.057365
-0.276338
0.064628
-0.563383
-0.119113
0.134161
0.107274
0.075830
0.075677
0.009389
0.120525
0.045847
0.104132
0.031566
0.038916
0.099669
0.217939
0.291229
0.022061
-0.112180
0.084997
0.004263
-0.050874
-0.167261
0.002286
-0.308762
0.214243
0.185855
-0.014440
0.068191
-0.277437
-0.126208
0.243521
0.183161
-0.079652
0.193163
-0.014421
-0.190738
0.172976
0.062313
-0.057379
-0.053296
-0.346003
-0.175678
0.167517
-0.170216
-0.432765
-0.246732
0.082734
-0.008311
-0.304560
-0.126088
-0.096703
0.011854
-0.444470
-0.197240
-0.489446
0.019600
0.155068
-0.103061
0.076365
0.278446
-0.287546
-0.062067
-0.194442
0.088974
-0.117684
0.049942
0.041664
-0.029461
-0.230169
0.019457
-0.198641
-0.024302
0.294810
0.029091
0.109347
-0.243933
0.003061
-0.108857
0.009444
0.141789
-0.087793
0.086403
0.423682
-0.110093
0.075046
0.211009
0.136028
-0.065734
-0.160775
-0.095672
-0.232978
-0.172970
0.098515
-0.031960
-0.085801
0.086854
-0.076708
0.005545
-0.252168
-0.208430
0.030613
0.029187
-0.210156
0.124572
0.066001
0.175805
0.061327
-0.002673
-0.296566
-0.082917
-0.183820
-0.425843
0.016939
-0.031495
-0.094631
0.012955
-0.321080
0.085562
-0.011611
0.059522
-0.382244
-0.384135
-0.065170
0.010053
-0.158580
-0.099034
-0.376599
0.039336
-0.053348
-0.087859
0.108128
-0.023652
0.023768
0.006888
-0.243425
0.078845
-0.605229
-0.004187
0.009876
0.033353
0.183488
-0.039671
-0.026620
0.191358
0.036662
-0.063354
-0.352390
0.001356
-0.254703
0.032466
0.202053
-0.089460
-0.150512
0.022924
0.153960
0.173621
-0.148358
0.245873
0.036797
0.019812
0.079729
-0.078752
0.066441
0.022441
-0.245928
-0.081018
-0.158498
-0.025896
0.151595
0.182023
-0.124480
-0.039387
0.030133
-0.031613
-0.234772
0.036007
0.171452
-0.138865
-0.029887
-0.433263
-0.303767
0.293496
-0.101416
-0.064885
-0.114358
-0.072193
-0.186292
-0.084221
0.017455
0.004755
0.155159
0.040315
-0.124757
-0.068371
0.058704
-0.157174
-0.454062
0.297059
0.086196
-0.233439
-0.248001
-0.042844
-0.065954
-0.111219
0.432869
0.137979
0.020169
0.075393
-0.319882
-0.095395
0.137624
0.042683
0.230588
-0.134440
-0.370119
-0.187350
-0.015130
0.006696
0.144275
-0.298141
-0.042185
0.054915
0.236369
-0.077138
-0.021871
-0.167906
-0.166703
0.206637
-0.095954
-0.250612
-0.174491
0.197436
0.109375
-0.040588
0.202695
-0.327506
0.056266
0.077968
-0.044289
0.265420
0.267771
-0.596530
-0.495967
0.312794
0.006694
-0.168022
0.142337
-0.095831
0.344346
0.100478
0.089010
-0.239087
0.478550
0.032007
-0.064417
-0.236333
-0.141408
0.054467
-0.010882
0.410285
-0.288490
-0.282441
-0.065136
-0.160630
0.077794
0.193638
0.014221
0.077854
0.140176
-0.254184
-0.071859
0.114772
0.117811
-0.202504
0.121931
-0.459139
-0.114363
0.109747
0.029954
-0.002573
-0.671246
-0.177455
-0.516981
0.001106
-0.204325
0.150942
0.166275
0.060768
-0.130009
0.031509
-0.065122
-0.077326
-0.162924
-0.516504
0.074679
0.249022
-0.090528
0.247929
-0.235432
-0.251748
-0.425518
-0.202325
-0.202059
-0.187556
-0.105410
0.028014
0.000191
-0.010396
0.083983
-0.028618
0.107293
-0.031569
0.261350
0.074478
0.065348
0.200331
-0.304532
-0.106142
-0.004989
0.261023
-0.523988
0.436566
-0.281681
-0.075223
0.460254
0.092660
0.213418
0.053109
-0.214309
-0.421197
0.326660
0.053032
0.028474
-0.009114
-0.525206
-0.491890
-0.052423
0.148287
-0.029461
0.052429
-0.012801
0.165376
-0.032809
0.096911
-0.048151
0.004155
-0.161043
0.094215
0.072179
-0.336234
0.069825
0.514953
0.207699
-0.077048
0.356944
-0.124165
0.154673
-0.050861
-0.049302
0.395292
0.101272
-0.505742
-0.367442
0.025718
-0.241437
-0.230261
0.173733
0.061254
0.323764
0.029639
0.003900
0.044985
0.459137
0.219261
-0.502416
-0.247239
-0.204939
0.006782
-0.098995
0.196507
-0.346163
-0.152854
-0.054774
-0.063202
-0.114420
0.210462
-0.123702
0.016544
0.169630
-0.262130
0.238005
0.272655
-0.029056
0.288028
-0.296727
-0.242960
-0.296544
0.081249
0.050443
-0.030016
-0.238032
0.079914
-0.191043
0.040994
-0.043355
0.022544
-0.140855
-0.017306
-0.178505
0.022135
0.097658
-0.043728
0.005784
-0.411290
-0.538354
0.036142
-0.400665
-0.070915
-0.041564
-0.332422
0.614416
0.052667
-0.011770
0.128995
-0.498186
-0.081733
-0.040941
0.055344
-0.509722
0.090280
-0.092868
-0.077653
0.144849
0.080506
0.067932
-0.029834
-0.416821
-0.137347
0.072037
-0.109034
-0.039057
0.231602
-0.038510
0.052064
-0.232248
0.001904
0.242958
-0.022680
0.156391
-0.216121
0.094270
0.438690
-0.249557
0.102322
0.020901
-0.174121
0.070284
-0.327987
-0.002409
0.013984
-0.035412
-0.146257
0.136003
-0.167757
0.026056
-0.002157
-0.108647
0.232380
-0.444091
-0.379005
0.313877
0.043296
-0.164113
-0.070771
0.217018
0.216749
0.185899
0.190446
-0.032520
-0.098056
0.334988
-0.168447
-0.168465
0.142479
-0.165428
0.042919
0.016362
0.143803
0.121537
-0.039486
0.124687
-0.322946
0.244838
-0.023790
-0.029040
0.220299
-0.073603
0.010186
0.055397
0.038528
-0.025828
0.147199
0.010400
0.019840
0.091383
-0.008566
0.258750
-0.009904
-0.347577
-0.095261
-0.024365
-0.277277
-0.449985
-0.279478
0.097810
0.009074
0.133178
-0.004458
0.085475
-0.020762
0.071766
-0.095034
0.089350
-0.169569
-0.017168
-0.250408
-0.421571
0.036688
-0.041906
0.325439
0.090942
-0.010988
0.041173
0.446549
0.013643
0.183454
0.104551
-0.357841
0.417944
0.026324
-0.365358
0.322656
0.119605
-0.041328
0.346405
0.016769
0.182320
-0.053154
0.141435
0.029282
-0.178732
0.076494
0.034295
-0.019764
-0.175852
0.048341
0.011513
-0.082127
-0.049772
0.184577
0.162614
-0.039858
-0.051234
-0.079817
0.173816
0.003630
-0.075809
-0.027657
-0.239450
0.320991
-0.077059
-0.272518
0.308495
0.115647
0.055210
-0.084586
-0.069233
0.058150
-0.128015
-0.071507
0.052375
0.020035
0.094256
-0.133904
-0.030062
0.151263
-0.099030
0.052205
-0.243781
-0.111019
-0.031484
-0.265443
-0.158006
0.037578
-0.276562
0.022444
-0.162385
-0.038243
0.072772
0.071108
-0.091703
0.120600
-0.093742
-0.202935
0.013530
-0.195696
0.057985
0.059833
-0.212779
0.060099
0.060954
0.048376
0.019141
0.119585
0.021364
-0.357992
-0.237819
0.025842
0.014790
-0.159996
-0.293067
-0.098113
-0.071666
0.171587
0.327324
0.060585
-0.184410
0.085708
0.208651
0.020225
-0.016181
-0.051107
0.309080
-0.070182
0.274566
-0.261336
-0.194277
0.165771
0.076938
-0.010578
-0.062443
0.184925
-0.027431
0.007850
0.104996
-0.045778
-0.140139
0.065568
0.219756
-0.388715
-0.041424
0.066033
0.003732
0.342529
0.268233
0.022833
0.130705
0.007727
0.011642
0.052105
0.065182
-0.020789
-0.450884
0.069740
-0.180941
-0.071113
0.092782
-0.070277
0.300172
0.000726
0.221200
0.036594
-0.362745
0.012896
-0.394091
0.376351
0.346880
0.025096
0.046954
0.019512
-0.051403
-0.217821
-0.089213
0.306732
0.091584
-0.052246
-0.074931
-0.060631
0.349136
-0.120513
-0.269976
-0.088841
0.127039
-0.132833
0.087218
0.026300
0.036613
0.260836
-0.400687
0.061421
-0.020491
-0.064305
-0.176977
0.144022
0.095753
0.313413
-0.337487
0.019828
-0.094487
0.141096
-0.090850
0.184184
0.178203
0.096046
0.139548
-0.066126
0.064571
0.071177
-0.079011
0.260937
0.089173
0.404139
-0.209251
0.200858
-0.418777
-0.348778
0.227979
-0.010510
-0.368928
0.030168
-0.007044
0.327601
-0.008196
0.128527
-0.148785
-0.068071
0.313552
0.041422
-0.054142
0.096640
-0.112512
-0.183088
-0.016760
0.198198
-0.108194
0.269590
0.160162
0.085618
0.043225
-0.343649
0.191749
-0.088588
-0.113269
-0.345487
-0.115705
-0.062253
-0.360962
-0.162426
-0.059815
-0.039699
-0.032951
-0.401848
-0.159035
0.033950
0.048683
0.019015
0.420695
-0.011111
0.172572
-0.002236
0.341038
0.020635
-0.054195
-0.131684
-0.349181
0.020175
0.113317
-0.197895
0.117842
0.149532
0.260815
0.325716
-0.140082
-0.044400
0.058628
0.037501
-0.076285
0.042140
-0.031603
0.018906
-0.134364
-0.077500
-0.091315
-0.002879
-0.350096
-0.058472
0.002904
0.072628
-0.043580
-0.247278
0.167497
-0.048024
-0.235024
-0.148808
-0.187132
-0.008983
-0.372582
0.009429
-0.139677
0.064332
0.214224
0.046614
-0.198038
0.012726
-0.211547
0.069313
-0.025624
-0.027166
0.152926
0.007307
0.070570
-0.003278
0.155068
0.096162
0.048365
0.289360
-0.041390
-0.139062
0.033393
0.152069
0.127816
-0.480144
-0.278255
-0.096667
-0.274943
-0.285465
-0.273885
-0.041487
-0.049278
0.096801
0.074094
-0.119660
-0.092763
-0.120792
-0.075285
-0.126250
0.079537
0.084531
-0.084728
-0.008439
-0.013994
-0.137685
0.195347
-0.364812
0.230200
-0.296113
0.098892
0.147408
-0.035283
0.130865
-0.015215
0.121463
0.056104
0.191361
-0.139025
0.094674
0.171704
-0.034928
0.193492
-0.024929
0.204837
0.058867
-0.167551
0.266670
0.080540
0.093117
0.149641
-0.096871
0.002757
-0.091696
0.008917
-0.455224
0.051298
0.052513
-0.161080
-0.223848
0.030608
0.029094
0.078821
-0.180180
-0.106483
0.027515
0.041403
0.508212
-0.019490
-0.162281
0.054704
-0.032257
0.214418
-0.151961
-0.284662
0.223567
0.172460
-0.186246
0.255899
0.043895
0.163772
-0.005673
0.207557
0.047616
-0.546144
-0.071679
-0.179739
-0.033677
-0.392473
0.169469
-0.550142
-0.065805
0.068321
-0.320660
0.183253
0.022373
-0.147333
-0.094647
-0.086313
-0.057252
-0.123094
-0.071180
-0.031346
0.307283
0.433570
0.188351
0.411330
-0.368683
-0.265508
-0.110802
-0.028399
0.066283
0.082048
0.153537
0.039432
-0.126176
-0.055334
-0.106956
-0.050717
-0.156091
0.047613
-0.331393
0.027217
0.109895
-0.072901
0.023240
-0.328400
0.033840
0.035851
-0.480342
-0.290230
-0.146804
0.082689
-0.048127
0.223858
-0.313877
0.091404
-0.075486
-0.217329
0.090361
-0.510059
0.029467
0.077706
0.138206
0.013880
0.175917
-0.058651
-0.307529
0.343981
0.078590
0.020105
0.036243
-0.073521
-0.188156
-0.146044
-0.095054
-0.011380
-0.237802
0.057796
0.141244
-0.210399
0.090602
-0.055907
-0.097818
-0.133865
0.182232
0.011187
0.440028
-0.197010
-0.089963
0.120899
-0.206930
0.019639
0.086514
-0.072802
0.091484
0.064341
-0.274405
0.005391
-0.135598
-0.337823
-0.057304
-0.399791
-0.360227
-0.121296
-0.084583
-0.253938
-0.001775
-0.060718
0.152674
-0.140947
-0.168064
0.140597
-0.119467
-0.304273
-0.034004
0.044501
0.149201
-0.152790
-0.050535
0.260845
-0.086997
-0.065482
-0.060406
0.398923
0.033132
-0.371367
-0.040136
0.061804
0.211319
0.054806
-0.037314
0.058945
-0.214158
0.166932
-0.365470
-0.116347
0.082255
0.072917
0.046621
0.273613
0.022332
-0.003877
-0.085801
0.142455
0.322235
0.041634
0.033332
0.336856
0.069415
0.053506
-0.061172
0.305553
0.058733
0.047732
-0.159491
-0.217619
-0.008756
0.053611
-0.002510
-0.003241
0.122964
-0.564260
0.186657
-0.058745
-0.252674
0.004497
0.070193
-0.161784
0.239516
-0.062596
0.062926
0.002009
-0.004654
-0.065610
0.200541
0.169947
-0.200129
-0.287948
-0.244406
0.005006
0.061811
-0.187743
0.052154
-0.097342
-0.386709
-0.244320
-0.156672
-0.020123
0.045207
-0.434300
0.190095
-0.022978
-0.093313
0.104799
-0.009755
-0.072214
0.011801
-0.124307
0.115681
-0.333539
0.070983
0.186684
0.078183
0.049129
-0.400901
0.252511
0.412235
-0.131276
-0.099810
0.357183
0.188799
-0.010449
-0.006133
0.022651
-0.053807
0.244033
0.034196
0.377488
-0.032199
-0.036613
0.010155
-0.026565
0.268256
0.281186
0.090981
0.200998
0.335336
0.052216
0.144592
-0.540762
0.024384
-0.214753
-0.248078
0.456675
0.108997
-0.128397
0.134832
-0.201067
0.011910
-0.470791
-0.007528
-0.341517
-0.005673
0.104582
0.083010
-0.002288
-0.042922
-0.133512
0.036236
-0.491367
0.040582
0.033263
-0.103848
-0.212941
0.063487
0.006754
-0.349306
-0.212081
-0.153874
-0.034290
0.047566
0.070270
-0.339635
0.079218
0.123938
-0.197038
0.140798
0.020127
-0.030150
-0.043697
-0.235626
-0.053230
-0.039852
-0.047997
-0.149352
0.092551
-0.044098
0.069666
0.129883
-0.026583
0.027140
0.113943
-0.072480
0.514952
-0.120305
-0.175407
-0.074910
0.286607
-0.095753
0.052607
-0.000867
0.050861
-0.149399
0.065831
-0.300519
0.005658
0.184079
-0.235898
0.266857
-0.014472
0.058424
0.207892
0.091959
-0.140350
-0.159459
0.059398
-0.034269
0.072611
0.171390
0.260442
0.004230
0.018395
-0.103216
0.082214
-0.065476
-0.060044
0.033599
-0.307099
0.156094
0.432625
-0.009844
-0.193393
-0.419260
-0.025264
-0.207085
-0.689213
-0.067879
0.090877
0.016099
0.113231
-0.181741
-0.060789
-0.009202
-0.088626
-0.120972
-0.262571
-0.168243
-0.035068
-0.156955
0.101984
-0.009623
-0.070451
0.012591
-0.172191
0.023566
0.037779
0.356820
0.073690
-0.109448
-0.060248
0.015148
-0.126292
-0.081397
0.061654
0.045484
-0.146977
0.111666
0.120534
0.049923
0.196300
-0.024217
-0.112241
0.043059
-0.079122
0.008591
0.030612
0.045208
-0.166027
-0.007683
-0.076628
-0.131598
0.028726
-0.163947
-0.056669
-0.248163
-0.041266
-0.053511
0.063999
0.011888
-0.102604
-0.085250
-0.022333
-0.130787
0.121612
-0.092068
-0.083593
-0.111338
-0.280599
0.094451
0.077629
-0.218748
0.033285
-0.086433
-0.037604
-0.061770
-0.080542
-0.297964
0.080364
-0.161457
-0.014496
-0.111317
0.086359
0.130274
0.222228
0.093528
-0.008498
0.046877
-0.027679
0.112737
0.109132
0.074483
0.074535
-0.004633
-0.025057
-0.049707
-0.212369
0.117870
0.015097
-0.176886
-0.015370
0.068786
0.061379
0.057937
0.024694
0.165870
0.006323
-0.010004
-0.010524
0.164996
0.037868
0.045899
0.045274
-0.069009
-0.101056
-0.106759
0.074301
-0.046992
-0.114898
-0.327863
-0.308716
0.043855
-0.000841
-0.177941
0.023046
0.278289
0.084524
-0.121118
-0.056805
0.044444
-0.136372
0.019114
-0.029187
-0.070631
-0.064127
-0.213971
-0.048117
-0.214397
0.072279
0.006711
-0.123868
-0.039736
-0.141320
0.092395
-0.092847
-0.080712
-0.109316
0.516974
-0.133610
-0.152417
0.021489
0.032010
0.048234
-0.145553
-0.290979
-0.150509
-0.009398
-0.191479
0.156128
-0.005999
-0.261850
-0.018637
-0.284343
0.081540
-0.075810
0.081819
0.256577
0.011733
0.044181
-0.294173
-0.095896
0.198211
0.020674
-0.145807
0.192673
-0.151308
0.311117
0.194745
-0.071363
0.150065
-0.032168
-0.056321
-0.028128
0.025419
0.053494
0.061565
0.273204
-0.090221
0.074896
-0.206570
0.038967
0.029147
0.063925
-0.040130
0.020273
0.075222
-0.040224
0.006372
-0.042789
-0.347546
-0.236138
0.053766
-0.263366
-0.259876
0.103916
0.206415
0.079562
-0.048744
-0.208713
-0.001874
-0.255385
0.139101
-0.004816
0.274070
0.068933
-0.087995
-0.145090
-0.122507
-0.083671
0.028596
-0.149021
-0.021098
0.237687
-0.015271
-0.033864
-0.378311
0.120745
-0.219101
-0.273583
0.011176
-0.251882
-0.212357
0.036050
-0.120225
-0.247034
0.040275
-0.088881
0.127816
-0.050950
-0.499605
-0.283817
-0.018629
-0.175583
-0.120807
-0.080465
-0.191995
0.203105
-0.158449
0.046082
-0.307354
-0.161616
-0.264235
0.003542
0.005763
0.049783
0.194874
0.076742
-0.069605
-0.164352
-0.137953
-0.177531
-0.086005
0.030840
-0.174804
0.039301
0.052298
0.040448
0.148869
0.228806
0.069158
-0.189278
-0.082977
0.103827
-0.142466
0.102324
0.166793
0.242585
0.398183
-0.424971
-0.056250
-0.015701
0.041783
0.055547
-0.007436
0.345811
0.004009
-0.081690
-0.044629
-0.043680
-0.053565
-0.076522
-0.053690
-0.109791
-0.212162
0.320143
-0.283834
-0.202347
0.059665
-0.174468
-0.010324
-0.125116
-0.033865
0.147227
-0.244820
-0.074172
-0.038125
0.042490
0.243243
0.403031
-0.075823
0.074426
-0.015945
-0.492366
0.302480
-0.004453
-0.056604
-0.091309
-0.048939
0.091276
0.375997
0.343580
0.252814
-0.167746
0.227540
0.037389
-0.302933
-0.030620
-0.041657
-0.055499
0.291815
0.199011
0.063113
-0.089347
0.238616
0.189711
0.425496
-0.038418
-0.009975
0.033550
-0.015250
-0.149252
0.081433
-0.131403
-0.043051
0.082667
-0.079868
-0.056534
-0.067924
0.053158
-0.374679
0.031604
0.007529
-0.033078
-0.057026
0.198381
0.311274
0.055391
-0.140149
-0.263723
0.170450
0.011948
-0.010632
0.128487
0.295167
-0.503154
-0.679520
-0.525585
-0.342383
0.095497
0.090247
-0.184888
-0.110240
-0.098827
0.027777
0.168730
-0.150917
0.286430
-0.143356
-0.073140
0.104696
0.115063
0.106707
0.015265
0.384028
0.346286
0.098739
0.256080
0.431330
0.356786
-0.017397
0.030509
0.057449
0.025437
0.020938
-0.015332
-0.079996
-0.116192
0.003093
0.061708
-0.001449
-0.010489
0.010426
-0.028373
-0.008280
-0.095542
0.080985
-0.102205
-0.084944
-0.047379
-0.055603
-0.101737
0.029533
0.090664
-0.082432
-0.072642
0.021702
0.007543
-0.116222
-0.016634
0.027092
0.024058
-0.074233
-0.051430
0.022488
-0.033761
0.001442
-0.073545
0.025657
-0.003540
0.027242
0.014696
-0.018508
-0.078391
-0.084418
-0.032239
-0.063848
0.016610
0.024249
-0.037024
-0.105282
-0.047050
0.062797
-0.053217
0.026483
0.034797
0.029449
-0.098109
0.048302
-0.079927
-0.020405
-0.031903
-0.085432
0.009627
-0.088383
-0.142239
-0.102338
-0.023138
0.062433
-0.080575
-0.077778
-0.039787
-0.085206
-0.008135
0.050263
0.079758
-0.078171
0.037282
-0.083853
-0.024680
-0.091487
0.043967
-0.077601
0.023276
-0.108261
-0.038450
0.003806
0.086657
-0.000449
0.065497
-0.074915
-0.046383
0.019730
-0.116316
0.043038
0.000594
-0.113305
-0.021860
-0.000511
-0.062208
-0.093169
0.034020
-0.061874
-0.061508
0.040454
-0.049553
0.003199
-0.100645
-0.089953
-0.042207
-0.033679
0.021233
0.049221
-0.101876
-0.000705
-0.008620
0.014747
-0.006584
0.043745
0.025970
-0.060699
0.340625
-0.052146
0.120996
0.193918
-0.187037
-0.147447
-0.022083
-0.021852
0.133268
-0.066704
0.175218
0.038960
-0.098251
-0.003226
-0.228572
-0.085700
-0.250802
0.052026
-0.195842
0.028607
-0.029477
-0.079602
-0.005653
-0.023182
0.250852
-0.020109
0.138863
-0.062027
-0.005563
0.066174
-0.410934
-0.091584
-0.055673
0.376822
-0.056223
-0.060519
-0.047642
-0.098711
0.100938
0.347578
-0.047804
-0.263195
-0.017465
-0.146579
-0.083551
0.237741
-0.012724
-0.001217
0.078989
0.005687
-0.003588
-0.265912
0.206486
0.254971
-0.037507
-0.311644
-0.098482
-0.076658
-0.210742
0.071489
0.094117
-0.013302
0.117410
0.110755
-0.563923
-0.190378
-0.003876
-0.285256
-0.208592
0.232010
-0.187533
-0.017491
-0.053695
0.008166
-0.047989
0.130854
-0.385937
0.106343
0.021680
-0.113063
-0.226370
0.114437
-0.002555
-0.217553
0.053993
-0.078260
-0.065493
-0.035204
0.176164
0.082832
-0.129693
0.075122
-0.050936
-0.059727
-0.292877
0.276694
0.163437
-0.088387
0.065015
-0.011125
0.075436
0.087242
0.058226
-0.041606
0.194937
0.206826
0.247236
-0.367243
0.094943
-0.140459
-0.255411
0.033558
0.141229
-0.315959
-0.093931
-0.030306
-0.107098
-0.130747
0.290797
0.011821
0.267058
-0.048255
0.363131
0.159654
0.073338
0.115140
0.093712
0.089324
0.034309
-0.069017
-0.133642
-0.091073
0.492389
-0.023998
-0.131620
0.084662
0.298225
0.058507
-0.214956
0.193716
0.174779
-0.222843
-0.027493
0.496832
0.085230
-0.090144
0.331859
-0.265854
0.130409
0.111679
-0.185355
0.061798
0.117705
0.107408
-0.270136
-0.047277
0.077952
0.093518
0.140314
0.038794
-0.043464
0.011284
-0.389640
0.070373
-0.040130
0.195100
0.198148
0.138995
0.000771
-0.120808
-0.329063
0.056162
0.078693
-0.202495
-0.194033
-0.099148
0.083213
0.078048
-0.165034
-0.109075
0.068386
0.109216
0.069875
0.537831
-0.109483
0.150064
-0.091748
-0.053346
-0.004415
0.080924
0.176207
0.063207
-0.201459
0.043820
0.102263
0.253847
0.107984
-0.029319
0.085989
-0.209728
0.136451
0.120859
-0.025626
0.407057
-0.103486
0.132976
0.077615
0.071764
0.113894
0.047586
-0.103247
0.068682
0.449688
-0.118946
0.104370
0.015474
-0.078355
-0.285831
-0.212277
0.162295
-0.577118
0.002970
-0.064471
-0.066431
0.190096
0.220372
-0.252057
0.010831
-0.034338
-0.026877
-0.034790
0.030395
0.349019
-0.096730
-0.094234
0.001080
-0.062397
-0.406269
0.104820
0.041504
-0.636251
0.071668
-0.245452
0.088412
0.207036
0.108438
0.184806
-0.295860
0.144287
0.011348
-0.272362
0.061142
0.092361
0.061277
-0.196902
-0.093059
0.263891
0.004289
-0.122679
0.165004
-0.051710
0.332106
0.024802
0.277544
-0.066132
0.315392
0.237609
-0.033381
0.265436
-0.056192
-0.086418
-0.018236
-0.279983
0.131487
-0.290877
-0.092654
0.101064
0.107036
-0.332183
-0.323847
-0.074031
-0.097336
-0.099667
0.146837
0.007128
0.209643
0.160922
0.154497
-0.085361
-0.166442
-0.464568
-0.139737
0.295033
0.085280
0.400524
0.426249
-0.004851
0.027466
-0.038930
-0.556691
-0.272315
-0.117632
0.050239
0.056564
0.193417
-0.077719
-0.216871
0.119681
0.176064
0.382224
0.087137
0.034249
0.349739
-0.072242
-0.037356
0.247798
0.101381
-0.071988
0.451984
0.390311
0.361588
-0.136630
0.051523
-0.015467
-0.207663
-0.071991
-0.016520
0.224699
0.265058
-0.061900
0.197047
-0.051741
-0.099905
-0.413308
0.437718
-0.003622
-0.207255
-0.235456
-0.240997
0.077789
-0.534097
-0.032657
-0.032548
0.055240
-0.260475
-0.024327
-0.108013
0.030969
-0.242595
-0.517670
0.189939
-0.014951
0.102428
-0.063837
-0.289747
-0.035418
-0.189583
-0.078814
0.002769
-0.422437
-0.065569
0.160541
0.048478
-0.000550
0.019883
-0.316132
0.018145
-0.005463
-0.343988
-0.021559
0.405248
0.004178
0.144174
-0.038554
0.130134
0.075200
-0.238869
-0.052611
0.032408
-0.006664
-0.170132
-0.149805
-0.099603
-0.485512
0.004093
-0.210686
-0.186768
-0.041207
-0.178667
-0.060233
0.082179
-0.036767
0.208886
-0.242471
0.340584
-0.606653
-0.221827
0.045231
-0.060978
0.212557
0.006583
0.204494
0.045230
0.120047
0.028513
0.070526
-0.117046
0.130607
-0.044966
0.436237
0.266361
-0.022515
0.031856
0.250612
-0.268256
-0.186024
0.197999
0.051505
0.063277
0.228230
0.284256
0.090604
0.010566
-0.161834
-0.215621
0.239993
0.153004
-0.049813
0.079056
0.057867
0.118783
0.051607
0.222662
-0.083825
-0.049824
-0.033533
-0.241993
0.139718
-0.191025
0.047055
-0.006969
-0.087159
-0.035206
-0.189601
0.181349
-0.008729
-0.028081
0.169664
-0.052743
0.150477
0.025480
-0.003235
0.213541
-0.070356
-0.280542
-0.058633
0.198739
0.347521
0.012669
0.055410
0.268130
-0.212198
-0.082907
-0.015906
0.199992
0.246016
0.132064
-0.009806
0.297658
0.196477
0.174989
0.083069
-0.073047
0.167851
0.586083
0.009447
0.087378
-0.182997
0.177493
0.088683
-0.087093
0.042251
0.047793
0.022867
0.244305
0.079444
0.023536
-0.367210
0.062956
0.037136
-0.004393
-0.077911
-0.432131
-0.084878
0.031804
-0.007359
-0.178019
0.061228
-0.240538
0.405892
0.113435
0.047872
0.047182
-0.193794
-0.149076
0.130991
-0.386547
-0.330566
-0.105991
0.260610
-0.285941
0.015866
0.037522
0.165943
0.534315
0.175631
-0.156756
-0.471298
-0.255834
0.304293
-0.093764
-0.168360
0.238420
-0.063865
0.082359
-0.355401
-0.124660
-0.042204
-0.079814
-0.291575
0.126091
-0.193057
-0.136504
0.201051
0.344849
0.033078
-0.267462
-0.088438
-0.232367
-0.282278
-0.300013
0.074394
-0.090608
0.049167
-0.190471
-0.110494
-0.035500
-0.073462
-0.294082
0.079642
-0.391391
0.052632
-0.012541
0.140525
0.092636
-0.090132
0.054889
-0.221848
-0.159988
-0.109329
0.015404
0.127013
0.042498
-0.228160
0.060832
-0.207880
-0.056942
0.046978
0.099639
0.024393
0.101596
0.065663
0.180737
-0.244851
0.150020
-0.004699
0.051200
0.293468
-0.045859
-0.167937
0.163659
0.099121
0.084786
-0.060338
-0.173397
-0.041684
0.059607
-0.042501
0.145056
-0.331162
-0.057189
0.020120
-0.334517
-0.387452
0.128656
-0.022572
-0.212392
0.401282
-0.401659
0.016762
-0.039130
0.018794
0.079344
0.004602
-0.070975
-0.043409
-0.036419
-0.109684
-0.019781
0.029594
0.002314
0.025155
-0.087339
0.078801
-0.138450
-0.071687
-0.091866
0.044172
0.013536
-0.057111
0.008586
-0.118288
0.059644
-0.129641
-0.096493
-0.134841
-0.002579
-0.109164
-0.026311
-0.078959
-0.096266
0.027966
-0.083087
0.019270
-0.126652
0.007021
-0.016613
-0.019504
-0.015064
-0.003849
0.016639
-0.029214
-0.074366
-0.058759
0.000098
0.017696
-0.026149
-0.124738
0.038310
-0.078079
0.035589
-0.087206
-0.058346
-0.026017
-0.051962
-0.019084
-0.009339
0.045673
-0.037868
0.058007
-0.114742
-0.031029
-0.045243
0.046115
-0.085302
-0.109019
0.000773
-0.131352
0.054195
-0.062385
-0.055591
-0.016968
-0.055689
-0.051737
-0.057526
-0.102078
0.032141
0.006876
-0.046858
0.011767
-0.048284
-0.069530
0.084124
-0.098855
-0.052302
-0.074567
-0.062277
-0.067782
-0.032012
0.004388
-0.051615
0.004403
-0.040196
0.000739
-0.034535
-0.003135
-0.044045
-0.030482
-0.070983
-0.053933
-0.058780
-0.050949
0.069547
0.080997
-0.108179
-0.100505
0.023833
-0.061115
0.026731
-0.010109
0.046353
0.053850
-0.064448
-0.051865
-0.079615
-0.020163
-0.158908
0.000393
0.038087
0.016697
-0.124428
0.203754
0.076929
0.153637
-0.096752
-0.113615
0.188531
0.478770
-0.211821
-0.051193
-0.208112
0.060872
-0.187409
-0.006917
0.313770
-0.066757
-0.030905
0.005900
0.122815
-0.118937
-0.073572
-0.243362
-0.073615
0.046390
0.062650
-0.068541
0.006909
0.256038
0.075216
0.135027
0.078027
0.049743
0.103633
-0.428352
-0.009857
0.207867
0.124871
0.248417
0.437643
-0.064625
-0.036923
0.034278
-0.481073
0.170185
-0.049451
0.154836
-0.060992
-0.108123
0.020907
0.256251
0.172614
0.305213
-0.376137
0.069161
-0.155847
-0.363402
-0.007973
0.051306
0.287221
0.245207
0.161913
0.211311
-0.019932
0.076692
0.112251
0.260023
0.068819
0.290555
-0.135349
0.052082
0.045477
0.031870
-0.147206
-0.018849
-0.006295
-0.127592
-0.111272
0.271443
0.065854
-0.146173
-0.144479
-0.058371
0.016815
-0.132246
0.231514
-0.026146
-0.096488
-0.058850
-0.139812
-0.017819
-0.337680
-0.031548
-0.156377
-0.015654
-0.247615
-0.199514
-0.277911
-0.023525
-0.224224
0.257617
-0.143230
-0.179619
0.034075
-0.075307
0.230583
-0.275519
0.170522
-0.031095
-0.072785
0.082101
-0.111947
-0.047524
0.007732
0.424559
0.425536
0.085544
0.294113
0.002082
0.240771
-0.183993
0.006106
-0.022796
-0.012865
-0.089551
0.013236
0.067156
-0.032413
-0.161658
-0.058532
0.071722
-0.083479
0.026208
0.044741
0.008970
-0.033222
0.021729
0.035021
-0.018881
-0.069988
-0.116416
-0.020136
-0.120206
0.085019
0.017757
-0.148575
0.047166
-0.031096
-0.034882
-0.092560
0.002416
-0.013656
0.084013
-0.111349
0.027006
0.039047
0.045634
-0.006329
-0.031745
-0.084852
-0.001335
-0.040986
-0.024574
0.105082
-0.114840
0.009262
-0.154661
-0.052168
-0.044881
0.014256
-0.102460
-0.057608
0.035967
0.003543
-0.060441
0.073239
0.020508
-0.079838
-0.083231
0.019285
0.035777
-0.066473
0.087968
-0.019798
0.011624
-0.044136
-0.071098
-0.049557
-0.044989
0.003984
-0.117583
-0.020392
-0.085195
-0.024068
-0.017858
0.077200
-0.069151
-0.000639
0.023676
-0.067272
-0.068914
-0.064864
-0.034428
-0.044304
-0.079606
-0.033566
-0.034498
0.047975
0.035770
-0.031068
-0.117547
-0.031088
-0.061843
-0.059230
-0.042125
0.047878
-0.011055
-0.084772
-0.084780
-0.122670
0.039770
-0.101304
-0.090154
0.037633
0.047202
-0.108430
-0.081596
-0.212579
-0.066844
0.003943
0.015179
-0.119538
0.002815
-0.118812
0.008020
-0.036926
-0.035643
-0.062198
-0.076188
-0.108820
-0.056275
-0.422964
0.295664
-0.114922
-0.381264
0.011456
-0.012019
0.234320
-0.024053
-0.026111
0.023766
-0.082570
-0.085323
0.079662
0.105028
-0.179871
0.050958
0.259827
0.102207
0.292913
-0.030914
-0.239929
-0.065163
-0.018783
-0.002695
-0.216581
0.210414
0.069601
0.080944
-0.278013
-0.035263
0.392359
-0.090911
-0.112481
-0.132209
0.035080
0.276621
-0.217966
-0.157593
-0.088060
-0.008633
0.037492
0.118038
-0.084309
0.215799
-0.078846
-0.090725
0.048597
-0.378895
-0.003349
-0.288628
-0.093659
0.320444
0.257653
-0.531571
0.069562
-0.105347
-0.081668
-0.062487
-0.030513
0.297281
0.195240
0.120315
-0.071825
0.216304
0.138850
-0.195093
0.051051
-0.037732
-0.011969
0.114981
-0.113374
0.010654
-0.328581
0.050753
0.140044
0.164198
0.126619
0.268207
-0.009561
0.348823
0.236067
0.075693
0.110260
-0.138067
0.087698
0.227838
-0.034872
-0.149657
-0.093596
-0.116271
-0.041293
0.078039
-0.045137
0.011579
-0.050652
-0.243949
-0.275813
-0.021788
-0.224480
0.002206
0.085829
-0.035875
0.002126
0.085537
-0.208960
0.065517
0.070086
-0.157631
0.328937
-0.171951
-0.309580
-0.016931
-0.223584
0.223855
0.231245
-0.053753
0.099532
-0.336936
0.231125
0.095541
-0.339881
0.237467
-0.164421
-0.126135
0.089909
0.126818
0.074296
-0.156860
0.079811
-0.063787
0.209679
0.084680
0.271809
-0.017121
0.166242
-0.028700
-0.141788
0.022980
0.159859
-0.153368
-0.102458
-0.337104
0.065021
0.218299
-0.225430
0.242173
0.121813
0.048208
0.059202
0.130098
0.286210
-0.029962
-0.080304
-0.506757
-0.343870
0.012231
-0.240583
0.052611
0.016696
-0.335462
-0.082800
-0.080613
-0.149671
-0.073322
-0.005029
-0.484519
0.091484
-0.534837
-0.017263
-0.067046
-0.148337
0.089559
0.153729
-0.638898
0.200033
0.071080
0.065720
0.023384
0.454902
0.146043
0.022505
0.065142
0.016090
0.090887
0.192047
-0.263809
0.116435
0.290491
-0.153497
0.159181
0.126759
0.062817
0.110443
-0.125835
0.118697
-0.046777
0.309726
0.095836
-0.500224
0.264654
0.138294
0.165670
-0.048524
0.138795
-0.154374
0.038460
0.057132
-0.509442
-0.399625
0.100267
0.022946
0.055484
0.049261
-0.027364
-0.301606
0.147180
-0.455219
-0.138893
0.171913
-0.201777
0.169660
-0.019186
-0.036381
0.025401
-0.123448
-0.215649
-0.261113
0.042570
0.064066
0.165461
-0.645454
-0.065233
-0.348524
0.226067
0.184265
-0.026349
0.169044
-0.125110
0.059468
-0.086820
-0.164008
-0.027469
0.178890
0.184901
0.413368
0.084205
0.158057
0.121461
0.075840
-0.027980
-0.049145
0.064077
-0.074754
0.055127
-0.059868
-0.011452
0.008242
0.059799
-0.105508
-0.036285
-0.021255
-0.203951
0.092298
-0.100682
-0.051960
-0.273481
0.040947
-0.316476
-0.075866
-0.068566
0.070209
-0.026346
-0.296768
0.407675
0.299227
0.219949
0.009833
-0.170187
0.271087
0.205223
0.070574
0.153564
-0.141735
-0.056227
-0.009331
-0.146294
0.041567
-0.084763
-0.103575
-0.234052
0.079544
0.194200
-0.010725
-0.023747
0.043452
-0.001135
-0.253699
0.005181
-0.067584
0.051721
0.038861
-0.027197
-0.010332
0.135286
-0.043945
-0.003670
-0.019947
-0.030245
-0.189988
0.042290
-0.526744
0.116491
0.210893
0.108383
0.114350
0.160160
0.062265
-0.344791
0.221353
-0.143975
-0.263539
0.180885
-0.004864
0.140057
0.156607
0.202373
-0.028979
-0.358239
0.134883
0.054082
-0.208692
-0.013886
-0.136392
0.253296
-0.280747
-0.185076
-0.370195
-0.310890
0.036860
0.242392
-0.199285
0.077007
0.055858
0.073717
-0.100046
-0.010101
0.100746
-0.217045
0.019030
-0.244836
-0.397321
0.108290
0.054879
-0.127229
-0.328576
-0.041620
0.077760
0.085762
-0.073241
-0.130570
-0.288005
0.163215
-0.114825
0.006963
0.363535
-0.088189
-0.061606
0.161712
-0.577608
-0.073337
-0.428501
0.069672
-0.125761
0.114413
-0.121893
-0.052002
0.227179
-0.037245
-0.054106
-0.413348
-0.454341
0.249162
-0.043889
0.002725
-0.023881
0.036250
0.106994
0.042443
0.190292
-0.099272
0.192696
-0.038779
0.149489
-0.516327
-0.132436
0.058389
0.104188
0.053214
-0.050457
-0.121893
-0.019550
-0.125730
0.079258
0.047712
-0.071558
-0.061756
-0.129435
0.030551
0.064341
0.096403
-0.084157
0.174939
0.285541
-0.165621
0.170529
0.121317
-0.350178
-0.016560
0.030901
0.058953
0.122984
0.070212
0.046425
-0.327168
0.121948
-0.178456
0.139285
0.272905
0.080008
0.258124
0.022652
0.012988
0.242666
-0.001760
0.045896
0.123181
0.176700
0.063584
0.197584
0.495189
0.466197
-0.103870
0.054077
-0.027713
0.025142
0.174707
0.020087
0.130419
-0.033679
-0.027927
0.275213
0.059530
-0.366000
-0.261067
0.351652
-0.212624
-0.359245
-0.093870
0.007775
0.050224
0.065566
-0.237097
0.067082
-0.056172
-0.041106
-0.034808
-0.031794
-0.145867
0.071399
-0.247278
0.281467
-0.086062
-0.011169
-0.122517
-0.049970
-0.090448
0.199844
-0.438169
0.093129
0.153985
-0.152384
0.216230
-0.312876
0.205843
0.574976
0.017319
-0.188181
0.086809
-0.126811
-0.052591
-0.249311
-0.052518
-0.073102
0.063166
0.113673
-0.072671
-0.065130
0.004946
-0.224047
0.331269
0.282725
0.301345
0.066499
0.058373
-0.204034
0.049230
0.013054
0.141744
0.254959
0.029787
-0.000151
0.037524
0.127005
-0.140423
-0.197295
0.235192
-0.033441
0.139553
-0.064650
-0.029737
-0.021866
0.122451
-0.128698
0.069839
0.054520
-0.024511
-0.315277
0.101631
0.010054
-0.125880
-0.474584
0.073360
-0.271984
0.104996
0.006447
0.354731
0.069707
0.093669
0.128563
-0.547217
0.119779
-0.101539
-0.123736
0.391898
0.204309
0.091362
0.105584
0.093484
-0.098338
-0.222520
-0.010950
-0.016182
-0.137249
0.005944
0.003904
0.108472
-0.049500
0.181387
-0.077431
-0.205385
0.031008
0.029820
0.003244
-0.096230
-0.035258
-0.289040
0.050430
-0.086940
0.089485
0.110402
0.352891
-0.057158
-0.142796
-0.261309
0.217641
0.059112
-0.374020
-0.526259
0.152797
-0.180463
-0.417923
-0.036894
-0.011654
-0.009923
-0.045566
-0.661861
0.133591
0.022988
0.149626
-0.013253
0.218896
-0.078434
0.097158
0.018921
0.193020
0.021394
-0.220571
0.066287
-0.225187
-0.053221
-0.434332
0.014451
0.117818
-0.212706
0.371607
-0.143065
0.097886
0.076371
-0.318598
-0.050434
-0.182975
-0.068053
-0.537248
-0.006327
0.345462
-0.038384
0.184822
-0.004890
0.096542
-0.042068
-0.128534
0.222446
0.007555
0.053859
0.030877
-0.003452
0.054692
0.155803
0.065686
0.115975
0.063087
0.059518
-0.163243
-0.218643
-0.506016
0.172133
0.048133
0.159723
0.012918
-0.135124
0.021666
-0.154848
-0.217563
0.148812
0.001885
-0.160596
0.088962
-0.498627
-0.008603
-0.344477
0.042518
0.022029
-0.097055
0.054283
0.106104
-0.086645
-0.492909
0.055893
0.212070
-0.139340
-0.013848
0.164685
-0.086706
-0.428110
0.230604
-0.063410
0.117693
0.039419
0.042398
0.372693
-0.045038
-0.078586
-0.020737
0.069749
0.068097
0.033829
0.134347
0.097442
0.014032
0.251305
0.141975
-0.113629
-0.038892
-0.006480
-0.039553
0.036238
-0.035065
-0.223098
-0.131761
0.292452
0.244148
-0.004670
-0.622257
-0.058843
-0.152731
0.000885
0.067541
-0.170180
-0.082995
-0.138394
-0.163249
0.094944
-0.061546
0.063953
-0.110498
0.109938
0.149814
-0.013911
-0.183995
-0.329585
0.002845
0.040977
-0.198591
0.042748
-0.082971
0.042557
0.136105
0.274746
-0.199829
0.270532
0.135308
-0.378392
0.007884
-0.074284
0.361470
0.424634
0.014309
-0.286628
0.383636
-0.031392
-0.166898
-0.052952
0.099559
-0.037506
-0.111589
0.035079
0.085796
0.073217
-0.380937
0.151693
0.209172
-0.362309
0.063833
0.017329
0.044701
0.267730
0.032958
-0.115986
0.144207
0.000769
0.134496
0.083588
0.041581
0.284659
-0.560474
-0.192627
-0.073543
-0.070613
-0.157571
-0.048166
0.080401
-0.016441
0.348043
-0.205560
-0.095183
-0.183664
0.142838
0.225089
-0.027647
0.087128
-0.301449
0.000807
-0.087200
-0.133099
0.539225
0.189499
0.050048
-0.031621
0.086253
0.247573
0.049371
-0.152119
0.087244
0.071136
0.221643
0.111625
-0.599478
-0.003583
-0.461085
-0.079249
0.016327
-0.032480
0.046261
-0.018323
0.042028
0.017388
0.065571
0.055620
-0.330348
-0.779922
-0.182823
0.241550
-0.011507
0.211294
-0.138625
-0.124182
0.040965
0.060111
-0.046915
-0.069345
0.319087
0.061147
0.032376
-0.114524
0.080741
-0.082755
0.001672
-0.407126
0.345132
-0.249054
-0.345497
-0.207446
-0.034847
-0.033843
-0.803453
-0.240133
-0.421954
0.192285
-0.141000
-0.053029
0.116248
-0.025310
0.022216
-0.084418
0.192456
-0.034099
-0.191562
0.399023
0.339170
0.192856
-0.215440
0.030355
-0.266014
-0.020088
0.394229
0.007894
-0.049925
0.086303
-0.286908
-0.044688
-0.080970
-0.050793
-0.513988
-0.028631
0.003818
0.001887
0.134121
-0.039970
-0.127572
-0.042614
-0.084859
0.268896
0.000731
0.085995
-0.172610
-0.080517
-0.101363
-0.216702
0.051118
0.160626
0.223597
0.022181
0.066470
0.127180
-0.083839
0.314225
-0.142289
0.188269
0.247006
-0.477439
0.075997
-0.241075
0.045700
0.122975
-0.076822
0.200850
0.247395
-0.038966
0.016607
-0.338600
-0.134882
0.244580
-0.037385
-0.091548
-0.037472
0.243708
-0.093340
-0.043685
-0.293446
0.172970
0.216786
-0.062672
0.008449
-0.056192
-0.026440
-0.086065
0.202844
-0.106972
0.230068
-0.120509
-0.323173
0.084233
0.062225
0.157890
0.032931
-0.495524
-0.101650
0.026272
0.106230
-0.091673
-0.239301
0.046312
0.028278
-0.047723
-0.254452
-0.090742
0.077498
-0.346956
0.233677
-0.057305
0.167002
-0.009306
0.089554
0.145742
-0.302573
-0.863808
0.321675
-0.139760
0.090385
-0.438154
-0.000121
0.252715
0.006272
0.046197
0.277945
0.044093
-0.121374
-0.159756
-0.077465
0.155879
0.049225
0.025408
0.009077
0.268689
0.067397
-0.026450
0.016182
0.105174
0.100594
-0.096241
-0.156761
-0.257791
-0.049392
-0.224373
-0.143075
-0.237921
0.158751
0.157032
0.414354
0.034043
0.225237
-0.056116
0.135295
0.023303
-0.195188
0.024256
-0.194306
0.048668
-0.117416
-0.099504
-0.109594
0.015595
0.073036
-0.020524
0.259081
0.174868
0.076726
0.000926
-0.113721
-0.002042
-0.009061
0.037182
-0.190858
0.331352
0.341179
-0.173422
0.035348
0.084854
0.145839
-0.289247
-0.021594
0.061990
-0.030427
0.155585
-0.058504
0.247875
-0.143859
0.084436
-0.010611
0.326570
-0.030343
-0.175460
-0.217591
0.060295
0.284025
-0.111417
0.263762
0.060729
-0.214426
0.050495
0.011031
-0.099597
-0.086473
-0.204914
-0.033867
0.175376
-0.060573
-0.145265
0.212291
-0.026926
-0.205852
-0.078032
0.069075
0.103806
-0.067976
-0.303514
-0.373481
-0.123591
-0.024502
-0.009876
0.203043
-0.063701
0.082847
-0.436326
0.102031
-0.118186
-0.047319
0.383876
0.250084
-0.168099
0.016453
-0.062056
0.010554
-0.207057
-0.194477
-0.079658
0.100404
0.180623
-0.102730
-0.185789
-0.194411
-0.290152
0.092606
-0.082712
0.134106
-0.058229
-0.079589
-0.177010
0.016884
0.369533
0.197593
0.077596
0.218125
-0.048032
0.017707
0.050345
0.068817
0.443316
0.460796
0.009515
-0.453619
0.193112
-0.264788
0.403594
-0.242802
-0.257070
-0.055362
0.019398
-0.229103
-0.075813
-0.116823
-0.133641
-0.154903
-0.013589
-0.137102
-0.014501
-0.015244
-0.037361
0.082357
-0.151312
-0.007300
0.289192
0.018610
0.109572
0.030759
-0.008722
0.213334
0.282926
0.199566
0.043569
0.093028
0.066268
-0.142421
-0.031411
-0.091364
0.001123
0.372017
0.143944
0.081205
-0.591794
0.033532
0.269984
-0.014484
0.003330
-0.093107
0.344672
-0.146781
-0.120305
0.038709
0.096278
-0.385993
-0.002355
-0.237608
-0.298867
-0.292146
0.184386
0.191171
0.011287
-0.090608
-0.066911
0.170084
0.142769
0.088008
0.034793
-0.401282
0.053738
0.106651
0.073958
0.188293
-0.133480
0.018386
-0.045956
0.154816
0.096775
0.159973
0.059795
0.041795
0.131191
0.001127
0.207291
-0.074346
0.002305
-0.068981
-0.026290
0.012358
-0.294804
0.031088
-0.037381
0.224793
-0.394353
0.065144
-0.053063
-0.283749
-0.007838
0.067329
-0.506399
0.538224
-0.253117
-0.300586
-0.134154
-0.387555
-0.003101
0.040021
0.040091
0.221108
0.292395
0.370492
0.371327
0.078705
-0.022914
0.088285
0.034178
0.065236
-0.002096
-0.169334
0.018389
-0.028431
-0.153820
0.006315
-0.057046
0.058048
0.053083
-0.053938
0.015945
0.391901
0.192203
0.151549
0.234652
-0.065090
-0.069400
0.029873
0.095183
0.043409
0.008152
-0.146896
0.056466
0.011743
0.043128
0.142150
0.291327
0.355666
-0.167791
0.011758
0.128373
-0.010830
0.111582
0.111795
-0.036228
0.303432
0.039440
0.135975
-0.062033
0.013802
0.084318
-0.339215
0.178958
0.254921
0.233733
0.078165
0.369406
-0.007072
0.203894
-0.147443
-0.127050
-0.096849
0.050310
-0.337296
0.163046
-0.028152
0.100500
-0.111194
-0.045157
-0.224276
-0.304495
-0.167708
0.045295
0.225908
-0.010868
0.279400
-0.025976
0.062056
-0.131763
0.086089
0.047844
0.019160
-0.033417
-0.484490
-0.044379
-0.167319
-0.184548
0.105140
0.007357
0.123714
-0.016059
0.027873
0.273621
0.162269
0.214324
-0.011603
-0.483827
-0.218479
0.023260
0.105105
-0.205751
-0.027387
-0.281797
-0.084047
0.008259
-0.065957
-0.081488
-0.131686
-0.093576
-0.405445
-0.430558
0.346457
0.048544
-0.541525
-0.464219
-0.064063
0.019287
-0.434674
0.201007
-0.011202
0.085079
-0.144252
-0.695235
-0.029641
0.177915
-0.139052
0.055493
-0.030851
-0.015517
-0.036353
0.118687
-0.091990
0.095089
-0.007648
0.396277
-0.315925
-0.216230
-0.003767
0.193199
-0.021791
0.169764
0.135707
-0.255497
-0.312963
-0.110622
0.154956
-0.077342
0.088087
0.059978
-0.281886
-0.100560
0.141213
0.059943
0.009167
0.082962
-0.617614
0.061521
0.245429
-0.235918
0.020510
-0.332319
-0.165003
-0.093821
-0.098885
0.191278
-0.837662
0.093513
0.038374
0.032908
0.148615
-0.139162
0.076918
-0.306473
-0.468531
-0.617702
-0.308023
0.011159
0.058565
-0.243752
0.045686
-0.121793
0.047821
-0.372921
0.060044
-0.053597
-0.004252
-0.217355
0.083446
-0.002429
0.292739
-0.047638
-0.009632
0.436047
-0.102135
0.046320
-0.530415
-0.159118
-0.173437
0.088959
0.004459
-0.147919
-0.388479
0.053513
-0.179770
-0.131121
-0.146974
-0.303426
-0.239030
-0.090030
-0.028293
0.062663
-0.045521
0.369195
-0.218830
-0.003275
-0.569233
0.166852
0.298746
0.017975
-0.062673
-0.377432
-0.390086
-0.183323
0.103283
0.061975
-0.068641
-0.087568
0.263951
0.035784
-0.303054
0.158230
-0.283340
0.299504
0.227327
-0.415022
0.384114
-0.018260
-0.122797
0.111637
0.054541
-0.066313
-0.229128
0.162829
0.178228
-0.090879
-0.016703
-0.242091
-0.129411
0.062537
-0.290742
0.254622
0.088762
-0.025874
-0.468306
0.460143
-0.156810
-0.095606
-0.334660
-0.043059
-0.123769
-0.048004
-0.078203
-0.400754
-0.123678
-0.340720
-0.075913
-0.087696
0.116291
0.009240
-0.047018
0.051718
0.084435
-0.044286
0.094311
0.023014
-0.026842
-0.091937
-0.143590
0.032768
0.012024
0.117955
-0.357139
-0.056611
-0.102190
0.100542
0.019627
0.068827
0.095336
-0.053538
-0.248325
0.005086
-0.286698
0.001280
-0.142352
-0.112078
-0.197781
-0.158389
-0.087529
-0.266283
-0.091870
-0.051008
0.050604
-0.312597
-0.156087
-0.191598
-0.011857
-0.158127
-0.044503
-0.091377
-0.469138
0.008499
0.105952
0.126671
-0.414607
-0.090218
0.278950
-0.179979
0.054822
0.012090
-0.012875
0.095756
0.054340
-0.314004
0.048559
-0.030191
-0.061895
0.139069
0.148633
0.062657
0.380066
0.063517
0.044045
0.227547
0.164314
0.119860
-0.078858
0.220822
0.184095
-0.222613
-0.067002
-0.190445
0.077176
-0.149702
-0.001598
-0.142445
0.012365
0.236062
0.030426
-0.035242
-0.088020
-0.027394
-0.073449
0.023126
-0.328431
0.228082
-0.283958
-0.017243
-0.261095
0.004739
0.028254
0.042244
0.078547
-0.135763
0.119851
-0.080146
-0.066269
-0.316228
0.061918
-0.066907
-0.171599
0.045589
-0.001913
0.012714
-0.114182
-0.086592
-0.214515
0.006244
0.153042
0.042907
-0.045724
0.022504
-0.091898
0.123794
-0.093008
-0.105604
0.180529
-0.010333
0.075477
-0.032796
0.044446
0.026576
0.043829
-0.011713
0.038294
0.088727
-0.002981
-0.080985
-0.263636
-0.154571
0.094843
-0.661605
0.094318
-0.276408
-0.225959
-0.178005
-0.239417
0.047230
-0.068902
-0.096486
0.224883
-0.027404
0.319544
-0.352011
-0.231629
-0.136533
-0.427638
0.231964
0.039979
0.094761
0.443989
-0.057322
-0.013095
0.098037
-0.143258
0.286858
-0.072576
0.198992
0.203265
-0.613719
0.243176
0.212707
-0.145552
0.060503
-0.140410
-0.036385
0.023858
-0.592115
-0.198556
-0.038390
0.066608
-0.719713
-0.334176
-0.107103
-0.123248
0.034061
-0.017998
-0.001758
-0.309869
-0.102652
0.420618
0.009328
0.148973
0.074895
-0.129660
-0.180627
0.041694
0.259786
0.143395
0.065040
-0.002094
0.000541
0.146916
0.077196
0.109261
0.150079
0.043029
0.162831
0.102062
0.029442
-0.042302
-0.093026
-0.358705
0.176290
0.200277
0.517732
0.168316
0.064592
0.419325
-0.063161
0.055660
-0.091275
0.007477
0.054780
0.090556
-0.215692
-0.212595
-0.029665
0.101117
-0.071018
-0.190956
-0.167035
-0.117426
0.070037
-0.260789
0.124735
0.173364
-0.083316
-0.171490
0.191878
-0.135569
0.077925
0.490862
0.076394
-0.055862
-0.168315
0.065655
-0.088722
-0.275187
0.040509
0.133625
-0.030388
-0.116491
-0.058137
-0.046526
-0.017650
-0.182650
-0.152225
0.059969
-0.167559
0.041693
-0.011196
-0.021549
0.251037
-0.130532
-0.401910
-0.181541
0.092925
-0.096905
0.032898
0.069342
-0.213975
0.005646
0.029515
-0.359043
-0.080219
-0.011494
0.096544
0.074731
0.063911
0.177340
-0.098868
-0.080961
-0.364116
0.080277
0.063229
0.001933
-0.265689
-0.377413
0.037562
-0.351915
-0.106552
0.121015
-0.366591
-0.161059
-0.042910
-0.028516
0.292366
0.045072
0.100742
-0.058684
0.091461
0.102005
-0.177272
-0.015460
-0.167260
-0.191600
-0.550649
-0.052687
0.018991
-0.559264
0.065887
0.044034
0.036370
-0.018204
0.118759
-0.373386
-0.083027
-0.015452
0.029677
0.079567
0.186485
-0.345577
0.065188
0.071493
-0.231126
-0.267607
-0.087789
-0.069888
-0.078053
-0.248137
0.235682
0.154852
0.252036
-0.404816
0.230372
-0.085266
0.052250
0.166176
-0.380488
-0.018086
0.011768
-0.075733
-0.424223
-0.260289
-0.032446
-0.071096
-0.020087
-0.451500
0.024651
-0.132187
0.033946
0.277363
0.001383
-0.051421
0.151862
0.051723
0.036540
0.347300
-0.180495
0.320958
0.288071
-0.502139
0.094746
0.115751
0.023739
-0.382886
0.052452
-0.157055
-0.029162
-0.120684
0.031019
-0.372992
0.081222
0.209064
-0.074952
-0.029029
-0.277988
0.072029
0.074809
-0.017926
0.009740
-0.065500
-0.104396
0.223252
-0.056744
0.055301
-0.075170
-0.092480
-0.010191
0.016409
-0.124698
0.497300
-0.130784
-0.002509
-0.040700
0.095337
0.258530
-0.007726
-0.019279
0.000877
0.082165
-0.003477
0.050838
0.002752
0.100502
-0.042058
0.107515
-0.048542
-0.081776
-0.004160
0.017875
-0.198646
-0.713942
0.051714
0.020456
-0.402566
-0.038303
-0.246603
-0.043908
0.112431
0.097479
-0.601870
-0.162442
-0.012328
0.171036
0.075955
-0.168542
-0.150895
0.014350
-0.042037
-0.055740
0.061876
-0.000707
-0.036561
-0.101544
0.044047
-0.375370
-0.149690
0.140371
-0.119217
0.135084
0.144809
-0.102118
-0.055475
-0.050127
-0.124089
-0.250178
-0.167175
0.034435
0.123038
-0.151954
-0.061578
0.021833
0.046816
0.095841
0.197862
0.220571
0.168183
0.150820
0.010543
-0.006550
0.087105
0.024407
0.130644
0.103545
-0.272236
0.078242
-0.113952
-0.090023
0.190005
-0.026026
-0.133012
0.007147
-0.101313
0.228590
0.072139
-0.297340
-0.075573
-0.172473
-0.154876
-0.075602
-0.228500
0.017535
0.180019
-0.017468
-0.265016
-0.062163
-0.129235
0.007020
0.060535
0.005748
-0.223257
0.044281
-0.038917
-0.046532
0.100887
-0.491150
-0.432872
0.152918
0.009324
-0.381680
0.019699
0.107328
-0.178299
-0.000803
0.307808
-0.062325
0.069167
-0.109564
0.070643
0.086661
0.048115
-0.122656
0.144242
-0.007911
0.119237
-0.375808
-0.003020
0.408511
-0.078592
0.050180
0.052551
0.422016
-0.052574
0.069842
0.015524
0.260203
-0.121596
-0.137221
0.132559
0.112761
0.340549
0.133961
0.297762
-0.061082
-0.286782
-0.166644
-0.013336
0.028648
0.081467
-0.478590
0.114015
0.128599
-0.005752
0.145414
0.391097
-0.009890
-0.059308
-0.125915
0.335091
0.040640
0.041507
-0.000312
0.106460
0.109669
0.186569
0.273016
0.373409
-0.429198
-0.074240
-0.061084
-0.039315
0.055778
-0.064677
0.373965
0.265913
-0.788137
-0.059450
-0.072272
-0.192122
-0.253627
0.514143
-0.252503
0.206994
-0.101152
0.134270
0.003505
-0.455385
-0.424004
0.029789
0.010978
0.269248
-0.042963
-0.216302
0.021334
-0.233259
0.275469
0.314962
-0.026958
-0.055806
0.208712
-0.216103
0.016361
0.127572
-0.064901
0.126217
0.051643
0.060341
-0.225328
0.176281
0.011109
-0.124812
-0.067514
-0.019755
0.135067
-0.113542
0.050480
-0.099584
-0.087653
0.064601
-0.120196
0.224651
-0.074651
-0.222099
-0.066224
-0.043284
-0.215127
0.127198
-0.122770
0.057795
0.013818
-0.219644
0.125825
0.021226
0.000774
0.087134
0.077733
0.250614
0.074025
0.255070
-0.377381
0.075187
0.154204
0.151075
-0.104877
0.261954
-0.019503
-0.040845
-0.035258
0.036134
0.035552
0.070240
-0.163377
-0.053106
0.117958
0.026805
0.225353
0.014874
0.453794
-0.009170
-0.210909
-0.143893
-0.198581
0.077615
-0.100118
0.231269
0.354889
0.073949
0.081936
-0.087297
0.013980
-0.010479
-0.003723
-0.209271
0.207991
-0.093007
-0.746745
0.077216
-0.026259
-0.419553
0.150604
-0.042184
-0.138947
0.090868
0.155929
0.103671
-0.128283
-0.367598
-0.006675
-0.042407
0.156340
0.049451
0.339377
0.138756
-0.023420
-0.271068
-0.004810
-0.045394
-0.043880
0.258178
0.015415
-0.034823
-0.233500
0.117540
-0.452481
0.034417
-0.032698
0.183205
0.149958
0.049012
0.041888
-0.295309
-0.206435
-0.062340
-0.140042
0.045950
0.028507
-0.172029
0.073139
0.089274
0.027532
-0.017016
0.045764
-0.087862
-0.321234
0.269573
-0.059877
0.286440
-0.427538
-0.143325
-0.214990
0.463622
-0.089920
-0.021301
0.202317
0.184473
-0.028656
0.002089
-0.030399
-0.080062
0.094918
0.045718
0.040699
-0.101759
-0.026732
-0.043178
-0.165844
0.055007
0.139192
0.015453
-0.234548
0.063981
0.050747
-0.001538
0.074956
-0.169197
0.015110
0.031148
0.006446
0.087293
0.254187
-0.146192
0.114973
0.010569
-0.164173
-0.115013
0.166242
0.052621
-0.059648
0.441425
-0.103396
0.007596
-0.266386
0.653368
-0.153881
0.073590
-0.186355
0.177805
0.164474
-0.223842
-0.024737
0.319931
0.258906
0.075266
0.013675
0.157253
-0.112940
0.177903
-0.028988
0.003654
0.262693
0.179990
-0.233086
-0.250314
0.035970
0.249899
0.203969
-0.170815
0.015581
0.137246
-0.026728
0.047391
-0.349624
0.078794
0.251879
-0.598923
-0.199364
-0.805286
0.175658
-0.061249
0.257929
0.062324
-0.183639
0.088619
0.127820
0.219763
0.217818
-0.079309
0.006922
0.353661
-0.172034
-0.062961
-0.171539
0.045583
-0.189464
0.258510
-0.038063
0.300732
0.054433
-0.055938
-0.017717
-0.254946
-0.211286
-0.103237
-0.279361
0.081230
0.312247
-0.021505
0.061327
0.023321
-0.104975
-0.004603
0.041289
0.000537
0.651983
0.043986
0.232655
-0.010218
0.183634
-0.261697
0.199572
0.015128
0.331343
0.046370
-0.277169
-0.045980
0.097176
-0.365519
0.042081
0.002178
0.095410
0.011751
0.042112
0.108469
0.073794
0.006576
-0.069021
-0.192954
0.206154
0.044286
0.195094
-0.287999
0.335797
0.047352
-0.194511
0.306117
0.180015
0.062542
0.018231
-0.526977
-0.019773
-0.126336
-0.238745
0.204007
0.040083
-0.363546
-0.388068
-0.056192
0.137367
0.050957
-0.138243
0.018476
0.193115
0.149408
0.001657
-0.088899
-0.223549
-0.366938
-0.034265
0.154029
-0.296169
0.127015
0.393160
0.083073
-0.002134
0.023884
-0.111026
0.067121
-0.045882
-0.024420
0.250924
0.204031
-0.311011
-0.336521
0.165694
0.078142
-0.021229
0.081695
0.047156
0.221447
0.044325
-0.016334
-0.019468
0.374783
-0.046507
-0.127606
-0.411300
-0.292218
0.267198
0.131610
0.122862
-0.083472
-0.022859
-0.015549
-0.020525
0.195072
-0.020944
0.172513
-0.086806
0.146141
-0.061323
0.366130
0.215759
0.160054
-0.361398
0.004419
-0.165969
-0.207868
0.091600
0.026037
-0.072025
-0.110198
0.041822
-0.193236
0.046766
-0.158460
-0.060124
-0.115543
0.037040
0.077487
-0.200861
-0.076425
-0.070732
-0.455244
-0.221960
0.066269
0.132920
-0.083667
0.152370
0.076822
-0.155793
0.084884
-0.109725
-0.249682
-0.195822
0.015615
0.019813
-0.032260
-0.091013
-0.238307
0.072423
0.188219
-0.027839
-0.088327
0.072991
0.001691
0.146455
0.032999
-0.017399
-0.037833
-0.253125
-0.099541
0.045887
-0.057850
-0.179961
0.045799
0.002445
0.029965
0.019658
-0.033996
0.044567
0.118944
-0.032530
-0.179138
-0.259114
-0.047411
-0.094370
-0.026061
-0.173822
0.058041
-0.095728
0.015963
-0.343087
-0.067804
-0.266622
0.048261
-0.221086
0.029997
0.063116
-0.166570
0.101932
0.136578
0.004052
-0.120490
0.024139
-0.027185
-0.020152
-0.129571
-0.091232
0.055314
-0.065554
-0.209499
0.032261
-0.049776
-0.108418
-0.066936
-0.010202
0.051051
0.075181
0.169686
0.063504
-0.054370
-0.030232
-0.008925
-0.105275
-0.337312
-0.147478
0.057516
-0.055221
-0.081382
-0.174761
-0.125192
-0.243623
0.038384
-0.146362
0.042371
-0.128693
-0.058512
-0.045503
0.103975
-0.053638
0.013859
-0.032016
0.030761
0.078302
-0.082470
-0.066063
0.148376
0.192034
0.001361
-0.033888
-0.133021
-0.108226
-0.034331
0.069670
0.214268
-0.237302
-0.279778
0.051972
-0.005565
-0.272754
0.082095
0.063949
-0.124014
-0.013359
0.146758
