-0.127757
0.067847
0.001565
-0.179940
-0.021479
-0.008137
0.090055
0.000405
-0.234051
-0.056289
-0.160077
-0.081396
0.170285
0.056074
0.059498
0.032045
-0.070931
-0.041667
0.046079
-0.086627
-0.008294
0.164246
0.043944
-0.017314
0.015978
0.098333
0.089929
0.071367
0.146702
-0.070546
-0.087940
-0.047050
-0.059933
-0.029772
-0.094080
-0.010771
-0.041472
-0.059143
-0.138473
0.066630
-0.012903
-0.061555
-0.215983
-0.225419
0.023441
-0.017835
-0.051008
0.053690
0.027257
-0.161986
0.024131
-0.173207
-0.039340
0.064734
-0.057818
-0.012866
0.191235
-0.035686
-0.017494
-0.125651
-0.158266
-0.045740
0.014580
-0.050588
0.162985
-0.158109
0.067448
0.053392
0.068171
0.090149
-0.029301
0.111312
0.069183
-0.160976
-0.056016
-0.108977
0.063128
0.009061
-0.065630
0.060736
-0.080015
0.237098
-0.043890
0.146878
0.049571
-0.120810
0.026208
-0.015710
-0.023316
-0.071289
0.069818
-0.062716
-0.022241
-0.057167
0.009547
0.026463
0.102158
-0.089779
0.036338
0.061873
0.076914
-0.030093
0.088594
0.084871
-0.101731
-0.048415
-0.009703
0.139377
-0.009024
-0.094146
-0.160189
-0.090606
0.083994
0.052233
0.043835
0.093169
0.048083
-0.106764
-0.054182
0.095966
-0.085128
0.077847
-0.198241
0.017982
-0.020337
-0.078787
-0.035057
0.095076
0.049461
-0.182824
-0.154268
-0.036315
0.103009
-0.168807
-0.048523
0.008469
-0.052732
-0.049272
-0.095402
0.044348
0.081035
-0.012413
-0.041153
0.055134
0.102724
-0.194542
0.115922
-0.195350
0.150618
-0.161462
0.201677
-0.075676
-0.026850
0.030075
0.151628
0.024226
-0.216353
0.035064
-0.258383
-0.019373
0.041006
0.052322
-0.010875
-0.022983
-0.031685
0.088702
-0.175252
-0.102837
-0.044427
0.053073
-0.148055
-0.138375
0.046404
0.074434
-0.054293
0.100144
0.113356
-0.350165
0.050348
0.193635
0.060755
0.130559
-0.034567
-0.051331
0.102977
0.048518
-0.177122
0.035215
0.016168
-0.099555
0.078431
-0.134222
-0.147035
0.122214
-0.196407
0.069436
0.059758
0.064295
-0.284283
0.110767
-0.080962
0.053343
-0.011995
0.168798
-0.099495
0.002070
0.014333
-0.184262
-0.147989
0.072655
-0.214754
-0.030385
0.073487
-0.111960
-0.080609
0.011490
-0.109779
-0.037958
-0.027202
0.084226
0.095211
-0.019436
-0.020716
0.012647
-0.030111
0.001655
0.081530
0.123705
0.054619
0.033600
0.169649
-0.117632
-0.068507
-0.054547
0.088662
-0.042643
-0.006261
0.120406
-0.002523
-0.217791
0.107619
0.197500
-0.260365
-0.028463
-0.124060
-0.016364
-0.042424
0.036392
0.021808
0.014515
-0.199632
0.008399
-0.030849
-0.084904
0.058937
-0.057503
-0.193053
0.201417
-0.027636
-0.033480
-0.007240
0.088108
0.011205
-0.288083
-0.082205
-0.296671
-0.039801
-0.057861
0.212243
0.071007
-0.222925
-0.026502
0.127408
0.044474
-0.277832
-0.044109
0.030923
-0.013958
-0.175057
-0.053748
0.026926
-0.134180
0.054281
-0.155960
-0.032894
0.028432
-0.067980
0.078683
-0.011804
0.095981
-0.124743
0.056541
0.024435
0.029299
0.006635
-0.060172
0.144876
0.090816
0.017997
0.320676
0.192544
0.136045
0.029164
-0.191152
0.001818
-0.162957
-0.008712
0.028867
0.028215
-0.044411
0.063493
-0.422739
0.060086
-0.020527
-0.198709
0.087721
0.067479
0.111461
0.082222
0.055267
-0.012639
0.074824
-0.003823
-0.074609
-0.035185
0.013985
-0.343221
-0.119402
-0.419269
-0.040510
-0.086318
-0.072128
-0.065495
0.087830
0.136112
-0.062828
-0.215963
-0.072117
-0.014590
0.165598
0.095451
0.016779
0.186263
-0.085784
-0.110485
0.129354
-0.061592
0.064605
0.054004
0.335715
0.079377
-0.121221
0.098702
-0.041528
-0.114979
0.133474
-0.014679
0.252053
0.027505
-0.016923
0.055842
0.323299
0.090098
0.050885
0.109727
-0.051537
0.038390
0.046840
0.148898
0.018285
-0.054053
-0.019895
0.011136
-0.042655
0.048177
-0.108845
0.041323
0.016213
0.057641
-0.026785
-0.088327
0.130162
-0.053393
0.142931
0.050155
0.064443
0.005160
-0.002969
0.140430
0.208189
0.095100
-0.195865
0.039554
-0.040789
-0.290954
0.013518
0.020304
-0.014164
0.181303
-0.022907
-0.073309
0.088943
-0.029085
-0.113834
-0.015915
0.036815
0.108073
0.101679
-0.062864
-0.029735
-0.092181
0.019527
-0.073584
-0.001828
0.020824
0.081289
0.118815
-0.181935
0.005092
-0.163077
-0.029991
0.090155
-0.267632
-0.259344
-0.338588
-0.184572
-0.442233
0.069190
0.013475
0.120211
0.015041
-0.271378
-0.128423
0.080162
0.071901
0.187773
-0.212925
0.046828
0.259200
-0.114916
-0.014289
0.226531
-0.076232
0.128770
0.046032
0.079450
-0.058148
-0.093455
0.033572
0.065146
0.282991
-0.060716
0.073984
-0.209048
-0.042786
-0.019327
0.021656
0.067848
0.019322
0.004578
0.028186
-0.109965
0.194197
0.142076
0.179614
0.107663
0.052495
0.022507
-0.082262
0.089459
-0.150607
0.228391
-0.009908
-0.031511
-0.058102
0.071249
0.038331
0.234838
-0.017922
0.043323
0.168932
-0.068264
0.016133
-0.024509
0.074251
0.044937
-0.245791
-0.029575
0.005018
-0.188967
-0.072148
-0.042262
-0.028475
0.206562
-0.349845
-0.046503
0.018779
-0.271634
0.042665
-0.036717
-0.097046
-0.000682
-0.004889
0.042250
0.059698
-0.134703
0.051232
0.207253
-0.134401
0.263288
0.075624
0.142189
0.019477
-0.060509
0.376927
0.049745
0.060211
0.033903
-0.089700
-0.039475
0.008940
0.051003
0.225929
-0.305343
0.174850
0.138321
-0.014744
0.024164
0.061755
-0.093238
0.038507
0.228969
0.073911
0.014880
0.005181
-0.103805
0.048065
0.023260
0.033629
-0.002339
-0.126249
0.012050
0.196905
-0.162880
0.268917
-0.252375
0.080408
0.021473
0.109737
0.046462
-0.205078
0.176945
0.096816
0.069016
0.034647
0.121546
0.007500
0.003329
-0.075074
0.162288
0.103095
-0.169750
0.048478
0.271803
0.064136
0.075005
-0.223724
0.233016
0.117562
-0.027551
-0.016472
-0.062614
-0.025418
-0.251488
-0.063540
-0.026512
0.213192
0.040365
0.036264
-0.032126
-0.079229
0.091777
-0.068621
0.047618
-0.143152
0.050883
0.013486
0.031097
0.069161
0.136794
0.058294
-0.020214
-0.208880
-0.101960
-0.222723
-0.253293
-0.016812
0.063338
0.041729
0.338136
0.065281
0.056705
-0.037572
-0.101364
-0.142334
0.043507
-0.030273
0.053986
0.019333
-0.067658
0.037968
0.078619
-0.076885
-0.086694
0.112711
-0.054028
0.049299
-0.183470
-0.090977
-0.180692
-0.053369
-0.254139
0.047918
0.016735
0.102869
-0.212585
-0.092145
-0.201930
0.061944
0.048316
0.149237
0.021479
-0.077056
0.093437
-0.241581
-0.006531
-0.487535
-0.019214
-0.106259
0.056675
0.033345
-0.066577
-0.042588
-0.057210
0.083901
-0.183597
-0.155037
0.157256
0.058976
-0.038091
0.207324
0.100707
-0.049766
0.055696
0.001022
0.006990
0.129245
0.335741
-0.069574
-0.037749
-0.304653
-0.046709
0.161707
-0.011575
0.024409
0.262884
0.231259
0.012998
0.064544
0.014235
-0.257816
-0.283711
0.305364
-0.331831
0.145977
0.013190
-0.048692
0.018928
0.207618
0.181776
0.013598
-0.011753
-0.240979
-0.089339
0.026511
-0.283606
0.220831
0.023171
0.194360
0.036035
0.170020
0.070814
-0.077189
0.190599
-0.051843
-0.023447
-0.213422
-0.061689
0.036701
0.083118
-0.208219
-0.196164
0.147907
0.053880
0.208226
0.129197
-0.096837
0.152387
0.021948
0.008203
-0.055867
0.094414
-0.109044
0.011519
0.094886
-0.079524
0.000070
0.107694
0.016252
-0.044138
0.214965
-0.002178
-0.278322
0.178252
-0.190257
0.007234
-0.106140
-0.107490
-0.095083
0.002554
-0.111338
-0.014276
-0.512294
-0.293252
0.393244
-0.052137
0.256114
-0.002512
0.077065
0.011971
0.256958
0.024343
-0.025929
-0.043194
-0.076929
0.007844
0.092561
0.097052
0.028718
-0.225417
0.212185
-0.050397
0.050859
-0.005913
0.175990
-0.008965
-0.247146
-0.043794
0.120153
0.000767
-0.060461
0.200207
0.015325
-0.181962
0.015803
-0.024188
-0.042639
-0.099956
-0.096726
0.049028
0.085694
-0.220544
0.022457
0.026751
0.028195
0.029092
-0.244718
-0.051530
-0.003679
0.254267
0.021707
-0.173711
0.153060
0.119074
0.071447
0.293332
0.080263
0.092229
-0.028761
0.061223
-0.108796
-0.135735
0.031768
0.038144
-0.089612
0.090441
0.261876
0.189967
0.002011
0.116703
0.113906
-0.017413
0.110631
0.036914
-0.035633
-0.142556
0.144289
0.186507
0.082623
-0.026237
-0.081264
-0.012540
0.079936
-0.100163
0.040640
0.000633
-0.191935
-0.060258
0.055351
0.184117
0.117064
-0.111046
-0.189592
-0.036230
0.237903
0.189272
-0.082432
0.286641
-0.021121
0.139862
0.562467
0.110125
-0.211057
0.068429
0.217635
-0.472702
-0.034666
-0.129621
-0.063191
-0.205921
-0.035851
0.150350
0.195421
-0.106297
-0.021516
-0.060680
-0.054627
-0.099118
0.166557
0.038252
0.251035
0.067585
0.250659
-0.088463
-0.011995
-0.035463
0.107246
0.170305
-0.013873
0.144049
0.043966
-0.006336
0.006081
0.116247
0.080836
0.178882
0.010487
-0.077520
-0.018996
-0.091266
0.243296
-0.004986
-0.001936
-0.081971
-0.182616
-0.046265
0.148915
-0.019129
0.186831
-0.071206
-0.041577
0.177506
-0.215609
-0.101547
-0.085006
0.085455
0.066318
-0.038360
0.029978
-0.045498
0.001907
-0.057736
-0.083054
-0.064240
0.058066
0.001901
-0.282749
0.072556
0.005152
-0.360042
0.110145
0.098873
-0.296664
0.159703
0.025287
0.071745
-0.152363
-0.000884
-0.097536
0.133983
-0.096056
-0.389293
0.024325
0.005270
0.021144
0.120464
-0.481670
-0.001476
-0.132634
0.015625
-0.021191
-0.064501
-0.244671
-0.047074
0.044579
0.125968
0.187720
-0.024092
0.013169
-0.045040
0.048483
-0.074209
-0.103917
-0.292962
-0.017673
0.068201
0.151170
0.021995
-0.069353
-0.135627
0.199216
-0.188222
-0.078597
0.238721
-0.009220
0.028367
0.040048
0.081977
0.039628
-0.314305
0.140131
0.194724
-0.110143
0.029816
-0.008330
0.071967
0.026455
-0.123702
0.016720
-0.136496
-0.238620
0.100384
0.134979
-0.216664
-0.087456
-0.067432
0.141413
-0.067511
-0.016461
0.279315
0.294301
-0.079145
0.078881
0.171793
0.019303
-0.065321
0.131503
0.172023
-0.007575
0.080930
0.052377
0.254531
-0.014332
0.117881
-0.056858
0.355151
-0.008135
0.033797
0.023681
-0.074216
0.171557
0.004652
0.020947
-0.073855
-0.238107
-0.033024
-0.014370
0.076986
0.177236
0.004513
0.003704
0.154856
0.278835
0.220938
0.061730
0.098004
0.079014
0.129659
0.080011
0.057899
-0.196610
0.134234
0.041831
-0.024430
-0.112773
-0.058912
-0.203275
-0.192443
0.060239
-0.164810
0.025131
-0.058653
-0.017701
-0.065855
-0.053450
-0.055672
-0.129597
0.036910
0.011802
-0.030720
0.251103
0.046887
-0.380202
-0.190066
-0.119529
0.116919
0.051572
0.065905
-0.171448
-0.196467
-0.078773
0.113822
0.021665
-0.006343
-0.103518
0.041612
0.004383
-0.107130
-0.118562
-0.029580
0.154987
-0.076751
-0.032547
-0.061858
-0.017548
-0.057641
-0.149191
-0.053581
0.062426
-0.165381
-0.042821
0.213157
-0.103978
0.156579
-0.038646
-0.025412
-0.017522
-0.011575
0.077896
0.002611
-0.099251
0.178109
0.091853
-0.029735
0.089512
0.140000
0.102817
0.036218
-0.034235
-0.368501
0.118510
-0.004153
-0.150109
0.059693
-0.152158
0.045957
-0.307848
-0.024821
-0.095364
-0.091251
0.079180
-0.038204
0.146241
-0.109895
0.008784
0.045102
-0.205946
0.047454
-0.079224
-0.224371
-0.107489
-0.281686
0.004625
-0.216164
-0.033126
-0.297960
0.013180
-0.189932
-0.404259
0.156934
0.043716
0.187131
0.087366
0.042222
-0.109336
0.005899
-0.002304
0.066901
-0.235026
-0.059111
-0.001586
-0.186128
0.034654
0.168366
0.080013
-0.048049
-0.381544
-0.003521
-0.088972
0.190211
-0.276634
-0.185607
-0.006119
-0.078501
-0.042789
-0.029823
-0.152901
0.059452
0.018799
0.162883
0.129026
0.161015
0.136432
0.200162
0.207985
-0.035033
-0.118602
0.050351
-0.055611
-0.009727
-0.211506
-0.127443
0.255361
-0.069099
-0.124363
0.083908
-0.193769
0.131330
-0.293807
0.191955
-0.100481
0.093585
0.099223
0.096200
0.087689
0.065629
-0.222240
-0.037572
-0.092635
0.064274
-0.270443
-0.041120
0.049619
0.049295
-0.036125
-0.024801
-0.078274
0.084692
-0.087865
0.134990
0.016623
0.077302
-0.147497
-0.023388
-0.028467
0.052957
-0.015201
-0.061897
0.071249
0.155172
0.091985
-0.214247
-0.248723
0.008091
-0.228022
0.035470
-0.025235
0.155761
0.013594
0.228553
0.037446
0.003576
-0.220797
-0.129359
-0.098712
-0.083207
0.005549
0.014885
-0.119979
0.055145
-0.238491
0.050222
-0.068224
-0.051952
0.136285
0.015249
0.101738
0.017529
-0.020296
-0.029975
0.205832
0.031460
0.052317
-0.214268
0.024720
0.231803
0.005217
0.040196
0.101641
-0.235056
0.082967
-0.183621
-0.018194
0.004431
-0.131497
0.003846
-0.212510
0.082848
0.092515
-0.096461
0.089328
0.042851
0.061757
0.319639
0.074199
0.090795
0.025213
0.148339
0.038204
0.045544
-0.336154
-0.286160
0.009812
-0.032294
-0.059745
-0.032205
0.069017
-0.331195
0.113131
0.102248
0.168295
0.085493
0.088084
-0.108577
-0.053866
0.070727
-0.233216
0.076304
-0.066649
0.075243
0.233373
0.115144
-0.446829
0.040839
-0.211839
0.154322
0.014928
-0.015181
-0.075033
-0.088934
-0.228440
0.072590
0.333114
0.182228
0.061529
0.069257
0.113946
-0.152342
-0.309065
0.027179
-0.117796
-0.075989
-0.064409
0.167340
-0.066424
-0.032229
-0.376476
-0.095930
0.064980
-0.161512
0.155581
-0.030625
-0.155891
0.058865
-0.087273
0.112056
0.022325
0.057227
-0.032984
0.174411
0.055178
0.104267
0.158585
-0.003697
0.088467
-0.003145
0.023326
0.115570
-0.051762
-0.473278
-0.131184
-0.395706
-0.283074
-0.100820
0.200107
-0.000955
0.200770
-0.046018
0.117582
-0.180239
0.024966
-0.068228
-0.024034
-0.139216
-0.011859
-0.005292
0.130282
0.032869
0.011229
0.266403
0.101384
-0.074106
-0.066388
-0.193031
0.059277
-0.028781
-0.070248
-0.068044
-0.164869
0.178030
-0.012604
-0.079251
-0.050770
0.086306
0.196596
0.085844
-0.000169
-0.058267
0.076613
-0.065068
0.035474
0.232529
-0.243268
0.120231
0.066748
0.255412
0.286333
-0.124051
0.062145
0.098246
-0.050749
-0.020917
0.016361
0.048661
0.052535
-0.028296
-0.096057
-0.117091
0.035048
0.251930
0.206097
-0.015455
-0.394057
0.149495
-0.199117
-0.124882
-0.038915
0.024025
-0.024472
-0.110727
0.277359
0.010407
0.204706
0.266345
-0.206383
0.077677
-0.140856
-0.001688
-0.102943
0.169450
-0.210096
-0.168810
-0.005836
-0.134253
0.017057
0.026035
0.154163
-0.112856
-0.031089
-0.001712
-0.210747
0.068590
0.007325
0.282687
0.111309
0.065424
0.253510
-0.044179
-0.060835
0.049753
-0.015630
-0.252321
0.144089
-0.042452
0.143861
-0.034048
0.019896
0.060185
-0.018728
0.019956
-0.045139
0.102038
0.133311
0.080523
0.094297
0.100456
-0.047492
0.215160
-0.065251
-0.029919
-0.095751
-0.184857
0.182133
0.199658
0.106012
0.058354
0.051003
-0.073549
-0.002276
0.146142
0.107566
0.027535
0.026421
-0.009017
-0.341561
0.024284
0.313016
0.158298
0.015319
0.091936
0.042692
-0.238685
-0.044725
-0.147798
0.021873
0.192964
-0.039051
-0.101139
-0.069617
-0.069093
0.029189
0.030593
0.063060
0.066799
0.031556
-0.067928
-0.059702
0.068796
0.042099
0.034325
-0.057788
-0.077216
-0.099060
0.124836
-0.010419
-0.191870
-0.022516
0.028002
-0.058483
0.050972
0.064395
-0.072826
0.078612
-0.091172
-0.075421
-0.064735
0.156962
-0.101372
0.095446
-0.167274
0.071857
0.126669
0.300869
0.032084
0.126727
0.218174
-0.037761
0.049494
0.095407
0.081888
-0.129493
0.293417
0.050305
0.008609
-0.060039
-0.193457
0.215018
0.100065
-0.166085
0.096321
0.066929
-0.024230
0.013102
0.019879
0.002045
0.057963
-0.028210
-0.189422
-0.191602
-0.030664
0.068130
-0.061614
0.065168
-0.101557
0.037338
0.021482
-0.212741
0.039280
-0.090380
-0.144107
-0.170816
0.157422
-0.201109
0.000716
-0.279104
0.097238
-0.022529
-0.162321
-0.038914
-0.034921
-0.150630
-0.077750
-0.179686
0.102095
0.078105
-0.027727
0.045065
0.056191
0.089914
0.072716
-0.108153
-0.052902
0.250400
-0.000196
0.044816
0.001824
0.292558
-0.003096
0.032022
-0.100664
0.169969
-0.060368
0.343719
-0.026184
0.074879
0.069376
0.006942
0.010976
-0.026954
0.082772
0.106225
0.136707
-0.088888
-0.011489
0.060217
0.363916
0.030280
-0.148125
-0.100895
-0.026900
0.048635
0.020595
-0.037707
-0.050721
-0.156523
0.037091
0.051260
0.007644
0.193690
-0.041515
0.057222
0.166550
-0.021143
0.217090
-0.061608
0.043913
0.191057
-0.121150
-0.040880
-0.142330
-0.037309
0.113501
-0.043205
0.072370
0.039190
-0.008367
-0.391276
0.007402
0.088810
-0.278841
0.040317
-0.007996
-0.026993
0.206422
-0.178319
-0.077980
0.176472
-0.006510
-0.060422
-0.093822
0.109143
0.029396
0.069116
-0.025863
0.069813
-0.008049
-0.315668
-0.094126
-0.205162
-0.356562
-0.012499
-0.022687
0.120797
-0.230183
0.030782
0.081911
0.241718
0.046648
0.097090
-0.038397
-0.078627
0.012895
-0.007471
0.094092
0.028361
-0.039136
0.145182
-0.050165
-0.088953
-0.241618
0.059820
0.073088
0.119900
0.149553
0.057279
-0.113200
0.108136
-0.019465
-0.005061
-0.346125
-0.043087
0.132494
-0.026261
0.083829
0.291769
0.068860
0.016636
-0.128117
0.028862
-0.096892
0.007257
-0.401523
-0.128703
-0.205446
0.017518
-0.013240
0.203144
-0.000181
-0.123641
-0.270734
-0.078534
-0.069050
0.081439
-0.003122
-0.053671
-0.058444
-0.269625
-0.333009
0.004573
-0.075809
0.124801
-0.090590
0.040060
0.261529
-0.003763
-0.037451
0.013196
0.084926
0.076712
0.018635
0.134338
0.184551
0.071226
-0.036218
0.312919
-0.033548
-0.025957
-0.002827
-0.106878
0.000950
0.072006
-0.013259
0.103869
0.027349
-0.015782
0.157308
-0.237120
-0.139236
0.062525
-0.309132
0.051120
0.061076
-0.077388
0.050481
-0.025813
-0.029770
0.160987
0.041978
0.077275
0.156469
-0.281301
-0.367541
0.224951
-0.100980
0.428335
0.101011
0.317293
0.019943
-0.026489
0.043295
-0.031783
0.386191
0.133302
0.096784
0.095179
0.112180
0.248964
0.003281
-0.163051
0.280877
-0.006915
-0.462306
0.072886
0.293428
-0.067944
-0.102010
0.053016
0.173917
0.226696
-0.001487
-0.061460
0.038743
0.018882
0.012952
-0.011062
-0.010728
0.180376
-0.034757
0.086501
-0.081398
-0.053217
0.218164
0.116619
0.079148
0.192290
-0.010449
0.013985
0.302183
0.024807
-0.077613
0.181004
-0.064880
0.126087
0.032511
0.116509
0.030345
0.063225
-0.253986
-0.001494
0.071021
-0.004232
-0.138295
0.086009
-0.012903
-0.001253
-0.036671
0.028201
0.068722
0.023146
0.140400
-0.055743
-0.027684
-0.338109
0.290923
-0.032249
0.037480
0.046564
0.008753
0.005407
0.074678
0.033449
0.184714
-0.046033
0.032979
-0.099463
0.312003
0.020255
0.221948
0.113581
0.069067
-0.023990
-0.011876
-0.081577
0.074586
-0.070194
0.009120
-0.154089
0.002721
0.118292
0.045498
0.023138
0.284582
0.297234
-0.071290
-0.020628
0.083513
0.271753
0.044369
0.118494
0.030251
-0.111447
0.160429
-0.005017
-0.055938
0.007986
-0.034106
-0.012057
-0.089440
0.044590
-0.006613
0.084465
0.000496
-0.164851
-0.151738
-0.344618
-0.189622
0.061752
0.021922
0.035732
-0.020707
0.424286
0.016954
-0.271271
-0.188698
0.019047
0.160488
0.083365
0.052914
-0.043673
-0.219936
0.075556
-0.065436
0.017843
0.082959
0.079761
-0.064548
0.009320
0.016135
-0.097032
0.023534
-0.027465
-0.007264
-0.009622
-0.267442
-0.051218
0.066628
0.045393
-0.045122
-0.005996
-0.055565
0.014632
-0.130950
-0.180728
-0.011966
-0.113786
0.166156
0.073647
0.043405
-0.072373
0.163192
-0.041184
-0.001371
-0.083376
-0.010197
0.104647
-0.162652
0.099056
-0.077787
-0.055747
-0.094815
-0.150485
0.164523
0.132141
0.000586
-0.133656
-0.047262
0.152571
-0.044090
-0.291417
0.480672
0.153440
0.088231
-0.186194
-0.087208
0.074014
0.029032
0.075684
0.223047
0.018379
-0.199814
0.030778
0.109348
-0.049481
0.029240
-0.032629
0.028444
0.081071
-0.288358
0.110865
-0.186294
0.059208
-0.140923
0.066253
-0.003927
-0.057862
0.030562
0.019064
0.013626
0.141745
0.003023
-0.064414
-0.155958
0.255034
0.025670
0.089485
0.017093
0.158690
0.248295
0.071290
0.102456
-0.023711
-0.089098
0.008195
-0.061286
0.009460
0.024031
0.064138
-0.010049
-0.059156
-0.015576
0.110624
0.022272
0.041939
-0.222340
0.037309
0.223271
-0.086373
0.076531
-0.080700
0.085310
0.242068
0.034805
-0.060744
-0.056024
-0.094710
-0.034603
0.066655
-0.100948
0.131318
-0.149710
-0.014692
0.135984
0.279022
-0.133301
-0.023251
0.078890
0.032262
0.076323
-0.107474
-0.075066
0.124248
0.075565
0.000917
-0.009485
0.094502
0.029312
-0.116145
-0.037259
0.040197
-0.109222
-0.061720
0.213258
-0.062549
0.038433
-0.206359
-0.032002
-0.052568
0.182700
0.023574
-0.142292
-0.083392
0.076614
0.183463
0.027490
-0.032403
0.224167
0.003762
0.150509
0.045441
-0.166700
-0.037107
-0.050392
-0.172351
-0.040666
0.157871
-0.004366
-0.123824
-0.003028
0.036733
-0.189289
-0.106799
-0.028079
0.090464
-0.085634
-0.133702
0.055694
-0.138586
-0.166625
0.020726
-0.028607
-0.060997
-0.259973
0.015008
0.104435
0.071292
-0.423627
0.086062
-0.207121
-0.249990
0.195640
0.029202
0.102575
0.078994
-0.044586
0.149078
0.081970
-0.111550
-0.016138
-0.261571
-0.050373
0.045001
-0.024314
-0.111427
-0.016150
0.090695
0.146664
-0.260703
-0.072499
0.004745
-0.042458
-0.007168
-0.108629
0.066586
-0.054618
-0.025254
0.028548
0.255395
0.122902
0.012256
-0.025173
-0.009160
-0.081053
0.147295
0.050253
0.349262
-0.038859
-0.273852
-0.031374
-0.055103
0.007798
-0.087657
0.067933
0.064609
0.054817
-0.058230
0.090324
-0.166124
0.170124
0.029286
0.020251
-0.058570
-0.036175
0.008624
0.199822
0.080131
0.109642
0.032920
-0.091991
0.036032
0.006547
-0.198819
-0.015570
0.085146
0.041786
0.039713
-0.065790
0.062727
0.034333
-0.070139
0.138601
-0.039205
0.278201
0.018210
-0.034566
-0.028912
0.013354
-0.077647
0.055974
0.006266
0.133301
0.050575
-0.057732
-0.258332
0.038321
-0.093208
-0.111848
-0.003937
0.116986
-0.078282
0.010012
-0.029722
-0.094278
-0.035858
0.120077
-0.061357
0.100435
-0.123258
-0.015981
-0.166501
0.019304
0.075817
0.031049
0.112796
-0.165517
0.324790
0.076721
0.124887
0.051820
-0.007511
0.060585
0.040578
-0.202277
-0.020697
0.074893
0.027530
-0.160178
0.007044
-0.082007
-0.092926
-0.072639
-0.000547
-0.126103
-0.085325
-0.017579
0.013746
-0.076519
-0.285094
0.000510
0.075965
-0.057090
-0.092092
-0.232498
0.068920
0.264516
0.035597
-0.027229
-0.048045
0.116537
-0.045944
0.093951
0.074719
-0.125311
0.025311
0.002454
0.077505
-0.098064
0.029163
-0.274302
-0.012915
0.031345
-0.018003
0.054310
0.218781
-0.090567
-0.000441
0.185058
-0.088657
-0.024164
-0.088050
0.049590
0.044598
0.412387
0.065221
0.252283
0.059694
0.144210
0.139247
0.110707
0.177189
-0.001907
0.087231
0.218398
0.155709
0.247113
-0.048756
0.074403
0.177425
-0.149099
-0.079904
0.088575
0.093144
-0.062666
0.064400
0.276469
0.001045
-0.035838
-0.212481
0.024525
-0.019970
0.179864
-0.228147
0.239258
-0.127009
0.115805
-0.113108
-0.009302
-0.069290
0.131271
-0.020908
0.156898
0.139566
0.093760
0.091928
-0.037837
-0.065292
-0.082666
-0.073285
0.131363
0.021468
0.024954
-0.101575
-0.037437
0.169832
-0.049180
0.199210
0.037045
0.229847
-0.077954
-0.209280
-0.120166
-0.211616
-0.036916
0.113618
0.263229
-0.077159
0.052756
0.061617
-0.278141
0.035124
-0.078776
-0.087013
0.143322
0.048793
-0.036867
-0.063440
0.060929
0.033055
-0.016771
0.017078
-0.340025
0.077291
0.228071
0.042149
-0.036687
0.069427
0.024168
0.228023
-0.071574
-0.211039
-0.081360
-0.063952
0.043800
0.190061
-0.016716
-0.037321
0.093769
0.021867
-0.127668
0.101035
-0.350754
-0.356469
0.268132
0.032083
-0.001163
0.067842
-0.089234
-0.428952
0.168700
0.040045
-0.046309
-0.109602
-0.197666
0.329940
0.151708
-0.154061
-0.201315
0.394984
0.044744
0.009968
0.022568
0.034040
-0.335695
-0.107585
-0.048412
0.066511
-0.081086
0.118852
-0.047571
-0.211597
0.054026
-0.440637
-0.226776
-0.012195
-0.017483
-0.031752
0.044959
-0.009185
-0.011159
-0.100248
0.067182
-0.098421
0.078841
0.039945
0.208623
-0.000785
-0.011873
0.143865
-0.088253
0.018872
-0.073966
0.086383
0.237902
-0.265579
-0.120921
-0.157025
-0.074886
-0.013413
-0.074008
0.062278
-0.082343
0.029670
0.033930
0.194768
-0.015667
0.057433
0.096818
0.005027
-0.266775
0.098415
-0.219080
-0.090583
0.081643
0.086278
-0.060773
-0.179554
0.061545
-0.038468
0.052603
0.029316
0.164712
0.339198
-0.020180
0.321724
-0.231578
-0.240768
0.055738
0.021023
-0.039031
0.025212
-0.110648
-0.293914
-0.241798
0.091330
0.021481
-0.048178
-0.011806
0.108160
-0.100300
-0.384325
-0.008103
0.040927
0.143636
-0.055214
-0.022411
0.094816
-0.028144
-0.026103
-0.003654
-0.091780
-0.021150
-0.029549
-0.093145
0.163814
0.184542
-0.069030
-0.039395
-0.450859
0.100878
-0.052450
0.116625
0.011442
-0.247884
-0.070332
-0.088628
-0.028958
0.018370
0.024448
-0.156347
0.112390
0.103548
0.012915
0.089151
0.227569
0.185586
0.389434
-0.149168
0.028955
-0.056694
-0.080097
-0.025190
-0.188955
0.034208
-0.007933
-0.053811
-0.009316
-0.071230
-0.050338
0.064426
0.056312
0.003782
0.043910
0.007776
0.029275
-0.066489
0.074306
0.180034
-0.310067
-0.000493
0.122435
-0.060576
0.032837
0.013720
-0.000358
0.078979
0.062212
0.087232
-0.113100
0.069108
0.070422
-0.057476
-0.024317
0.093099
-0.363525
0.096580
-0.121743
-0.057981
0.074077
0.045100
-0.046112
0.063793
0.078101
-0.252794
-0.362170
0.051809
-0.242669
0.162931
-0.030619
-0.049903
-0.063367
0.170951
-0.115537
-0.091140
0.331847
-0.081440
-0.046518
-0.078031
0.196176
0.030283
-0.299825
0.165765
0.050419
-0.090809
0.268771
0.081816
0.001491
0.029420
-0.087394
-0.019880
-0.014092
-0.119030
-0.171241
-0.080240
0.045636
0.057913
-0.010604
0.199417
-0.033407
-0.145735
0.040246
-0.108205
-0.134560
0.118927
-0.013071
0.071209
0.112401
-0.011123
0.121601
0.031002
-0.135774
-0.021733
0.057480
-0.442398
0.313173
0.054616
-0.054883
-0.137283
-0.242211
0.053503
0.005687
0.037949
0.247721
0.016500
0.092485
-0.005039
0.004984
-0.017039
0.111191
0.132490
-0.059128
0.230213
-0.017904
0.073208
0.117836
0.111664
0.328598
0.147684
-0.027171
-0.007112
-0.077947
0.020473
-0.018062
0.245651
0.084636
-0.035889
0.076506
-0.143502
0.142294
-0.275138
0.021818
-0.037841
0.178228
0.023434
0.057227
-0.155030
0.015825
0.053310
-0.242581
0.025417
-0.050860
-0.016094
0.139336
-0.086827
0.000117
0.122387
0.104835
-0.016385
0.063926
0.074747
-0.030874
-0.174487
-0.164371
0.227546
-0.056886
-0.003867
-0.159788
-0.050085
-0.034486
0.036779
0.070019
-0.133539
-0.061959
-0.071820
0.056571
-0.047619
0.104560
0.273581
0.018950
0.098213
-0.018682
0.170645
0.161611
0.180443
-0.220422
0.171013
-0.079366
0.041460
-0.170515
0.028746
0.034915
0.022252
0.214325
0.006613
0.225101
-0.177815
0.075116
-0.051655
0.154783
-0.026163
0.030822
-0.078552
0.060938
0.154022
0.082007
0.002709
-0.027995
0.106991
0.054589
0.160256
-0.383300
-0.251759
0.289296
-0.160763
-0.039361
0.059907
-0.282360
0.061777
-0.064690
0.081646
0.246213
0.044269
-0.040901
0.136401
0.131793
0.112340
0.013135
-0.190881
-0.039948
0.057812
0.015409
-0.083612
0.046968
0.103475
0.038463
-0.070790
-0.029574
-0.034716
-0.203533
0.056566
0.071902
-0.246857
-0.140614
-0.107995
0.030850
0.137994
0.103645
0.066555
0.191945
0.086275
-0.034230
-0.047859
-0.073075
-0.064773
0.017995
-0.266974
0.300392
0.182613
0.059836
0.112632
0.162284
-0.206783
-0.000912
0.082480
-0.024419
-0.130922
0.095831
-0.269286
0.074952
0.219509
0.217838
-0.072380
0.079192
0.050777
-0.041096
-0.099135
-0.018295
0.034101
-0.036024
-0.035037
0.063675
-0.140184
0.182451
0.136709
0.018199
0.248377
0.153418
0.066024
-0.065455
0.193068
0.013412
-0.262085
0.100942
0.113066
-0.134582
0.047414
0.183449
0.051339
-0.082523
-0.042165
0.099846
-0.053975
0.075503
-0.222944
-0.011574
-0.066130
0.012725
0.061424
0.263120
-0.065815
-0.045208
-0.134370
-0.210516
0.067072
-0.066531
0.205797
0.084997
-0.002220
0.083575
-0.222950
0.038779
-0.129703
0.075911
-0.100437
-0.047057
0.032460
-0.099029
0.002751
0.073879
-0.249894
0.135368
-0.326536
0.005128
0.225345
0.050881
-0.005328
0.040602
-0.025445
0.025301
0.061962
-0.077965
-0.061508
-0.028360
0.024070
-0.272264
-0.314608
-0.051510
-0.202247
-0.121402
-0.073251
-0.025063
-0.229169
0.075123
0.223318
-0.001798
0.033722
-0.040340
0.056073
0.231300
0.184191
-0.034720
-0.039080
-0.113248
-0.008588
0.080823
0.042391
0.128045
-0.101791
0.406457
0.100700
0.091973
0.009307
-0.116644
-0.314582
0.189927
-0.015223
0.075157
-0.204794
0.185838
-0.042006
0.184598
0.284669
-0.071260
-0.297153
0.093207
-0.167666
-0.031007
-0.311359
-0.170190
0.088465
-0.022654
-0.017573
0.136463
0.072424
-0.005684
0.220094
-0.123698
-0.069461
-0.031477
0.001803
-0.070572
-0.154450
-0.004461
-0.262184
0.095047
-0.181928
0.223067
0.067936
-0.022681
-0.008564
-0.051621
-0.043280
0.074894
-0.147929
-0.114195
0.084116
0.066042
0.084552
-0.110342
-0.137436
-0.026957
0.214741
-0.067601
-0.402500
0.352725
-0.021130
0.210376
-0.008329
0.396689
0.037019
0.010486
-0.237334
0.130500
0.044212
-0.022498
0.083972
-0.103665
-0.115763
-0.091754
0.112450
-0.067067
0.170079
-0.138224
-0.193765
0.088599
0.054898
-0.031841
0.166488
-0.078342
-0.066935
-0.113028
0.338714
-0.011991
0.174239
-0.045807
-0.078426
0.077174
0.004639
0.051722
-0.083955
-0.047596
0.000891
-0.085845
-0.013249
-0.161803
0.073980
-0.075422
-0.012419
-0.040975
-0.171352
-0.051052
0.022712
0.072144
0.044113
-0.031059
0.047450
-0.010744
0.046255
0.229866
0.223575
0.012484
0.138694
0.149859
-0.069701
-0.170919
0.080141
0.033669
-0.086384
0.274053
-0.007076
-0.040148
0.015542
0.067167
0.341263
0.072833
0.181650
-0.092682
-0.093764
0.184448
-0.077223
-0.040889
0.125277
0.198020
-0.103945
0.003332
-0.237135
-0.098432
0.050870
-0.117702
-0.027294
-0.013711
-0.062311
0.000974
0.002863
0.002589
0.163964
-0.024813
0.040858
0.221919
0.018802
0.032481
-0.069156
-0.098565
-0.190644
0.070192
-0.101462
0.029249
-0.074327
-0.028778
-0.052252
-0.034172
0.140174
-0.257996
-0.050681
-0.017045
0.070788
0.035030
0.138946
-0.009413
0.215479
0.042363
0.246187
-0.116972
0.016691
-0.122675
-0.023115
-0.183990
-0.039505
-0.053709
0.082421
-0.165341
-0.005183
0.050896
0.005726
0.093502
0.037282
0.016138
0.046273
0.149998
-0.027619
0.068480
-0.023331
-0.013756
-0.183791
0.049186
-0.028080
0.030035
-0.035947
0.074754
-0.192543
-0.076482
-0.064663
-0.195718
-0.095806
0.055562
0.054042
-0.100411
0.001174
0.012199
-0.077110
0.041774
-0.001186
-0.076528
0.028584
-0.037498
0.060833
-0.061872
-0.058242
0.048408
0.106930
-0.052297
0.093465
-0.059670
-0.296224
0.037127
-0.037118
-0.008542
0.080958
0.023630
-0.114572
-0.041671
-0.067638
0.060045
-0.025130
-0.062404
0.055588
0.049057
-0.167510
-0.053852
0.026945
0.006975
-0.016813
-0.027703
0.071499
-0.167396
-0.127170
-0.105297
-0.144250
-0.126371
-0.080290
0.052569
-0.065773
-0.044477
0.028562
-0.004549
-0.193187
0.073700
-0.082210
0.001531
-0.146941
-0.124967
-0.036134
0.091111
-0.015505
0.013558
-0.001994
-0.070651
-0.023364
-0.128306
-0.000046
0.061326
-0.129871
-0.043769
-0.044522
0.081208
0.007297
-0.128813
-0.179752
0.024653
-0.091254
-0.069373
-0.093582
-0.198239
-0.213395
-0.023662
0.068080
-0.172251
0.052769
-0.063542
-0.093572
0.003962
-0.080577
-0.095446
-0.045297
-0.048414
-0.111203
0.008398
0.028185
-0.059322
0.069076
0.005420
-0.041065
-0.105298
-0.024551
0.004680
-0.096162
-0.027346
-0.033188
-0.068601
0.072310
0.067213
-0.084988
-0.049173
0.019856
-0.032366
-0.095539
0.055206
-0.074835
0.078737
-0.039134
-0.097809
0.020433
0.028774
0.031190
0.046610
-0.056015
-0.035672
0.049686
0.034174
0.035022
0.029102
0.066218
-0.028365
0.020076
0.080702
-0.101079
-0.056948
-0.100428
-0.017327
-0.084946
0.060890
-0.117988
-0.027534
-0.056454
-0.044151
-0.090235
-0.066836
-0.088472
0.014447
0.015795
-0.055128
-0.060393
-0.097384
-0.018882
0.059355
-0.107126
-0.069283
0.093024
-0.101895
-0.087122
-0.088435
-0.037461
-0.022362
0.010711
-0.044363
-0.062417
0.061354
-0.006689
-0.082506
0.022996
-0.031363
0.045869
-0.058992
-0.012882
-0.095394
-0.037701
0.090440
-0.120162
-0.085443
-0.065647
-0.050035
0.010568
-0.127262
0.016605
-0.043632
0.034465
0.004528
0.018745
-0.100825
0.037761
-0.020615
0.022606
-0.029477
0.043759
-0.049424
-0.141776
-0.072240
-0.029863
-0.005822
-0.072738
0.040914
-0.117355
0.003572
-0.019361
-0.099380
0.008511
-0.149590
0.023031
-0.027238
-0.041307
0.044580
-0.078096
-0.124891
-0.511988
0.241669
-0.012044
0.215287
0.041161
0.138229
0.119655
0.006955
-0.371316
-0.130088
-0.075085
-0.202406
-0.006497
-0.065308
-0.095274
-0.000695
-0.050258
0.048893
0.108449
0.009848
0.018584
0.026986
0.054193
-0.028076
0.016032
-0.017725
0.104094
0.016088
0.230558
0.069109
0.188900
-0.056046
-0.046363
0.295576
-0.013216
0.271918
-0.085917
0.130577
0.091438
-0.053592
0.102196
-0.108010
-0.111691
0.022629
-0.020754
0.116857
-0.254997
0.023548
-0.092365
-0.079039
0.142093
0.045019
0.061060
0.022401
0.005786
-0.000244
0.017098
0.059426
0.088546
-0.060200
-0.255806
-0.065620
0.174898
0.181005
-0.057463
0.194351
0.081736
-0.005309
-0.009873
0.005604
0.314857
-0.038042
-0.040568
-0.111687
0.027115
-0.006475
0.065432
-0.193360
0.222180
0.100868
-0.269714
0.001168
-0.165567
-0.003065
-0.030047
0.064355
0.001847
0.134110
0.048229
-0.168060
-0.050609
0.085439
0.011057
-0.025519
0.014587
0.329912
-0.037017
0.052860
-0.159031
-0.047164
-0.256961
0.129159
-0.058627
0.032830
0.132180
-0.062379
0.094809
-0.048779
-0.098568
-0.043336
0.099673
0.046020
0.030615
0.144510
-0.009209
0.024164
-0.020464
-0.004717
0.066537
0.051798
0.019802
-0.001601
-0.018929
0.107069
-0.039413
-0.026177
-0.011231
-0.045597
0.131394
0.081378
0.031570
-0.024330
-0.250948
0.118911
-0.008755
0.071034
0.098273
0.012213
0.030767
0.066122
-0.382002
0.021314
0.084869
-0.071839
0.056999
-0.081169
-0.182686
-0.310097
0.033074
-0.041227
-0.291176
-0.019510
0.031698
0.146166
-0.020699
-0.237341
-0.031980
0.071552
-0.057397
0.035240
-0.264507
-0.277374
0.178926
0.011353
-0.047708
0.046034
0.102386
-0.008174
-0.009325
0.186099
-0.152777
-0.109827
-0.098411
0.054742
-0.066829
-0.066295
-0.221580
0.082772
0.066273
-0.128245
0.049644
0.165856
0.051052
-0.254101
0.330404
-0.001720
-0.072413
0.028502
0.132197
-0.049991
0.162640
0.105867
0.146069
0.137976
0.045427
-0.276742
-0.079739
0.130520
-0.234197
0.120748
0.045679
0.132976
-0.098918
-0.002372
-0.023636
0.129898
0.000883
0.035019
-0.008754
0.156120
0.090972
0.069683
0.295690
-0.037765
0.038745
0.060997
-0.048496
-0.075432
0.124795
-0.549134
-0.043237
-0.030231
-0.044411
0.079419
0.042579
-0.014769
-0.028616
0.063069
-0.111194
-0.045112
0.100592
0.033403
0.093339
0.037081
0.033195
-0.033090
0.076510
-0.076041
-0.033496
-0.263948
-0.077973
-0.006165
-0.146945
0.037638
-0.042541
0.161376
-0.001508
0.142496
0.059704
0.005373
-0.000458
-0.069036
0.105027
-0.089930
-0.048176
-0.080161
0.051694
-0.004844
-0.001568
0.077367
0.097451
-0.064997
0.211064
-0.052271
0.131774
0.012596
-0.039830
-0.085965
-0.034517
-0.063785
-0.171028
-0.004758
0.077745
0.094561
-0.052378
0.178845
-0.098207
0.162991
-0.024542
0.061212
-0.092115
0.172555
0.084732
0.078868
0.159868
0.089893
-0.170083
0.096772
-0.074187
-0.046359
0.195453
-0.124066
-0.083170
0.068390
-0.037586
-0.058578
0.126809
-0.032485
0.112142
0.123728
-0.258766
-0.244368
0.080618
-0.063904
0.005051
0.161258
-0.029648
-0.053707
0.039405
0.184008
0.140039
0.058191
0.223418
0.126069
-0.115550
-0.144223
-0.193305
-0.104438
-0.135652
0.207327
-0.192142
0.211694
-0.059755
-0.061550
-0.112781
0.030742
0.077820
0.042227
0.090718
-0.116751
-0.016554
-0.091540
0.051754
-0.010870
-0.002194
0.295827
-0.068604
-0.022950
-0.069329
-0.030835
0.067530
0.173737
-0.065718
0.036511
-0.057650
0.077163
-0.013749
-0.038603
-0.191225
-0.178966
-0.134704
0.131613
-0.033908
0.036150
0.204660
-0.014919
0.081086
-0.059856
0.115849
0.066864
-0.316035
0.101891
0.091861
-0.075535
0.024003
-0.022961
-0.061820
-0.082164
-0.074397
0.053586
-0.025198
0.151262
-0.156114
-0.007233
-0.049878
0.146755
0.019198
0.076979
0.139667
-0.012602
-0.222985
0.038750
-0.107987
0.015526
-0.260769
0.105203
-0.141009
0.013755
0.077494
0.050392
-0.045968
0.072856
-0.027832
0.022408
0.030689
-0.033268
0.009120
0.001296
-0.085405
-0.027602
-0.100546
-0.188487
-0.165040
0.071592
0.076743
-0.173163
-0.083717
0.040609
0.035025
-0.029595
-0.172628
0.044155
-0.007293
0.005956
0.053137
0.104299
0.104112
-0.041431
0.199537
0.062621
0.185201
0.043577
0.001338
0.213273
0.034102
-0.050210
0.001268
0.054920
-0.047960
-0.209551
0.059550
0.035815
0.058740
-0.319501
-0.026367
-0.151101
0.142355
-0.208785
0.288071
-0.158131
-0.065730
-0.114801
0.012277
0.005182
0.105259
-0.055913
-0.065634
-0.066301
-0.082485
0.058217
0.018671
-0.081731
-0.061217
0.005165
-0.046811
-0.077048
0.052459
0.062039
-0.113326
-0.127130
-0.061196
-0.055114
0.125511
0.075456
-0.006356
-0.059264
0.014595
0.005743
0.002089
-0.049013
0.021362
-0.117453
-0.021261
0.168623
-0.020494
0.023238
0.147347
0.000451
-0.017742
0.023677
-0.104721
0.077125
-0.040230
-0.056050
-0.008212
-0.009973
-0.004448
0.036066
-0.005607
0.074514
-0.013953
0.012647
-0.073778
-0.227634
0.068152
-0.029982
-0.077822
0.083611
-0.026022
-0.089584
-0.025107
0.033332
-0.147004
0.005894
0.022520
0.065558
-0.070839
-0.184482
-0.033047
-0.196494
-0.066682
0.042901
0.040159
-0.101297
0.001375
-0.004378
0.019492
0.006757
0.038240
0.052819
0.086405
0.009209
-0.039037
0.025791
-0.084551
-0.034886
-0.112087
-0.016598
-0.069311
0.021607
-0.105351
0.040858
-0.086669
0.038626
0.052531
-0.128286
-0.199004
0.007285
-0.052932
0.046673
0.037729
-0.111844
-0.038599
-0.159684
-0.068493
-0.130281
0.043236
0.074183
-0.011129
-0.122702
0.068776
-0.120552
-0.107120
0.014989
-0.139374
-0.054037
-0.002014
-0.187778
-0.018323
-0.068462
-0.014825
-0.046308
0.029844
-0.034716
-0.140129
-0.097662
-0.123031
-0.042080
-0.006321
0.000061
0.025804
-0.050877
-0.014525
-0.069731
-0.085236
-0.035829
0.076828
-0.077091
0.003537
-0.128273
-0.019847
-0.017707
0.011088
-0.029911
-0.124204
-0.007302
-0.113987
-0.058703
-0.131681
-0.064046
0.009226
-0.215417
-0.026243
0.064869
0.057949
-0.056029
-0.068175
0.026685
-0.089250
0.175815
-0.251153
0.007738
0.106455
-0.064912
-0.044894
-0.109738
0.063420
0.050205
-0.280921
-0.083379
0.045941
0.088713
-0.157896
0.054058
0.084475
-0.039900
-0.147325
-0.012895
0.081510
-0.026839
-0.227999
0.079814
-0.059255
0.004177
-0.228635
0.084600
0.167688
-0.101672
0.004658
0.062899
0.005275
0.028430
0.072064
0.177542
0.039750
-0.043188
-0.034980
-0.146048
0.015055
-0.014975
-0.045637
-0.188340
-0.058627
0.000096
0.124554
-0.146936
-0.106040
-0.135675
-0.110506
-0.040250
-0.018836
0.031428
-0.050305
-0.042164
-0.013960
-0.029940
0.196135
-0.055163
0.132394
-0.046681
0.095736
0.250433
0.187778
0.322236
-0.021760
0.087842
0.099203
-0.000230
0.038179
-0.328017
-0.084203
0.183767
-0.065835
-0.115065
0.067232
-0.091875
0.183900
-0.289854
0.247799
0.029946
-0.155934
-0.011188
0.043033
-0.017569
-0.085367
-0.305655
0.192136
0.138525
0.038240
-0.295247
-0.055035
-0.049828
-0.048954
-0.092126
0.033574
0.048393
-0.036743
-0.057904
0.097634
-0.028349
0.018746
-0.004152
0.071285
0.145702
0.127127
0.035942
0.192987
-0.047440
0.129868
0.274232
-0.079377
-0.212951
0.076405
0.191294
-0.316728
-0.054545
-0.051011
0.041121
0.127660
-0.119770
-0.093993
0.151572
0.072176
-0.033210
-0.060984
-0.180848
-0.074771
0.036815
-0.013724
0.028970
0.090040
-0.099372
0.123839
-0.106761
-0.074398
-0.052070
-0.138102
-0.017097
-0.111062
0.036112
-0.092126
-0.032912
-0.124748
0.088083
-0.068077
0.090765
-0.079952
0.086644
-0.014122
-0.122917
-0.033611
0.031653
-0.081056
-0.243558
-0.044113
0.007838
-0.035486
-0.165162
-0.012738
0.002271
-0.277323
-0.162929
-0.126091
0.088632
-0.016120
0.146179
-0.102147
0.013686
-0.056794
-0.101562
-0.058244
0.082682
-0.041456
-0.054842
0.078370
-0.110534
0.024899
0.007943
0.019801
0.098899
0.077565
0.018109
0.110382
-0.037941
-0.073951
0.002702
0.009107
-0.019338
-0.068846
-0.229069
-0.035201
-0.025258
0.018495
-0.048036
0.086070
0.134829
-0.087337
-0.200315
-0.088641
0.031919
-0.158301
0.075644
0.090876
-0.001216
0.135177
-0.034781
0.024008
0.112319
0.053914
-0.125541
-0.029715
-0.016173
-0.015346
-0.031050
-0.022553
-0.041344
-0.016831
0.029461
-0.050074
0.118999
-0.203195
-0.179247
0.118402
-0.093714
-0.115313
0.007101
-0.197314
0.060820
-0.135265
0.038603
-0.039147
-0.129986
0.008494
-0.035987
-0.306176
0.018373
-0.119605
-0.034245
0.056851
0.065423
0.087513
0.062457
0.036435
0.125669
-0.015705
0.292102
0.043394
0.119286
0.204038
-0.062338
0.017953
0.223477
0.186060
-0.116150
0.010669
-0.002143
0.156712
-0.035880
0.102623
0.022283
0.197059
0.023664
-0.008294
-0.042535
-0.053318
-0.018988
-0.065212
0.295046
-0.052306
0.191981
0.206180
-0.012210
0.011563
-0.330786
-0.050704
0.278627
-0.065343
-0.036304
-0.023543
0.026035
-0.011043
-0.130091
-0.075869
0.007687
0.025359
0.088406
0.217445
-0.008991
0.211078
-0.123125
0.091057
-0.035381
0.024196
-0.112484
0.003445
0.102405
0.113581
0.028251
-0.029723
0.286798
0.195427
0.093060
0.014442
0.148199
-0.286282
-0.231689
-0.073843
-0.037733
0.034310
-0.067118
-0.011180
-0.128040
-0.208380
-0.123907
-0.008035
0.095289
-0.050478
-0.079805
0.181324
-0.153355
0.067474
0.085062
-0.276872
-0.012226
0.197136
0.012321
0.113244
-0.036415
-0.080784
0.074425
0.074900
0.041359
0.022466
0.066900
-0.088816
-0.147462
-0.015606
0.048319
-0.062280
0.266491
-0.028144
0.035124
0.031745
-0.128040
0.132862
0.041923
-0.038498
-0.008041
-0.060784
-0.055628
0.083451
0.141458
0.029413
-0.018557
0.129167
0.011374
0.141067
-0.058091
-0.064623
0.217840
-0.003648
0.057061
0.065648
-0.081373
-0.076665
-0.055964
-0.104760
-0.226591
0.068485
0.040933
-0.028060
-0.191806
-0.066133
0.068870
-0.004150
0.200409
-0.028762
0.042431
0.017974
0.255434
-0.043247
-0.062000
-0.117452
-0.106220
-0.087839
0.095859
0.124024
0.007328
-0.180968
-0.045473
-0.016113
0.018015
0.092260
-0.193512
-0.050293
-0.194509
-0.035512
0.170052
-0.076142
-0.090618
0.096129
-0.005269
0.009450
0.008863
-0.359011
0.094502
0.184611
0.074858
0.063719
0.106679
-0.068958
0.051962
-0.042258
-0.007142
0.027142
0.157083
-0.100200
-0.062750
-0.130260
0.008850
0.101969
0.307294
-0.235985
0.086458
0.215768
-0.040833
-0.038717
-0.023739
0.033504
-0.102348
0.057014
0.023739
-0.273505
0.064861
0.048151
0.327287
0.101763
0.055538
0.022389
0.062049
-0.019789
0.022529
-0.004325
-0.018233
-0.129374
0.040387
0.046812
-0.095579
0.079964
0.037520
-0.082501
0.047128
-0.002825
-0.017170
-0.003766
-0.504971
-0.011835
-0.092242
-0.079740
-0.063594
-0.115495
-0.257190
0.053796
0.002440
-0.011722
-0.058675
-0.005404
0.072343
-0.034778
0.097091
0.027911
-0.077312
0.092407
0.005851
-0.327244
0.034033
0.068439
0.032846
-0.131012
0.219977
0.253924
0.005937
-0.049202
0.051506
0.032373
-0.122383
-0.041552
0.245486
-0.062672
0.065269
0.048538
-0.026583
-0.011485
0.037724
-0.019491
0.067780
-0.048735
-0.062672
0.110445
-0.004384
0.110602
0.006670
0.141318
0.117095
0.037054
-0.086985
0.149141
-0.086985
0.031331
0.261145
-0.004800
0.045716
-0.078999
-0.282518
0.051227
0.153420
0.033720
0.263680
-0.002825
0.080069
0.216482
-0.136931
-0.257155
0.021819
0.086787
0.113207
0.116781
0.058319
0.060736
-0.002949
0.122684
-0.016575
0.021161
-0.064698
-0.023269
-0.208568
-0.122841
-0.013798
-0.479727
-0.049701
0.102582
-0.524953
0.018520
-0.285666
-0.085960
-0.396350
-0.024814
-0.015266
0.060684
0.014217
-0.374195
-0.064196
-0.050146
0.159736
0.309657
-0.434098
0.059074
0.012584
-0.282909
-0.022355
0.059891
-0.190950
0.010569
0.064642
0.057885
0.132297
0.076770
0.052337
-0.022828
0.087059
-0.004217
0.072271
-0.450751
-0.050106
-0.049723
0.054976
-0.005585
-0.054994
0.074197
0.140210
-0.171019
0.042740
0.245380
0.224110
0.179351
0.041494
-0.096164
-0.054593
0.040733
0.035906
0.266245
-0.166499
0.068815
-0.039593
-0.187850
-0.061175
-0.045199
-0.077173
-0.237511
-0.003061
0.024422
-0.087468
0.128557
0.072466
-0.002969
0.006483
-0.027422
0.118660
-0.078455
-0.066687
0.050897
-0.208550
0.086721
0.013591
0.128140
0.005072
-0.082459
-0.032504
0.095031
-0.160092
0.041794
-0.005223
0.133410
-0.015922
0.179590
-0.003484
0.089803
-0.189531
0.085352
-0.033033
-0.109621
0.047360
0.053811
-0.102632
0.093611
-0.103867
0.050725
0.030267
-0.021332
-0.053521
0.126611
-0.151922
-0.024658
0.071205
-0.309920
0.217029
0.048053
-0.092842
-0.136924
0.118026
0.254215
0.064794
0.005657
-0.086559
-0.059954
0.119949
0.061723
-0.069185
-0.250530
-0.137649
-0.011954
-0.024195
-0.081724
-0.296930
-0.026675
0.251781
0.009775
0.040700
0.045331
-0.043180
0.065009
0.142495
0.002868
0.216390
-0.132679
0.179815
0.044365
0.117141
0.115613
0.156196
0.092110
-0.002772
-0.146764
-0.021345
0.047941
0.114925
0.069202
0.122085
-0.039689
0.176499
0.061758
-0.067612
0.157480
0.129460
-0.092079
0.061261
-0.031129
0.043582
-0.009818
0.031972
-0.257001
0.139613
0.029950
0.236140
-0.069205
-0.046469
-0.148981
0.039360
-0.016580
-0.221672
-0.024271
-0.114442
-0.015148
-0.069183
-0.137809
0.054923
0.072131
0.018446
0.387024
-0.143141
-0.188096
0.142085
0.147950
0.144062
0.043008
0.199605
0.045608
0.073229
-0.019296
-0.185120
0.049154
0.031471
0.239798
0.093925
0.085184
0.001800
-0.012163
-0.069042
0.120778
0.176344
0.114672
-0.059163
-0.211731
0.057212
-0.039153
-0.040560
-0.116928
0.104168
-0.128933
0.249278
-0.021572
-0.011210
0.023414
0.156172
-0.056735
0.076139
-0.089343
-0.005511
-0.060612
0.002433
0.034929
-0.246984
-0.094342
-0.069874
0.172797
-0.004113
-0.164309
-0.084682
-0.082767
-0.129999
0.115510
-0.018834
-0.006228
0.115692
-0.004808
-0.189038
0.248864
0.013408
0.135855
0.087667
0.291640
0.086809
0.239899
0.062702
-0.115086
0.106624
0.009938
0.026838
-0.042449
-0.012229
-0.595570
-0.098433
-0.037710
-0.176241
0.057186
-0.456384
0.218098
-0.380489
0.144912
-0.239944
-0.112882
-0.097884
-0.123737
-0.094555
0.143608
0.015399
0.038088
0.049120
0.006209
-0.241836
0.068456
0.077817
-0.209032
0.023461
0.021168
0.170399
-0.078156
0.082680
-0.094435
0.173910
-0.026092
-0.037395
0.180090
-0.010293
0.194466
0.081870
0.171019
0.082799
-0.000284
0.388584
0.054061
-0.018181
0.012389
0.255476
-0.143465
0.022773
0.144188
-0.056525
-0.276624
0.026107
-0.146509
-0.021098
0.030602
-0.151989
-0.039928
0.007023
-0.013150
-0.156663
0.097006
0.034664
0.054343
0.173989
-0.156527
0.187895
-0.033593
0.142607
-0.113743
0.034179
-0.052204
0.046807
-0.177505
-0.001557
-0.029697
-0.006205
-0.033792
-0.003304
-0.161932
0.175684
-0.134470
-0.120019
-0.296053
-0.020996
0.100930
-0.155070
0.091220
-0.134460
0.063583
0.168155
0.040274
-0.067644
-0.146682
0.047763
-0.098586
-0.056476
-0.149003
-0.279861
0.051900
0.022382
0.018295
-0.037223
-0.052849
-0.034831
0.020901
-0.009493
-0.032095
-0.106539
0.149332
0.027346
0.034838
-0.166251
0.034624
0.151064
0.086599
0.129167
0.006528
-0.030458
-0.030412
0.087474
-0.039524
-0.200438
-0.171442
0.271859
-0.144887
0.157469
0.080935
-0.376836
-0.029992
-0.134287
-0.078256
-0.206178
0.137192
-0.063659
-0.126512
-0.020621
-0.174676
-0.043365
0.025127
0.120116
-0.005550
0.082437
0.069855
-0.011245
0.227584
-0.006943
0.015391
-0.157414
-0.043167
-0.078691
-0.018718
-0.359219
-0.240371
0.037125
0.120565
0.034722
-0.175979
-0.034539
0.008372
-0.052930
0.069227
-0.112412
0.066321
0.025087
-0.032371
0.043690
0.077790
-0.079313
-0.379547
-0.065155
-0.191595
-0.064243
0.209829
0.095089
-0.035211
0.081100
-0.029911
0.021442
-0.058593
0.202949
0.193281
0.238266
-0.041566
0.471486
-0.011758
-0.100183
0.036450
-0.099794
0.081959
0.047773
-0.027342
0.000139
-0.016942
-0.038017
0.219644
-0.032092
0.155341
0.057171
-0.053098
-0.291173
-0.101387
0.086331
-0.131877
0.051187
0.003002
0.053178
0.032561
0.009822
0.073531
0.028337
-0.077615
0.069795
-0.230770
0.133065
0.148853
0.049339
0.156000
0.068053
-0.008339
-0.045833
-0.087837
0.014594
0.070857
-0.113205
-0.037240
-0.018707
0.024728
-0.378585
0.001515
-0.013452
-0.345156
-0.091669
-0.089820
-0.202847
0.044121
0.089778
0.068948
0.030243
-0.055946
-0.102688
0.038780
-0.091467
-0.063982
0.078371
0.115340
0.293866
0.075116
-0.257575
0.117792
-0.147108
-0.169918
-0.003117
-0.053515
0.031145
0.059858
0.028585
0.133215
0.108635
0.166973
0.070324
-0.042740
0.065054
0.007927
0.106157
0.029638
0.021946
0.086660
0.112902
0.080530
-0.082751
0.032499
-0.065585
0.402296
0.035731
0.207637
0.119003
-0.064724
0.035491
0.096924
-0.060069
-0.076848
-0.050417
-0.009332
0.112116
0.069455
0.070808
0.239256
-0.007496
-0.002158
-0.040087
0.187138
0.330484
0.179574
0.102618
0.216493
-0.178300
0.031920
-0.446943
-0.024184
0.042559
0.150033
0.049791
-0.052965
-0.223352
0.007896
-0.144533
0.033186
-0.152853
-0.144934
-0.083577
-0.064364
-0.372687
0.081587
-0.024794
0.083826
0.037054
-0.003354
0.038422
0.325164
-0.190749
0.182251
-0.028944
0.295946
-0.014032
-0.071384
0.088051
0.058338
-0.009892
-0.009031
0.081210
-0.000405
0.005088
0.039069
0.338790
-0.056770
0.079531
-0.086180
-0.263246
-0.130324
-0.018397
0.024354
-0.060700
0.047350
-0.025549
0.052147
-0.064642
0.046186
-0.078757
-0.195151
-0.038020
-0.327523
-0.218776
-0.109762
0.011387
-0.175554
0.290524
0.019276
0.019706
0.072928
0.079086
-0.012879
-0.101777
0.235240
0.087887
-0.044771
0.083095
-0.061245
-0.137231
-0.006175
0.029936
-0.092109
0.192031
-0.001285
0.120040
0.030803
0.020452
-0.051297
-0.441444
0.210073
0.069992
-0.066539
-0.035187
-0.079067
-0.038723
-0.412055
-0.001288
0.054227
0.182083
-0.043912
0.048986
0.253790
-0.022832
0.284339
0.138514
0.155488
-0.047143
0.088578
0.032706
0.095162
0.071022
0.141380
-0.019873
-0.060144
-0.161261
-0.107059
-0.083689
-0.255314
0.094356
0.033037
-0.009585
0.178456
-0.101555
0.189586
-0.179167
-0.113566
0.224872
0.043548
0.191241
-0.019879
-0.055788
-0.003980
-0.229868
-0.071965
-0.122239
0.355196
0.034269
0.074479
-0.159519
0.077308
-0.024710
0.066943
0.160943
0.383014
-0.054338
0.024154
0.088092
0.077427
-0.040890
0.139025
0.300221
-0.112451
0.153222
-0.071038
0.117529
-0.076146
-0.254874
0.013850
0.264019
-0.061084
0.039038
0.005176
0.000283
0.257944
0.096794
-0.242372
-0.060577
0.095310
0.096412
0.000785
0.050796
0.024025
-0.098883
0.180157
0.010163
-0.062715
0.055204
0.001787
0.027463
0.063362
-0.108391
-0.006283
0.065941
-0.186031
-0.370059
-0.012946
-0.056976
-0.427339
-0.097956
0.088245
0.048084
-0.009455
0.309327
-0.440148
-0.111810
-0.238100
0.022919
0.063618
0.030588
-0.140587
0.080690
-0.146642
-0.222259
0.117423
0.135097
-0.199724
0.054704
0.069863
-0.045228
0.091932
0.021916
0.056505
-0.059298
0.032256
-0.014445
-0.176146
-0.017366
-0.069308
0.011049
0.077798
-0.015874
-0.232101
0.136020
-0.176929
0.005760
0.083238
-0.003000
0.110817
0.100747
0.064651
-0.077928
-0.008041
0.046858
0.048634
0.133837
-0.011903
0.089988
0.111697
0.095766
0.039633
0.080772
-0.373306
-0.114963
0.059324
-0.045041
0.033320
0.010685
-0.033341
0.006826
0.088276
-0.027506
0.079067
0.004336
0.026608
-0.024313
-0.074457
-0.119153
-0.046355
0.040413
0.053616
0.004915
-0.065188
-0.040464
-0.117215
-0.026509
-0.066112
-0.038530
-0.053426
-0.043259
0.056415
0.034736
-0.146894
-0.022955
-0.162529
-0.012976
-0.020174
-0.067374
0.026793
-0.194047
0.033530
0.001466
-0.007313
-0.042289
0.039185
0.030728
0.010576
-0.071353
0.023602
-0.057761
0.018772
-0.016218
-0.106033
-0.120590
-0.066181
0.079426
0.031851
-0.034301
-0.046021
-0.106834
-0.170949
-0.059095
0.036866
-0.132404
-0.104215
0.008393
-0.182059
-0.048623
0.057144
0.014249
0.003834
0.059276
0.033457
-0.049646
-0.086266
-0.076242
-0.126023
-0.128500
-0.006880
0.064302
-0.006242
-0.025388
-0.132582
-0.025066
-0.062786
-0.094459
0.016211
0.078496
0.024734
-0.092754
-0.095772
-0.051514
0.089707
-0.084579
0.005297
-0.039114
0.011487
0.081942
-0.052586
-0.151345
-0.056085
0.068850
-0.155352
-0.047172
-0.069068
-0.030764
0.019525
-0.116784
0.037191
0.063833
-0.026002
0.016194
-0.021680
0.062614
0.028297
-0.041686
-0.018085
-0.023311
-0.029101
-0.066104
-0.066469
0.085898
-0.093525
-0.140311
-0.211657
0.259946
0.089841
0.110973
-0.043070
0.137657
0.051564
0.124910
0.059119
0.256163
-0.046630
0.413708
-0.042884
-0.155577
-0.024804
0.199559
0.135793
0.042908
0.097135
-0.151570
-0.180788
-0.057831
-0.082276
0.065971
-0.017410
0.159937
-0.143027
-0.075992
-0.125296
0.261129
0.020533
-0.065032
-0.065043
0.016629
-0.062397
-0.073706
0.024808
-0.108922
-0.008291
-0.084307
-0.002094
-0.070885
0.236711
-0.075298
0.061892
-0.140801
0.030963
0.092861
0.102617
0.047202
-0.149567
0.005252
0.042476
0.078122
0.078660
-0.080502
-0.129719
-0.041403
0.231209
0.145123
0.074387
0.258291
0.071904
0.288413
-0.075361
0.062605
-0.044835
-0.071826
-0.042315
0.078146
0.301016
-0.095535
0.187814
-0.048147
0.058167
-0.312233
0.036681
-0.163522
0.092144
-0.064487
0.087011
-0.154938
0.167522
0.018450
0.171884
-0.108823
-0.230303
0.006479
0.009173
-0.167521
-0.017773
-0.058739
0.078194
-0.067982
-0.063946
-0.033433
0.074514
-0.005688
-0.065613
0.105379
0.295166
-0.048923
0.103625
-0.112344
0.095872
0.004136
0.098311
0.018035
0.045517
0.103978
-0.036988
-0.224557
-0.041727
0.020537
0.105558
0.082805
-0.013771
-0.086678
0.095584
0.044360
0.180667
-0.176628
-0.332816
-0.065754
0.063447
0.026422
-0.036411
-0.067851
0.228774
0.062844
0.074877
0.513907
0.022672
-0.245028
-0.060087
-0.048127
0.116576
0.054424
-0.159500
-0.268023
-0.046188
-0.012302
-0.051642
0.018011
-0.247203
0.055452
-0.215640
-0.215778
0.246996
0.155702
0.306495
-0.038045
-0.005227
-0.066721
0.007342
0.230159
0.047266
0.031614
0.035061
0.044347
-0.070105
0.146353
-0.001269
0.049751
-0.019592
-0.470199
0.056700
0.032774
0.131797
-0.142375
0.042205
0.027763
-0.055214
-0.054666
-0.085859
-0.154107
0.011896
0.024186
-0.016683
0.131992
0.142376
0.305127
-0.075519
0.040614
-0.259040
0.062486
-0.020123
0.056806
-0.051095
-0.137561
-0.039603
0.125536
-0.237185
0.128603
0.075598
-0.308625
-0.085788
0.063085
0.036329
-0.049276
0.180003
-0.098139
0.202754
-0.054563
0.070789
-0.141498
0.072612
0.025379
0.014468
0.044595
-0.061008
0.043196
0.104301
-0.004766
0.013041
0.097379
-0.007483
-0.085454
0.169823
0.146631
0.654881
-0.025316
0.054655
-0.232931
0.090455
0.072467
-0.070191
-0.055088
0.085187
0.008679
0.085288
0.049179
-0.009713
-0.180193
0.300090
-0.021889
-0.002435
0.055643
0.043148
0.063730
-0.049774
0.022071
-0.316712
-0.001997
0.037113
0.183766
-0.016564
-0.295731
0.197531
-0.275732
0.063826
0.058488
0.277138
0.006637
0.033973
-0.044663
0.013641
-0.044998
-0.123113
0.059134
0.293456
-0.025728
-0.107619
-0.085628
0.096714
-0.026736
0.226861
0.028717
-0.378225
0.019333
0.062498
-0.038701
0.070678
0.017263
0.042402
0.213858
0.058301
-0.098449
0.041051
0.061691
0.056965
0.301207
-0.086051
-0.066122
0.051816
0.045208
-0.049144
0.060668
-0.175789
-0.239655
0.137332
-0.004071
0.017019
0.001319
0.075976
-0.131573
-0.102191
-0.050683
0.036552
-0.071898
-0.281713
0.138232
0.151377
-0.024043
-0.122658
0.320467
-0.082901
0.053596
-0.041294
0.168955
-0.197115
-0.177431
-0.165268
-0.062022
0.003222
0.171997
-0.087634
-0.150729
0.030504
-0.066900
-0.013493
0.088696
-0.135608
-0.079982
-0.073656
0.001966
0.024038
-0.106957
0.011386
-0.082432
-0.005477
0.005330
0.074873
0.016807
0.010727
-0.047699
-0.023255
0.059971
-0.132559
0.092151
0.157315
-0.137687
-0.035332
-0.107028
-0.080993
0.000471
0.118602
-0.066932
0.002053
0.065531
0.088868
0.010428
0.000626
0.028564
0.153065
0.011528
-0.086474
-0.004432
-0.171628
0.003706
-0.056158
-0.046118
0.036125
0.083844
-0.079074
-0.049887
-0.043355
-0.196136
0.074494
-0.074477
-0.021546
-0.229828
0.100509
-0.039208
-0.016563
0.127152
0.071269
-0.054097
0.060060
0.147906
0.140423
0.069052
-0.167427
0.054902
-0.006591
0.112115
-0.029224
0.333934
-0.099121
0.164021
0.047603
-0.034393
0.083423
-0.188880
-0.093052
0.064447
-0.050349
0.018828
0.014292
-0.001931
0.316011
0.242232
0.072660
-0.013272
-0.200620
0.031825
0.178213
0.094067
0.104558
-0.298616
0.004130
0.057991
-0.068900
0.052574
-0.004407
0.145091
0.050911
0.000128
-0.080691
0.147256
0.001622
-0.097281
-0.109228
-0.001870
-0.005252
-0.025215
0.033719
0.029882
0.006377
0.113529
-0.079849
-0.177921
-0.150977
0.017725
-0.050243
0.173303
0.009169
-0.093343
0.089335
-0.215894
0.047172
0.215606
0.025415
0.062939
0.086677
0.107835
0.081000
-0.182597
-0.005403
0.082611
-0.041034
0.070293
-0.021484
0.033183
0.042381
-0.296420
-0.029958
0.071483
-0.235677
0.153193
-0.036884
-0.107385
-0.101035
-0.105923
0.057132
-0.040025
0.041238
0.064158
-0.002457
0.037285
0.103696
-0.037349
0.087939
0.045263
0.064036
0.059399
0.007989
0.002053
-0.280228
-0.107103
-0.040478
-0.087810
-0.149235
-0.041920
-0.024477
-0.036024
-0.036432
-0.143486
-0.129983
-0.135185
-0.000346
-0.080315
-0.082166
0.138410
0.081320
-0.044990
-0.076608
-0.088002
-0.029557
-0.169767
-0.070961
-0.028767
-0.148249
0.045885
-0.019241
-0.070034
0.070135
0.010169
0.007620
-0.243452
0.093818
-0.007233
-0.033837
-0.008611
-0.087475
0.067573
0.051792
-0.104988
0.033462
0.062101
0.124317
-0.112659
-0.067532
0.032594
-0.050467
-0.042527
-0.035797
0.039148
-0.109275
-0.114809
-0.110616
-0.047686
-0.091023
0.037318
-0.068532
-0.041791
0.102002
0.034278
-0.032367
0.040225
-0.019727
-0.038938
0.102484
-0.100680
-0.038857
0.022221
0.032948
0.072177
-0.072581
-0.022315
0.091473
0.055991
0.013065
-0.099732
-0.226946
0.010079
-0.017446
-0.148898
0.021664
-0.083385
0.011942
0.000836
-0.252041
0.077098
-0.170642
-0.083959
0.015931
-0.180227
0.086368
-0.127374
0.070501
-0.054869
-0.044948
-0.025642
-0.066395
0.146306
-0.050874
0.012265
0.086978
-0.063384
-0.116064
-0.175178
0.068386
-0.017135
-0.093293
0.003091
-0.135888
0.074700
-0.034908
-0.041993
-0.161835
0.076969
-0.032372
-0.167243
-0.081730
0.030921
-0.159588
0.025374
-0.064493
-0.093541
0.107163
-0.115466
0.061928
-0.052315
-0.021066
-0.091167
0.091143
0.126959
0.221950
0.102013
-0.082619
-0.211752
0.007806
-0.177031
-0.003348
-0.131570
0.150098
0.047738
-0.088491
-0.303309
-0.015882
0.035216
0.135325
-0.116594
-0.256855
-0.042538
0.017506
0.228487
0.099891
0.244843
0.133651
0.058801
-0.034233
-0.496929
0.052223
0.042701
-0.056760
0.081233
-0.082300
-0.055029
-0.107043
0.108503
-0.177837
-0.069932
-0.379987
-0.144316
0.383081
-0.044583
0.126411
-0.154676
0.067770
-0.042065
-0.093896
0.012515
-0.057882
0.175017
0.296107
-0.052121
-0.221566
0.062347
0.092829
-0.087502
-0.071013
0.114684
-0.101465
-0.278943
0.012977
-0.045642
-0.040356
-0.238784
0.012568
0.228238
-0.186591
0.204566
-0.005398
-0.048763
-0.096275
0.123846
0.104007
-0.124747
0.226199
-0.112597
0.285513
0.005346
-0.131284
-0.123799
0.167275
0.061041
-0.024612
0.301228
0.061316
-0.047739
0.058063
0.106718
0.008511
-0.076595
-0.034111
-0.042399
0.052214
0.182239
-0.146477
0.120469
0.198133
-0.048510
0.098667
0.116413
0.019355
-0.056155
-0.266180
-0.393369
-0.034510
0.032747
-0.070627
0.075762
0.008060
0.016402
0.053462
-0.050095
-0.007451
-0.171745
-0.180577
0.334787
0.009539
-0.115399
0.059683
0.053845
-0.058848
-0.215987
0.061066
0.279126
0.088668
0.311907
-0.100646
-0.287593
-0.011746
0.153381
0.064717
0.036615
0.129624
-0.100399
-0.395543
0.031854
-0.190390
-0.077603
0.001872
0.062518
-0.358102
0.107604
0.063076
0.152414
-0.080562
-0.057148
0.063214
-0.302509
0.005094
-0.226124
0.057965
-0.096882
-0.041337
-0.004360
-0.196013
0.047771
0.121895
-0.057488
-0.353828
-0.244444
0.024668
-0.064836
-0.048774
0.021197
-0.114546
0.013711
-0.025289
0.038624
0.029212
0.001844
-0.057802
0.059295
-0.138584
0.144541
0.091959
0.150839
-0.128074
-0.069659
0.239087
-0.184300
0.038106
0.013875
0.035013
-0.166011
0.290212
-0.187900
0.035363
-0.064315
-0.016460
-0.020354
-0.165497
-0.161938
-0.268746
-0.148243
-0.117836
-0.059201
0.112681
-0.033265
-0.173234
-0.142117
-0.214343
-0.150192
-0.019748
-0.032593
-0.069181
0.026320
0.032562
0.010834
-0.005169
-0.367430
0.017537
0.033425
-0.151806
-0.345511
0.285775
-0.370125
0.017641
-0.154313
-0.215079
-0.093820
-0.174251
-0.027187
-0.132603
-0.311368
-0.175949
0.103117
-0.015239
-0.281906
0.189963
-0.071354
0.066272
-0.003592
0.075851
0.096149
-0.032122
-0.187052
0.006278
-0.051219
-0.007900
0.080268
0.097646
0.090902
0.020566
0.062311
-0.081284
0.048608
-0.177006
0.276767
0.055871
-0.022116
0.042899
-0.004783
0.133747
0.166872
-0.090700
-0.009974
-0.040963
0.041010
0.129868
-0.025061
0.132136
-0.107326
-0.174919
0.008824
-0.185459
0.036356
-0.070427
0.025986
0.070348
-0.050637
-0.072911
0.128091
0.076492
-0.016351
-0.033450
-0.103640
0.208486
0.017490
0.246970
-0.015988
-0.148926
0.088485
-0.065785
-0.038852
0.078642
0.016148
0.000759
-0.058156
-0.043718
-0.356121
-0.135299
0.083853
0.071657
-0.117184
-0.081203
0.033378
0.142186
-0.132019
0.263578
0.304313
0.083710
-0.049307
-0.091262
0.176989
-0.065087
0.186642
0.146557
0.018150
-0.042263
-0.285414
0.013373
0.026402
-0.122278
0.040411
-0.017673
0.067605
-0.035447
-0.023333
-0.157307
0.369139
0.088386
0.120892
-0.102511
0.054700
-0.048146
-0.033861
0.125718
-0.048709
0.031241
0.050488
0.045545
0.083775
0.065891
-0.094567
0.115202
0.039714
0.150255
0.272404
0.057637
-0.047494
0.206795
-0.001201
-0.149744
0.150812
0.016877
0.063435
-0.048793
0.146849
-0.014141
0.011485
-0.055935
-0.018944
-0.052392
0.030073
0.142341
0.012373
0.088499
-0.137050
0.026925
-0.267428
-0.030388
0.007969
0.240643
0.188250
-0.001597
-0.172522
-0.213866
0.046136
-0.048433
-0.058971
0.069137
0.060051
-0.104066
-0.153056
-0.264561
0.111464
0.233265
0.018545
-0.095979
-0.017553
-0.261580
-0.014252
0.011594
-0.022796
0.082019
-0.112448
-0.054742
0.014859
-0.045182
-0.168053
-0.049135
0.028462
0.018844
-0.035842
-0.225305
0.033459
0.056122
-0.039995
0.011756
0.042159
0.089859
-0.004440
-0.005779
0.043224
-0.006413
-0.149966
0.024317
0.030794
-0.083840
0.018172
-0.005201
-0.051602
-0.178817
-0.245950
-0.003462
-0.251923
-0.018850
-0.149262
0.143009
-0.010375
-0.038781
-0.018761
0.063258
-0.103677
-0.192089
0.392438
0.161128
0.249145
0.092934
0.075546
0.119353
0.067744
0.008687
0.092734
-0.006489
-0.020525
0.165984
-0.053658
0.127979
0.166701
0.124130
0.036681
-0.042749
0.099077
0.064479
-0.070370
0.139300
0.099817
-0.050879
-0.133997
-0.040783
-0.050410
0.267921
-0.212770
0.241063
0.024315
0.090598
0.060328
0.015314
0.089377
0.009928
0.058779
-0.003359
0.023761
-0.054273
0.097464
-0.013059
-0.151619
-0.073738
-0.115379
-0.000151
0.023904
0.065748
-0.330292
-0.089832
-0.220791
-0.142165
0.249689
-0.083506
0.073151
0.087921
-0.092769
0.003989
-0.127332
0.064180
-0.321059
-0.036646
-0.196810
0.065767
-0.013345
-0.101194
0.028477
0.116522
0.119428
-0.131867
0.020246
-0.179155
-0.057339
-0.046305
0.071550
0.071696
0.028443
0.046844
0.035332
-0.011439
-0.040719
0.039279
0.177573
-0.001353
-0.237864
-0.027183
-0.120543
-0.046776
-0.010056
-0.111606
0.127950
0.074348
-0.081347
0.242305
0.020574
0.035432
-0.071887
0.042744
-0.001072
-0.015432
0.047988
0.012539
0.009137
-0.011584
0.018840
-0.074212
0.082388
0.048114
0.071161
-0.001328
0.159253
0.086234
0.041863
-0.184318
-0.131921
0.071057
-0.087582
0.038461
0.012343
0.054027
-0.096722
0.049833
-0.207686
0.098039
-0.026783
-0.037526
-0.105891
-0.030223
0.036461
-0.111108
-0.053534
-0.003342
0.062600
-0.017679
0.040649
0.035060
0.058698
-0.059553
-0.171353
0.044469
-0.016479
0.197240
0.016539
0.032030
0.212070
-0.008226
0.081355
0.007181
-0.159418
-0.128209
-0.195289
-0.116359
0.028151
0.064864
0.049494
-0.072797
-0.058839
0.106860
-0.114847
-0.043104
0.053030
-0.054328
-0.179399
-0.250166
0.030581
0.072839
-0.072028
-0.012104
-0.275560
-0.034360
0.253247
-0.173529
0.056185
-0.012267
0.155063
-0.041142
-0.022122
0.276974
0.188985
-0.035813
-0.262602
0.099486
-0.140653
-0.083557
0.118866
0.247025
-0.020507
0.027274
-0.018007
0.146186
-0.065815
-0.085273
0.116674
0.114360
-0.006186
-0.249310
0.196702
0.121526
-0.095890
-0.091896
-0.028627
-0.039962
-0.098749
-0.001399
0.120102
-0.054544
0.078566
0.010608
0.118180
-0.071048
0.040446
0.161391
-0.050876
-0.015035
0.082170
0.157370
-0.057036
0.098731
0.186610
0.138569
-0.024703
0.031002
-0.041993
0.058051
0.148370
0.193745
-0.018447
-0.045751
0.233255
0.049232
-0.075698
0.096747
-0.165816
0.142793
-0.066238
0.019994
-0.001453
0.011362
0.119249
0.056521
0.138319
-0.025018
0.012250
-0.127121
0.117819
-0.144764
0.169210
-0.100779
0.038548
0.130119
0.079354
-0.198102
0.031263
0.139922
0.157453
-0.009953
-0.018228
0.016449
0.217990
0.073152
0.020064
0.071901
-0.059703
0.043485
0.033376
-0.047370
-0.036897
-0.258132
-0.022905
-0.152677
-0.099271
-0.065117
-0.128256
-0.038598
0.029809
-0.137948
-0.082699
-0.056104
-0.050966
0.056396
0.096902
-0.020139
0.109359
0.194463
0.065211
0.123355
0.010345
0.054573
0.025421
0.008697
0.009145
0.017568
-0.093143
-0.030445
-0.000169
0.088589
0.065514
-0.028742
0.036744
0.080472
-0.115648
-0.086598
-0.088280
-0.054268
-0.088345
0.027077
0.055411
0.048391
-0.080576
-0.016884
-0.020297
-0.103561
0.065430
-0.044942
0.050943
-0.016754
-0.094229
-0.088212
-0.000721
-0.071009
-0.033624
0.049979
0.002326
0.001132
-0.059682
0.010210
-0.085249
0.080500
-0.073305
0.028465
0.014470
-0.113231
-0.048540
-0.029827
-0.109500
0.026092
0.011950
-0.044404
-0.089178
0.025731
-0.038303
0.070449
0.017880
0.053333
-0.076482
-0.018504
-0.069274
-0.077398
-0.074581
-0.023264
0.016168
0.020875
-0.012962
0.056927
-0.014009
-0.006778
-0.046465
0.026032
-0.028019
-0.066384
-0.070922
-0.005883
-0.044981
-0.055625
-0.085910
-0.066226
0.016286
-0.073172
0.016953
0.003457
-0.065020
0.002423
-0.045322
0.059068
-0.057768
-0.041206
-0.126113
0.071472
-0.041864
-0.002629
-0.018576
-0.107523
-0.029448
-0.063094
-0.044494
0.016339
0.005291
-0.085577
-0.051344
0.023075
0.051191
-0.040138
-0.076975
0.007004
0.057276
0.038226
-0.038148
-0.079178
-0.028733
0.001845
-0.053223
0.044528
-0.103561
0.039099
0.064964
0.032856
0.020346
-0.088947
0.288087
0.267610
-0.062695
0.037272
-0.214706
-0.055033
-0.394410
-0.030973
0.005891
0.178104
0.145713
-0.049926
-0.496267
-0.154428
0.239748
-0.033077
0.071218
0.057768
-0.056389
-0.084580
0.070257
0.090950
0.049754
0.196651
-0.018203
-0.017496
0.062455
0.106472
0.018533
-0.143603
0.070012
-0.128984
0.083350
0.018143
-0.257844
-0.018607
-0.266396
0.017956
0.141901
0.021999
0.056379
0.014916
0.110363
-0.067529
-0.004052
-0.032276
0.064804
0.232943
-0.093789
0.070752
-0.002829
-0.101731
-0.037204
-0.067829
-0.008751
-0.116039
-0.004089
-0.316748
-0.108768
-0.086251
-0.150452
0.233616
-0.076621
-0.264852
-0.360512
0.052430
-0.206881
0.007276
-0.050787
0.009681
0.013780
-0.318111
-0.188651
-0.155016
0.156893
0.081726
-0.033417
0.095098
0.092582
-0.099365
0.181585
0.125027
0.165536
0.180006
-0.036585
0.061380
0.076352
0.060402
0.081405
0.056131
0.037026
0.030821
0.047990
-0.238822
-0.028996
0.088168
-0.137976
-0.067836
0.010738
0.085373
0.013449
-0.202702
-0.232285
0.267701
0.116298
0.132531
-0.035428
0.020747
-0.078899
0.190529
0.109892
0.205565
-0.163435
-0.037449
-0.154677
-0.423821
0.072781
0.038598
-0.009777
-0.288805
-0.088192
0.007620
0.002456
-0.126976
0.047037
0.067503
0.280402
-0.023256
0.008714
0.066085
0.316267
-0.069488
0.136581
-0.066575
0.135614
0.038204
0.088294
0.239730
-0.050411
-0.068885
0.018662
0.036019
0.065189
0.007869
0.052049
0.106861
0.052079
-0.277126
0.045165
-0.023045
0.031268
-0.240338
-0.084991
-0.047361
-0.114627
-0.090283
-0.061450
0.067664
0.173293
0.043610
0.032691
-0.031078
-0.178652
0.201810
0.041433
0.129304
0.119402
0.003014
-0.055287
0.074027
0.125925
0.012088
-0.029015
0.080263
0.052528
-0.005825
-0.163964
0.063685
0.018249
-0.206204
-0.000717
0.037263
-0.179658
0.278592
-0.173130
0.198532
-0.413278
0.009651
-0.075198
-0.019154
-0.055016
-0.210772
0.165371
-0.131847
0.154479
-0.034719
-0.185454
0.079567
-0.035370
-0.326895
-0.106786
0.109121
0.017300
-0.261743
-0.060612
0.171053
0.286395
-0.042557
0.049132
0.057411
0.270010
0.014800
-0.020572
0.160500
-0.063760
0.025549
0.096988
-0.038914
0.016878
-0.109958
-0.048457
-0.240147
0.036660
0.099368
0.190053
-0.092312
0.096437
-0.121847
-0.068068
-0.303114
-0.094967
-0.021063
0.163005
0.001826
0.126620
0.188376
0.062373
0.084621
-0.036064
0.011523
-0.342740
0.009085
0.033676
0.057642
0.303684
0.040039
-0.195449
-0.059606
0.002357
0.144183
-0.053351
0.024535
-0.145815
-0.056953
-0.264105
0.087085
-0.017593
0.096515
-0.079634
0.148164
0.199874
-0.035723
-0.015823
-0.216887
-0.087510
-0.125061
0.094410
0.063027
-0.058558
0.199908
-0.456402
-0.149268
0.015358
0.000984
-0.108855
0.091149
-0.063266
-0.044484
0.021453
0.062769
-0.085422
-0.022604
0.021513
-0.044415
0.014703
0.041016
0.174041
-0.106354
-0.015121
-0.027393
-0.047367
-0.109913
0.085136
-0.048564
-0.087985
0.095023
0.073648
-0.184352
-0.018332
-0.133939
-0.085687
-0.042530
0.231768
0.196902
-0.303784
-0.060306
-0.167537
0.040178
-0.063317
0.064312
0.088493
0.183103
-0.336118
0.013996
-0.098598
-0.100598
-0.160079
-0.071291
0.186768
-0.148474
0.179373
-0.033643
0.028505
-0.180131
0.057326
0.056805
0.034330
-0.211803
0.140184
0.018084
0.169668
0.050305
-0.023200
0.052508
0.022704
-0.074102
0.017356
0.084936
0.004923
-0.238418
-0.133441
0.080033
0.021463
-0.383972
0.033441
-0.296671
-0.037447
-0.166839
-0.074462
-0.158988
-0.157006
-0.081496
0.188944
-0.028574
0.063791
-0.274566
0.085439
0.181985
0.002135
0.006818
0.074097
-0.018217
-0.100278
-0.099615
-0.045099
0.050627
-0.206717
-0.115108
-0.031978
0.017250
-0.018732
0.079213
-0.360576
-0.163488
0.218361
-0.058172
0.127765
-0.007711
-0.023478
-0.060637
0.080687
-0.023701
0.008640
0.024081
-0.031958
0.016278
0.089273
0.117446
-0.290619
0.204753
-0.330173
-0.251522
-0.070104
-0.045328
0.003106
0.053745
-0.396376
-0.041340
0.050234
-0.021118
0.027476
0.032566
0.177868
0.066096
-0.062627
-0.099908
0.189569
0.071819
0.031118
0.152862
0.063563
-0.182370
-0.060484
0.017334
-0.080198
-0.022905
0.141816
-0.387837
0.030612
-0.073256
-0.027485
-0.047158
-0.019733
-0.194982
-0.407670
0.145452
-0.079285
-0.072413
0.059084
-0.045935
0.187609
-0.003813
-0.110866
-0.009914
-0.048431
0.092238
0.125288
-0.001939
0.245771
-0.165338
0.109248
0.102081
0.034513
-0.100824
0.045172
0.000932
0.114891
-0.216558
-0.011061
0.061552
0.089652
0.076502
-0.074452
0.074980
0.034381
0.008660
-0.148291
0.011042
0.032275
0.248479
-0.234017
-0.345378
-0.121120
-0.053851
-0.031040
0.005531
-0.060897
-0.043910
0.026675
0.163123
-0.106506
0.102393
0.168955
0.064323
0.045807
-0.453391
-0.073585
-0.037618
-0.021496
0.161192
0.098337
-0.146738
-0.279144
0.046273
0.001306
-0.098688
-0.069796
0.056797
0.095954
-0.069185
-0.037942
-0.014107
-0.107451
-0.177906
0.247166
-0.045588
0.058036
0.051452
-0.004479
0.140626
0.094938
-0.214969
-0.018146
-0.110268
-0.038216
0.028445
0.000876
0.030937
-0.061727
-0.043934
-0.141517
-0.210979
-0.035051
-0.011536
0.175033
0.038326
-0.270008
-0.068705
-0.055502
-0.058867
-0.007714
0.197105
-0.125652
0.202324
-0.001088
0.196615
0.040379
0.085460
-0.095574
0.096119
-0.030422
-0.028624
0.076098
-0.083756
-0.059597
-0.033167
0.026653
-0.067358
-0.044173
0.301392
0.024055
0.007864
0.069321
0.034210
0.001874
0.096689
-0.165407
0.034764
-0.053367
-0.063220
0.310521
-0.163631
0.143929
0.141953
-0.051828
0.057494
-0.105057
0.158742
-0.005919
0.124083
-0.077107
0.081663
0.024305
0.123641
0.038674
0.130044
0.221115
-0.177668
-0.062297
0.037020
0.060325
-0.002792
-0.024339
0.293548
-0.005333
-0.041532
-0.089395
0.041922
0.064195
0.239210
-0.011655
-0.121578
0.252002
-0.036291
0.060818
-0.037328
0.004491
0.103180
0.085800
0.184921
0.199124
0.097327
0.179051
0.060794
0.027162
-0.190005
-0.025083
0.132891
0.097875
0.025352
0.001842
-0.003438
-0.155408
-0.192360
0.026743
-0.005821
0.105106
0.040742
-0.086067
0.210757
-0.414300
0.007218
0.163251
0.084195
0.088125
0.061226
-0.110615
0.052053
0.080115
-0.526802
0.111220
0.026205
0.061223
0.043971
0.026423
-0.132043
0.033813
-0.138673
0.201660
-0.191000
-0.055740
-0.092691
0.091811
0.086583
0.109848
0.052906
0.008112
0.062022
0.092389
0.066019
-0.000784
-0.225093
0.068240
-0.203913
0.058877
0.188684
-0.367662
-0.039962
-0.061644
0.030543
0.078346
0.134973
0.034709
0.023748
-0.068765
0.043392
-0.055083
0.047008
0.050886
0.101612
0.043616
-0.071230
0.029072
-0.125541
0.199338
0.199155
0.117351
-0.048566
0.023600
-0.017348
0.081082
-0.246671
0.218745
0.014729
-0.010452
-0.061962
0.036821
-0.121419
0.042085
-0.029705
-0.208776
0.050132
0.130745
0.111580
0.005174
-0.094821
-0.205869
0.191704
-0.167695
-0.074076
0.000377
-0.079033
-0.016447
0.285145
0.045400
0.048777
0.088091
0.055499
-0.080426
0.144827
-0.024955
0.119037
-0.004453
0.099538
-0.054203
0.057010
0.084390
0.005975
0.086890
0.005641
-0.105085
-0.238247
0.124375
-0.066961
-0.021044
0.201164
-0.066762
-0.173177
-0.028212
0.010752
-0.146052
-0.098125
0.124168
0.151970
0.123614
0.026292
0.323042
0.010249
0.128154
0.153121
-0.008688
0.007640
0.162789
0.033855
0.031007
0.043422
-0.001950
0.150041
-0.045821
0.032734
0.089932
-0.015028
0.060700
0.036651
0.011501
0.136295
0.001989
-0.113407
-0.180759
-0.011504
-0.063972
0.080832
-0.078526
0.061889
0.259794
0.068338
-0.086874
0.002919
0.069136
0.019164
0.003360
-0.109174
-0.143952
0.138017
-0.034556
0.065037
0.254642
-0.196806
0.043280
-0.082276
0.160585
0.168458
0.086950
-0.064799
0.052664
0.062369
-0.279705
0.069304
0.012398
0.076063
-0.045262
-0.009569
-0.340376
0.248320
-0.191634
0.241642
0.258874
-0.062567
0.051561
0.035289
-0.042554
0.081598
0.279157
0.198943
0.257684
-0.008422
-0.186852
-0.046092
-0.097563
0.016628
0.260114
-0.186224
-0.187214
-0.003289
0.018945
-0.098225
0.199769
-0.072978
0.217856
-0.058746
-0.037163
0.015777
0.102967
0.037273
-0.005719
0.078428
0.175441
-0.073107
-0.072448
-0.068588
0.058520
0.010840
0.207567
0.037057
0.265002
-0.000400
-0.088939
0.058557
-0.032063
-0.205930
-0.083146
0.083451
0.121110
0.076638
0.118516
0.180845
-0.099218
-0.025386
-0.048002
0.119348
0.194374
0.288335
-0.042724
0.068109
-0.123744
0.012691
-0.244178
0.030134
0.100289
0.083106
-0.377654
0.056851
-0.047042
0.072803
-0.052484
-0.001917
-0.135859
-0.010861
0.055740
-0.140693
-0.435574
0.065262
-0.029319
0.227390
0.035961
0.035784
0.079255
0.218366
0.146949
0.112693
0.036833
0.005317
-0.076009
-0.053848
0.138877
-0.050466
0.148656
0.031111
-0.055522
-0.003823
-0.102855
-0.154760
0.400677
-0.398507
0.074094
-0.212669
-0.189104
-0.027410
-0.006946
0.010030
-0.048647
0.151335
-0.110742
0.004010
-0.007758
0.056787
0.060886
-0.051335
0.028779
-0.191076
0.094773
0.011984
-0.157533
-0.403647
0.056599
-0.223819
0.171391
0.040003
0.014149
-0.017051
-0.048712
0.064021
0.107525
0.058911
0.150756
-0.073866
-0.170408
-0.184283
0.141668
-0.094417
0.257492
0.204801
0.067874
0.004668
-0.092520
-0.040084
-0.611483
0.173376
-0.014344
-0.047542
0.024045
-0.038683
-0.003084
-0.070256
0.026918
0.088958
0.127315
0.035699
0.068702
0.048259
0.081258
0.138472
0.195611
-0.087680
0.065884
0.010420
-0.045885
-0.051155
0.077022
-0.117947
-0.387217
-0.004657
0.148234
-0.049452
-0.076351
0.042601
0.107122
0.025511
-0.103174
0.223083
-0.103823
-0.070592
0.012051
-0.135395
-0.090080
-0.071061
-0.067621
0.064963
-0.100483
-0.083157
-0.074734
0.023189
-0.015276
0.002106
-0.051231
-0.014101
0.024773
-0.120285
0.035933
-0.047039
0.010219
0.016001
-0.074575
0.035258
-0.022351
-0.017511
-0.037927
0.037102
-0.096303
-0.034357
-0.105063
-0.002914
0.037567
-0.049437
0.005322
-0.086142
-0.118366
-0.047854
0.029143
0.002870
-0.013475
-0.109543
0.017353
-0.132996
-0.006886
-0.061815
0.005330
-0.171844
-0.047600
-0.155121
-0.103424
0.031612
0.071504
-0.080591
-0.043845
-0.034726
0.040135
0.026108
0.045919
-0.012832
-0.039524
-0.048442
-0.059507
-0.022161
-0.100533
-0.025918
0.028536
-0.080388
0.070722
-0.000044
-0.033223
-0.076589
-0.101533
-0.123235
-0.036241
0.002784
-0.144163
-0.133409
0.035006
0.000580
0.015027
-0.028287
-0.109700
0.007380
0.027152
-0.111222
0.015809
-0.024028
-0.107858
0.025986
0.030898
0.086160
-0.046638
-0.057066
-0.080987
-0.047180
-0.007827
0.022902
-0.060216
-0.074073
0.000305
-0.040231
-0.092230
-0.078670
-0.084705
-0.105598
-0.070593
-0.105936
-0.064285
-0.103191
0.040946
-0.087044
-0.020437
-0.050793
-0.107206
-0.061454
-0.003823
0.038745
0.006055
-0.011375
0.028845
-0.009013
-0.207830
-0.156055
0.120089
-0.044601
0.074836
0.028801
0.026193
-0.039014
-0.236202
0.090883
-0.182583
0.034229
-0.211857
-0.026805
-0.161765
0.111152
0.019193
0.042003
-0.014947
0.140663
0.022420
0.003561
-0.023722
-0.192411
0.071645
-0.044555
0.081617
0.319470
-0.003538
0.060481
0.084837
-0.026842
0.048548
-0.049878
0.296610
0.082826
-0.192392
0.043917
0.023723
0.081307
0.066042
-0.299675
-0.076270
-0.000043
-0.109348
0.015450
0.024644
0.082485
0.016569
0.156343
0.091965
-0.015423
-0.072245
0.028139
0.187017
0.065954
-0.071664
0.121150
0.128713
-0.041587
-0.121324
-0.082060
0.131056
-0.187482
-0.173478
0.044496
0.108036
0.064524
-0.001997
-0.230589
0.010213
-0.011495
0.034082
0.107156
0.163024
-0.112312
0.228310
0.346131
0.038628
-0.036201
-0.071664
-0.073190
-0.071595
0.225724
-0.195432
0.079874
0.002595
0.047585
0.066324
0.046795
0.047145
0.005967
0.004647
-0.059770
-0.002622
0.029276
-0.043997
0.026279
0.129465
-0.257740
0.189779
0.039514
-0.006635
-0.002163
-0.008082
0.068312
0.071181
-0.037782
-0.082639
0.185238
-0.124195
-0.034165
-0.090821
0.113522
-0.077801
0.197232
-0.019546
-0.007379
0.084792
-0.149182
-0.052723
-0.042310
0.062398
0.083171
0.178463
0.050576
-0.285754
-0.148367
-0.026918
0.063811
-0.091019
0.162275
0.191780
-0.067426
0.058755
-0.457588
0.047554
-0.041469
0.003066
0.155414
-0.047082
0.001334
-0.031040
0.122317
0.035683
0.215086
0.192787
-0.189484
0.137553
0.208184
0.000891
0.071508
0.035171
-0.009167
-0.090794
-0.009613
-0.037229
-0.079562
0.069441
0.117110
0.289557
0.061508
-0.073975
0.077597
0.167870
0.107056
0.089360
-0.122542
-0.463544
0.155633
0.069769
-0.061972
-0.081566
-0.005045
0.080403
-0.217975
-0.075065
0.219616
-0.210244
0.071948
0.371395
-0.150683
0.064211
-0.115806
0.311053
-0.009578
0.046462
-0.006375
0.229571
0.040533
-0.272195
-0.103408
-0.047937
0.121980
0.147419
0.088978
-0.264798
0.115256
-0.159878
-0.185815
0.151597
0.136850
0.089630
0.012352
0.064997
0.132385
-0.289564
0.063700
-0.209881
-0.032069
-0.026673
0.046078
0.047169
0.028896
-0.222984
-0.035027
-0.033753
-0.009413
-0.000005
0.069450
-0.208241
-0.084870
-0.127299
-0.020952
-0.060459
-0.022408
-0.073898
0.119817
0.170908
-0.031665
0.097467
-0.046625
0.181723
-0.066822
-0.004068
-0.039080
0.010707
-0.246342
-0.064528
-0.279614
-0.204607
0.159555
0.261574
-0.034732
0.121472
-0.016510
-0.135466
-0.040399
-0.273982
0.000955
-0.202718
0.199763
0.040141
-0.077463
0.074197
-0.244585
0.085210
0.117704
0.211493
0.088182
0.060261
-0.259550
-0.049703
0.117587
0.005744
0.028771
0.293308
-0.059040
0.050797
-0.037181
-0.026413
0.011843
-0.149968
0.050946
0.050871
0.038287
-0.030360
-0.047038
0.033870
0.242284
-0.171547
-0.147544
0.081927
0.034723
0.240160
-0.073238
0.031111
-0.074112
-0.147287
0.024558
0.012536
0.083023
-0.098998
0.095413
0.136203
0.143259
0.034850
0.303701
-0.067846
0.176546
-0.027314
0.204244
0.167802
-0.185181
0.053016
-0.064885
-0.012369
0.017702
0.074205
-0.313208
-0.187488
-0.513814
-0.273896
-0.024508
0.137269
0.162878
-0.288935
0.194899
-0.010259
-0.092943
-0.029077
-0.238016
-0.068916
0.017326
0.122942
0.008113
-0.002235
-0.053902
0.002887
-0.086013
-0.029069
-0.027611
0.037376
0.023107
-0.121081
0.065059
0.052490
-0.294861
0.245548
-0.317030
-0.016925
-0.098332
0.107114
0.116541
0.053090
0.025877
-0.084772
0.269081
0.165026
-0.027264
0.031487
-0.017345
0.219277
-0.121701
-0.015582
0.076123
-0.020037
0.073772
0.017437
-0.211557
0.058096
0.128467
0.141249
0.053705
-0.159177
-0.041396
0.072593
-0.207867
-0.107986
0.038509
-0.309605
-0.113113
0.057760
0.077477
-0.245194
0.023757
-0.001078
0.155137
-0.106877
-0.049766
-0.031710
-0.010291
0.017512
-0.001202
0.061155
0.086962
-0.267320
0.438822
-0.087846
0.094556
0.008023
0.045846
0.276483
0.002967
-0.215479
0.064110
-0.218028
0.026753
0.054463
-0.142886
0.213651
0.131361
0.066581
0.152269
0.097615
-0.230845
-0.041287
-0.105368
0.059417
-0.028925
0.107353
-0.053279
0.016374
-0.001722
0.249294
-0.161064
0.055710
0.280158
-0.038644
-0.283867
-0.172477
0.162466
-0.070520
-0.037083
0.096000
0.030520
0.016499
0.069507
-0.031494
0.434724
0.065291
0.249061
-0.059792
0.040772
0.100075
0.044144
0.095093
0.215935
0.187553
-0.034550
0.149617
0.062158
0.107406
-0.005350
-0.074724
-0.241153
0.016010
0.028957
-0.183528
0.044090
0.078152
0.212778
0.068292
0.085458
0.177696
-0.005884
0.075781
0.291744
-0.241623
-0.051870
0.167596
-0.133795
0.099816
-0.089419
0.005473
0.155339
0.062104
0.036096
-0.032752
-0.042351
-0.074214
-0.046762
0.162142
-0.268909
0.051367
0.094364
-0.080046
0.303184
0.066737
-0.220153
0.134962
0.175808
0.104853
0.001496
-0.028348
0.049654
-0.045822
-0.078702
0.143398
-0.013364
-0.418252
0.233085
-0.021986
-0.006474
0.303686
-0.200052
0.077127
0.038995
0.160491
0.065052
-0.056942
-0.253851
0.030010
0.182083
-0.076560
0.366723
0.264408
-0.014545
0.143716
0.193148
0.083908
0.070671
-0.174022
0.084391
-0.098869
-0.077325
0.000331
0.009477
-0.081158
0.271280
0.131802
-0.058444
-0.074142
-0.336185
0.260374
0.225271
-0.052607
0.192969
-0.138927
0.116177
0.004743
-0.080171
-0.097824
0.092183
0.368569
0.002156
-0.013900
0.022958
0.119728
0.107055
0.085530
-0.104297
-0.201538
-0.188861
0.159354
0.068763
0.097561
0.074594
0.121912
-0.051461
-0.110880
-0.168496
-0.176968
-0.006911
0.549101
0.245659
-0.265168
0.231035
0.054200
-0.102075
0.029548
0.064343
0.040927
0.070835
-0.095427
-0.007041
-0.403993
-0.001191
0.014878
0.053590
-0.071331
-0.023725
-0.052556
0.069495
-0.546098
-0.047675
-0.027639
-0.110267
0.167031
-0.313201
-0.064821
-0.148230
-0.222055
0.067311
-0.094263
0.005029
0.034845
0.142548
0.092532
0.160120
-0.207125
-0.002807
0.129112
-0.395230
-0.035463
0.155829
-0.000837
0.208923
-0.167361
-0.003075
0.269211
-0.242655
0.074583
0.051571
0.168092
0.028992
0.077871
0.205250
0.029464
0.011900
0.092992
0.146171
0.023612
-0.048030
-0.054301
0.160200
-0.022414
-0.019545
-0.172217
-0.030033
-0.044579
0.073195
-0.066373
0.279426
-0.030309
-0.327905
-0.054809
0.135024
0.016781
0.181868
0.009390
-0.009012
0.040922
0.050046
0.032452
0.029290
-0.077942
-0.008282
0.077290
0.061276
0.206072
-0.013667
0.007894
-0.081052
-0.208096
0.113480
0.052569
0.003713
0.118126
0.102129
0.110723
-0.070251
0.054929
0.070580
0.072489
0.108266
0.000694
-0.178157
0.004552
-0.000456
-0.194940
0.000124
-0.124847
-0.039983
-0.151858
-0.039095
0.064370
-0.063333
0.021364
0.167036
0.236349
0.195396
0.152645
-0.228958
-0.061381
-0.226327
0.171911
-0.156750
-0.088760
0.069097
0.184840
-0.059172
0.041123
0.221838
-0.020276
-0.060240
-0.019357
-0.059153
0.183979
-0.061821
0.058172
0.304504
-0.006669
0.074514
0.161067
-0.007836
-0.080198
-0.117225
0.118826
-0.039719
0.165503
-0.147680
-0.049454
-0.190032
-0.042297
-0.155331
0.063209
-0.304461
-0.157856
0.036137
-0.088529
0.054439
-0.029601
0.257329
0.016468
0.125202
0.029153
0.131623
-0.090166
0.108775
-0.037095
-0.296017
0.047661
0.084238
0.177030
-0.058797
-0.090314
0.268412
0.039690
-0.022428
-0.045469
0.023300
0.141061
-0.028584
-0.041292
-0.033197
0.012753
-0.074845
0.186808
0.202827
-0.036475
0.042739
-0.073479
0.196726
0.011188
0.056598
0.106092
-0.325087
0.063769
-0.350703
-0.085765
0.008143
-0.059317
0.000407
0.026186
0.062261
0.060205
0.084941
0.032544
0.150250
0.286663
0.071281
0.048003
0.183365
0.105650
-0.002669
-0.058268
-0.073336
-0.125911
0.080322
0.102291
0.047307
-0.086254
-0.076700
-0.092222
-0.001520
0.025571
-0.085587
0.018362
-0.166341
-0.058084
0.014833
-0.021396
-0.000582
-0.136459
-0.085686
-0.041432
-0.031707
0.159007
-0.447772
-0.057413
0.017624
0.060327
0.003648
0.016042
-0.131268
0.054129
-0.345512
-0.103106
0.138395
0.141708
-0.220721
-0.077172
-0.045369
0.169865
0.093254
-0.018380
0.073814
0.088901
-0.027874
0.045172
0.004119
-0.067258
-0.005422
-0.096314
0.073294
-0.005079
-0.137332
-0.014110
0.123551
0.009349
-0.016926
-0.017622
0.034331
0.016558
-0.092421
-0.017651
-0.129517
0.042899
-0.075116
0.144562
0.038573
0.134762
0.111880
0.000147
0.042158
0.013984
-0.085764
0.288503
0.023191
-0.013705
0.272255
0.131548
0.049264
-0.114933
0.010610
0.072941
-0.153411
-0.102603
0.062641
-0.245946
-0.059688
0.163602
-0.025547
0.128870
-0.134033
0.066549
0.154780
0.122804
-0.067253
0.088735
-0.172232
-0.080551
-0.047453
0.055841
0.061796
0.077398
-0.023101
0.221501
0.039203
0.003492
-0.007944
0.071098
0.089511
0.119770
-0.063680
-0.056771
-0.001183
-0.019873
0.052489
-0.264201
-0.258570
-0.045694
-0.127197
-0.042581
-0.119059
-0.073738
0.029834
-0.067721
-0.012404
-0.043568
-0.010059
0.110143
0.002202
0.054304
0.103908
0.079933
0.105374
-0.141887
0.235026
0.213956
0.051220
0.059032
-0.028986
-0.019566
0.061360
0.050012
-0.006981
-0.080452
-0.065435
-0.102638
0.002777
-0.035278
0.122363
-0.073380
0.249382
-0.031281
0.123232
-0.085718
0.048533
-0.070766
0.051929
-0.010740
0.057680
-0.032142
0.088173
0.144433
0.029634
-0.189628
-0.031376
0.051524
-0.289082
0.078070
-0.040701
-0.111311
0.002843
0.038184
-0.021026
0.149824
-0.229725
-0.027285
-0.014873
0.019305
0.143055
0.052676
0.240653
-0.085862
0.236528
0.388385
0.230630
-0.165286
0.016684
0.117189
-0.221960
0.073176
0.049680
-0.031446
0.040085
0.058566
0.189848
0.137196
0.043329
0.191082
0.109187
0.082514
-0.084580
0.170644
-0.169179
-0.080968
0.079788
0.086542
0.085583
-0.177072
-0.097232
-0.012447
-0.151670
-0.018744
0.016402
-0.007724
-0.030988
-0.019341
0.001773
0.051624
-0.223348
0.095882
-0.009735
0.063401
0.149960
0.080943
0.228534
0.051460
0.014098
0.042537
-0.023136
0.110692
-0.003727
0.022007
-0.073868
0.024080
-0.050710
-0.059713
-0.319809
-0.047845
0.033908
0.145039
0.112979
0.058477
-0.059644
-0.043091
0.261992
-0.082196
-0.045601
-0.100147
-0.090727
-0.019193
0.311916
-0.078657
-0.323936
0.034562
-0.027204
-0.033967
0.070181
-0.247453
-0.413936
0.129147
0.022821
0.036401
0.054319
-0.066014
-0.430238
0.161075
-0.073167
0.022280
0.098757
-0.036099
0.093263
0.125591
0.159231
-0.140952
-0.067900
-0.395763
-0.080557
-0.053114
0.065802
-0.166447
0.169222
0.103880
0.056189
-0.089333
-0.027438
0.053413
-0.223873
-0.078457
-0.044017
0.257359
-0.072398
-0.056731
-0.059336
0.136400
-0.118701
0.206438
0.062032
-0.091695
0.115231
-0.035596
-0.101968
0.009525
-0.054938
-0.072373
0.064045
-0.112168
0.000554
0.037749
0.032942
-0.065391
0.029980
-0.100075
0.144470
-0.153959
0.032974
0.386668
-0.159820
0.123481
0.071225
0.072013
0.054907
0.141622
0.074619
0.125839
-0.052270
0.366661
0.070320
-0.418888
-0.032503
-0.045580
0.090357
-0.088567
0.140774
0.007141
0.025475
0.094210
0.162221
-0.042792
-0.021355
-0.063720
0.050347
-0.284890
0.378405
0.022690
0.237242
-0.004102
-0.007809
-0.040034
0.033184
0.029051
0.086372
0.010453
0.087875
0.041004
-0.034968
-0.048027
0.040599
0.005155
0.181323
0.069118
0.074262
0.034926
0.065541
-0.117005
0.069812
0.086737
0.012339
0.066330
-0.064469
-0.067966
-0.171742
-0.112184
-0.384590
0.074422
0.142871
-0.262141
-0.055350
-0.098387
-0.384470
-0.183516
0.050452
-0.038558
0.015746
0.131741
0.174410
-0.021180
0.124873
0.126042
-0.020398
-0.302156
0.040592
0.102678
-0.077835
0.074899
0.075295
-0.093599
-0.008567
-0.074763
0.183849
-0.044323
-0.047912
0.007435
-0.045233
0.000568
-0.033584
-0.049810
-0.089936
-0.025902
0.025455
0.107281
-0.075231
-0.073794
-0.021465
0.078441
0.145892
0.070948
0.119270
-0.108645
-0.015323
0.096936
-0.099615
-0.076403
0.073036
-0.080392
0.077723
-0.090628
0.046283
-0.094158
0.245055
-0.050777
0.188610
-0.069784
0.200281
-0.088961
-0.156968
-0.067441
-0.200009
0.134039
-0.033451
0.132353
-0.000137
-0.023815
-0.124254
-0.008835
-0.001740
0.253197
0.080668
0.047610
-0.037064
-0.197863
-0.135880
-0.058201
0.015847
0.075024
0.127814
0.048936
-0.034211
-0.063559
0.150308
-0.037858
0.009077
0.227484
-0.239876
0.203298
-0.105785
0.091321
-0.072790
0.045247
0.001695
-0.177043
0.070292
-0.100816
0.014939
0.076758
-0.020981
0.374692
0.262504
-0.014540
0.146376
-0.001334
0.007380
0.113033
-0.304832
-0.256055
0.049537
0.097182
0.086108
0.042458
0.024574
0.066396
-0.469206
-0.093940
0.265709
-0.083259
-0.006053
0.221949
-0.141122
0.142864
0.024268
0.021458
-0.004188
-0.102385
-0.073242
0.254552
-0.011780
-0.381607
0.137817
-0.018540
0.070432
0.197669
0.024348
-0.206649
-0.063816
-0.407575
0.180125
0.127213
0.436007
0.056010
-0.313996
0.071227
0.052024
-0.204483
-0.063998
-0.005932
0.033765
0.053290
0.215778
0.002034
0.074741
-0.199465
-0.070339
-0.037973
0.032296
0.063903
0.369314
-0.096452
0.025121
-0.216003
0.095972
-0.036329
0.061547
0.080404
0.046937
0.155327
0.019844
0.023463
0.044847
-0.142998
0.073070
0.022037
-0.127004
0.025041
-0.259598
-0.053376
-0.097023
-0.006679
-0.097515
-0.005477
-0.083794
-0.091121
0.006152
-0.095052
-0.113420
0.028296
-0.071262
-0.010059
-0.044382
-0.027831
0.030403
-0.093712
-0.041556
0.006111
-0.099000
-0.096233
-0.085147
-0.079638
-0.005139
-0.066716
-0.031791
-0.059650
-0.052943
0.004445
-0.000780
0.070853
-0.114177
-0.026786
0.075475
-0.007582
0.001109
-0.107417
-0.035608
-0.069475
-0.047920
-0.053197
-0.058753
0.017269
-0.116859
-0.025930
-0.084359
-0.108160
-0.129972
-0.017080
-0.096242
-0.059602
-0.053287
-0.073457
-0.082277
0.021099
0.050659
-0.030789
-0.021808
0.063504
-0.061638
0.014018
0.030554
-0.019885
0.082041
0.097060
-0.062701
0.013787
-0.069701
-0.078442
-0.003433
0.045145
0.059729
0.005313
0.017803
-0.066749
-0.104238
-0.012119
-0.121163
-0.064348
-0.039093
-0.025720
-0.107393
-0.045001
-0.065583
0.047991
-0.133753
-0.066978
-0.046284
-0.092025
-0.088500
-0.003992
0.054473
0.061306
-0.059943
-0.033388
-0.066279
0.030407
0.004574
0.042275
0.007267
-0.137966
-0.049564
0.037298
-0.059171
-0.008168
-0.095446
0.022165
-0.108819
-0.077865
0.028396
-0.126191
0.027398
-0.063361
0.076118
0.010174
-0.036377
0.052389
-0.118489
-0.004424
0.013700
0.076002
-0.035998
-0.068768
0.127203
0.167993
-0.053127
-0.012814
0.015101
0.126179
-0.142839
0.009730
-0.076070
-0.234823
0.064005
0.127128
-0.003473
0.173276
-0.051733
-0.093513
0.148232
-0.052935
-0.041549
-0.002561
0.098315
0.091736
0.232718
0.031651
0.140225
-0.179024
0.098989
-0.029737
-0.144482
-0.005091
0.043488
0.010858
-0.085413
0.035884
0.036198
0.102307
-0.061273
0.052480
0.284842
-0.013788
-0.022606
-0.012640
0.020709
0.307216
-0.086008
-0.079618
-0.071025
0.076401
0.088431
-0.071581
-0.050561
0.031062
-0.024932
-0.095167
-0.118295
0.013962
-0.101340
-0.049828
-0.126760
-0.043901
0.041582
-0.325077
0.012533
0.250536
-0.065067
-0.010447
-0.060877
0.047254
0.011123
0.173919
0.045362
0.189718
0.007834
-0.182325
-0.045511
-0.036097
-0.157467
0.107376
0.009844
-0.036736
0.039266
0.034442
-0.048098
0.334794
0.096447
0.090699
-0.014380
-0.101442
-0.002772
0.107605
0.083036
-0.113672
0.002623
0.198994
0.057336
-0.068038
0.252879
-0.021047
-0.323035
0.159008
-0.015928
0.270079
-0.015637
-0.068591
-0.109893
0.046099
0.146187
-0.052016
0.167150
0.042482
0.086928
0.035041
-0.131572
-0.084675
-0.018717
-0.020539
-0.000284
0.164239
0.062415
0.014058
0.213333
0.075866
0.082137
-0.213038
-0.057950
0.188015
-0.121247
-0.037449
-0.031187
-0.031346
0.105625
-0.162245
0.000839
0.133341
-0.275019
0.013387
0.026194
-0.174648
0.100296
0.068001
0.076943
-0.017987
-0.199527
0.014458
0.113999
0.054008
0.087990
0.150524
0.210875
-0.032587
-0.052305
-0.067849
0.088927
0.172658
-0.092264
0.048214
-0.089545
-0.032130
0.140566
0.088478
-0.250093
0.001226
-0.199689
0.034816
0.082830
-0.014308
-0.018272
0.053593
0.253241
0.058078
-0.022768
-0.061238
0.073467
0.081573
0.151665
-0.092661
-0.322548
-0.059828
-0.032604
0.269310
-0.139441
0.097546
-0.109889
0.236109
0.039653
0.015355
0.047911
-0.230259
-0.041069
0.149434
-0.121083
0.175246
0.026368
0.047046
0.105053
0.066164
0.220382
0.039505
-0.088173
-0.159675
0.140131
-0.011486
-0.037604
-0.074015
0.131832
0.000525
0.017593
0.022737
-0.070465
0.042048
0.044691
-0.015488
-0.036522
-0.069996
-0.083283
-0.010729
0.113126
0.082038
-0.100535
-0.024589
0.081419
-0.077499
0.040969
-0.058441
0.025410
-0.087527
0.000321
-0.136368
-0.010377
-0.298363
0.014872
-0.068418
-0.047970
0.065856
-0.075205
-0.057228
0.309492
-0.282308
-0.125147
0.121962
0.006378
0.027478
0.043668
0.068978
-0.073740
-0.015679
0.093492
0.002905
0.013596
-0.127206
-0.012330
-0.024537
0.038810
-0.127099
0.053085
0.049064
-0.060132
0.066183
-0.067364
0.026077
0.089481
0.085385
-0.078495
0.041911
-0.163310
0.090541
-0.042346
-0.200711
0.004924
0.018217
-0.027705
-0.092072
-0.043848
0.174364
-0.079163
-0.124054
-0.071565
-0.048249
-0.298706
-0.030361
0.034846
0.015974
0.023241
-0.135904
0.110537
-0.076734
0.083852
0.028212
-0.016389
0.041952
-0.031996
-0.044638
-0.067847
0.177245
0.163074
-0.031980
-0.177553
-0.110247
0.150311
-0.170259
-0.221848
0.212785
0.152975
-0.095614
-0.012071
0.078610
-0.074706
-0.120091
-0.198137
0.132953
-0.233535
0.021477
-0.209895
-0.051367
-0.241398
0.152311
-0.079529
0.025270
0.113956
0.137071
0.124721
-0.056116
-0.043818
-0.078392
-0.031999
0.033089
-0.005444
0.211668
0.039114
0.034768
0.154878
-0.061188
-0.007563
0.025588
-0.006500
0.062912
-0.276559
0.011345
-0.022371
0.016887
-0.042015
-0.100120
0.011670
0.038150
-0.180853
-0.087359
-0.344758
-0.254496
-0.223463
-0.146139
0.048059
0.072759
0.212860
-0.003500
0.166228
-0.061912
0.099463
0.135954
-0.229105
0.226539
-0.037784
0.073962
0.115205
0.059371
-0.061860
-0.347960
-0.187537
0.015751
0.041034
-0.089964
-0.020540
0.185236
-0.012852
-0.017880
-0.098848
-0.034893
-0.133212
-0.046238
0.089443
0.034559
0.055431
0.005425
0.326850
0.134307
0.143284
0.085654
-0.194647
-0.066830
0.143708
-0.017011
-0.037797
0.136786
-0.004823
-0.133073
0.040819
0.001575
0.020370
-0.001047
0.120399
0.352904
0.045433
0.086588
-0.098609
0.230585
-0.021130
-0.045300
-0.164594
-0.134567
-0.066707
-0.028856
-0.024249
0.060886
-0.065342
0.102257
-0.167026
0.053053
0.300401
-0.370831
-0.119053
0.156735
0.033799
-0.055661
0.092602
0.264556
-0.071031
0.029754
0.029722
0.238778
0.351292
0.013020
0.074736
-0.051716
-0.146505
0.369551
-0.148280
0.132755
0.150756
0.002920
-0.247692
0.235485
-0.080897
-0.053631
0.027876
0.093822
0.000896
-0.035621
-0.071459
-0.303974
0.008980
-0.044356
0.250093
-0.062766
-0.062824
-0.061033
-0.054561
-0.004550
-0.012137
-0.133629
0.033827
-0.093358
-0.187515
0.060080
-0.219484
0.084160
0.120919
0.085615
0.050557
-0.059036
0.024212
0.093138
0.051174
0.134692
-0.145805
-0.021662
-0.371085
0.003217
-0.014430
-0.269334
-0.121067
0.189594
-0.053266
0.089839
-0.045512
0.107770
-0.015414
0.085951
0.213930
0.082746
-0.024018
-0.153347
-0.066863
0.058782
-0.000744
-0.038561
0.213830
0.059481
0.103664
-0.118133
-0.246096
-0.004637
0.079401
-0.001953
0.043222
-0.057395
-0.149333
0.021696
0.188960
-0.345131
-0.019499
0.066394
-0.053481
0.126788
-0.042289
-0.083077
0.024496
-0.080735
0.071610
-0.066221
-0.070077
-0.233849
0.151799
-0.009791
-0.041938
0.175396
0.033990
0.033887
0.113339
0.044040
-0.057277
-0.052499
-0.004878
0.020028
-0.025003
0.042317
-0.108816
-0.007796
-0.207052
0.052721
-0.023827
-0.049887
-0.000432
-0.289856
-0.078051
-0.125757
-0.080774
0.086593
0.010032
0.085899
0.330634
0.101960
0.124084
0.004179
-0.322471
0.027733
-0.292141
0.216979
-0.143966
0.119998
0.078034
0.211517
-0.103417
-0.034284
0.027767
0.056756
-0.124689
0.072425
-0.086953
0.155894
-0.088888
-0.057578
0.228474
0.056592
0.001514
0.023408
-0.043602
0.019083
0.027156
-0.444990
-0.226389
0.133615
-0.215561
-0.127965
-0.358130
0.005148
-0.282088
-0.007638
-0.008645
-0.519559
-0.149923
-0.006847
-0.004912
-0.137924
-0.013812
-0.061105
0.150414
0.017044
0.134691
-0.069080
0.036271
-0.021456
-0.088477
-0.036191
-0.090363
-0.019198
0.029504
-0.076922
-0.078109
-0.026620
0.078961
0.004260
-0.068729
-0.021474
0.070507
-0.092533
0.006393
-0.079555
-0.084078
-0.001678
-0.094715
0.023029
-0.005701
0.008638
-0.043787
-0.011045
-0.094533
0.000261
0.043855
-0.033341
-0.074997
-0.089452
-0.088403
-0.074025
0.031698
-0.039280
-0.039446
-0.099191
0.064515
-0.066086
-0.097254
-0.032200
-0.035568
-0.078201
0.003040
0.032414
-0.041283
0.003984
-0.063560
-0.018336
0.048891
0.011361
0.083682
-0.054802
-0.008848
-0.052551
0.018421
0.070693
0.008610
-0.006083
-0.103943
-0.083998
-0.042192
-0.058971
-0.053651
-0.077289
0.070006
0.033111
0.039692
0.027573
0.012965
-0.104977
0.024627
-0.105931
-0.126907
-0.071688
0.007675
0.053124
-0.049605
-0.018811
-0.029603
-0.030827
-0.040055
0.067312
-0.053918
-0.021408
0.006690
-0.082889
-0.030668
-0.067170
-0.064077
0.017625
-0.070092
0.071519
0.011685
-0.085645
0.044497
0.084090
-0.069404
-0.110808
0.027795
-0.077586
0.008195
0.039707
0.006902
-0.023004
0.040054
0.041766
0.029131
-0.042766
0.057533
0.013804
0.012171
0.004427
-0.107838
0.027735
0.053778
-0.029612
-0.007398
0.275235
0.120588
-0.137227
0.110012
0.003825
-0.045744
-0.387926
0.077162
-0.012417
0.214973
-0.160105
0.001184
-0.132328
-0.098106
0.145483
-0.017410
-0.102135
-0.044099
0.021915
-0.062356
-0.407044
0.061888
0.049247
-0.031262
-0.004945
-0.125525
-0.027974
0.302870
0.055028
0.208109
-0.043172
0.061239
0.044605
-0.031931
-0.069805
0.026276
0.184809
-0.004906
0.070336
0.001871
0.082662
0.155049
0.126335
-0.527318
0.022503
-0.133877
-0.068972
0.203935
-0.019008
0.121202
-0.262768
0.120111
-0.010903
0.025803
0.044365
-0.082960
0.221133
-0.310538
0.044013
0.143217
0.029190
0.126690
-0.107131
-0.037855
-0.155015
-0.384185
-0.079909
0.056169
-0.075367
-0.001534
0.109171
0.034788
-0.162217
0.152189
0.000023
0.116583
-0.176756
-0.003670
0.006202
0.069264
0.134119
0.075136
0.158104
0.355446
-0.050842
0.222500
-0.550108
-0.025635
-0.191869
-0.037263
-0.096334
-0.043599
-0.056450
-0.451528
0.051103
-0.006175
-0.038354
0.030379
0.057203
0.434220
0.052746
0.131959
0.106600
-0.021064
-0.052474
0.148733
-0.012366
-0.018744
0.038658
0.336408
0.066811
0.176982
-0.110614
-0.106795
-0.257810
0.026195
0.021808
0.248219
-0.094367
0.032660
